	m0.000	m1.000	m2.000	m3.000	m4.000	m5.000	m6.000	m7.000	m8.000	m9.000	m10.000	m11.000	m12.000	m13.000	m14.000	m15.000	m16.000	m17.000	m18.000	m19.000	m20.000	m21.000	m22.000	m23.000	m24.000	m25.000	m26.000	m27.000	m28.000	m29.000	m30.000	m31.000	m32.000	m33.000	m34.000	m35.000	m36.000	m37.000	m38.000	m39.000	m40.000	m41.000	m42.000	m43.000	m44.000	m45.000	m46.000	m47.000	m48.000	m49.000	m50.000	m51.000	m52.000	m53.000	m54.000	m55.000	m56.000	m57.000	m58.000	m59.000	m60.000	m61.000	m62.000	m63.000	m64.000	m65.000	m66.000	m67.000	m68.000	m69.000	m70.000	m71.000	m72.000	m73.000	m74.000	m75.000	m76.000	m77.000	m78.000	m79.000	m80.000	m81.000	m82.000	m83.000	m84.000	m85.000	m86.000	m87.000	m88.000	m89.000	m90.000	m91.000	m92.000	m93.000	m94.000	m95.000	m96.000	m97.000	m98.000	m99.000	m100.000	m101.000	m102.000	m103.000	m104.000	m105.000	m106.000	m107.000	m108.000	m109.000	m110.000	m111.000	m112.000	m113.000	m114.000	m115.000	m116.000	m117.000	m118.000	m119.000	m120.000	m121.000	m122.000	m123.000	m124.000	m125.000	m126.000	m127.000	m128.000	m129.000	m130.000	m131.000	m132.000	m133.000	m134.000	m135.000	m136.000	m137.000	m138.000	m139.000	m140.000	m141.000	m142.000	m143.000	m144.000	m145.000	m146.000	m147.000	m148.000	m149.000	m150.000	m151.000	m152.000	m153.000	m154.000	m155.000	m156.000	m157.000	m158.000	m159.000	m160.000	m161.000	m162.000	m163.000	m164.000	m165.000	m166.000	m167.000	m168.000	m169.000	m170.000	m171.000	m172.000	m173.000	m174.000	m175.000	m176.000	m177.000	m178.000	m179.000	m180.000	m181.000	m182.000	m183.000	m184.000	m185.000	m186.000	m187.000	m188.000	m189.000	m190.000	m191.000	m192.000	m193.000	m194.000	m195.000	m196.000	m197.000	m198.000	m199.000	m200.000	m201.000	m202.000	m203.000	m204.000	m205.000	m206.000	m207.000	m208.000	m209.000	m210.000	m211.000	m212.000	m213.000	m214.000	m215.000	m216.000	m217.000	m218.000	m219.000	m220.000	m221.000	m222.000	m223.000	m224.000	m225.000	m226.000	m227.000	m228.000	m229.000	m230.000	m231.000	m232.000	m233.000	m234.000	m235.000	m236.000	m237.000	m238.000	m239.000	m240.000	m241.000	m242.000	m243.000	m244.000	m245.000	m246.000	m247.000	m248.000	m249.000	m250.000	m251.000	m252.000	m253.000	m254.000	m255.000	m256.000	m257.000	m258.000	m259.000	m260.000	m261.000	m262.000	m263.000	m264.000	m265.000	m266.000	m267.000	m268.000	m269.000	m270.000	m271.000	m272.000	m273.000	m274.000	m275.000	m276.000	m277.000	m278.000	m279.000	m280.000	m281.000	m282.000	m283.000	m284.000	m285.000	m286.000	m287.000	m288.000	m289.000	m290.000	m291.000	m292.000	m293.000	m294.000	m295.000	m296.000	m297.000	m298.000	m299.000	m300.000	m301.000	m302.000	m303.000	m304.000	m305.000	m306.000	m307.000	m308.000	m309.000	m310.000	m311.000	m312.000	m313.000	m314.000	m315.000	m316.000	m317.000	m318.000	m319.000	m320.000	m321.000	m322.000	m323.000	m324.000	m325.000	m326.000	m327.000	m328.000	m329.000	m330.000	m331.000	m332.000	m333.000	m334.000	m335.000	m336.000	m337.000	m338.000	m339.000	m340.000	m341.000	m342.000	m343.000	m344.000	m345.000	m346.000	m347.000	m348.000	m349.000	m350.000	m351.000	m352.000	m353.000	m354.000	m355.000	m356.000	m357.000	m358.000	m359.000	m360.000	m361.000	m362.000	m363.000	m364.000	m365.000	m366.000	m367.000	m368.000	m369.000	m370.000	m371.000	m372.000	m373.000	m374.000	m375.000	m376.000	m377.000	m378.000	m379.000	m380.000	m381.000	m382.000	m383.000	m384.000	m385.000	m386.000	m387.000	m388.000	m389.000	m390.000	m391.000	m392.000	m393.000	m394.000	m395.000	m396.000	m397.000	m398.000	m399.000	m400.000	m401.000	m402.000	m403.000	m404.000	m405.000	m406.000	m407.000	m408.000	m409.000	m410.000	m411.000	m412.000	m413.000	m414.000	m415.000	m416.000	m417.000	m418.000	m419.000	m420.000	m421.000	m422.000	m423.000	m424.000	m425.000	m426.000	m427.000	m428.000	m429.000	m430.000	m431.000	m432.000	m433.000	m434.000	m435.000	m436.000	m437.000	m438.000	m439.000	m440.000	m441.000	m442.000	m443.000	m444.000	m445.000	m446.000	m447.000	m448.000	m449.000	m450.000	m451.000	m452.000	m453.000	m454.000	m455.000	m456.000	m457.000	m458.000	m459.000	m460.000	m461.000	m462.000	m463.000	m464.000	m465.000	m466.000	m467.000	m468.000	m469.000	m470.000	m471.000	m472.000	m473.000	m474.000	m475.000	m476.000	m477.000	m478.000	m479.000	m480.000	m481.000	m482.000	m483.000	m484.000	m485.000	m486.000	m487.000	m488.000	m489.000	m490.000	m491.000	m492.000	m493.000	m494.000	m495.000	m496.000	m497.000	m498.000	m499.000	m500.000	m501.000	m502.000	m503.000	m504.000	m505.000	m506.000	m507.000	m508.000	m509.000	m510.000	m511.000	m512.000	m513.000	m514.000	m515.000	m516.000	m517.000	m518.000	m519.000	m520.000	m521.000	m522.000	m523.000	m524.000	m525.000	m526.000	m527.000	m528.000	m529.000	m530.000	m531.000	m532.000	m533.000	m534.000	m535.000	m536.000	m537.000	m538.000	m539.000	m540.000	m541.000	m542.000	m543.000	m544.000	m545.000	m546.000	m547.000	m548.000	m549.000	m550.000	m551.000	m552.000	m553.000	m554.000	m555.000	m556.000	m557.000	m558.000	m559.000	m560.000	m561.000	m562.000	m563.000	m564.000	m565.000	m566.000	m567.000	m568.000	m569.000	m570.000	m571.000	m572.000	m573.000	m574.000	m575.000	m576.000	m577.000	m578.000	m579.000	m580.000	m581.000	m582.000	m583.000	m584.000	m585.000	m586.000	m587.000	m588.000	m589.000	m590.000	m591.000	m592.000	m593.000	m594.000	m595.000	m596.000	m597.000	m598.000	m599.000	m600.000	m601.000	m602.000	m603.000	m604.000	m605.000	m606.000	m607.000	m608.000	m609.000	m610.000	m611.000	m612.000	m613.000	m614.000	m615.000	m616.000	m617.000	m618.000	m619.000	m620.000	m621.000	m622.000	m623.000	m624.000	m625.000	m626.000	m627.000	m628.000	m629.000	m630.000	m631.000	m632.000	m633.000	m634.000	m635.000	m636.000	m637.000	m638.000	m639.000	m640.000	m641.000	m642.000	m643.000	m644.000	m645.000	m646.000	m647.000	m648.000	m649.000	m650.000	m651.000	m652.000	m653.000	m654.000	m655.000	m656.000	m657.000	m658.000	m659.000	m660.000	m661.000	m662.000	m663.000	m664.000	m665.000	m666.000	m667.000	m668.000	m669.000	m670.000	m671.000	m672.000	m673.000	m674.000	m675.000	m676.000	m677.000	m678.000	m679.000	m680.000	m681.000	m682.000	m683.000	m684.000	m685.000	m686.000	m687.000	m688.000	m689.000	m690.000	m691.000	m692.000	m693.000	m694.000	m695.000	m696.000	m697.000	m698.000	m699.000	m700.000	m701.000	m702.000	m703.000	m704.000	m705.000	m706.000	m707.000	m708.000	m709.000	m710.000	m711.000	m712.000	m713.000	m714.000	m715.000	m716.000	m717.000	m718.000	m719.000	m720.000	m721.000	m722.000	m723.000	m724.000	m725.000	m726.000	m727.000	m728.000	m729.000	m730.000	m731.000	m732.000	m733.000	m734.000	m735.000	m736.000	m737.000	m738.000	m739.000	m740.000	m741.000	m742.000	m743.000	m744.000	m745.000	m746.000	m747.000	m748.000	m749.000	m750.000	m751.000	m752.000	m753.000	m754.000	m755.000	m756.000	m757.000	m758.000	m759.000	m760.000	m761.000	m762.000	m763.000	m764.000	m765.000	m766.000	m767.000	m768.000	m769.000	m770.000	m771.000	m772.000	m773.000	m774.000	m775.000	m776.000	m777.000	m778.000	m779.000	m780.000	m781.000	m782.000	m783.000	m784.000	m785.000	m786.000	m787.000	m788.000	m789.000	m790.000	m791.000	m792.000	m793.000	m794.000	m795.000	m796.000	m797.000	m798.000	m799.000	m800.000	m801.000	m802.000	m803.000	m804.000	m805.000	m806.000	m807.000	m808.000	m809.000	m810.000	m811.000	m812.000	m813.000	m814.000	m815.000	m816.000	m817.000	m818.000	m819.000	m820.000	m821.000	m822.000	m823.000	m824.000	m825.000	m826.000	m827.000	m828.000	m829.000	m830.000	m831.000	m832.000	m833.000	m834.000	m835.000	m836.000	m837.000	m838.000	m839.000	m840.000	m841.000	m842.000	m843.000	m844.000	m845.000	m846.000	m847.000	m848.000	m849.000	m850.000	m851.000	m852.000	m853.000	m854.000	m855.000	m856.000	m857.000	m858.000	m859.000	m860.000	m861.000	m862.000	m863.000	m864.000	m865.000	m866.000	m867.000	m868.000	m869.000	m870.000	m871.000	m872.000	m873.000	m874.000	m875.000	m876.000	m877.000	m878.000	m879.000	m880.000	m881.000	m882.000	m883.000	m884.000	m885.000	m886.000	m887.000	m888.000	m889.000	m890.000	m891.000	m892.000	m893.000	m894.000	m895.000	m896.000	m897.000	m898.000	m899.000	m900.000	m901.000	m902.000	m903.000	m904.000	m905.000	m906.000	m907.000	m908.000	m909.000	m910.000	m911.000	m912.000	m913.000	m914.000	m915.000	m916.000	m917.000	m918.000	m919.000	m920.000	m921.000	m922.000	dose	pattern
P1_SQ1_r500	-0.0010254730882209451	0.040478781262351715	0.0006846246733921216	0.00035170602708681437	-0.0007532463893758464	-0.00012967561353331583	0.00044406910609121617	0.0009347985589892712	0.0009903265780369435	-0.0005338776994582705	-0.0008055023890239682	0.0005022733449378857	-0.021978679855328698	-0.0033691065216561733	0.010594360679293577	0.004310121181415799	-0.001933051289799037	0.03467930060451074	0.0004744290698298244	-0.014663622987793223	-0.0005956803053014602	-0.0003656892401817909	-0.0009075571731290287	-0.0003190633942500784	-0.05771126034907728	-0.06787875795964826	-0.0013877842200269164	0.0023327408308892045	-0.011613998648187164	-0.011158410769309554	-0.003598958423747854	-0.00010155479698330597	0.027556202664581808	0.034746276320940864	0.008737108070152554	0.09715973634008479	-0.028275946721558226	0.03388915403284193	-0.009007599829969765	-0.011358334319089503	-0.007302723728711449	-0.02997870437193917	0.021329106640812875	0.025514377279517664	0.002620045878870235	-0.02851081393593269	-0.00019849739987418125	0.0009408196809949781	-0.029989075310963786	-0.06329053501104148	-0.014970736074886762	-0.006933551184389014	-0.010713793140032714	-0.019744871394384023	-0.0055176308561688744	-0.014995304769322183	0.003907816902642303	0.004647043066484828	0.0079563268066246	0.04909721339134801	-0.06363261902268798	-0.04530002308642361	-0.0273174164726602	-0.008567212611261144	0.045942971596710805	-0.030322546347919838	-0.0018903896957457589	-0.010417116183875988	-0.005143886368494485	-0.024597672128099532	-0.0037039236338037296	-0.002339924979869387	-0.031293286479577145	-0.05042706452557463	-0.01622223666673251	0.000918796454117507	-0.04455631911284401	-0.05315304006246205	-0.014388466475862255	-0.009878016631770098	0.0751485113411131	0.017196595203543955	0.006151884215923484	0.0008349815286678719	-0.021552274559025586	-0.02272452954685064	-0.017607109130380744	-0.010389297411770165	-0.006843317000045781	-0.017546459581933224	-0.00553648005622482	-0.009969551517037774	-0.0005448827210971507	-0.008251596269955114	0.004858835959216802	-0.0017186970359960169	0.004387545714949079	0.006305753891438753	-0.009652440647006523	-0.005325161747161765	-0.0030495387056453382	-0.011089052449915739	0.008661056440716366	-0.0028182022098099946	-0.005047279008896354	-0.0069041893174393645	-0.003840803747922783	-0.004267728180782193	-0.01619429511715128	-0.017616520726260167	-0.013181364114218275	-0.010001081885373866	-0.004338761933654629	-0.008093292795885262	-0.002872794940244325	-0.0056019698322268205	-0.003978157981116309	-0.008455912928146084	0.00543573908963918	0.013179531290860275	-0.016221071526194848	-0.020845247344382214	-0.009436960741801868	-0.003122852561954381	0.0007411190233322928	-0.004913900686988517	-0.002378652898163875	-0.0018551373466089288	-0.0029929243774021903	-0.006436357044417557	-0.0028658037871816186	-0.0066048038091399905	-0.00794488795381805	-0.009377480568238311	-0.009760830752811922	0.0010072189911797466	-0.017013969189956006	-0.029762272047399313	-0.013774596401194758	0.016837373967603292	0.006900174713980592	0.002855591330874367	-0.00131669338481024	-0.0049249802471499834	-0.0061926616865741815	-0.008276902382283027	-0.0035990046657893224	-0.008716343187836637	-0.002116601314323875	-0.007267204437137451	-0.0014711680959562622	-0.005101915883830972	-0.0023121335918460523	-0.0038055162520686282	5.6216773301261125e-05	-0.001903824048085978	0.005293383313129216	0.009418070681329153	-0.0060663502646761056	-0.003580108391087279	-0.002700074241555415	0.008137348360956018	0.001881377679854794	-0.00762460919171043	-0.0014155080792260348	-0.005700275504302139	-0.002246568979156923	-0.005124628046597985	-0.00206382692387665	-0.009368274600761117	-0.0009005838487124371	-0.007394419546031504	-0.002046977308252311	-0.004453895752062495	-0.0034336079568348457	-0.002673067760085142	-0.0025647877767088975	-0.001797364879423377	0.004269661456267733	-0.0008192668716715257	-0.006847603063169432	-0.00700875674835736	-0.0039244802954576	0.011137124999204932	0.0016553918735059958	-0.006013593489804965	-0.0033899560712645355	-0.009004184947564026	-0.005624773686066349	-0.005885632191965924	-0.0033693727311216413	-0.005856888197659935	-0.0029244965449018827	-0.004072528006700642	-0.0022149507901059393	0.0032556665723776287	-0.005675747867960587	-0.016577481802168767	-0.008369572053950888	0.011072798017765582	-0.0027874267674996706	-0.005675939058265963	-0.0014625539148998418	-0.007461865142571959	-0.0015661647090780412	-0.005703473544094985	-0.004054888381572811	-0.004096722154983662	-0.0031235302948355616	-0.0018975592957665849	-0.0027639704899501856	-0.0027441234009100424	-0.0020679904257055737	-0.0057607096246566	-0.001825653898228797	-0.004309376701468352	-0.0028849787339083194	-0.0013460975818336274	-0.0032860246982323836	-0.0027727229285757736	-0.0001330244146480787	0.011273166401070248	-0.0025412727261992438	-0.004783136944086996	-0.0016318234229801276	-0.003375063338235805	-0.0014329209109286214	-0.003527785763215028	-0.0018811882813481381	-0.008146562879189072	-0.003337361792738948	-0.005891619202449627	-0.0016098708104091662	-0.004762376276142781	-0.00185100787765239	-0.0038408311218255595	-0.002393628851392011	-0.0010124344534228405	0.0015841411024036973	-0.0048810640959163765	-0.004272332302813701	-0.006098122213937657	-0.002835885424573154	-0.004365277981706429	-0.0009675401228902356	-0.005034108699762077	-0.001962741558535583	-0.008465396398826548	-0.00117090020184301	-0.0056312396600811596	-0.0023928576460594438	-0.004772332622299393	-0.0021799873147284113	-0.00469730023504766	-0.0010564665530347662	-0.003024528902921285	-0.005051412172248783	-0.012532182893156663	-0.005246105636351323	0.0010115212677180158	-0.004037810158261768	-0.0049062886622504125	-0.00036102235580161984	0.003186855240523534	0.0004824533189834723	-0.007267169893901235	-0.0017022150372880962	-0.004235531460344742	-0.0028569192373054664	-0.003997552392617832	-0.0021061035312885563	-0.005161894347634612	-0.003979094493216904	-0.007080840676880126	-0.003204926296793413	-0.004647607798434324	-0.001941666573619421	-0.0024514520264230406	-0.0013859163217127546	-0.0029905453275430594	0.006228036858858123	0.004985038835771449	-0.0022502202549157385	-0.003213242141637658	-0.0025101595771932807	-0.005071233305104561	-0.0013163331531746043	-0.004384450901669799	-0.0025745929364963532	-0.009614046702415002	-0.002120875739787323	-0.0051292257533211115	-0.0021602197975173383	-0.002518448350262742	-0.002755963768558259	-0.006626479076170335	-0.0013977426009244114	-0.0013671787705265837	-0.003589169825446884	-0.007194517456324892	-0.004760697836077146	-0.0021462011373689083	-0.00430328645628926	-0.004922465519161274	-0.002666792221668799	-0.005751647480011474	-0.002140818775056754	-0.00628259717243463	-0.0027825240001559323	-0.005340254431228906	-0.002229451397331522	-0.0005607040515986615	-0.00195472570539002	-0.005341140447588693	-0.0034841777666454465	-0.004961210837391122	-0.004920026084008329	-0.008071573668589425	-0.005122160943161296	-0.002411812812471714	-0.004470513085347166	-0.004417259548465131	0.001634513879125804	0.007194065377160108	-0.0024012793927852202	-0.0018992883721767537	-0.003284616065555978	-0.002903300239906592	-0.001916408839741826	-0.0048893254203792	-0.006275048603765869	-0.009515994621711502	-0.002734970313344409	-0.005126111143556201	-0.0031042902506269038	-0.003579868995933832	-0.0031976061085460528	-0.0031126006201123574	-0.0022624775140792225	-0.0011545753646287002	-0.003273011919738736	-0.0037794721134125076	-0.0033452785197356574	-0.00214883827103466	-0.003979196022344658	-0.004113541935720749	-0.003983209491974234	-0.004491801526579339	-0.0030624126081775158	-0.005798028140094058	-0.0035600317327747696	-0.005724919165759953	-0.005257487290275519	-0.004820624573402661	-0.005757445198202465	-0.00762548920985294	-0.004569721013355607	-0.003972967401169883	-0.005071070473446737	-0.0071011027707883825	-0.004004322612206821	-0.001622216527809195	-0.0040106307164166355	-0.0037382736014145747	-0.00035416447468308854	0.010981148979200162	-0.004015181249430878	-0.002298269146857511	-0.003811188458115688	-0.003357038295081563	-0.0034492690816723647	-0.004146813756573959	-0.006794986081821781	-0.008873971942181522	-0.004782210297037709	-0.006045599172653866	-0.00470931738514423	-0.007605215112274175	-0.0040406736661692325	-0.005117232209154582	-0.003642360051341751	-0.0014139867236330692	-0.004066361452037155	-0.0032921952871305254	-0.003741849845597039	-0.004208613004819936	-0.004636229246755864	-0.005288623447330824	-0.005120847782508441	-0.004217223701645439	-0.003639792450477672	-0.005428256215349647	-0.003751620619294224	-0.004211502041110548	-0.004000080900510756	-0.003737059191681609	-0.00608553708303277	-0.0069651785132733325	-0.004097525206566383	-0.004102685859329422	-0.005448745747351255	-0.005028798475070866	-0.002457173811636768	-0.0025506329257734273	-0.0029868405009368243	-0.004661253660284116	-0.004164881485474413	-0.0030351722603330876	-0.0044526274747200625	-0.006567598790928164	-0.003535081586812233	-0.004513921636423782	-0.0035694000379026918	-0.004048168135496449	-0.003544377386789546	-0.004750599044957102	-0.0065863687824563345	-0.005538249153809953	-0.0051458909034171225	-0.004270276439199482	-0.005396192942361544	-0.003313459946276392	-0.004661997516882545	-0.004197750999863404	0.0025015672925911003	0.0035724081038853855	-0.002716278799371849	-0.0013526061166256112	-0.0031824764205136274	-0.0032384288625983693	-0.004097744363828794	-0.0047455458145489685	-0.007661681278964095	-0.00930371524494978	-0.0036033444938655644	-0.0031520835856310263	-0.005410407862734935	-0.006379625344409244	-0.005328724791600466	-0.004598632172938592	-0.005468491932485605	-0.0022177658754690237	-0.005667652456646154	-0.00472578814098823	-0.0022894494599211	-0.003139279434563151	-0.003170482180855621	-0.00373707321740694	-0.005431293525863041	-0.005164261421693114	-0.004030802249985949	-0.004381229574147015	-0.00435787304338452	-0.004433388341739671	-0.0038932709326141117	-0.0038591213879446157	-0.005345054861395537	-0.00619519394391542	-0.0035802511409155045	-0.00487207977599784	-0.0039376155635657065	-0.0035176671102225138	-0.0030766174094553657	-0.0035465772846004044	-0.005053512007986146	-0.0048358296320033245	-0.004422475930245556	0.009703296195186811	-0.0036656881039079	-0.002198242582804915	-0.004146381261203164	-0.002734792985679222	-0.003841946226452675	-0.00408609298068131	-0.009564428550802188	-0.008187209228475135	-0.004540130848386479	-0.004257329687111358	-0.005541560232115324	-0.004705023952963468	-0.003954505879687334	-0.004014207016481319	-0.003748878131268188	-0.0008663854078154697	-0.003499970593861243	-0.003179693804948841	-0.004150175509730038	-0.004421044533144944	-0.005152441061868761	-0.004189702320214369	-0.005178134912794251	-0.004139095539749331	-0.002640045339603707	-0.0036275943044373864	-0.003000486313604868	-0.005013909448785065	-0.004737535258435451	-0.003929007861551804	-0.008992935641939342	-0.007717772875742268	-0.005000484591889075	-0.0041089903749166115	-0.005723226179216102	-0.004835310262966477	-0.0022132013563145835	-0.003073216728116484	-0.0040224678681157755	-0.0035938035747141023	-0.004229776622400457	-0.003747788201351715	-0.004160409605836378	-0.0062306598926048125	-0.0036505885007391305	-0.0025877272018763366	-0.0033494454298579005	-0.002751207764898657	-0.004552105715436664	-0.004750544959133679	-0.0052209160143351675	-0.004154201418416298	-0.004319724255475648	-0.0034688085403213297	-0.00335608885136782	-0.002906623428633917	-0.004817996141350211	-0.002574046191496728	-0.0017317507813685365	0.00017325151199015787	-0.003578172245119332	0.00017925054677427055	-0.005415714591948704	-0.004739019910986665	-0.003337164914120009	-0.0032399768462097727	-0.006844266633287209	-0.00887539625266237	-0.0035884938260475167	-0.0033022993250694903	-0.0036922220816063937	-0.003553354886616183	-0.0047768278912695625	-0.0028284131577931606	-0.0048597232661894765	-0.002185539015779312	-0.006254705310359765	-0.004522647083739791	-0.003089043981337865	-0.0020939965068432764	-0.0024553924391070743	-0.003074395451148281	-0.004950267458237673	-0.004335270886581442	-0.0037960514294866562	-0.003640938977698651	-0.004520195935983785	-0.0036557270619067203	-0.004518663112334001	-0.004066746031502746	-0.005631761760067357	-0.00485232445552587	-0.0035019223638771274	-0.003778585586446132	-0.003702014084260203	-0.002491850797882892	-0.0031932294031493356	-0.003997967019346191	-0.004969687082400552	-0.0034823725286978607	-0.005840311262758455	0.006232784816399745	-0.0030462607879867577	-0.0005466875707804096	-0.0031071361973432875	-0.0014723265981554153	-0.005708294752343824	-0.00399013976174754	-0.009171444350785742	-0.00915257268581212	-0.0038477654339915887	-0.0039390363146092	-0.003647156573926169	-0.002645690024224167	-0.004418721463528985	-0.0022706568800114693	-0.00405560967460511	0.000957630023942526	-0.002033378169974419	-0.00261801391275961	-0.00361588878675851	-0.0034455031614029526	-0.005296527109878414	-0.0034823566412766505	-0.0054974784346242395	-0.0037646895162031166	-0.0031288563207666677	-0.0032227978759303503	-0.0034039009443187634	-0.0030118985700322894	-0.0045885714127416235	-0.0030410378341216987	-0.006578884350015236	-0.0041057314368383065	-0.004548790965090343	-0.002784161752904843	-0.004976084995627482	-0.004267991585261645	-0.001629470986589228	-0.001248177186722552	-0.005114961025832431	-0.0040706480113407925	-0.003575629318674745	-0.0022708426880922866	-0.005026370343646874	-0.004467257568024963	-0.004059195259615414	-0.003963904815540662	-0.0039765094177807055	-0.004051431699471123	-0.005780239218548923	-0.002696863833073956	-0.005380393612662231	-0.004356953753998536	-0.0038127764317658318	-0.003505930095851234	-0.003973713876699838	-0.002329600784112422	-0.0037549107293584835	-0.0022359498796937147	-0.001564249847191071	-0.0013830493598687293	-0.0029931131467458953	-0.0017569438607481537	-0.004972214465192779	-0.00272872814031613	-0.0048608518668446805	-0.004872462267672949	-0.006910427245059015	-0.007321364325037251	-0.0048725322405618054	-0.0027043802292880618	-0.0038784142718522128	-0.0015668452383808453	-0.0031462061637179094	-0.002456034604154403	-0.0033192292865376997	-0.0020147683728543274	-0.006493191982357718	-0.004740323346455154	-0.003309597174052121	-0.0030865542932049274	-0.0029139078978846836	-0.0020434661257850185	-0.004120500085094299	-0.0022270217205872522	-0.004434797892144727	-0.004516238478864312	-0.0052340073812287315	-0.004012523764033656	-0.0030442963439189855	-0.003893822853542426	-0.004646195778839048	-0.003987243212091464	-0.005689530458235583	-0.004173426765614864	-0.004582824558448707	-0.0020050005096153706	-0.004376881728209707	-0.002197955750359644	-0.004279494110046115	-0.0028009501910745173	-0.005467800264342196	0.004690950569418373	-0.0035875763922169	-9.161288467937623e-06	-0.003370034170653371	-0.002745168583798561	-0.005241244869047684	-0.002620763247414346	-0.010565694646164164	-0.008575662021336576	-0.005065567930254197	-0.0036829386895767344	-0.002785059730674052	-0.002720896729068615	-0.003411389709522662	-0.0020415210104306174	-0.0036149843300582567	-0.0006699536714503372	-0.002489736157619934	-0.00247822176296484	-0.003647407234012783	-0.0038336239176031024	-0.005442753098404635	-0.0027083160522185425	-0.005857028427477259	-0.0023661668570231706	-0.002992300384774913	-0.0018002590524948403	-0.0033482887425343565	-0.0023013110862304276	-0.002514829749755077	-0.001607009392608199	-0.007207489165813385	-0.003885270182487204	-0.004790894115520717	-0.002271825108452523	-0.004115254112897523	-0.0029866768869860044	-0.0012549743570551553	-0.0021454455693697867	-0.00463404806579327	-0.002790435378930709	-0.0035375155078932047	-0.00297553613489444	-0.005367018249953011	-0.002414633620668547	-0.002819527576923452	-0.002992109929947258	-0.005203208916708927	-0.002964681256451985	-0.003928014161661263	-0.0022623216533354407	-0.0036801452613831696	-0.002908034060777406	-0.004471107705493454	-0.0031062795546920943	-0.003414050105109274	-0.0015788332410971943	-0.004460000063210987	-0.001742161421961241	-0.0029666134975190536	-0.0011966518872579407	-0.002337253084482318	-0.00036354197556237935	-0.005191393504981524	-0.0035448700792577222	-0.004861350312491294	-0.002832477264432365	-0.005675591576535206	-0.0047714630056990386	-0.0027027255290825187	-0.0028732922474989323	-0.002717228506349069	-0.0020880648782572245	-0.004237024392915683	-0.00167900784057415	-0.004046490626055797	-0.0017041746059987053	-0.005824591909351862	-0.00279440558171095	-0.004204340038099566	-0.001994686841098728	-0.0025773280338856393	-0.003065319420387208	-0.002417600618972185	-0.002170438170583055	-0.0037064039437867367	-0.004471004787326177	-0.005287091570765028	-0.003128544941259824	-0.0034616066667405247	-0.003077216800206662	-0.004630215970884062	-0.0026104441417910355	-0.0033305406057092674	-0.0038064851890883752	-0.0026622879510365856	-0.002323114559931415	-0.0020790400677250104	-0.002552980086816514	-0.0032870772343302386	-0.001613724199893949	-0.005183281620537217	0.005417389431197725	-0.0027239704618588143	0.0005572413357826517	-0.002067374792006034	-0.0010986868612384605	-0.0034928821883606354	-0.003386008164773753	-0.007796424966505441	-0.006896316871115551	-0.00304313014269271	-0.0034377771363482672	-0.002951463424712933	-0.002332464263334141	-0.0021041946427182764	-0.0011686983999524801	-0.003337909445289458	-5.771881458873154e-05	-0.002028264546157274	-0.002880892612818037	-0.0012170785569051608	-0.0014966902272742777	-0.0022395804459903	-0.0017713299755620898	-0.003323127615083025	-0.002585017654569385	-0.0013737686577147204	-0.00222326486036448	-0.002676366583528783	-0.0016419818415873274	-0.002739773440371386	-0.0017834670812509768	-0.003195971798781132	-0.0027269587627518025	-0.001103271271165709	-0.0009778994839191452	-0.0025910514463758118	-0.0011907836053093868	-0.0021523993313611062	-0.0010136559745578724	-0.0024905723998805557	-0.0011086648382727573	-0.0006021492013275013	-0.002876293178240683	-0.0023925746194561164	-0.0016300567570083479	-0.001207466456774638	-0.0016575606020460395	-0.0010792848897294193	-0.001161250179838938	-0.0015877831026111094	-0.0023802278341357487	-0.0007453425358279041	-0.0006241968657218801	-0.0025220377670797274	-0.00047926437985681795	-0.000982218322312262	-0.0005643198135586135	-0.0013817376425296138	0.0015265361240143563	-0.00266557562532857	0.004732947568178842	-0.0008624379704679323	0.0013480900458191693	-0.0016222855397416058	-0.001953164410457862	-0.00045975617055548333	-0.0009603427244803918	-0.003685785936296076	-0.00010220547198137864	-0.0017530913016916621	0.001042024345688031	0.0003430814144512232	0.0008284596114602727	-0.00013383429997309952	-1.1136169860576257e-05	0.00036351484296553646	0.0006600164005338763	7.959070637818082e-05	0.0019291631031939267	0.001911476451233797	0.0015406521850539789	0.0006970146237391818	0.0012300884989487147	-0.00047600427334384173	0.0	-7.873108382044188e-05	-0.00023556559371092398	0.0	-7.918435658140075e-05	0.0	0.0010577684445703336	-0.00019010090360799508	0.0	-0.00023477133507250134	-0.00015810236137332316	0.0	-7.828793771852168e-05	-0.00015747229429992243	-0.0001579904195043393	-7.83900979429781e-05	-7.807785165857392e-05	-7.920133647215292e-05	0.0	-0.00019015567361149976	0.0	-0.00015769411571592157	0.0	-7.809329941100158e-05	0.0	0.0	0.0	0.0	0.0011718954122694445	0.0	0.0	-7.981442365480149e-05	0.0	0.0	0.0	-7.83900979429781e-05	-7.981442365480149e-05	0.0	0.0	-7.873108382044188e-05	0.0	0.0	0.0	0.0	0.0	-7.873108382044188e-05	0.0011718954122694445	0.0	-7.981442365480149e-05	-7.981442365480149e-05	0.001067548113448464	-8.069995277629949e-05	0.0	-0.00015648339735397967	0.0	0.0	-7.873108382044188e-05	0.0	0.0	-7.873108382044188e-05	-7.918435658140075e-05	0.0	0.0	0.0	0.0	0.0	500.0	P1
P1_SQ2_2000	0.0011946075216048967	-0.1735855095046821	-0.0012303581827655726	3.9077476728770384e-05	0.0008013815416530224	0.0002932105919921731	-0.001331620592888346	0.0008285524305040246	3.375005420271733e-05	-0.0005338776994582705	-0.0008055023890239682	-0.0020089311099252094	0.061581046703245296	-0.0058024405982706195	-0.0335547682254608	-0.02553410767546204	0.2325677066125238	0.0192221512109082	0.009008583692467292	0.15836932092628378	-7.775259390186817e-05	-0.0005867510081324842	-0.0004846709676035398	0.000986488042337674	0.13955538044121252	0.040106802359280325	0.11066941655643864	-0.03763732232767449	0.06056456598747093	0.03209338420229016	0.020657817963134727	0.0020874797576650728	0.019128255686200857	-0.008019466111041887	-0.0013540383219120423	-0.29455232896877165	0.037209149088220955	-0.12811311851025006	-0.031793964738932784	-0.03321322235831021	-0.00551876944799104	-0.1182909302211275	-0.011949952995171945	-0.1135687030661349	-0.012978440234764042	-0.1072554050984469	-0.01556872255258949	-0.0029148835962857465	0.06252429216320207	-0.02642359774306255	0.010251395094993412	-0.05487703425821821	-0.005608652186628281	-0.06003061403135542	-0.018220369034674937	-0.045589123283187746	-0.0034890482484092704	-0.02428559227020308	-0.04295423094040409	-0.1108650359467021	0.20632490196342612	0.07990230722487784	0.0016881933676271554	-0.000736432684749766	-0.02741689966172374	-0.07318575666272205	-0.02303144087755004	-0.08595884766597323	-0.0038799802867769545	-0.059170744448774265	-0.012746763851533175	-0.07138262480796526	0.042632212547131496	-0.009896004746280884	0.0030477236338305805	-0.03947594926894057	0.2098585078935396	0.15375189519669913	0.04643063932481683	0.034892314354815324	-0.028656987036832803	-0.025968023026545023	-0.016156132585225268	-0.057465641914103	0.020395086119969846	-0.01352503563551076	-0.011381840614667862	-0.03165917549517722	-0.01061820054014168	-0.032982076265766214	-0.015211140868676039	-0.03786771210078935	-0.019258440450118725	-0.039332577479461145	-0.020049503217907008	-0.05527711211285308	0.024813504494063568	-0.006347975075141579	0.0020649990821373296	-0.023869854525240434	-0.0016325515111759274	-0.01581441784459814	-0.023120562365179485	-0.055954812347419065	-0.0041983550592804494	-0.018643628153773077	-0.014488187963298985	-0.02471062439125383	0.009388283358782779	-0.001985603371070878	-0.0035819256977343145	-0.021345062175089583	-0.010256322336718669	-0.0328160516228188	-0.01217574764436946	-0.029529349057401275	-0.014217259310812297	-0.021506339095779505	-0.014056986006426644	-0.08784134168001292	0.0338833580642898	-0.0075913066581307365	0.0015639301546360243	-0.013612911971034706	-0.0095977390501243	-0.01712797409507737	-0.013220394045158786	-0.04484042609581056	-0.012369343782719625	-0.0337063525817117	-0.018352440264151653	-0.036859491201998364	-0.004821352792540534	-0.016014091792772543	-0.025414308734361436	-0.023016751530822027	0.061674600061357374	0.041736998086224	0.0302915963010486	0.0067100998047339155	-0.0019169038232480125	-0.015594046502442414	-0.01260113554601826	-0.040767901717036405	-0.0007119845122964506	-0.033960907343203374	-0.009698989019647806	-0.027748386551990332	-0.013239944702424422	-0.03651023502915729	-0.016384533423279318	-0.02667481649235394	-0.017863079230126325	-0.024868610023950178	-0.01735102780814104	-0.052854317156368895	-0.009562626108850131	-0.030850565343740474	-0.012024896136812843	-0.022731844001003816	-0.014455647884719732	-0.0486891649836869	-0.021148359874616208	-0.044452531881628066	-0.011556882033798638	-0.027980478374871748	-0.012100050708313	-0.024339930099303544	-0.008497711038533477	-0.020745975668296102	-0.011642605998879372	-0.03057757639706752	-0.014560010065205563	-0.045424291958466256	-0.016360903374932095	-0.03307869663041429	-0.02456853173035784	-0.029204750655832848	-0.0159171982204356	-0.07687461395823651	0.003982966819953922	-0.02344818638093977	-0.007445674640464382	-0.02383135235383907	-0.01393889390702121	-0.014845561127233769	-0.015519508153445653	-0.04560545372007621	-0.023659788979527537	-0.038291707482441956	-0.016145033856613228	-0.03459380794970962	-0.013552155350141587	-0.016846872487464457	-0.014122874153230358	-0.027745393721075113	0.01699879765916039	0.006011341397363076	0.012942316520482288	-0.008501365979545442	-0.006710591836506397	-0.021955361494499528	-0.013491254462155945	-0.03738180085272989	-0.013827282555122626	-0.045267531152521266	-0.013253737640430396	-0.030477419396553518	-0.013533401551786723	-0.021468971015683246	-0.013478801032366733	-0.025565948198716337	-0.013740292260638753	-0.025064085514983604	-0.013536685039733983	-0.03557494221597994	-0.012746656798172943	-0.025671066240941145	-0.013955666794429424	-0.023336080825099643	-0.018288238504297245	-0.08346067792225824	-0.0245789621851097	-0.06104710179315584	-0.014436671341377405	-0.025438856242460686	-0.013582951565634292	-0.024103271708424363	-0.013286451454655786	-0.039323599749942977	-0.015293593749374348	-0.03454764181304378	-0.014732591206855467	-0.03132908623605997	-0.014089711900783404	-0.025632714825847745	-0.024086884565767692	-0.03269527732147358	-0.01880948724098864	-0.08054118074805547	-0.006987862555082346	-0.030442711895980867	-0.01345010838093708	-0.026125921795478214	-0.014206507676369596	-0.036615463044877984	-0.015132155705899993	-0.04735748905138577	-0.022962983442074723	-0.03715517310297745	-0.015073162105004308	-0.02942051111349545	-0.012530496718769657	-0.02852606186493558	-0.014889234029800002	-0.03132123332002215	-0.0019892537463094273	-0.026101440969136275	0.0012724695585653936	-0.021872793881164948	-0.010779166129329523	-0.022127297049414248	-0.02325557115349241	-0.04689764880952838	-0.04674256415366446	-0.061893267413390116	-0.01979636062406634	-0.03140189940076322	-0.014926689602502572	-0.02319040283911737	-0.016612631311199184	-0.030689756377164836	-0.021485869756714075	-0.03581176117449318	-0.013986605219006258	-0.02729524503968598	-0.012021461190326916	-0.025342336113883514	-0.015828292650413477	-0.03072050388129899	-0.03716884529411029	-0.13288285681306478	-0.027564163766525332	-0.04260137806927939	-0.019487463694085643	-0.025661536854554905	-0.015458669677070132	-0.026218763404909345	-0.018857112129661437	-0.05747839149417072	-0.023873536213800783	-0.03120879526146672	-0.01571548411197592	-0.026003129630440693	-0.016768364248457235	-0.03058774368694634	-0.018806169480422956	-0.031838016649660274	-0.020841408034638936	-0.0569319487272794	-0.012797788405428173	-0.03656542577113552	-0.014920849895600495	-0.024198356741739417	-0.01644382749854824	-0.035711396378089205	-0.026078725183685612	-0.050388603706781235	-0.01818849671316282	-0.02886782337100362	-0.015031877609263335	-0.023124144302191226	-0.014979812488793615	-0.025070079256225543	-0.018484065964759697	-0.028757054087035133	-0.011875326110354313	-0.015233061390496416	-0.005120974583759059	-0.01795242380596812	-0.011466935936040706	-0.020664690399318203	-0.062324805121471774	-0.11801218354745519	-0.027359556896551458	-0.04132573441727423	-0.01745260751700352	-0.024555463703315634	-0.015050714618876703	-0.021216950690512215	-0.026086030127831075	-0.05243760903767851	-0.021585157014639714	-0.028412136039142256	-0.015345030485173269	-0.020025225172827166	-0.01223534236971978	-0.019296947871009315	-0.018907884575561924	-0.030332003080368306	-0.04141944729862751	-0.0593435007776135	-0.02795611339890926	-0.03427231222580836	-0.020877314535386726	-0.023739587413625203	-0.019252333096949212	-0.033668533356115776	-0.026348102707668786	-0.03728821986591286	-0.020533021590306903	-0.025346784686773583	-0.016306260002982288	-0.021198321936687897	-0.018417001400029887	-0.028041886600176237	-0.018669479260892324	-0.02797159254796907	-0.018938969344463062	-0.027763810077642878	-0.013900480558204921	-0.021228142058664246	-0.01624905313136251	-0.023083679253916415	-0.08338353986457962	-0.1191240803966157	-0.033188569832161806	-0.036548144545155835	-0.021900118596750857	-0.02491611585427705	-0.01658074883082543	-0.02032748126738588	-0.03569876586465362	-0.05025070684172465	-0.022381854984589628	-0.02497380420068776	-0.015065473245587744	-0.017130804512563394	-0.011160797385671448	-0.016708870123955055	-0.019674015035926796	-0.028701488420407175	-0.03892892591772081	-0.05144027247936775	-0.027275782350709085	-0.034280374697988995	-0.021383738211161706	-0.022770119438341927	-0.02533742558730616	-0.03275001592342476	-0.020272671795037608	-0.025499412344767446	-0.022981980808473697	-0.023439167292001326	-0.016919314886901203	-0.020026479634547095	-0.02193963997318367	-0.026277568891688995	-0.019270883584035788	-0.02270639462657533	-0.033940681754400216	-0.04358245921545616	-0.02161329963723117	-0.0296501568358184	-0.019928960653685095	-0.01940098863043482	-0.017222462780418564	-0.025666346434718053	-0.03839518946152964	-0.04213650359196352	-0.0207358367619904	-0.021884445147539143	-0.016952888849549166	-0.015877621974686156	-0.017523660747616195	-0.02159515400225813	-0.02461725009114675	-0.02406266095746946	-0.018641665703381348	-0.021649138646330494	-0.01670354986609431	-0.019069181009480525	-0.019838694429917647	-0.02221553784124859	-0.06783243568392708	-0.11533264073996687	-0.0303058980739521	-0.03787001111110265	-0.02031449683904123	-0.020831901309524413	-0.017481210011013354	-0.017925458566028313	-0.03186314947274795	-0.05077032022409289	-0.02332117918920655	-0.02212047683105313	-0.013969342510467282	-0.007541191195016065	-0.008707072728621772	-0.012035175334486259	-0.021935993658204804	-0.025449375300835273	-0.048733787955628424	-0.05371589411477163	-0.030051857251905366	-0.030787271668971296	-0.020914758609189982	-0.018970078299583536	-0.021447555526251848	-0.027232613647085957	-0.02888848965287635	-0.036502730233522844	-0.022933052991116015	-0.024372811625220123	-0.019396654952033635	-0.015606798223359804	-0.02068081806824997	-0.02356565166171761	-0.020405134960228867	-0.02367385070389043	-0.024851804814632564	-0.022747240717936695	-0.020974723995188804	-0.018064461664927547	-0.019984734152221753	-0.020561827783979345	-0.08829575972449212	-0.12214844063062513	-0.028775580458793196	-0.02872740884312651	-0.020538031774914124	-0.018689181659557325	-0.017437958236569587	-0.017869363410024132	-0.0431195769035934	-0.054073730130949293	-0.022599549328766174	-0.020231532720404465	-0.018522121365703404	-0.014475189674320352	-0.014027590698365348	-0.015172819594461071	-0.02559930077758966	-0.027135375088730193	-0.034901545086054635	-0.030179026474207095	-0.02681337160305715	-0.027077491029691585	-0.023278575533094696	-0.020040826721457357	-0.030520509840453357	-0.03057062376360843	-0.018724186991924307	-0.0194607840621656	-0.01848224616459182	-0.01708458785372412	-0.012055551818877139	-0.011494373604024524	-0.021486825742051914	-0.02139154775918819	-0.01633481429500568	-0.014615581142570451	-0.03100803168412253	-0.029073078214948117	-0.0219841787544362	-0.02120027850411542	-0.01843661930353072	-0.01865878640655663	-0.018257257410329825	-0.02362157836569717	-0.03743018161594903	-0.03260229157815916	-0.020464637273389347	-0.015850166601627372	-0.015021998193833831	-0.013064236795431103	-0.014949955188303993	-0.016429243031940217	-0.022501208011000792	-0.01734447334085197	-0.022028254111121654	-0.021570330478725214	-0.021169839734406514	-0.019949088104808152	-0.022352318780386213	-0.021028480519060647	-0.05933115770477371	-0.09449974718557988	-0.02692454916826835	-0.035566676841486275	-0.01939506486986988	-0.017827638332792793	-0.015708211630155084	-0.014241667214092542	-0.027610088911008617	-0.041529770951792215	-0.021346125162186154	-0.018071253531915486	-0.01505110989952001	-0.010006636428340392	-0.01182154805112692	-0.01281695015553494	-0.020033192191446836	-0.02020263177827037	-0.04421034282995188	-0.04491132299374127	-0.02828830753956038	-0.0301523230772519	-0.01870274981948804	-0.016943444586470676	-0.018515577022351164	-0.02274714134408248	-0.028047762514964714	-0.030723972335937315	-0.023313311936605633	-0.01924604223068378	-0.013528198475260704	-0.009757418327856615	-0.016613133474826285	-0.017175079594925105	-0.018402918934141893	-0.017512041390582322	-0.02107751991342703	-0.01583033574019892	-0.01742195966039253	-0.013843018228082243	-0.01919083060870306	-0.019174319407917577	-0.08290322764197515	-0.12350160196071189	-0.02435237086944117	-0.029567568461019836	-0.0187901445153421	-0.013374513018381187	-0.015876247754004504	-0.012816519442395698	-0.038495496164295186	-0.04649909130330388	-0.02138199406000268	-0.01615642466891313	-0.018353337324167086	-0.01414455733612158	-0.01620233770201389	-0.014698278740087181	-0.025328401475545704	-0.023166665960318036	-0.025725993217404663	-0.020508612680641705	-0.022463496712393602	-0.018643332044830613	-0.02068154909103775	-0.0183394919344498	-0.030008164241943323	-0.023631237377320504	-0.017111041578327647	-0.014662112013169682	-0.015740384612093733	-0.013982542510361198	-0.013354676076199196	-0.011861714031023696	-0.021826471171515163	-0.018015184506548473	-0.015725078931354042	-0.014095921592580694	-0.02531050494712975	-0.015585229179631252	-0.02100109271546463	-0.01672901388557692	-0.021534755190857298	-0.01705118476598722	-0.01650171722235728	-0.01710475147528638	-0.02709930126129325	-0.021324629462740174	-0.01595571559441803	-0.011655957114310734	-0.013009951582766091	-0.00954968098114883	-0.011054102832884652	-0.011348636197915658	-0.017384618597604432	-0.0131035738428804	-0.02338688273286093	-0.021352979650675546	-0.0190830735565275	-0.018488758614360126	-0.01732024177245482	-0.01821772846549636	-0.048128996331630994	-0.0774362902412539	-0.026485086143250625	-0.028058721066280237	-0.018060767988007622	-0.01601722391081717	-0.013660374520317937	-0.009629814535690132	-0.02375509862765234	-0.03284242116527345	-0.016783034713176735	-0.013516311358896197	-0.013878379211186695	-0.011520248490658452	-0.01309957701112184	-0.011179093119522265	-0.02007173027174918	-0.017492903464331994	-0.0419921942892372	-0.036432195510670715	-0.024969619896148654	-0.022581341719078434	-0.016109732868990288	-0.010977804472843944	-0.017702249508641868	-0.016287119746516105	-0.024665513425410502	-0.0258771842098011	-0.019975122576880746	-0.01681759789878656	-0.012616985728409604	-0.008014290322093262	-0.016789021603223587	-0.013897607361103227	-0.01822072247209014	-0.016713415245387907	-0.017504247409557885	-0.013916997130980222	-0.014090223674176582	-0.011873994050898777	-0.019606616427391175	-0.02001755386619991	-0.07689436468377746	-0.10413432910610575	-0.024105956762179116	-0.025776443703047033	-0.016893627366446586	-0.013546517924205585	-0.011451363948473407	-0.010724631888090887	-0.03549833928481413	-0.03951507500958027	-0.014936753822491329	-0.013292882429925901	-0.015862073386246362	-0.011053057305583508	-0.014600068683861132	-0.01141926049764112	-0.023072025369950015	-0.022636894757729745	-0.019728199889555778	-0.01562068692261841	-0.01848139654738069	-0.017531133010004935	-0.019424959864913546	-0.015757229669369606	-0.024351537912487214	-0.017956819650010204	-0.012408433613060222	-0.010899993990293039	-0.01345232767447126	-0.012731296044508194	-0.014885900650523549	-0.014473511231841327	-0.02323209101400086	-0.015892822411940427	-0.014304073443530647	-0.013642028069297684	-0.022739902177735256	-0.012088868047802421	-0.01814813876569425	-0.0129575226191074	-0.019544027703623942	-0.015778839597361743	-0.015775910997398092	-0.015403077113953546	-0.0237786775952463	-0.015505377280227746	-0.015686003237115703	-0.011781433637360979	-0.012081060957044275	-0.00955541811184002	-0.011042028057117027	-0.011348456968676599	-0.014242342294912877	-0.011079426127775079	-0.02060025623227075	-0.017803653431581076	-0.019445085521960396	-0.016803192147883894	-0.016826535781068394	-0.01680991906848652	-0.040907017592318885	-0.06322675866255256	-0.02122506326353543	-0.026131639136269494	-0.017810356199752582	-0.013351649170308694	-0.010718995207950614	-0.007964291229537183	-0.01973368055029252	-0.0240035698834175	-0.013431686785434573	-0.010963301388776582	-0.014087433584436844	-0.007116144894320662	-0.011381550981721719	-0.010287082240966436	-0.017511694288794646	-0.016130555480012337	-0.03696676356890272	-0.031722515717887305	-0.022330637170328446	-0.0215698892581682	-0.013389214416689565	-0.01148826661132572	-0.014784151901190494	-0.015694081184007547	-0.02387548339045727	-0.01990366291274194	-0.01467875008457413	-0.010322675387951591	-0.01031742276548615	-0.009601545010620877	-0.01358086798218568	-0.011409992349152687	-0.01663287871865623	-0.012452721040303226	-0.013751691103434615	-0.01036299484765774	-0.012509025025791619	-0.010786624073494061	-0.015544453525244199	-0.022512464017126522	-0.06862346979465174	-0.08479652800204855	-0.021049870939502103	-0.019891305475345535	-0.01067007026815673	-0.010985494837346009	-0.011181046123627778	-0.012849450310986874	-0.03349432008810953	-0.03064764510073846	-0.014955059102509598	-0.010672497548008395	-0.011441795813548514	-0.009323445908320524	-0.012304921628324434	-0.011673979488482271	-0.01880799095833791	-0.0181244698294454	-0.01531668065021641	-0.01315860597919139	-0.015367391487487388	-0.013670592831878972	-0.014606121995969291	-0.014073923299903791	-0.01624456558147592	-0.013204470204881694	-0.007405540909357097	-0.007064250720199035	-0.008861863645886866	-0.00927957502011011	-0.010747647942772432	-0.012584816422609548	-0.014166601120280804	-0.01261386651179287	-0.010909982898592059	-0.009856478040001282	-0.014099047088406839	-0.009230711772175992	-0.012353133392217679	-0.010658330467498091	-0.012535549486021638	-0.010753310641834952	-0.010328171670327032	-0.011366625567478236	-0.012496599861491136	-0.010238255528272795	-0.008741135703689257	-0.006984656794617255	-0.007723345387029145	-0.006488341856515423	-0.005506231360432368	-0.009141904349745166	-0.007519548759181764	-0.007837150894359527	-0.014695909742028715	-0.008651013925533437	-0.01160145050260327	-0.008604490385319968	-0.009322940640256223	-0.01645193019309483	-0.047714604962006524	-0.026238411455942523	-0.020677289097089095	-0.009381689006612607	-0.008383949603035623	-0.0041279533862385795	-0.004809298170830806	-0.005823286555186465	-0.020391382214254454	-0.006626618494803008	-0.006451137452289396	-0.0031223544589374904	-0.003627490547508027	-0.001979156605947432	-0.0026450435446836403	-0.004709184880812365	-0.0057876957757814875	-0.013378541974483136	-0.011632386387700278	-0.006399666718044346	-0.003703809536790835	-0.0012669597481831127	-0.000558587603692366	-0.0005456012000308475	-0.00047600427334384173	0.0	-7.873108382044188e-05	-0.00023556559371092398	0.0	-7.918435658140075e-05	0.0	-0.0001978337828612142	-0.00019010090360799508	0.0	-0.00023477133507250134	-0.00015810236137332316	0.0	-7.828793771852168e-05	-0.00015747229429992243	-0.0001579904195043393	-7.83900979429781e-05	-7.807785165857392e-05	-7.920133647215292e-05	0.0	-0.00019015567361149976	0.0	-0.00015769411571592157	0.0	-7.809329941100158e-05	0.0	0.0	0.0	0.0	-8.370681516210318e-05	0.0	0.0	-7.981442365480149e-05	0.0	0.0	0.0	-7.83900979429781e-05	-7.981442365480149e-05	0.0	0.0	-7.873108382044188e-05	0.0	0.0	0.0	0.0	0.0	-7.873108382044188e-05	-8.370681516210318e-05	0.0	-7.981442365480149e-05	-7.981442365480149e-05	-0.00018805411398308374	-8.069995277629949e-05	0.0	-0.00015648339735397967	0.0	0.0	-7.873108382044188e-05	0.0	0.0	-7.873108382044188e-05	-7.918435658140075e-05	0.0	0.0	0.0	0.0	0.0	2000.0	P1
P1_SQ3_5000	0.00014308446330548244	0.04425654274103863	0.0006678598780398108	0.0008056071707532057	-0.0007532463893758464	0.0008013933903195493	0.0010893779904006381	-0.0008849326577511827	0.0011858808260062758	0.0006766215921862218	-0.0008055023890239682	8.771516572918725e-05	-0.018471709676778553	0.0026518911500343356	0.01068880351426725	0.004243190439404652	-0.045979253734107384	0.007525586022177566	-0.00252581695241574	-0.03787513558765704	0.0004322329306016195	-4.473266350695643e-05	-0.0009713423566219254	-0.00041991662465474264	-0.043585095945147534	-0.034602023483174926	-0.023640572423184986	0.006408824706783375	-0.015356161549834768	-0.009685274630697863	-0.005383084221929809	-0.001123820919119299	-0.004171701782198889	0.00015196849885622254	-0.0009752930458467503	0.12967366133737052	-0.015584092978914416	0.05446017994688118	0.0017474186984459822	-0.00020719838461479012	-0.002498086417397849	0.008107104210401117	0.0017161911341501968	0.02365164288313623	0.0025991481617704884	0.005007300061466408	-0.0012853508362025805	0.0011778754107013081	-0.02633146502545977	-0.021331152156889882	-0.009870186465240974	0.00664777291847489	-0.0024769348561261423	0.005571778019318546	0.0012394906004884049	0.0026927269528688874	-0.0012957028242753	-0.0011474280291125308	0.008559498257293643	0.025965356052589594	-0.05978584150209772	-0.030670717667220335	-0.011359261421724831	-0.011208734500501083	-0.004205042683951554	-6.27070689500353e-05	-0.0013208501858537058	0.009788822001345829	-0.0016440343955314782	-0.0007037398578283449	-0.0007050251847606284	0.00938536049495814	-0.02021448729975492	-0.0185143348042604	-0.00691752419908629	0.0005094036288278703	-0.057283196999697736	-0.047949535594461495	-0.013147936590733142	-0.016918729537788224	-0.005842522561885534	-0.0006811172037953436	-0.001745379950003987	0.007982908377072592	-0.0129004029601896	-0.00752560833564446	-0.0054115240201024345	0.0005242037847288245	-0.002598083352154404	-0.001658910769685329	-0.0027886113404139434	0.002242711641753742	-0.0013923257694721525	-1.2099596664323642e-05	0.003009814577536747	0.012279482242966502	-0.01591566134503438	-0.014687382231900192	-0.006357330780126923	-0.0012380061523250621	-0.003336465404278611	-0.0023602300809757726	0.004205930709046991	0.0070273448076718925	-0.0018591603132550628	0.0009587314985718964	-0.0004860951441273374	-3.445426801078344e-06	-0.009098274384037978	-0.007543994113546351	-0.004590950971534238	-0.0012150187840041654	-0.0019896603441010643	0.004619892431568497	0.001207043991568263	0.003734956904206284	0.001048483673266213	-0.001067022680809382	0.0015628929196055547	0.012002183462674398	-0.013167548711702642	-0.008071638704277698	-0.004624297807847642	-0.0027997710938538825	-0.0006975840905836875	-0.0003961678616790157	0.0022920845309285197	0.004487324044915558	0.00038898012868414725	0.0016473193348848572	0.0012524185792704735	0.005828489307257871	-0.0022947523394699007	-0.0014075528286050243	0.0011008840644045545	-0.0016854144114405029	-0.02021884117382685	-0.01936660139864023	-0.01071418569134763	-0.007758713195026183	-0.004801733245392414	-0.0004418523431058488	0.0011522459687685928	0.003966472138469811	-0.0037831140349111406	0.00010253614448180182	-0.001766440868180636	-0.00046227359786436134	9.701758282324238e-05	0.002704045804500989	0.0007039100271625555	0.0019155062423204111	0.004167842010050236	0.0017448302117301917	0.0025939200317517917	0.014489070604148238	-0.0008694365098541879	0.003925829596372256	-0.0018918858855520547	-0.0005895700157712014	0.0005174675910165211	0.006575650384591028	0.002361541690691249	0.0034108161403233472	0.0012185115677083615	0.00261726626985595	0.00028652095736644845	0.003024849428566151	-0.0009467641606866507	-0.00039134067521812144	-6.835624773751312e-05	0.0001255065036584596	0.0010161318818254945	0.009774171819119014	0.0012658183850878697	0.006380604190292495	0.003042280037182918	0.002602552297324305	0.0015279426086599393	0.005818801113824323	-0.003829063540179395	0.00019162060878344378	-0.0014990635830706665	0.0006981111151730807	1.4411553543314248e-05	-0.001247228870590568	0.0013099197847948434	0.00346527822322594	0.0024880842139822085	0.004996342167680995	0.002216217321154297	0.005110932459103122	0.00023098629676609334	0.0007373611829101893	0.0005178186554140284	-0.00028519208853238637	-0.006809333858051315	-0.006539478723619402	-0.00581622811371035	-0.002528341644316562	-0.0008808262814980691	0.001035687186129161	0.0008457387925548399	0.00478352887094443	0.0003189363509887612	0.005161408489933225	-0.0005383632258843495	0.0022791794033183224	0.001532497566895049	0.0011762696186222409	0.00025910850765629295	0.0005636058297158464	3.7528902811407444e-05	0.0008250870165128141	0.00028768710078829265	0.008464797831761198	0.0009016796302764724	0.0038891324179569503	0.00044084783453755827	0.0007848764252505261	0.0022571615966221863	0.013205390644150772	0.0024892542565455866	0.005383700796053131	-0.00023951414142491662	0.0018897299017800948	0.0006351876965727844	0.002193302583968087	0.0007875703524044785	0.00334354598232596	0.000693431159646582	0.0016071998124827375	0.00030045184316256426	0.005250274668946037	0.00045896402221277943	0.0032417268139112235	0.002674149968260507	0.0018492649375247208	0.0006926599391917886	0.0072136646044647645	-0.0003256699162318376	0.0033324519784799153	-7.882636895593584e-05	0.003483412563311243	0.0003363203658507431	0.0034897127435630157	0.000679159622206868	0.004375938573343965	0.0026291380093429427	0.003969623118945775	0.0019289049825475801	0.003405568504269166	0.0007034050747456999	0.0022541785860788616	0.002058970762215402	0.0023734000287713025	-0.002833779347320254	0.008364025910877815	-0.002837840731116939	0.004330325503162626	0.0005898074709875592	0.0019088221564589475	0.0030880218632113564	0.006181689699798272	0.005683307965395706	0.00762499180465305	0.0020293192132606053	0.0030965589988653022	0.0010195804226458514	0.002732849994792192	0.0017324219747580187	0.00215513862428756	0.0025247008645719153	0.003064511736235044	0.0008308722549385389	0.007253400053065205	1.2686333477871653e-05	0.003731333841448456	0.001349676591077379	0.003169101790401453	0.004560211561248036	0.0185670561582989	0.0041311150876280275	0.0058718511522162994	0.0030430816036996766	0.0032482831722691827	0.0006164054014173026	0.0013339544566787175	0.0005577409074094646	0.004953042677574668	0.0029922484732860834	0.0024326729061211194	0.0009985390029805703	0.003457859712724446	0.0003933716093302009	0.002017591266110029	0.0007970092796606813	0.002405722010899454	0.0029436828183284428	0.01430816972865688	0.0009023388263425455	0.008883502835727003	0.0008869393796056453	0.0024254417403023892	0.0016001248451879176	0.0026541428891055513	0.0027082499539384	0.007632748469575977	0.0013094970642358802	0.0036098771702020166	0.0015247371181696771	0.001977458660051508	6.912919577353738e-05	0.0016220333498092702	0.0008593573414673386	0.001713350019009928	0.0026109998427426596	0.006299861506358771	0.00015593686164612486	0.004723646955290824	-0.000631877476468496	0.0015194775736405777	0.007709372542165388	0.018454156716587677	0.002530879697864828	0.005379769102976904	0.002143500151155924	0.0029719240526349007	0.0021944622682867065	0.0012208227202119004	0.00021194468905151587	0.005056310403217662	0.0013486183641789953	0.0024474204618232243	0.0007723618043374882	0.0031208221526645256	0.00019601083178710788	0.0012433530463789276	0.0003351470804102315	0.0009942665096238576	0.008140529676693549	0.012122539726069428	0.00578374770116135	0.006945573844624686	0.0020795108424157133	0.002202944100616871	0.0007453273720735287	0.002762284307324177	0.0039603123685211	0.004605771505439643	0.001430738781634265	0.0028773672716568693	0.0017429389218032998	0.002638995484106229	0.0014045612180656267	0.0034350992993163985	0.0010540620925038637	0.0018101047848431001	0.001860840415457525	0.004685785995489404	0.0014424940211939935	0.00401492256231447	0.000522677420994995	0.002210389818031233	0.011501873514478692	0.01961898835379941	0.0033080915739902295	0.0044550223707994635	0.002087551451992211	0.0027549609743213396	0.0017019776878715205	0.002215877243076699	0.002134208045310039	0.006177143989350674	0.0017409041739705061	0.0028788177576775167	0.001303527280361292	0.0032875999961131525	0.000190860236812012	0.002090803804920851	0.0009836990527812423	0.002756331391679856	0.002720840330950179	0.006371775400609084	0.0036867827441315476	0.0054676602151204415	0.0035581559027496393	0.0020735823679139224	0.0025249465411545796	0.0035439652499208926	0.0022207386809892267	0.002638750074766067	0.0029367072146400455	0.0026691907449290057	0.0005551685755862956	0.0033615497880519277	0.0009505304276158991	0.002366877433706494	0.0005251993694050869	0.0016318233313841086	0.0052425001514803254	0.009482072504144963	0.0030891561278718546	0.007000240227242764	0.0007461462141219247	0.0018800081816985927	0.0008546204485083558	0.001962051249653138	0.003165588890396087	0.006687335896962139	0.0028726785720104703	0.003502462036642562	0.0006662528858374546	0.0015496867205943461	0.0014195643496971444	0.0015715783588121784	0.0009981190601803074	0.0017825340156077674	0.003753495450094995	0.005880970147272839	0.0030462224033869743	0.005047974282920774	0.0012394183416258205	0.002285039945687361	0.008376195309685919	0.01682983962360203	0.0029415801679107054	0.005737776689361422	0.0015469713323833963	0.002497269737472659	0.0007927162587742023	0.001967363969832981	0.0021399152702130247	0.004794905681592292	0.002356384708390148	0.0016523707500209137	-0.00038641785114402333	-0.00012742944870347897	4.531573527355101e-05	0.00036604727734044357	0.0010821255964437101	0.0012210968713703592	0.01016105424319036	0.013011139434689081	0.003909122177838037	0.008499538584413394	0.001852104178346952	0.0022161172617550205	0.0004622547238029122	0.0021461950685320134	0.003838307845272816	0.005808526417144133	0.0020358345284518208	0.0036292662037843426	0.0015093851392878367	0.002093792669412984	0.00169364406419939	0.0012496742211986003	0.002255067751451449	0.0029167600521000196	0.004368032892433503	0.004359062747534819	0.0023104462780289027	0.002849415298532155	0.0018356139836531518	0.0008124334361342654	0.011737892154624605	0.021168322910957243	0.0028690914452681876	0.004285549026011068	0.002018394906231555	0.0019537268507919536	0.0014108187813229173	0.0013837541964311119	0.003368429978454067	0.0065712938311776395	0.00302429776395401	0.0018565247192849112	0.002736454927759868	0.002538469029086197	-0.00011127565533650477	0.001610788720892764	0.0009403888863710463	0.0009841131971781367	0.0024013009817857936	0.00215906242455792	0.0040332251297599715	0.003147505263824145	0.0025664785894079084	0.002843794944461176	0.0030758766560048945	0.0027657928128815706	0.001168410779811075	0.001681164987742189	0.001524893832349876	0.0023339768583218318	-0.00014587627773525458	0.0014674508848774546	-0.0002577502448842042	0.0015435341227693147	0.0007081207095462443	0.0010874634532619318	0.0052766564783554085	0.006766602104208264	0.0035306217508244177	0.003747102942156629	0.0009287814010776052	0.0020291862471088426	0.002146102202350904	0.002973624848342432	0.004215969321801259	0.0026580140239137323	0.0019493821869370348	0.0014776917875849102	0.0006522134016924246	-0.0005790624050149434	-0.0006400590917888874	-0.00029001479110547096	0.0029059733945130638	0.000364110604934572	0.004077346692896704	0.006477455552813986	0.0021986560130898905	0.004682952621571621	0.002070991823392685	0.002195140502265016	0.007465818193394938	0.012249665970658435	0.002092488299048567	0.0038230264120596297	0.0014395214018743281	0.0023411886533966086	0.0011758962777363158	0.0012377740092650372	0.002521054198489605	0.0032334709983529372	0.0011068423683539552	0.0017916483785329201	0.000754509173545595	-0.00022619325815543406	0.0006256925417081616	0.0005956030877286248	0.0012506918678211985	0.00013860259926858423	0.00937807020580074	0.01242834314915911	0.005917293023963915	0.007157878322954024	0.001633727673982996	0.0014558651361722894	0.0005451694134437426	0.0025901167974188358	0.0051749919402098166	0.004926981906596406	0.001526338964092145	0.0029611683173335138	0.0010754486733695542	-0.00013468133255289602	0.0008810869324256503	0.0006053952480856439	0.0012010184612702632	0.0012489739208257598	0.0015344470819127556	0.001588957298439976	0.0022000146511386848	0.0013753739567511046	0.0013877931730159124	0.0016924812800463741	0.009922857211765404	0.021789068230351732	0.002610584039515678	0.005147958010702863	0.0019315672564585822	0.00263157404724337	0.0012942947501268544	0.0009550419883198429	0.003542341666402188	0.004852879255793245	0.0012012153208607462	0.0018727927653863496	0.0021459050988381217	0.0030263304432568	0.0006248032533033819	0.001079736469131981	0.0009178161646169677	0.0020918962298556373	0.0011274129798013524	0.0011809936917268407	0.002834926598376232	0.0025718756152624915	0.00170192196300269	0.0014418066508245474	0.0032813691396761657	0.0016418008144661773	0.0009258464978759186	0.00040907612613295605	0.0013922411888210168	0.0014864193442340086	0.0010420745657138235	0.0015070243394149502	0.0016418344831908016	0.0026831729081753276	0.0003362597930474352	0.0015972552590110198	0.004085974538802224	0.002204328780619196	0.003482285964065246	0.0028662615395831786	0.001338921698763075	0.0018670565489527918	0.0014634577908341564	0.0011694304239213728	0.0018806762520119785	0.0025448054959303044	0.0014995291813744843	0.0008785351085764653	-8.948676986647239e-05	0.0004623233296737646	-1.4169524223960756e-05	0.0005404582517737413	0.0006444871167736906	0.001151567871496617	0.004746345085532969	0.005611285358544538	0.003502779131075738	0.0036189274283986196	0.002058121347456022	0.0007694430562397055	0.004529609536416804	0.01061239694668431	0.001673690787421061	0.0033863882634740314	0.0010710023318761114	0.0007132183470001836	0.0011609927664642493	-1.2176637189947534e-05	0.0008998249768838937	0.0011055756327239957	0.00045532211674486484	0.0008053143481141778	0.0012914588642517627	0.00018591483632760843	0.0006102058493020254	-0.00021191900904225097	0.0008262962475319574	0.0011733447828265985	0.007733491280476151	0.01035617441637346	0.005001176527090489	0.005651550144981025	0.0017802116146459455	0.0007884189216462827	0.0009342037667874961	0.0010955561005928822	0.0029113745617707146	0.004488354557193142	0.002129138200789967	0.0027026983413475716	0.0018622726176469942	0.0007975935234545619	0.00037132307281151355	0.0004580817513349586	0.001310136169214545	0.00094957002607194	0.002750532259009609	0.0006599927283689657	0.0020303839501880847	0.000688623843225919	0.0021166176121803493	0.0021729729215397633	0.00953166750760169	0.01723565481511502	0.002446301299864038	0.004005041610922754	0.0011839152573702716	0.0005707025545861211	0.0008756584455864545	0.0003919051435210888	0.0038452856743407676	0.0040451102182039594	0.00014323673075650883	0.0018882924687107089	0.002087448806260092	0.0006531625185743455	0.0011355696801669327	0.0002374171865454841	0.0011686402374534756	0.0008075791053833228	0.002471049377562866	0.0009022599349135484	0.002225557679262396	0.0011840780235520404	0.0015429512655439764	0.0006188365631180498	0.0027092176049510405	0.0006315498708859071	0.00030659444023735036	0.00176595739889575	0.0010792639456920494	0.002094826959548473	0.000807226283839696	0.001494858123985485	0.0015429076514760255	0.001011901247925346	0.00018359861020390833	0.0009348275397240216	0.0035341748088651426	0.0016812552550972658	0.0023605087692777707	0.0016841340264722553	0.00031094394746319226	0.002095125588765047	0.0023016068778079386	0.0009569155027217835	0.0016154582138464615	0.000943386687945684	0.0016042067892090318	0.000798830618117927	-0.0006327685109111143	-8.006758105791496e-05	1.4320824033017127e-05	0.0012232453395607176	0.0001550929632217722	0.0007914764028510018	0.004269189150600407	0.00529506097200046	0.0018695528370557164	0.004339755780631362	3.4568098313366574e-05	0.0017871448190716031	0.0035994082344436573	0.007027210017307189	0.002625944841356885	0.003153883743108321	0.0012152589534797607	0.00200864456977929	0.0004950809909389873	-0.00021459565206726101	-0.00014494126242146563	0.0010188385132976208	0.0010120814930318842	0.00046366089336639417	-0.0002321565899541956	0.00025798132957419694	0.0011290296212715656	0.0007413050582670642	0.00023857815271336943	0.0007739680360333359	0.008015664871317829	0.008649696203498328	0.004043296815140481	0.005987549311418924	0.002303906677252379	0.0017725625926469767	0.0004321650645527676	0.0012970244342667345	0.0020328926818262323	0.004168339968435672	0.0018441151142257924	0.001612000212315362	0.0004089516526604234	-0.00022490996577925748	0.0003197321548912592	0.0018614559636026904	0.0007608988947438375	0.001257231044102582	0.0010248662345386707	0.000531709148862549	0.0015039314392522214	0.0019671078231725467	0.0010996574767031184	0.002179332227274948	0.008222514246911394	0.015279621139823743	0.002236625676040188	0.0025861471981274975	0.0013519944781515102	0.0007509931980103149	0.0014464104705401472	0.0010511288426697848	0.002698813437339735	0.004211353720749898	0.0009212367875422282	0.002349786129423142	0.0007526241058555608	0.0007319087463599112	0.001444129475966182	-0.0009145489949960832	0.0003766364428286449	0.0010555709505088925	0.0007430901643904076	0.0024851227290777784	0.0019228191818937077	0.001497651810715244	0.0004163113083012586	0.0010941090160026291	0.000388922039269126	0.0006491441676006911	0.00024454258010147417	0.00037102263184224035	-7.377787250393425e-05	0.0005547132297807813	4.2748351651144406e-05	0.0017385874624334264	0.0011775191309480494	0.001862681045191045	0.001073582882623221	0.0025478046331926588	0.002805469813811962	0.0024434311361529303	0.0006847254433731877	0.0007618386907697911	-0.00043028133921658475	0.0009833555520894124	0.0010275594538293256	0.0010917005738868505	0.0015009348146881214	0.0015606936177989701	0.0007133008034515172	0.0010449985125687228	0.0003970105746785432	-8.291535514660855e-05	0.0008769999034025306	0.000692386174172735	0.0010537978488250367	0.0016172903440313247	0.0052697629261228545	0.004068259395914384	0.0038350469422730148	0.0013783367225565467	0.0018375688538160434	0.0007960094554006203	0.002680300021236537	0.008265049698411304	0.0018095210701111093	0.002665239068336772	0.0015245969206412902	-0.0003000068364418609	0.0006042440167126732	0.0005821032919889569	0.002062279233464078	0.000327419757554198	-4.57249151260275e-05	0.0005091557301864689	0.000565820666432982	-0.00026725209046076664	0.0007787654862896902	0.00042654390356789817	0.0008425324888707399	0.006733317182390253	0.005573851746830604	0.006063532548486253	0.003457760088088084	0.0004449447673035528	0.0006519116879521263	-0.0005456012000308475	0.0007344950183006505	0.0	-7.873108382044188e-05	-0.00023556559371092398	0.0	-7.918435658140075e-05	0.0	0.0015140707326254514	-0.00019010090360799508	0.0	-0.00023477133507250134	-0.00015810236137332316	0.0	-7.828793771852168e-05	-0.00015747229429992243	-0.0001579904195043393	-7.83900979429781e-05	-7.807785165857392e-05	-7.920133647215292e-05	0.0	-0.00019015567361149976	0.0	-0.00015769411571592157	0.0	-7.809329941100158e-05	0.0	0.0	0.0	0.0	-8.370681516210318e-05	0.0	0.0	-7.981442365480149e-05	0.0	0.0	0.0	-7.83900979429781e-05	-7.981442365480149e-05	0.0	0.0	-7.873108382044188e-05	0.0	0.0	0.0	0.0	0.0	-7.873108382044188e-05	-8.370681516210318e-05	0.0	-7.981442365480149e-05	-7.981442365480149e-05	-0.00018805411398308374	0.0011297993388681927	0.0	-0.00015648339735397967	0.0	0.0	-7.873108382044188e-05	0.0	0.0	-7.873108382044188e-05	-7.918435658140075e-05	0.0	0.0	0.0	0.0	0.0	5000.0	P1
P1_SQ4_10000	0.0009690443871637946	0.04476132890028839	0.0018952516462896092	-0.0021594984277762807	0.0009096587056248769	-0.00024246021751215467	-0.00015576912374367464	-0.0005600583382283416	-0.00034502640768148017	0.0006419737696864009	-0.0008055023890239682	2.7703376787869584e-05	-0.011555326946880412	0.00411253029708436	0.007053392709376438	0.007021227034686009	-0.06762916343894243	-0.015420228743679487	-0.002530158822331794	-0.048902241746421674	0.00034056340879718566	0.0009696350177535759	0.0006425664897036988	0.00019913486251427626	-0.021943299266902916	0.0221241804920409	-0.01296775509217482	0.011961409135528941	-0.018785373206591963	-0.007504219140576522	-0.005464326044641369	-0.00023943032913296622	-0.009324005601704405	-0.0034518469364658508	-0.000761690920369892	0.05044476844130896	0.0013988123255974927	0.02446890741019586	0.016772456351892923	0.016730006690029414	0.007616562890274126	0.05558751182850391	0.009513148334135177	0.030896391309594567	0.003769963150045297	0.05130747630048843	0.004803287741412587	0.0006553972237852319	-0.0020799696009531077	0.0432234165500171	0.007888204304177027	0.023596027460609084	0.006516184300520686	0.02891889923218964	0.0076899422670327205	0.020281816133969677	0.00029253117144657434	0.005262585912534742	0.008602588915342671	0.021829465579247614	-0.044969521587397504	-0.007790555716005926	0.013125290142597834	0.009400414431704862	0.005189413612057062	0.0398978242782852	0.012648537641158898	0.03582384936239022	0.005161756598330083	0.027854151340240288	0.0048743231397338355	0.021732411360577797	0.0010717584401481184	0.028549492078461608	0.008178176292803617	0.01620189728371904	-0.054710415135593216	-0.03496381194903975	-0.00998217754888419	-0.005778749464947053	-0.0015105440220896243	0.005089090954939382	0.006593490519519164	0.020980466339220433	0.0039398652421687025	0.015528222868493369	0.013850104726158219	0.01661658368922614	0.008118405856324895	0.018663415438316205	0.00731993225620127	0.018719368677027587	0.005120340958712208	0.016041550118062138	0.005556685735540523	0.014946749104437634	-0.0014645195774279085	0.011183156896860794	0.005994461125730793	0.010765249729273861	0.004071438387477002	0.010401688361362557	0.007603886008618062	0.019998299387405466	0.00394570905820445	0.008768446555576528	0.0068114826040399715	0.011176757914525895	0.0030702834080020072	0.009652535355583004	0.008016055096473781	0.01344266687352074	0.004858557497694201	0.011394743030763536	0.005450423654475272	0.010875243119612778	0.006541561707362843	0.009062327925254438	0.003734865293839325	0.021802835056105307	-0.007121967695215413	0.009308823673059255	0.0025371571137921545	0.006806114488983404	0.003563118271860191	0.009344681262350017	0.005529447608859504	0.016155699267003984	0.005105356138675944	0.01338024036248487	0.006519811350519766	0.010684594906190177	0.0038440949984069397	0.006664046363665008	0.011120251021798644	0.0070792218230010945	-0.01581270960156718	-0.008527853083867137	-0.006487700410535868	-0.0029942093021416843	0.00048207969683587704	0.006489961211584128	0.004699980289030153	0.01681554855213601	0.0031483555151425764	0.014183553828754553	0.006221173490670275	0.008591121507466791	0.0047126195439734925	0.01098080913078886	0.005201832090000011	0.009421688350564839	0.006700985567079931	0.00960175727433081	0.00500385975389063	0.011611030437144898	0.002040649110514582	0.006998582607454465	0.006192069503132152	0.00833032060427849	0.00506172506485256	0.012899775725064927	0.005859639939851939	0.017976755756379498	0.004325097745655936	0.012206440408986885	0.004356657209531132	0.008242463852679481	0.0029573355786050165	0.009004138908490805	0.004946775823121759	0.01208087485129044	0.005768379760225154	0.012881007372121979	0.006266194968997628	0.0071670447846959515	0.00809012792559062	0.009552834411667786	0.003879807679322271	0.02237183123255504	-0.0001671808445353959	0.007419638657207531	0.00368576655039346	0.007999745985331146	0.005451241188793716	0.004569567383492096	0.005878700497811036	0.018548877713899577	0.009166927464559056	0.01427672143936988	0.005968320004428866	0.010505299135253887	0.004127093989023042	0.005109147933616404	0.004053370827141984	0.00985936124951825	-0.004655405666915073	-0.0019818245214537344	-0.0023096216992864287	0.001115649226362675	0.003552848028896171	0.00808448442247263	0.004636098716225827	0.014023851089646877	0.00464273894346821	0.016338419746225907	0.005584836282872593	0.011868444498784714	0.004481169577892168	0.006528016668053121	0.005605464292802339	0.010886753605593144	0.005137913665916316	0.00930161320979287	0.005355390730707763	0.00920323816549988	0.004455111133394425	0.006432229771095636	0.005134037685098753	0.0079650043828455	0.0057451144628606	0.021792092978234645	0.007875416422463047	0.02047869184775261	0.004704343567243377	0.009864760693572082	0.0043268873766958114	0.0061998503594566275	0.005245547487690863	0.01724951678781801	0.005645074143263189	0.01383588386531611	0.0053688810271557905	0.00994364313553852	0.005640612695732166	0.00787688233655185	0.006987710969768829	0.011396757241960945	0.003929796960471115	0.023365583622503933	0.003382075834122783	0.010031527275280568	0.004528546978708539	0.009011529989430764	0.005683938314219133	0.013394032080829628	0.006911569497755021	0.01913929189274957	0.00843796272570933	0.013582527253675078	0.006843127029514919	0.008512198852417413	0.005691008599415473	0.010855526887752251	0.004665045771306452	0.012085760740581986	0.0016538666131895238	0.00832935404520209	0.00028407872424309616	0.005367672946382233	0.005324184616467265	0.00880953493858553	0.006434654326311375	0.014451012128129583	0.016206602823942984	0.023582213579755484	0.008068990813340983	0.011623002116121835	0.00540576496269974	0.007557734749461385	0.00444100500060695	0.01313247607878968	0.010130554879998512	0.015450096984939175	0.005413281930010706	0.0068388981198669735	0.0034302603490504943	0.006299637114132568	0.005246084486028927	0.013099793925549115	0.007443049669713361	0.03927989135342938	0.00899348247906924	0.012902737762003492	0.006464659471582233	0.0095201152047526	0.006804565419772202	0.010716251289280419	0.006968482261329373	0.024897705203849638	0.008004568289044847	0.011446529744052199	0.005773397432055238	0.007867038563917735	0.005869260597905122	0.012490631978820652	0.0058881570785695204	0.011919172014434792	0.005580767264789864	0.017128323427999845	0.004486339376380554	0.010280698437188152	0.006127917537721014	0.009420739207208949	0.005947616886564713	0.014022557402732325	0.008713812376093057	0.01928027637668741	0.00773958511315288	0.011843013049360182	0.005488009769945231	0.006988514462437902	0.004914976213224044	0.010643546631175397	0.007782356982437597	0.012228748067308885	0.004544857454432082	0.005156603453322216	0.003055515461471526	0.004949461883228395	0.004881462775738671	0.00876332370276696	0.01634003667815416	0.035136317018433644	0.009073841278038682	0.012792090418982945	0.006818010631804962	0.007847951573618474	0.005225589772968522	0.008037604477172933	0.01039112673383654	0.023273713705572206	0.008271729222844245	0.010563517805785079	0.005000475557282943	0.006463771980897513	0.004961203766886541	0.006288487291850952	0.006890380803797169	0.01336881628536217	0.011802773047455112	0.01811592385409956	0.008877718391245883	0.010300063119671722	0.00852063596284644	0.008625956778845832	0.007857948361107661	0.012386207397488719	0.010688151604385247	0.015030153409273828	0.009579811427082932	0.01066575847371714	0.005487790161993827	0.007468554620039158	0.008124449167924042	0.011666458609962797	0.007373006281970143	0.011149718240248303	0.007444259540103457	0.009282956515091367	0.003733398495308661	0.006527908082643079	0.006929889973369983	0.009377230657006921	0.025305667350760966	0.035192010839163235	0.011574389405191142	0.01335883139415335	0.007813730259186968	0.009285033817403882	0.006401276403753611	0.008663228917286978	0.01476585428396432	0.02179579874355138	0.009236734937642141	0.00981100988424562	0.005800929304444164	0.005889144324526606	0.004250313424349457	0.005573416447931929	0.0074028171584198735	0.01218571620670831	0.012385772606030805	0.01585074472488171	0.008900248725522558	0.011780165012330555	0.00927119971180099	0.009341998100581665	0.010742499837184956	0.013294689924557387	0.008404940309585381	0.010532234449916817	0.007583696356237145	0.009442554301878646	0.005315389751196924	0.0060050372630073255	0.009895010986002411	0.01045882078506936	0.008241517767080809	0.009330935999482416	0.011002645091465459	0.01355474071684961	0.007313118682927916	0.008301036706882425	0.0073337906246282725	0.008172020934931367	0.007034614899548743	0.009770025272992266	0.01496232698966074	0.016879306451146554	0.009226052239945038	0.007514007535458951	0.007222789345494595	0.0075551181137147524	0.0073511623471886715	0.007806823253504052	0.010927299465992229	0.011645144650876002	0.0059170505248741685	0.0064354549043623005	0.005624358076995427	0.006194065030182827	0.0066928256570753	0.008758788873907453	0.019803101667576012	0.03428867177179647	0.009721800780514087	0.0118747997667294	0.007167825085752266	0.0064360597784019966	0.007265171255086363	0.008026928408230188	0.013078899048245475	0.021568984877009464	0.008718485294868912	0.009218022573010319	0.005311591711208274	0.004460914160067709	0.004059658672673071	0.00516975441858401	0.009482763031792813	0.01161064716124047	0.01410678970100656	0.01686167746893681	0.009646210324869911	0.009383135575629586	0.008214493319684064	0.008131537638247116	0.009578456005570148	0.011146724654681885	0.011364784079511747	0.014683713853913531	0.009981036130562077	0.010209719714650161	0.008824209546800726	0.0068425752935982985	0.00843587065506151	0.009577635246929408	0.009093111372215641	0.01079073350910422	0.007537480777330109	0.007865499052124605	0.006180317537790962	0.00688590500707836	0.008034876280949798	0.010395785263946692	0.028046970017171546	0.03619675577639028	0.01096128955853394	0.010460800716399904	0.007883610652030231	0.006941986753181206	0.007281900347693715	0.007486695316144747	0.019730981654525727	0.023977617102549045	0.00869058686660287	0.00830160420709164	0.00627839504180468	0.005861107947035218	0.006102896558122441	0.004853203216014727	0.011106157220482717	0.011997268954298305	0.011152617230337968	0.01122323471819471	0.008659975237405197	0.010028317647485956	0.010784981490069272	0.008010794254826752	0.013832534520728114	0.012589470094670104	0.008241412816724244	0.006914024210602051	0.007576411856806568	0.007683290339811882	0.0066751621725305126	0.004482376683401353	0.01133528798552164	0.009144912067532394	0.006503818123132811	0.006946066317845313	0.010317204794852652	0.008909779766664822	0.007836699473646735	0.007249383817569659	0.008116339363681127	0.007598782647438736	0.006927026859276	0.009000029767752316	0.013556648576392598	0.012532973882492346	0.008101364619291555	0.0066706345927106045	0.005865217275922777	0.006721193101647576	0.005881527492080197	0.0076170463850113584	0.009538703333035803	0.008407527253139532	0.006599177863100492	0.005875461127925984	0.00652256357102542	0.006257044413447904	0.008584863920555425	0.006751373666332581	0.018095981848591597	0.02947081942042082	0.009744210212869475	0.009170326466072888	0.00733255674546408	0.0064096598490147455	0.00616799657833941	0.006109163321627937	0.01179644144871277	0.018164061417158164	0.008030376002789646	0.007191295543985132	0.006090729634255346	0.004985306284811496	0.005534824586233323	0.0036691593170809934	0.00783892410666472	0.009527609701479423	0.014491341003817812	0.01511613182624933	0.009139190755841669	0.010198973175667966	0.007321882697137835	0.005950143572433595	0.00847060064887415	0.010163084971612644	0.01058640291895016	0.013347958497633094	0.009595233830416671	0.00928889459921172	0.005798703939201767	0.004623420256769206	0.007892358257491159	0.008161136075966885	0.008138810563660705	0.007847236210622558	0.006382152297581677	0.00603242061467741	0.006024899134158657	0.005863966936795965	0.008570582564363775	0.007217205173934534	0.027178359898475127	0.03655674105800372	0.009949969970798462	0.009267562472452716	0.0065409497416771024	0.006072913149409973	0.006423655723278791	0.005770020539397985	0.01760316441899107	0.02205703107118409	0.007994611614176514	0.007209387792751629	0.00607840518549212	0.004361693659507056	0.005526551222845115	0.005462468264668244	0.010750345169944237	0.010356753104392137	0.00609286111961389	0.006179098220859255	0.008038302608988232	0.008111938805872451	0.009276157119171968	0.007425431199704478	0.012888344411460632	0.01097352333230819	0.005539286500644516	0.005363199340997056	0.006389473099475497	0.006069043762353468	0.0053684549505677165	0.004721788214909619	0.010663867331274463	0.006775887192508549	0.005739746255691607	0.005286605125183384	0.009065162423346443	0.005946050872577078	0.005242217304456304	0.004698121800154706	0.009357522410470304	0.006780534745170524	0.0067784644839211095	0.00830110465689449	0.010018390251256983	0.010428450481136362	0.007987023489276199	0.004806218025843962	0.005489875292652963	0.004473032384445701	0.005915127837031162	0.005905536498462777	0.007702007822735384	0.006577940746184171	0.006224624774191039	0.006102811411977448	0.0062766443718730545	0.005614298117819463	0.006782051781492913	0.007113557435621094	0.014977044444297143	0.023154308830478476	0.008044247833508177	0.009181291926970508	0.007939239100041164	0.006936983761166384	0.006179349213815015	0.005708728343683401	0.01084626516650794	0.013014933922279426	0.006273381743372147	0.00645263572902335	0.006560949883667379	0.00428736086673691	0.004086933327839321	0.004225515962561504	0.008250362734536228	0.008357029475975823	0.013366687700170868	0.013330270611868873	0.00825208423820548	0.007888863053721482	0.00722621043466402	0.004691098571178588	0.00885520646514935	0.008017635615935333	0.010049034270491582	0.010830336613166753	0.009579511152773314	0.006878299088390789	0.004376143041885619	0.004081346095763931	0.007069614319778875	0.006737643784913275	0.008392977870776353	0.007976070900869773	0.006355347533756103	0.005261938596970531	0.005137839116540838	0.004712491721727476	0.007797096459228214	0.008980254766104711	0.023895162360216007	0.03079418611446022	0.008057927674001632	0.00903734666179802	0.005325294387309391	0.004784279692477689	0.0054722269644414435	0.00503865904838049	0.01770102725818229	0.01724293020738047	0.006642606414777187	0.006603918850096976	0.0056052021047055915	0.004714655719059333	0.005239794153455324	0.004020935716994623	0.010123094847121341	0.009873785474934615	0.006095567790894509	0.005808528608546873	0.007273451804937808	0.0071923818172084965	0.00817961976310121	0.0059900566348398375	0.011743069631404042	0.008965021023671277	0.004716042349186867	0.0045452543470108474	0.005968491201956791	0.004789491032402627	0.005590797798019919	0.0049916880057928725	0.01057478664701754	0.006493687452821032	0.006869065472699325	0.006348838654081283	0.006234541304732794	0.003700851262678412	0.00528267930378986	0.004702816034050931	0.009477945549898125	0.005388716125162941	0.005456144226990801	0.0071709871617655595	0.009339581521022107	0.006666249684691181	0.005480937724912073	0.0049313896414862664	0.007062560142577688	0.00415343564271194	0.006290743664499127	0.005281277869204105	0.0056235669894665885	0.005004745580727422	0.006035381093992331	0.005391364400834882	0.005417690585706979	0.0050718025883067855	0.005547523635826501	0.005687313046921123	0.011111889316903642	0.01961875075896749	0.005716947043802906	0.007714843750541399	0.007548270392131642	0.005241714132375473	0.00531442997150112	0.004510219177019242	0.00936057394950893	0.011609935692267571	0.0051408405993494145	0.00535465824308377	0.005413132320508067	0.003836294614872669	0.004780756624036131	0.003872527230768256	0.00784696269537315	0.006642246353478199	0.011832335941000513	0.011458576222346605	0.007136716762059226	0.007717565900019201	0.005081600749483	0.004156155453711393	0.0072786135736646485	0.005797539034084847	0.008990758932725464	0.009618723894325162	0.006294673457189412	0.005540936411962754	0.005161860751128662	0.004848061329466417	0.007176611478043916	0.00585056503675422	0.006814059375733143	0.006563906580738908	0.004766766120842765	0.0045111387045411715	0.004490881034487981	0.004040868711788846	0.006183721178882499	0.007928217644510606	0.01946846909111176	0.025498035165359173	0.006679982667598717	0.005884941329034901	0.004652050572968504	0.0041649238664410206	0.004951147951153121	0.005586759458166999	0.014131342227513714	0.014757158262390643	0.005782899884193435	0.0048136888259539025	0.0036334329012487118	0.004490161615906724	0.004241567701875667	0.0040585263258245425	0.009251897963640014	0.00827967582571192	0.004219322377451982	0.005434467858642376	0.0043097224308998	0.005363536848843558	0.005727654700435137	0.005812992662733045	0.008732639411268152	0.005846474039138606	0.0044519423117597694	0.0027428623469762103	0.004550212547243297	0.004782110382026044	0.0036050158240826264	0.004737477623303442	0.0057288724433247895	0.005181776288499175	0.0038239501317520568	0.0031847824406554086	0.003965735138621593	0.0033244371086988047	0.003940707835316222	0.004673580970789891	0.005605575847963609	0.003933955955169315	0.004025479610112697	0.005930226308408915	0.005706583480034933	0.004636509422063012	0.003479012218439456	0.002782895646578202	0.0021847127800016025	0.0033497979335279666	0.0038437388953455236	0.004213559709417898	0.002447142273737251	0.0023462888205073567	0.0030990949682806763	0.0026764926779363693	0.002751472646858679	0.002300690322597866	0.0025528924359489585	0.005673723544878117	0.013425047131804063	0.00872077687007302	0.005382276405194716	0.0022019066467418302	0.002328835948069886	0.0022042605379849175	0.0008299191726955663	0.0038731734043481805	0.008892568182908234	0.0033513471585481756	0.0034569515931131816	0.0002034652464874111	0.0018877761429691264	0.0003725463323419106	0.0010733281248228562	0.0037701039093781972	0.0030117435334245874	0.007951387339577688	0.006007858672343222	0.004940070494437952	0.0026284660291554366	0.0007696747385299663	-0.000558587603692366	-0.0005456012000308475	-0.00047600427334384173	0.0	-7.873108382044188e-05	-0.00023556559371092398	0.0	-7.918435658140075e-05	0.0	-0.0001978337828612142	-0.00019010090360799508	0.0	0.00094108013407217	-0.00015810236137332316	0.0	-7.828793771852168e-05	-0.00015747229429992243	-0.0001579904195043393	0.0010974613712016932	-7.807785165857392e-05	-7.920133647215292e-05	0.0	-0.00019015567361149976	0.0	-0.00015769411571592157	0.0	-7.809329941100158e-05	0.0	0.0	0.0	0.0	-8.370681516210318e-05	0.0	0.0	-7.981442365480149e-05	0.0	0.0	0.0	0.0010974613712016932	-7.981442365480149e-05	0.0	0.0	-7.873108382044188e-05	0.0	0.0	0.0	0.0	0.0	-7.873108382044188e-05	-8.370681516210318e-05	0.0	-7.981442365480149e-05	-7.981442365480149e-05	-0.00018805411398308374	-8.069995277629949e-05	0.0	0.0010193680717906918	0.0	0.0	-7.873108382044188e-05	0.0	0.0	-7.873108382044188e-05	-7.918435658140075e-05	0.0	0.0	0.0	0.0	0.0	10000.0	P1
