	m0.000	m1.000	m2.000	m3.000	m4.000	m5.000	m6.000	m7.000	m8.000	m9.000	m10.000	m11.000	m12.000	m13.000	m14.000	m15.000	m16.000	m17.000	m18.000	m19.000	m20.000	m21.000	m22.000	m23.000	m24.000	m25.000	m26.000	m27.000	m28.000	m29.000	m30.000	m31.000	m32.000	m33.000	m34.000	m35.000	m36.000	m37.000	m38.000	m39.000	m40.000	m41.000	m42.000	m43.000	m44.000	m45.000	m46.000	m47.000	m48.000	m49.000	m50.000	m51.000	m52.000	m53.000	m54.000	m55.000	m56.000	m57.000	m58.000	m59.000	m60.000	m61.000	m62.000	m63.000	m64.000	m65.000	m66.000	m67.000	m68.000	m69.000	m70.000	m71.000	m72.000	m73.000	m74.000	m75.000	m76.000	m77.000	m78.000	m79.000	m80.000	m81.000	m82.000	m83.000	m84.000	m85.000	m86.000	m87.000	m88.000	m89.000	m90.000	m91.000	m92.000	m93.000	m94.000	m95.000	m96.000	m97.000	m98.000	m99.000	m100.000	m101.000	m102.000	m103.000	m104.000	m105.000	m106.000	m107.000	m108.000	m109.000	m110.000	m111.000	m112.000	m113.000	m114.000	m115.000	m116.000	m117.000	m118.000	m119.000	m120.000	m121.000	m122.000	m123.000	m124.000	m125.000	m126.000	m127.000	m128.000	m129.000	m130.000	m131.000	m132.000	m133.000	m134.000	m135.000	m136.000	m137.000	m138.000	m139.000	m140.000	m141.000	m142.000	m143.000	m144.000	m145.000	m146.000	m147.000	m148.000	m149.000	m150.000	m151.000	m152.000	m153.000	m154.000	m155.000	m156.000	m157.000	m158.000	m159.000	m160.000	m161.000	m162.000	m163.000	m164.000	m165.000	m166.000	m167.000	m168.000	m169.000	m170.000	m171.000	m172.000	m173.000	m174.000	m175.000	m176.000	m177.000	m178.000	m179.000	m180.000	m181.000	m182.000	m183.000	m184.000	m185.000	m186.000	m187.000	m188.000	m189.000	m190.000	m191.000	m192.000	m193.000	m194.000	m195.000	m196.000	m197.000	m198.000	m199.000	m200.000	m201.000	m202.000	m203.000	m204.000	m205.000	m206.000	m207.000	m208.000	m209.000	m210.000	m211.000	m212.000	m213.000	m214.000	m215.000	m216.000	m217.000	m218.000	m219.000	m220.000	m221.000	m222.000	m223.000	m224.000	m225.000	m226.000	m227.000	m228.000	m229.000	m230.000	m231.000	m232.000	m233.000	m234.000	m235.000	m236.000	m237.000	m238.000	m239.000	m240.000	m241.000	m242.000	m243.000	m244.000	m245.000	m246.000	m247.000	m248.000	m249.000	m250.000	m251.000	m252.000	m253.000	m254.000	m255.000	m256.000	m257.000	m258.000	m259.000	m260.000	m261.000	m262.000	m263.000	m264.000	m265.000	m266.000	m267.000	m268.000	m269.000	m270.000	m271.000	m272.000	m273.000	m274.000	m275.000	m276.000	m277.000	m278.000	m279.000	m280.000	m281.000	m282.000	m283.000	m284.000	m285.000	m286.000	m287.000	m288.000	m289.000	m290.000	m291.000	m292.000	m293.000	m294.000	m295.000	m296.000	m297.000	m298.000	m299.000	m300.000	m301.000	m302.000	m303.000	m304.000	m305.000	m306.000	m307.000	m308.000	m309.000	m310.000	m311.000	m312.000	m313.000	m314.000	m315.000	m316.000	m317.000	m318.000	m319.000	m320.000	m321.000	m322.000	m323.000	m324.000	m325.000	m326.000	m327.000	m328.000	m329.000	m330.000	m331.000	m332.000	m333.000	m334.000	m335.000	m336.000	m337.000	m338.000	m339.000	m340.000	m341.000	m342.000	m343.000	m344.000	m345.000	m346.000	m347.000	m348.000	m349.000	m350.000	m351.000	m352.000	m353.000	m354.000	m355.000	m356.000	m357.000	m358.000	m359.000	m360.000	m361.000	m362.000	m363.000	m364.000	m365.000	m366.000	m367.000	m368.000	m369.000	m370.000	m371.000	m372.000	m373.000	m374.000	m375.000	m376.000	m377.000	m378.000	m379.000	m380.000	m381.000	m382.000	m383.000	m384.000	m385.000	m386.000	m387.000	m388.000	m389.000	m390.000	m391.000	m392.000	m393.000	m394.000	m395.000	m396.000	m397.000	m398.000	m399.000	m400.000	m401.000	m402.000	m403.000	m404.000	m405.000	m406.000	m407.000	m408.000	m409.000	m410.000	m411.000	m412.000	m413.000	m414.000	m415.000	m416.000	m417.000	m418.000	m419.000	m420.000	m421.000	m422.000	m423.000	m424.000	m425.000	m426.000	m427.000	m428.000	m429.000	m430.000	m431.000	m432.000	m433.000	m434.000	m435.000	m436.000	m437.000	m438.000	m439.000	m440.000	m441.000	m442.000	m443.000	m444.000	m445.000	m446.000	m447.000	m448.000	m449.000	m450.000	m451.000	m452.000	m453.000	m454.000	m455.000	m456.000	m457.000	m458.000	m459.000	m460.000	m461.000	m462.000	m463.000	m464.000	m465.000	m466.000	m467.000	m468.000	m469.000	m470.000	m471.000	m472.000	m473.000	m474.000	m475.000	m476.000	m477.000	m478.000	m479.000	m480.000	m481.000	m482.000	m483.000	m484.000	m485.000	m486.000	m487.000	m488.000	m489.000	m490.000	m491.000	m492.000	m493.000	m494.000	m495.000	m496.000	m497.000	m498.000	m499.000	m500.000	m501.000	m502.000	m503.000	m504.000	m505.000	m506.000	m507.000	m508.000	m509.000	m510.000	m511.000	m512.000	m513.000	m514.000	m515.000	m516.000	m517.000	m518.000	m519.000	m520.000	m521.000	m522.000	m523.000	m524.000	m525.000	m526.000	m527.000	m528.000	m529.000	m530.000	m531.000	m532.000	m533.000	m534.000	m535.000	m536.000	m537.000	m538.000	m539.000	m540.000	m541.000	m542.000	m543.000	m544.000	m545.000	m546.000	m547.000	m548.000	m549.000	m550.000	m551.000	m552.000	m553.000	m554.000	m555.000	m556.000	m557.000	m558.000	m559.000	m560.000	m561.000	m562.000	m563.000	m564.000	m565.000	m566.000	m567.000	m568.000	m569.000	m570.000	m571.000	m572.000	m573.000	m574.000	m575.000	m576.000	m577.000	m578.000	m579.000	m580.000	m581.000	m582.000	m583.000	m584.000	m585.000	m586.000	m587.000	m588.000	m589.000	m590.000	m591.000	m592.000	m593.000	m594.000	m595.000	m596.000	m597.000	m598.000	m599.000	m600.000	m601.000	m602.000	m603.000	m604.000	m605.000	m606.000	m607.000	m608.000	m609.000	m610.000	m611.000	m612.000	m613.000	m614.000	m615.000	m616.000	m617.000	m618.000	m619.000	m620.000	m621.000	m622.000	m623.000	m624.000	m625.000	m626.000	m627.000	m628.000	m629.000	m630.000	m631.000	m632.000	m633.000	m634.000	m635.000	m636.000	m637.000	m638.000	m639.000	m640.000	m641.000	m642.000	m643.000	m644.000	m645.000	m646.000	m647.000	m648.000	m649.000	m650.000	m651.000	m652.000	m653.000	m654.000	m655.000	m656.000	m657.000	m658.000	m659.000	m660.000	m661.000	m662.000	m663.000	m664.000	m665.000	m666.000	m667.000	m668.000	m669.000	m670.000	m671.000	m672.000	m673.000	m674.000	m675.000	m676.000	m677.000	m678.000	m679.000	m680.000	m681.000	m682.000	m683.000	m684.000	m685.000	m686.000	m687.000	m688.000	m689.000	m690.000	m691.000	m692.000	m693.000	m694.000	m695.000	m696.000	m697.000	m698.000	m699.000	m700.000	m701.000	m702.000	m703.000	m704.000	m705.000	m706.000	m707.000	m708.000	m709.000	m710.000	m711.000	m712.000	m713.000	m714.000	m715.000	m716.000	m717.000	m718.000	m719.000	m720.000	m721.000	m722.000	m723.000	m724.000	m725.000	m726.000	m727.000	m728.000	m729.000	m730.000	m731.000	m732.000	m733.000	m734.000	m735.000	m736.000	m737.000	m738.000	m739.000	m740.000	m741.000	m742.000	m743.000	m744.000	m745.000	m746.000	m747.000	m748.000	m749.000	m750.000	m751.000	m752.000	m753.000	m754.000	m755.000	m756.000	m757.000	m758.000	m759.000	m760.000	m761.000	m762.000	m763.000	m764.000	m765.000	m766.000	m767.000	m768.000	m769.000	m770.000	m771.000	m772.000	m773.000	m774.000	m775.000	m776.000	m777.000	m778.000	m779.000	m780.000	m781.000	m782.000	m783.000	m784.000	m785.000	m786.000	m787.000	m788.000	m789.000	m790.000	m791.000	m792.000	m793.000	m794.000	m795.000	m796.000	m797.000	m798.000	m799.000	m800.000	m801.000	m802.000	m803.000	m804.000	m805.000	m806.000	m807.000	m808.000	m809.000	m810.000	m811.000	m812.000	m813.000	m814.000	m815.000	m816.000	m817.000	m818.000	m819.000	m820.000	m821.000	m822.000	m823.000	m824.000	m825.000	m826.000	m827.000	m828.000	m829.000	m830.000	m831.000	m832.000	m833.000	m834.000	m835.000	m836.000	m837.000	m838.000	m839.000	m840.000	m841.000	m842.000	m843.000	m844.000	m845.000	m846.000	m847.000	m848.000	m849.000	m850.000	m851.000	m852.000	m853.000	m854.000	m855.000	m856.000	m857.000	m858.000	m859.000	m860.000	m861.000	m862.000	m863.000	m864.000	m865.000	m866.000	m867.000	m868.000	m869.000	m870.000	m871.000	m872.000	m873.000	m874.000	m875.000	m876.000	m877.000	m878.000	m879.000	m880.000	m881.000	m882.000	m883.000	m884.000	m885.000	m886.000	m887.000	m888.000	m889.000	m890.000	m891.000	m892.000	m893.000	m894.000	m895.000	m896.000	m897.000	m898.000	m899.000	m900.000	m901.000	m902.000	m903.000	m904.000	m905.000	m906.000	m907.000	m908.000	m909.000	m910.000	m911.000	m912.000	m913.000	m914.000	m915.000	m916.000	m917.000	m918.000	m919.000	m920.000	m921.000	m922.000	dose	pattern
P1_SQ1_r500	-1.0061681078860523e-05	0.01700093021337301	5.59951958027072e-06	2.4071722801473107e-07	-4.751878579342302e-07	-4.231509216953725e-07	3.023789888970126e-07	3.4368572086081195e-06	1.4779440923458551e-06	-3.166295560309741e-07	-5.575288545107435e-07	6.751549359638769e-07	-0.004170910393580505	-0.0008549305442884028	0.000975293077889898	9.228156691260035e-05	-0.0025597566617399092	0.012392286904761574	1.0353076011068371e-06	-0.004452978421291994	-1.38641135214012e-06	-7.892799305589448e-07	-2.019703406406342e-06	-9.223822597790043e-07	-0.014256052747898252	-0.0236253186660893	-0.0011900547248340256	-1.7388780402846204e-05	-0.000735164111460382	-0.0005313436911490064	-8.909896109151615e-05	-2.58299738004571e-06	0.0023366240587612244	0.0020061956756539322	0.00011885016985139715	0.021125152159484295	-0.0035676183425179557	0.00564162507005847	-0.0010266769445533347	-0.0009236574462331603	-0.0008121741737272554	-0.007957936771053314	0.002053488867280088	0.002704223975469008	9.477851359861807e-05	-0.005751594693639594	-3.429298960877606e-05	2.0478041408691786e-05	-0.004228651640760216	-0.013174852258382098	-0.001159096111273674	-0.0009821201883050633	-0.000586399842877149	-0.0022796462635041076	-0.0002158313270925212	-0.0011082845205494527	8.297436431617319e-05	0.000118899941129167	0.00023273956468462028	0.0070351833765711115	-0.011769608117144018	-0.005587639691964314	-0.0022966985840472617	-0.0007184007079568898	0.003804759382263227	-0.0041591267392902765	-0.00019895815355131376	-0.0019202713965845285	-0.00018107443582608695	-0.0026414213140505106	-0.00011966792091797865	-0.0007780364199392472	-0.0025043864013160975	-0.006403654853900173	-0.0008096034620662983	-0.0001586425855632104	-0.008121377751224268	-0.009789372987404663	-0.0008727639410286954	-0.000887379311880349	0.0062842172234038075	0.0009474644342872015	0.00014728323546210837	-0.00034669156461072806	-0.0011796552701184406	-0.0016885139063339757	-0.0010461861072007198	-0.0007460777659195575	-0.00023572039607242011	-0.0011543542848449673	-0.00017855418385887695	-0.0006682872423184335	-5.948858621270393e-05	-0.000658638863513708	9.490455910368483e-05	-0.0004643238098570759	0.00013605263119483534	0.0004333263939752755	-0.0003364333300391695	-0.00033262410760650563	-7.970134801126271e-05	-0.0006174718926705723	0.0003118062519491011	-0.0006015659914647576	-0.00012689943567438853	-0.000337441229821491	-0.00011725203696286445	-0.00022858497895762893	-0.0005599166597037787	-0.0007678591067684399	-0.0004592666942121204	-0.0004884245375097916	-0.00012704345782178365	-0.0005067154210119263	-8.602770082134702e-05	-0.0003065760793800285	-0.00011738929358368357	-0.00040203492192172224	0.000158237227075029	0.0012409721806851091	-0.0006902345226901584	-0.0016301168170867637	-0.0002791326480545695	-0.00015975954621964925	-7.633425867270864e-07	-0.00019338187435322655	-7.086707056911553e-05	-0.00039630676516074935	-8.013808668082606e-05	-0.0004182598397373088	-0.00011587758127802936	-0.0004418300985694143	-0.00021277526207152725	-0.00042351005371703027	-0.0005135265681592551	-2.3614238126592807e-05	-0.0011046711059532885	-0.003222965261075042	-0.0004631995738382448	0.0010325141567967757	0.00018343950033055707	5.819251285600017e-05	-5.009320019356043e-05	-0.00045410964189760176	-0.0001548871840282634	-0.000707986505471111	-0.00010945968829303927	-0.0005329325547582227	-6.642519681926206e-05	-0.00047746927697527486	-6.451130598189326e-05	-0.00024877624900024813	-9.738243298926033e-05	-0.00019996792351094426	-3.8499649331606874e-05	-0.000422059641905998	0.00011312848926044893	0.000331216072635468	-0.00017754255545223747	-0.0001836461661362555	-9.575754052750126e-05	0.00023633464348875267	5.25452771784219e-06	-0.0007443500177855868	-5.099284456045009e-05	-0.0003037642586692364	-6.329942216778403e-05	-0.0002313164392524799	-5.1192511275536076e-05	-0.00041423011431928735	-4.267328111919855e-05	-0.00038611006068931203	-7.637512260731097e-05	-0.0004520194106062338	-0.00011003574562976076	-0.00023663525660000092	-0.00015067208388329167	-0.0001680550191397053	9.035429147434651e-05	-0.0007853297206043795	-0.00019515693317570244	-0.0004458244889870805	-0.00010392826508460155	0.00036378728048219614	1.605749807426823e-06	-0.0002364094443044406	-0.00010661105495687434	-0.0006718629039532313	-0.00021279454853757515	-0.0004193759723104386	-9.909753045057499e-05	-0.000353602358331865	-6.814969987841573e-05	-0.00015102124044928184	-6.780780751362698e-05	7.997018104401372e-06	-0.00019481561020059354	-0.001228625975361379	-0.00021457234341916038	0.000540834413434848	-6.71293252130698e-05	-0.00023535049183956658	-5.094726835395695e-05	-0.00048309071909353226	-5.460077053127301e-05	-0.0005306958733035077	-0.00011014998219086882	-0.00026201336299290035	-8.126211943497647e-05	-0.00011119525045736201	-6.943145741811657e-05	-0.00017123961919432906	-6.106500091219478e-05	-0.00025710901416890926	-5.7466507055770305e-05	-0.0003251968261788824	-6.725739044135662e-05	-0.0001289503711288816	-7.709372028769555e-05	-0.0001376198849494404	-4.818783982763538e-05	0.00022514179753902342	-0.00015204837789414252	-0.0007428709550819832	-6.652094809902204e-05	-0.00018226011576752247	-5.078638225496093e-05	-0.00015447015900442186	-5.765834100139949e-05	-0.0005204718556771136	-9.791850123450202e-05	-0.00035559097513065323	-6.412955856181627e-05	-0.0002817994218817766	-6.662707990315485e-05	-0.00018175257002566797	-0.0001331899709156187	-0.00017325836471745245	-1.747350753200324e-07	-0.0012612994377088306	-0.0001119664407505183	-0.00037863245502991875	-8.233855227345784e-05	-0.00021464352619672008	-4.591851748642482e-05	-0.00033788990770470075	-6.628380908662605e-05	-0.0006677244766407799	-0.00010056971040842605	-0.0003695568044302047	-7.49966860221835e-05	-0.0002451278376130025	-5.7985031167490255e-05	-0.00025171236916619774	-4.843481304462604e-05	-0.0002295966436140672	-0.00010953970716206696	-0.0008661970218746702	-0.0001023395808691584	-3.672295610828943e-05	-9.575311603514692e-05	-0.0002152630123655143	-7.22231813599492e-05	-6.115922733905565e-05	-0.0002250426232574686	-0.0009030988228040709	-9.048045293037386e-05	-0.00025020006980914426	-7.682956197048994e-05	-0.00016417113548685563	-6.518112352675631e-05	-0.00028330201100733505	-0.0001603474508410452	-0.0004158976754337298	-8.618162793645276e-05	-0.000258409443561153	-5.0990446475485324e-05	-0.00016063551188921955	-6.0770320106596153e-05	-0.00022429160426332953	9.563370956009376e-05	-0.0013042279001821543	-0.00016363702875651914	-0.0003676724840897584	-9.24019618072187e-05	-0.0002188651345416974	-5.458497560002754e-05	-0.00020096814235637375	-9.544748774169447e-05	-0.0009201907807413121	-0.00011851277389530367	-0.0002674755839024861	-6.907415613644473e-05	-0.00015500189603266125	-8.269442357810594e-05	-0.00031496211259348316	-7.049603102448503e-05	-0.00018061356073120337	-0.00015689523151168883	-0.00089812387660133	-0.0001262938935628401	-0.00024762500752469464	-0.00011716287857613958	-0.00020871868402618253	-8.210494949707645e-05	-0.00034798481369724074	-0.00015107162563956247	-0.0005894116081875008	-0.00010473465474141464	-0.0002529847491967215	-6.473506342431147e-05	-7.819400964844656e-05	-5.593678164342616e-05	-0.00021143216166353695	-0.0001043129106539404	-0.00025383983211960755	-0.00012404647861307536	-0.00034458415624729624	-0.00010579610740481379	-0.000132190947300648	-9.850354874284507e-05	-0.00017817849597629945	-0.0003539904452745661	-0.0007447706363385934	-0.00016720211032677016	-0.00028722841253295804	-0.00010273393879313975	-0.0001437285627567727	-6.28467538027463e-05	-0.00015507963567369597	-0.00025154360501599164	-0.0007987342610748558	-0.0001160707858317722	-0.00022088262349312566	-8.836056833944555e-05	-0.00014523239449435718	-6.891521525516082e-05	-0.00012048591598891732	-9.528042499909944e-05	-0.00016005698313480935	-0.0003431634151275444	-0.000633199644944193	-0.0001927674983941293	-0.00021778234244592787	-0.0001388278379888891	-0.000171656129066787	-0.00013456063172161093	-0.0002805276762440456	-0.0001666643206185254	-0.0003625483629363524	-0.0001292601836930812	-0.00022659650794287865	-0.00011837574579237758	-0.00015614161650054709	-0.00015270842648210358	-0.000295214142844332	-0.00013691722933166164	-0.00019926972746617938	-0.00017505756647892307	-0.0003660936233342943	-0.00010287930062214247	-0.00010781054090801192	-0.00010829067107682991	-0.00015896430340397907	-0.000834761717481021	-0.00030823262752292975	-0.0002626614511145596	-0.0002426488901614716	-0.0001406479115256472	-0.00015301369205815478	-9.856070290207501e-05	-0.00013578358644050255	-0.00038396515859359746	-0.0007189309160185439	-0.0001653901277149759	-0.0002133775826911372	-0.0001361903857591454	-0.00025316357126704	-9.802796924846276e-05	-0.0001729301367245063	-0.00013891605878785834	-0.00014911544524310596	-0.0003323339690113593	-0.0004689668566955948	-0.00019905172180000464	-0.0002785613949094645	-0.00015639584395550537	-0.00018985834276104012	-0.00020891000499773164	-0.00024586871560610074	-0.00013466123714464675	-0.00023006237899912137	-0.00014042355007595924	-0.00017383508824213902	-0.00011073280725061138	-0.00012727326230637626	-0.00020580650450471866	-0.00026713152084194253	-0.0001294563668370047	-0.00015107265457082867	-0.00030838952486176424	-0.0004465902253711925	-0.00012217332045755345	-0.0001800291205781384	-0.00010976655164940958	-0.00015802823921431386	-0.00011810612647341804	-0.00015579582339704003	-0.00033346806819928895	-0.0004697930657747857	-0.00012706219358414356	-0.0001539549170097579	-9.801800399256783e-05	-0.00010670842614795832	-9.92026604675929e-05	-0.0001492900978686785	-0.0002454025364364152	-0.0002112273232058455	-0.0001753768360112788	-0.0001813724598251144	-0.00014599264112062223	-0.00013858124603925595	-0.000139915256990812	-0.0001492278241550602	-0.0003752453995019005	-0.0010955428681203583	-0.00018844212294059313	-0.00021662913706664187	-0.00011067992083018633	-0.00012078430730835086	-0.00010474739257007511	-0.00012170586588701477	-0.0003410836139106814	-0.0007194467302643263	-0.00014031789636793446	-0.0001376337310383958	-0.00012930586729100997	-0.00012700686562781596	-9.844692906158694e-05	-0.00010089762692544826	-0.0001894668872005184	-0.00015087477838145733	-0.0005132969434177978	-0.0005473203705771007	-0.00018041616786193624	-0.00022089908756105095	-0.0001276874003002493	-0.00011636348608503881	-0.0001644126293925517	-0.00022127013068482117	-0.00021492484922261933	-0.00030025279156105323	-0.00015944382908004233	-0.00016432768737746078	-0.00012160659707588357	-9.39104924191354e-05	-0.00015921933894087067	-0.00020991899352447362	-0.00014038639097365443	-0.00018611417966856632	-0.0001651771875685113	-0.00014670433469809595	-0.00010458641812511625	-0.00010608644287023281	-0.00014809100416833727	-0.00016209751104047574	-0.0012722276122969392	-0.0005442306876111067	-0.00020774325560643416	-0.00016369628197187072	-0.0001345286112823042	-9.153429542123749e-05	-0.00010935174100418284	-0.0001084660405279534	-0.0006166807392776212	-0.0007593308641995973	-0.000151221731361607	-0.00012991757918536458	-0.00015773913777580016	-0.00011931120084196346	-0.00010349223210656065	-0.00011160296939687601	-0.00017736955847748683	-0.00013059386983902403	-0.0002510364757468211	-0.00019518812477487213	-0.00018540019019004102	-0.00020016057637847789	-0.0001835944272292475	-0.00013282104699402112	-0.00026918591277293316	-0.0002147403453731321	-9.541448867131277e-05	-0.00010226865953131772	-0.00010993871930994027	-0.00012790530186468843	-0.00010700124977127892	-8.571883151773521e-05	-0.00028782111743968304	-0.0002248346888722146	-0.00012845156196665525	-0.00010267897609398652	-0.00028162177154653214	-0.0002310570374202363	-0.0001086933158308579	-0.0001186610288561852	-0.00012966194210964837	-0.00011261230580215543	-0.00010939093162905086	-0.00015645548119520307	-0.0003216778672985941	-0.0002847129449486346	-0.00012411935138524188	-7.750896932352011e-05	-8.42993249820334e-05	-6.494018293235657e-05	-9.999862978424973e-05	-0.00010546520962143017	-0.00016647039048162503	-0.00010983948415677838	-0.00015910941272806066	-0.0001392320617096542	-0.00012653973564970684	-0.00011805658667953111	-0.00014299320273127323	-9.27158388222803e-05	-0.0005060312951754966	-0.0010240424951263377	-0.00017916547222106586	-0.00012920981761670506	-0.00014726388399242339	-0.00011411278445517715	-8.371960692468414e-05	-6.782236416514172e-05	-0.0002744601454299613	-0.000511944978143166	-0.00011561427094884596	-9.220162714350498e-05	-9.271491289068703e-05	-6.42424455272119e-05	-8.374463021002397e-05	-5.5134439550305785e-05	-0.00014371978542437473	-0.00010052484105949359	-0.0004789925377279506	-0.000425437270628622	-0.00018530695588886745	-0.00015720239894028256	-8.91133533915898e-05	-7.237482482915698e-05	-0.00012906325581196737	-0.00014317714193186465	-0.00017873893576643755	-0.0002240928825266235	-0.0001504017902357404	-0.00011188561077748985	-9.250905268344939e-05	-6.453001468302187e-05	-0.00013174368107851794	-0.00011526811097025266	-0.0001174759273318782	-0.00011343819874395548	-0.00012528416961722974	-7.361846731194546e-05	-8.678076423788449e-05	-7.782677501988288e-05	-0.00014122936279847834	-0.00011102993852393076	-0.001208346476565406	-0.0009724765373235935	-0.0001514048785001749	-0.00011129330350906255	-9.011073266954301e-05	-5.059946451873822e-05	-0.00011341802054140128	-7.647220355434289e-05	-0.000509733751288163	-0.0006540928363582138	-0.00012374506853676142	-9.830622516083963e-05	-0.00010748108603756459	-6.038930063176236e-05	-9.971136395605947e-05	-6.052795974727812e-05	-0.00017054685686121855	-5.94039958693003e-05	-0.00011935458566132722	-8.892074183246642e-05	-0.00013351483410613754	-0.00011071166046816672	-0.00015265536697480525	-9.16964876669704e-05	-0.0002535561760737697	-0.00015473735454970297	-7.815261815326017e-05	-6.310599175762664e-05	-8.627876117466212e-05	-6.484429597737018e-05	-9.754025260648432e-05	-6.423790115116674e-05	-0.0002218349412527734	-0.00012454566116750602	-0.0001026016338620478	-6.390699178663696e-05	-0.00019491554419982543	-9.493693322975221e-05	-7.649050609345357e-05	-5.222791153803303e-05	-0.00014564817898692382	-0.00010181001180767924	-8.94630153962624e-05	-7.991946462827617e-05	-0.00019883809481408384	-0.00014012828182505233	-0.00010103975452471088	-6.490149078803179e-05	-8.243077627750051e-05	-6.14061292706212e-05	-8.933308952239608e-05	-5.549983139248812e-05	-0.0001235664132428543	-8.156188399515137e-05	-0.00013583084599202598	-0.00011553937784770051	-0.00012409953045593581	-8.836617518044802e-05	-0.00010185195302584354	-7.094303658082049e-05	-0.00035670656231414494	-0.0007853332875589663	-0.000142896230659118	-0.00014276071954807447	-0.00012649774778943716	-6.737379427584549e-05	-8.518510916152625e-05	-6.677733037391456e-05	-0.00022397563864964777	-0.00032589919072126657	-0.00010781363943217784	-6.0732455878586956e-05	-8.213464974068471e-05	-3.564468369263792e-05	-5.881109594782715e-05	-4.298264838388211e-05	-0.00010280951648768981	-7.552034939020227e-05	-0.000423397436730952	-0.000319313906085197	-0.00015488320837347286	-0.00013509678285968902	-7.602973636056368e-05	-4.521247613243956e-05	-9.894972252552918e-05	-7.706061923560647e-05	-0.0001775947359701114	-0.0001876020111385462	-0.00014695911692666334	-8.468464670480454e-05	-6.303048060709324e-05	-4.7857298352279364e-05	-0.0001053483180861447	-8.010620804151497e-05	-0.00014095750930474927	-9.614236903951837e-05	-0.00011184920336277819	-4.466744712199062e-05	-8.628965515661536e-05	-4.589213342913915e-05	-0.0001141031036011077	-9.891155804562084e-05	-0.0010109707663146141	-0.0007644944076852303	-0.00014367754473425194	-7.753672465497541e-05	-7.859604442402084e-05	-4.842426153243948e-05	-8.625452419401153e-05	-4.88432298708776e-05	-0.0005023110972017168	-0.0004949442651874459	-0.00011682047556533514	-7.801002213420978e-05	-7.470913472377697e-05	-4.444424003047701e-05	-7.294618087711777e-05	-4.3890573319588596e-05	-0.00015489566162665152	-8.096488300110907e-05	-9.486539097126363e-05	-6.306515204206185e-05	-0.00011085016593643824	-8.976440129117693e-05	-0.00012926453572079612	-6.412503739591606e-05	-0.00021204539115257255	-9.062526850175105e-05	-6.125920936939319e-05	-3.603285585595041e-05	-6.77884777326959e-05	-4.1741305568533935e-05	-6.48804265787667e-05	-4.739124965814922e-05	-0.0002141701419695152	-9.819304493455894e-05	-9.407070307542389e-05	-4.8693445960810967e-05	-0.0001331467424153189	-5.3428112177347744e-05	-5.5413577591572125e-05	-4.8207328008448115e-05	-0.00012104798078869357	-6.626869346022033e-05	-7.585150894527406e-05	-7.505483079119607e-05	-0.00017107385741274008	-7.363810686599697e-05	-6.809600965603156e-05	-4.437383690060225e-05	-8.601113994308478e-05	-4.094680142733247e-05	-6.348520762315091e-05	-4.364201268346138e-05	-8.363094398084007e-05	-4.759575661322175e-05	-0.00013072194257704087	-8.427353975893024e-05	-0.00010487231832803492	-6.147196971239789e-05	-9.101480502953478e-05	-5.8315646993397754e-05	-0.0003097345373548148	-0.0005247121877502525	-0.00010426077031292703	-8.43625264752507e-05	-0.00011236390966902974	-5.762257290561258e-05	-6.843541963157427e-05	-3.864454230553996e-05	-0.00016060755540747975	-0.00019210222933420737	-6.298185861321916e-05	-4.610246133869392e-05	-5.4167698748849016e-05	-2.7901237390528153e-05	-5.845191524686616e-05	-2.907471848577243e-05	-9.405264573991748e-05	-5.575061886835634e-05	-0.00034178438851047567	-0.00019838031726945215	-0.00015164228530099752	-9.159621394360832e-05	-5.60271688044762e-05	-4.246130733170046e-05	-5.7646631116988e-05	-5.9399301206405e-05	-0.0001439866652776879	-0.00012943089724693895	-9.964452363988096e-05	-5.0376297766357476e-05	-5.156608105016074e-05	-3.442704644003799e-05	-8.368298485399392e-05	-4.834430738122046e-05	-9.144247996385277e-05	-6.441984757358015e-05	-5.2503282303564594e-05	-3.197627967479006e-05	-4.241501506407804e-05	-3.5731708416177107e-05	-8.046487157133924e-05	-9.462860751970094e-05	-0.0008307555849952917	-0.000384615284516077	-0.00010051238964601847	-3.987027604444526e-05	-3.9955664708258534e-05	-2.46344560701568e-05	-5.83447470886508e-05	-6.346279074065225e-05	-0.00036359635898692075	-0.00029707635630050056	-6.764767831099484e-05	-4.845528561750469e-05	-5.138696243621791e-05	-2.668629804264671e-05	-3.997792978950967e-05	-3.196571575710933e-05	-0.0001157824232431583	-4.53062456093906e-05	-5.443389124529226e-05	-5.207046833471376e-05	-4.4359158613304416e-05	-3.870713972918644e-05	-5.487607890035491e-05	-4.4411349479569774e-05	-9.094190533410863e-05	-5.578342779396124e-05	-2.3026575058067767e-05	-2.677651269650508e-05	-3.5302025334127586e-05	-2.4641200088535865e-05	-4.5524364280738786e-05	-4.0284493832043884e-05	-7.850808441822914e-05	-4.858801328111891e-05	-2.671021586641763e-05	-2.0298096232122803e-05	-5.112005768147984e-05	-1.8642220780590745e-05	-3.859930875532014e-05	-2.345925602053071e-05	-4.770810897898097e-05	-2.630127952804013e-05	-1.9287859213414223e-05	-4.8563184421416265e-05	-5.355548166953428e-05	-2.7543456067761034e-05	-1.930651093572836e-05	-1.5599568995301963e-05	-1.4959438146023745e-05	-1.2095891260990125e-05	-1.4366241965546557e-05	-2.6454686820849496e-05	-1.5298087979969686e-05	-1.2183743129361183e-05	-5.9314857664145685e-05	-1.7814152990391225e-05	-3.881908048591803e-05	-1.3073472198506216e-05	-2.1830423733779597e-05	-9.034800913942882e-06	-0.00039811967026194507	2.0878711342514297e-05	-6.347857093809401e-05	-1.8466999834446297e-06	-2.0013582750189917e-05	-8.077609206598429e-06	-5.386448145484481e-06	-8.846934884250905e-06	-0.00011827545959940832	-6.68507799376469e-06	-1.4643845955238559e-05	2.3343302328833565e-06	-9.375587498987074e-07	8.971978482301366e-07	-1.4176426034742244e-06	-3.5617560661175673e-06	-2.6528189929130665e-06	-1.396205982362171e-05	-1.5480362709223903e-05	6.224283384437075e-06	5.685356611790208e-06	2.3020204211534684e-06	3.941546984407931e-07	1.034519697326343e-06	-2.460317782595245e-07	0.0	-4.038013137404984e-08	-1.2050182741733883e-07	0.0	-4.084642467684523e-08	0.0	5.541854452228949e-07	-1.2145639031945004e-07	0.0	-1.196865175071786e-07	-8.142588081804738e-08	0.0	-3.992684342890402e-08	-8.077326810574926e-08	-8.130359164778947e-08	-4.0031114766685e-08	-3.971284334127011e-08	-4.086394434138372e-08	0.0	-1.212593694970028e-07	0.0	-8.100243701525079e-08	0.0	-3.972855931158959e-08	0.0	0.0	0.0	0.0	6.390353757002041e-07	0.0	0.0	-4.1499037389143375e-08	0.0	0.0	0.0	-4.0031114766685e-08	-4.1499037389143375e-08	0.0	0.0	-4.038013137404984e-08	0.0	0.0	0.0	0.0	0.0	-4.038013137404984e-08	6.390353757002041e-07	0.0	-4.1499037389143375e-08	-4.1499037389143375e-08	5.681041506140502e-07	-4.2424996324655304e-08	0.0	-7.97596740782746e-08	0.0	0.0	-4.038013137404984e-08	0.0	0.0	-4.038013137404984e-08	-4.084642467684523e-08	0.0	0.0	0.0	0.0	0.0	500.0	P1
P1_SQ2_2000	1.2333695421225771e-05	-0.07324821697535139	-1.015514732858473e-05	-3.987395327954748e-07	5.744433112609832e-07	3.0674843985221575e-07	-1.0669814511350336e-06	2.9782816711909026e-06	-2.1114130084877199e-07	-3.166295560309741e-07	-5.575288545107435e-07	-2.0635616264259635e-06	0.012104671144319255	-0.0014638935346275583	-0.0030347826916912995	-0.0007275915159482664	0.09294831602589818	0.0067788604602237595	0.00025287136619994065	0.029229320369430406	-2.915644958449005e-07	-1.1090092013957777e-06	-1.2898040448587535e-06	3.0016056637363402e-06	0.037225128144304405	0.014211526279423806	0.021921821161406674	-0.0020992868659056685	0.0032453202324174086	0.0016988228098329457	0.00041704754175056637	4.297825703992355e-05	0.0015326072756063325	-0.0003749350027716007	-1.5728582247125807e-05	-0.05866246978411068	0.005190271554520499	-0.02186992400023596	-0.002886668496591258	-0.002004736053286812	-0.0006252023750238063	-0.022118308725983228	-0.001084678667927772	-0.01296133667951974	-0.000499291444877813	-0.013487793880260267	-0.000325828966084262	-6.808164385855127e-05	0.009484794195409147	-0.00632267678326533	0.0007868194112146017	-0.003848776131246955	-0.00033307881156766734	-0.004821249839356906	-0.0004985874681409124	-0.0020721794396714732	-6.939843115952117e-05	-0.0007690037992674841	-0.001665970879097535	-0.012776949295996957	0.041809825239487675	0.011961393859155187	1.9401327366639493e-05	-0.00013629784248664215	-0.0016573218335116501	-0.0074078136609490265	-0.0010278326853431913	-0.006265386509441424	-0.00014244147177736293	-0.00465488794733255	-0.0002953899645918897	-0.0038950392250409528	0.004033226725804745	-0.0018159541745130098	0.00010785539132139262	-0.0023352437293536915	0.03387247535096918	0.03189804693522942	0.003080950084498298	0.0031801028846396317	-0.001479227514857468	-0.0011717746659905747	-0.00039140651086848343	-0.002641870648650149	0.001268410015613875	-0.0011139654403235326	-0.0007480757958376587	-0.0016263379591881287	-0.00032699077486065674	-0.0017499748111745182	-0.0003561425616322352	-0.0014332820758535879	-0.0004834251297620979	-0.0017003562709338022	-0.00041438495811227773	-0.002480448054066209	0.0015063291516084119	-0.0007395310234930424	4.3739075358239284e-05	-0.0009346674213284657	-4.828794688793551e-05	-0.0008148803459981864	-0.0007469937693641043	-0.0039011174104554127	-0.00010957283935443166	-0.0007042356011908138	-0.0002691188906837564	-0.0006472755234720279	0.00034850413174195786	-0.0001681334895741386	-0.00017624829295310952	-0.0008079860715654223	-0.00023941279786597562	-0.0012326336175678227	-0.00021758330056560984	-0.0007945014818727154	-0.0002690745870118585	-0.0007787905548613052	-0.00040791006978239106	-0.010497732519628898	0.0017656920557519672	-0.0006856205707363103	4.030065938095148e-05	-0.00048293955651664146	-0.00016883358453325124	-0.0004431661175643831	-0.00020972170372108965	-0.0026502233753744205	-0.00019936436853463938	-0.0010899078000906962	-0.0003325835120606886	-0.001149822142247937	-0.00014278743550540367	-0.0006364609125001077	-0.0009909341238788804	-0.0009474637421494738	0.0041942455973112336	0.005290812140755731	0.001256818454000643	0.00036096540145382936	-5.597760855431325e-05	-0.0004891534756334835	-0.00020756941263317668	-0.001492154318108729	-3.073426917794017e-05	-0.001951841818671112	-0.00023327138859338686	-0.001203156036225424	-0.00021746150755034259	-0.001164117595268408	-0.0002533356990113871	-0.0006102720263594245	-0.0003073408621529116	-0.0005745666051943249	-0.0002898636711512099	-0.0019235959698574623	-0.00019951795576514747	-0.0010666146289581696	-0.00028674901461016495	-0.0005636714883444925	-0.0002866042544049704	-0.00210810845320559	-0.0005492635769552871	-0.002424677734023063	-0.00021960229809719103	-0.0008137197325619964	-0.0001830234735288479	-0.000559670665029761	-0.00014235217396465163	-0.0007174354749228645	-0.0002069485969274432	-0.0008449719623641234	-0.0002288235120078741	-0.0014508390940011588	-0.00026257279341149317	-0.0008429714380949814	-0.0004969461954115376	-0.0006897677364927146	-0.000360239492602177	-0.008410357833011544	0.00011983543635602932	-0.0011430524571925643	-0.00017127856514882582	-0.0006565325714650426	-0.00023372934987625894	-0.00047868920322442445	-0.000271428222815688	-0.0015613257499204622	-0.0004483014429005195	-0.001137351892514228	-0.00024314342277695372	-0.00089389164516368	-0.0001745887648805756	-0.0003808218499631028	-0.00022582647725803075	-0.0006957302354560345	0.0006205601222104617	0.00047288979692122366	0.0003945009090933492	-0.00039931585032033435	-0.00013465440149275267	-0.0005564820438052078	-0.0001826718141484564	-0.0011393056815993052	-0.00020901288649922332	-0.0016836115634022335	-0.00024064383519851887	-0.0007919802276486998	-0.00019272135976912262	-0.00043150439330096236	-0.00017892920531079932	-0.0005418036395121357	-0.00017918865021194052	-0.0006172522220231332	-0.00019284134814974863	-0.000995341389910852	-0.00016105511279931333	-0.0005881237025420036	-0.00017846688887279143	-0.0004173528812624985	-0.0003088169214120343	-0.004602146251036702	-0.0005532896308558036	-0.002711164949660471	-0.00024703219519837136	-0.000574695409255502	-0.00018050041106729142	-0.0004215923422257645	-0.00017573459257221426	-0.0011608515192956977	-0.00023740015127644436	-0.0008805471447975707	-0.0002200854008471966	-0.0007811863271279023	-0.0002142765249668925	-0.0004939692120552126	-0.0004389257978830352	-0.0007851451451680503	-0.00037725255647507003	-0.006469772002357181	-0.00016699938771808174	-0.001093000373703704	-0.00022948678987392694	-0.0005863283973089077	-0.00018393954317507663	-0.0008986094841627511	-0.00020056067804303786	-0.0015585443279614122	-0.00041279134608352563	-0.0009542091387740595	-0.00020411872249553577	-0.0006499789257729353	-0.00015862835136064524	-0.0006346384660312729	-0.0002038449497925596	-0.000768021815333293	-4.971233842208971e-05	-0.0015167685612450935	2.0542729634035828e-05	-0.0008174157485121415	-0.0001894200501105545	-0.000517933264545678	-0.00040226344088861184	-0.0016798398266130341	-0.0014128510927203333	-0.002638000052385419	-0.00034975389645047983	-0.0007027295287257662	-0.000191618885319498	-0.0004100304169804608	-0.00018425938711836437	-0.0006855330211988812	-0.0003818420647764142	-0.0009084935643252171	-0.00021087665425449298	-0.0007366928831676118	-0.00015596879750816563	-0.000551563667474256	-0.00024068016082451864	-0.0007211536304284541	-0.0009154191398888726	-0.010795908214345317	-0.0006192794363988169	-0.0015242448226993831	-0.00029002404448197637	-0.0005332713263269727	-0.00019543484727926826	-0.00048013851438097387	-0.0002644089900892651	-0.0021178625240917738	-0.0003826752172921821	-0.0006622773620128486	-0.00019728072295909928	-0.0004783052001475725	-0.00020072293572782868	-0.0006556843870951936	-0.0002490863015014248	-0.0007136184496444381	-0.00044403572322228725	-0.003128521477578111	-0.0002537721524380386	-0.0011526592172048573	-0.0002471971602204351	-0.0004892601570135171	-0.0002137352769587653	-0.0008366152706976301	-0.0005020002564979051	-0.0016213485365622134	-0.000282776840931713	-0.0005885601713720996	-0.0001782460584660055	-0.0003601393184867362	-0.00015447790823281494	-0.0004726730264426165	-0.00024251406263111673	-0.0006109084801256021	-0.000229029216739719	-0.0005553939336171521	-0.00010577736278363686	-0.00048065811013594823	-0.00017874746441788277	-0.00042618384416600805	-0.0023701548646085893	-0.00826199305571787	-0.0005764783152242438	-0.0012274357664691087	-0.0002503812274504185	-0.00042459281688657006	-0.00017740858466269913	-0.0003291538128827292	-0.0004927002565647188	-0.0017616641066380385	-0.0003063432610557591	-0.0005107375567959847	-0.00021300803846442876	-0.0003882216190534859	-0.00014838103894850694	-0.00031596292673747895	-0.0002829962368587776	-0.0006540801204182117	-0.0011670518752949907	-0.0023813319938779057	-0.0005754588480650009	-0.0008594235273053426	-0.00032316785517022794	-0.000413824355862478	-0.0002976357848149904	-0.0007182507941135367	-0.00045651170444842336	-0.00087794228813506	-0.0003149683777334764	-0.0004963330751665488	-0.00020792713138779412	-0.0003220496821920834	-0.000264167512057603	-0.0005313121862280707	-0.0002770824768364038	-0.0005140897656222735	-0.00038824438756505957	-0.000876442776988252	-0.00023300693637391418	-0.00045217471860785173	-0.00023056578174399016	-0.0003905453021211794	-0.004067336795851346	-0.008115976487282081	-0.0007201244196201607	-0.0008739931021016637	-0.00033156157063727926	-0.00040521934717776826	-0.0002168647955075889	-0.00029315649182666906	-0.0008141723241189307	-0.0015865146538447527	-0.00034740268962200215	-0.00042004294910372847	-0.00028356761875494363	-0.00044081491373410047	-0.00019324428187398522	-0.0003593385681384403	-0.000352011252641737	-0.0006050954100506738	-0.0009842257955714093	-0.0016691268262443912	-0.0005448349037026953	-0.000792803487775736	-0.0003379982627888952	-0.0004008148083416852	-0.0004473847970242382	-0.000637787561456158	-0.0003097875276614315	-0.00048624575097284994	-0.0003269554508742662	-0.00041221578740194384	-0.00022935704542990183	-0.000300670042835579	-0.0003791541640920817	-0.0004980407230281972	-0.00027039826241133245	-0.0003515752592921148	-0.0007761044716187945	-0.001356565092211427	-0.00038163717482039215	-0.000602256526715265	-0.00028014438153434776	-0.000326816900702324	-0.00023878485763051177	-0.00042136377061416635	-0.0008793069314079108	-0.0011019646552294145	-0.00029575106325522676	-0.00033187060254972616	-0.0002013529668946504	-0.0002126473621680765	-0.00021075344021566358	-0.00030465532364297513	-0.00045096304311237985	-0.0004352374739651127	-0.0003766591996472896	-0.0004986450103402353	-0.0002822841164608032	-0.0003739613157078259	-0.00029413829329557554	-0.00034457470984882804	-0.0027855255044736834	-0.00758031888574591	-0.0006021245946820474	-0.0009346338414973328	-0.00027083401590492816	-0.00029632324431282645	-0.00020808204203112988	-0.0002223042014267111	-0.0006415658157281797	-0.0015214578927431645	-0.00033574973827215325	-0.0003565748389892176	-0.0002284919833222369	-0.0001435074951298791	-0.00013597614918167746	-0.00018598156870910058	-0.0003873622641984164	-0.0004891701927283093	-0.0014185537635237647	-0.0017026740738438541	-0.0006067614524615603	-0.000692298025034452	-0.0003277735825845169	-0.0002631076177218032	-0.00031325109557719065	-0.0004922888601595187	-0.0005502770876205079	-0.0007914494862669894	-0.00033433865764248246	-0.00036387327092461593	-0.00026222763142727073	-0.00018930628976134104	-0.0002906247192086254	-0.000387833509191944	-0.00031893624254982107	-0.0003835682393294032	-0.0004115490877132129	-0.00038067272697385967	-0.000267846589337295	-0.00024561765566482474	-0.00027981409938103983	-0.00031194493890643397	-0.004592023340531032	-0.008457848751546914	-0.0005492447731630635	-0.000540830245055012	-0.00028952628811473494	-0.0002325245747904084	-0.00022633313663137584	-0.0002172798579590846	-0.001183779485389483	-0.0017346332741491398	-0.00031721775490755385	-0.0002780735772099718	-0.0003092701339893571	-0.00023766992886764153	-0.00021554800783534948	-0.00023470505464090788	-0.0004357455367286056	-0.000509430827125965	-0.0007524266402836124	-0.0005747517337675484	-0.00045165876822236546	-0.00048418210052797705	-0.00037519331100739617	-0.00028472161835430465	-0.0005963758750237583	-0.000518043689537056	-0.00023845727404302454	-0.00021112825442968442	-0.00026521046804575226	-0.00023726847441440287	-0.0001887064433769103	-0.000171854927792392	-0.00045679192757453466	-0.00037751474244845966	-0.00023940993047405932	-0.00020368938312617798	-0.0006494472064829828	-0.0005592482420277086	-0.0003317906811966697	-0.0003102771026002571	-0.00026339479459454535	-0.00024639012883218714	-0.0002137761185717803	-0.0003815997146202133	-0.0008469949103561114	-0.000586643691211641	-0.00026957956061088285	-0.0001896998572857205	-0.00018206735623481254	-0.00014796660615928002	-0.00018133594088143204	-0.00019200490944383422	-0.00031946123293728773	-0.00021623565298044403	-0.0003585178889281072	-0.00035061519164519524	-0.00029833765283610806	-0.00029561568592272915	-0.0002764975920021399	-0.00024059665673429874	-0.002054111784428974	-0.005182450521531738	-0.00047038289888951093	-0.0006837846186491155	-0.00025881560380939644	-0.00020617661898145406	-0.0001668821136943481	-0.00013523869435979016	-0.0005102386518076425	-0.0009747900158669283	-0.00025254026967956215	-0.00020685839945938235	-0.00019723843942406893	-0.00011929350890349496	-0.00013824597137108546	-0.00012182059063013743	-0.00028466343592474454	-0.00028360288032288397	-0.0012065390670223267	-0.0012275937953272918	-0.000509084910790057	-0.0005368304682663792	-0.00022567447824124742	-0.00015590356281723624	-0.0002272874289832307	-0.0002903767083163283	-0.0004340921918044405	-0.0005790689789330509	-0.0003037593605096803	-0.0002538834083336674	-0.00016622539423872144	-0.00010835152855958746	-0.00022604492368252406	-0.00021002591528127872	-0.00026316697678072565	-0.0002443923220197549	-0.0002895506592092192	-0.00018206836602150157	-0.00019390666700153642	-0.00013871690740266802	-0.0002562032350693628	-0.0002479134223854011	-0.003926117273695372	-0.008393492217908168	-0.0004189393432490472	-0.0004769071820515322	-0.00019691525783045968	-0.00014804828166317777	-0.00017773078820120612	-0.00013695164874900223	-0.0009621379404272929	-0.0013466207104997315	-0.00025724802642200105	-0.00019169486395965592	-0.0002357823048013355	-0.00013976470720214744	-0.00018250911393359696	-0.00014437603834533162	-0.0003670344093978229	-0.0003684661631328161	-0.00036307305544823584	-0.00022790466587690368	-0.00031320320072378396	-0.00024654552853517166	-0.0002762094159234337	-0.00018754967090986273	-0.0005143905436236073	-0.0003529253222651367	-0.00016304954432668035	-0.00011993314102537195	-0.00017592231838355795	-0.0001380574816924183	-0.0001735839654369017	-0.00013927972140943587	-0.00039408799630792174	-0.0002582405543239258	-0.00018298081666808948	-0.00013474622756296848	-0.0004132672243145675	-0.00018111599954547764	-0.0002394331644238577	-0.0001562968524170478	-0.0002627223766329308	-0.00019250452442934088	-0.0001794715386515163	-0.0002037931659049763	-0.00041038103862857384	-0.00028628028524842663	-0.00019031852468663935	-0.00011136852537469619	-0.0001544576757430453	-9.915674854125514e-05	-0.00012502927678892075	-0.00012104583138251323	-0.00021421476434962445	-0.0001352402044998134	-0.00030219701291702247	-0.0002538476049590677	-0.00025856246610781396	-0.00022356731227386544	-0.00020007640821654692	-0.00018185517360064606	-0.001406008436926687	-0.0034344608350967685	-0.00038250542953723504	-0.000493282701419203	-0.00021856075704668217	-0.00014405653283755418	-0.00013069301379816715	-9.097000979373182e-05	-0.0003793426668210606	-0.0006086736795258961	-0.00018549868899849756	-0.00012609517602380144	-0.0001525639600060859	-9.210693923172793e-05	-0.00011527302761925196	-8.780548484578467e-05	-0.00022467555145422373	-0.00020044779582816295	-0.0009703417426325085	-0.0008157427486943339	-0.0003999282468056387	-0.0003527412305668857	-0.00016946182284215824	-0.00010400306071643444	-0.00017905399601742423	-0.00019578201029397878	-0.0003826128865205508	-0.0004145507669779332	-0.00026946414309284255	-0.00015589004210874767	-0.00013172551161586926	-6.995090493413852e-05	-0.00018577347865284373	-0.00014168132929168789	-0.00023845204416312468	-0.00018136033442624536	-0.0002090245522538623	-0.00010628757907784323	-0.00014580971241609457	-9.961568347189914e-05	-0.00021611587598625368	-0.00022762233699377845	-0.003221001686231471	-0.006082913513661159	-0.00035417234027669504	-0.000365792097226886	-0.00015801584592812858	-9.909007302094915e-05	-0.00012815761048165972	-0.0001041647561858655	-0.0008612058724941899	-0.000982756355752094	-0.00019911686491649094	-0.00014058876415184592	-0.00017393790693538314	-8.584420614583891e-05	-0.000142416717342948	-9.99876858361966e-05	-0.0003455404899361772	-0.0002904816187923786	-0.00024717293294102867	-0.0001558149727803655	-0.00023472505819295745	-0.00017123985127432905	-0.00021416172306461706	-0.0001380678645725589	-0.00041049477370542093	-0.00023262842593025206	-0.00012178352396729693	-8.427955953017303e-05	-0.00013141659511388485	-8.89832815315259e-05	-0.00014804322582295684	-0.00011928139118286239	-0.00034730950596292376	-0.000183731681969547	-0.00015153745225926317	-0.00010483606567517055	-0.00028376761132386646	-0.00010678790262565268	-0.0001793344228029883	-0.00011357161531796836	-0.0002175841682363285	-0.00013952740456648773	-0.00014089453773926395	-0.00015890192729800656	-0.0003182700487808984	-0.00017866585184685764	-0.00013998585866031746	-7.792275010707669e-05	-0.00012732017399434085	-7.239637126196466e-05	-0.0001021011209188746	-0.00010074332562379238	-0.00016396445792376299	-8.762647093091246e-05	-0.00024368871196779943	-0.00017807657536829323	-0.0002164690970928962	-0.0001621215603561988	-0.00015742690564701718	-0.00015690551110439377	-0.000985594630527782	-0.0022759832257193747	-0.000295221414471589	-0.0003726361222131162	-0.0001815146841254822	-9.938793137805605e-05	-9.915508849014794e-05	-6.557595602046866e-05	-0.0002888641844946146	-0.0004107489443613243	-0.00013345635704487455	-8.544860035768942e-05	-0.0001103103393705003	-5.245919912696765e-05	-9.026640117806278e-05	-6.125428914176292e-05	-0.00017278818313615443	-0.00014612678420341345	-0.0007627742023709084	-0.0006006885842769696	-0.00032891323106137344	-0.0002579810102545885	-0.00012138940837817112	-7.327168782357538e-05	-0.00012405889889262377	-0.0001388196877846103	-0.0003206181607324569	-0.0002536866286185629	-0.00015062945541124512	-8.967732259144732e-05	-8.506969840447844e-05	-5.291320479473547e-05	-0.00013055984191133604	-9.385244181242224e-05	-0.00018624384841445916	-0.00010855951629241163	-0.00010590730279428896	-6.0048026592590656e-05	-8.965699102514156e-05	-6.517278995153552e-05	-0.00016225833125960496	-0.0002842684938189774	-0.002575134204833492	-0.0039048376279258775	-0.0002463407667031956	-0.00024902896351455437	-8.852148506995048e-05	-6.708422052594753e-05	-9.86946666763279e-05	-0.00011513238392130743	-0.00068497752519468	-0.000574056169545248	-0.00012926711029924076	-8.095475571381315e-05	-9.415596708994698e-05	-4.791141159989795e-05	-8.516601774469585e-05	-7.989221444129895e-05	-0.0002492406885021396	-0.00018704008810214559	-0.00013111571044279686	-9.794317625768063e-05	-0.00013130982680800127	-0.00010306650866782262	-0.00012128824215367069	-0.00011013849682084077	-0.00018811745268990852	-0.00011909504618795141	-5.5115530485204426e-05	-4.8275892920736165e-05	-6.026999524771403e-05	-4.9974087218236945e-05	-8.418543590063462e-05	-9.095030532942433e-05	-0.00015172110294287556	-9.103863446477242e-05	-6.847499973691963e-05	-5.453181491709065e-05	-0.00010863158917567596	-4.671430203457073e-05	-8.378745939240532e-05	-6.385533966120845e-05	-9.152689107205505e-05	-6.66971228531839e-05	-6.03682255729295e-05	-9.133218907861656e-05	-0.00011718345278380609	-5.972395656749445e-05	-4.395470392716265e-05	-2.7923782890646358e-05	-3.413031080068007e-05	-2.4420084261687058e-05	-2.6325517364506145e-05	-4.63102935913792e-05	-4.437419358861032e-05	-3.4778066629261385e-05	-0.00012367390276963065	-5.784788702690119e-05	-0.0001021283689937509	-4.1147246177212246e-05	-4.921734501376061e-05	-0.0001493870624094052	-0.0012785903071416685	-0.0003955077754493081	-0.00023396141999028534	-5.184334598213307e-05	-3.986911639014313e-05	-1.0131690038812658e-05	-1.3602577363375198e-05	-1.9117106074733324e-05	-0.00023946012857158745	-2.5171716959613596e-05	-2.422933060259035e-05	-5.19716144124593e-06	-7.784349115955185e-06	-2.526205603805332e-06	-4.156369613418386e-06	-1.3147251161244695e-05	-1.9085078706245837e-05	-9.95448701681667e-05	-7.50486283378978e-05	-2.3901422048180215e-05	-8.008356475314208e-06	-1.1213725832477177e-06	-2.9052606123799694e-07	-3.348407427057032e-07	-2.460317782595245e-07	0.0	-4.038013137404984e-08	-1.2050182741733883e-07	0.0	-4.084642467684523e-08	0.0	-1.304953144558952e-07	-1.2145639031945004e-07	0.0	-1.196865175071786e-07	-8.142588081804738e-08	0.0	-3.992684342890402e-08	-8.077326810574926e-08	-8.130359164778947e-08	-4.0031114766685e-08	-3.971284334127011e-08	-4.086394434138372e-08	0.0	-1.212593694970028e-07	0.0	-8.100243701525079e-08	0.0	-3.972855931158959e-08	0.0	0.0	0.0	0.0	-4.5645383978586e-08	0.0	0.0	-4.1499037389143375e-08	0.0	0.0	0.0	-4.0031114766685e-08	-4.1499037389143375e-08	0.0	0.0	-4.038013137404984e-08	0.0	0.0	0.0	0.0	0.0	-4.038013137404984e-08	-4.5645383978586e-08	0.0	-4.1499037389143375e-08	-4.1499037389143375e-08	-1.1657660906473978e-07	-4.2424996324655304e-08	0.0	-7.97596740782746e-08	0.0	0.0	-4.038013137404984e-08	0.0	0.0	-4.038013137404984e-08	-4.084642467684523e-08	0.0	0.0	0.0	0.0	0.0	2000.0	P1
P1_SQ3_5000	1.1928792058912624e-06	0.01863314400112187	5.447778029792973e-06	1.3202363473553959e-06	-4.751878579342302e-07	1.3893540376203051e-06	1.4785127332608188e-06	-3.063310833910809e-06	1.9210929293037386e-06	3.1974538883885547e-07	-5.575288545107435e-07	-1.5443958936094074e-07	-0.0035926932684875075	0.0006682196901220128	0.0009856172392269805	8.958090714430468e-05	-0.018976330487370796	0.0025909078765259386	-7.251552356092166e-05	-0.007226300097067998	1.0141546387293673e-06	-2.495183335259683e-07	-2.11631488927875e-06	-1.1639098648324663e-06	-0.011414511734827801	-0.012481524395004398	-0.004668575831904239	0.00027178871430857824	-0.0008192011592924873	-0.00048188314938313564	-0.00010617434102102718	-2.2436444644295504e-05	-0.0003790192804600978	-4.1382553938887345e-05	-1.2274138980067016e-05	0.03200329373794353	-0.0021418425673408147	0.01050713703207242	3.0466683762133545e-06	-0.00021421182832821782	-0.00030259156242152824	-4.168325897623698e-05	9.169030089905671e-05	0.002391390624271487	9.384216383792978e-05	-0.000918531351618063	-6.163799455687107e-05	2.634327741629438e-05	-0.003816818965928141	-0.005297210255806074	-0.0008091509764990156	0.00018546243970963324	-0.00016659497123226058	2.1872328478749446e-05	-8.471768975763512e-06	-0.00018270054902415908	-2.9164896219000902e-05	-0.00011688995334320593	0.0002686154801302327	0.0029074880704287563	-0.011396332147825775	-0.00419239019937334	-0.001110532030190845	-0.000902996761072973	-0.0004241795407466343	-0.0009366223078843827	-0.00017129707008734147	6.279436468889857e-05	-7.07115903432503e-05	-0.0006552610161219162	-4.57390088587785e-05	0.0001566322150163427	-0.001818831180752426	-0.002904405716259807	-0.0004065039968619811	-0.00018770901595657275	-0.008858988242686903	-0.00913590235598615	-0.0008237880461290873	-0.0013729900533691157	-0.0005600908920258031	-0.00012459133748846693	-9.271660153684297e-05	0.00013574536294081287	-0.0007983061082403151	-0.0007003514568331049	-0.0004308742704203666	-0.0001432749415728506	-0.0001183309181008353	-0.0003269658619717156	-0.00011331458019258912	-0.00012176002854265636	-8.524512515158773e-05	-0.00024272103530262649	3.8623862455192223e-05	0.0004690743631471459	-0.0008718050162677765	-0.0014388523276012448	-0.0002415278075720939	-0.00015997832833763233	-8.585034747460416e-05	-0.00020222202721820333	0.00011080186192040354	0.00027331780559896983	-5.859670425145588e-05	-2.516188917912627e-05	-4.902609696253948e-05	-9.560643187171507e-05	-0.0003646477745498568	-0.0004055641258120899	-0.00020974757884722106	-0.00016443239397733833	-7.401659673891218e-05	7.212918393530816e-05	-4.64801453872862e-06	1.8309984198230825e-05	-9.640018944489744e-06	-0.00012342020804313595	1.9582369840944413e-05	0.0010566322095533695	-0.0006024807430526918	-0.0007224577374240139	-0.00015227827156778914	-0.00014829513429165777	-2.9705415033042453e-05	-6.823707033646372e-05	2.038771948038577e-05	7.01088223985626e-05	-1.841392448337069e-05	-9.553902290740249e-05	-2.3231415402912774e-05	7.866822196452299e-05	-7.998880583171887e-05	-0.00011747169811123209	-5.783541985312319e-05	-0.0001519349595276809	-0.0012080096947142838	-0.00224689170980569	-0.0003979845455084344	-0.0004462026600853307	-0.00011968760508584812	-6.124569339118933e-05	-9.077151017858613e-07	-2.483599606732472e-05	-0.0001035113587619393	-0.00017970110550702195	-6.596263682032431e-05	-0.00014509127212315124	-2.3559417798697043e-05	-7.418779161717489e-05	-2.08455826118145e-05	-4.4228987666335975e-05	5.202509720032746e-05	-3.7240651324033243e-05	2.0098164224418647e-05	0.0005369047098242371	-3.979283603361991e-05	5.81354552327423e-05	-8.269423386656036e-05	-9.561259760448837e-05	-2.262954312126338e-05	0.00013479966954903872	2.1703430968334674e-05	-1.4192536013252124e-05	7.3933926214881794e-06	-3.2340157420149675e-06	-1.8906119657482502e-05	4.5948551014973315e-06	-3.170547629582115e-05	-9.595290622035478e-05	-2.576785444538169e-05	-0.00013726525833723108	-1.8354887182798953e-05	0.00023418399356959748	-1.8643166523252914e-05	9.858041862407748e-05	4.682293081783554e-06	-2.3672559834771937e-05	8.434446188754381e-06	0.00010624212259209218	-0.00011757488929657373	-6.716984576000799e-05	-5.128353127466478e-05	-5.156318291383189e-05	-3.30909284164201e-05	-7.761123803419446e-05	-8.437174565978128e-06	-0.00010434839693604261	-1.4852803347598824e-05	2.5516344111054055e-05	8.380240168018717e-06	4.117738477373565e-05	-1.76702568053146e-05	-2.7830523115227144e-05	-1.4185610444642535e-05	-0.00011448748472600936	-0.00022390823402534574	-0.0005259929485286166	-0.00016234326294170147	-0.00014740142784561215	-2.9492405893159085e-05	-3.609904764923194e-05	-1.1307585734045066e-05	8.875542329016967e-06	-1.928971478295903e-05	2.241551476612558e-05	-4.0867460958826706e-05	-4.347572632795423e-05	-9.683152054518088e-07	-3.070901042710012e-05	-2.0513142568733157e-05	-8.006177909260589e-05	-2.7166574150817483e-05	-6.035745240992249e-05	-2.035900209517737e-05	0.00019200982094240014	-8.809669356446467e-06	3.692101444238748e-05	-1.8397034488073794e-05	-5.2005309548064035e-05	7.423933666355709e-06	0.00040322938139085614	-1.4494642881764195e-06	-9.653973845219314e-05	-3.831818643751188e-05	-2.6264758517518453e-05	-1.594592528800744e-05	-1.4945272244599951e-05	-1.3728122437998476e-05	-7.228370417675296e-05	-2.2933648507890718e-05	-0.00010077849143231427	-2.8965050714699684e-05	6.503556053757953e-05	-2.4176559676139357e-05	8.391282925165455e-06	-2.9560140358450538e-06	-7.517026652568949e-05	-2.4194789042575587e-05	1.9093232042335408e-05	-2.05859213518815e-05	3.571227391200812e-05	-2.812324888665864e-05	2.0129515822810162e-05	-2.4095850463460227e-05	-3.848382569598724e-05	-2.1217951804110947e-05	-8.637745659568629e-05	-3.951839748270571e-06	-2.0518461449299747e-05	8.992052302737809e-07	5.5328022997308155e-06	-1.3386264948793641e-05	-4.726081651967146e-05	9.478953011331763e-06	-4.809990492728861e-05	-6.702448742397e-05	0.000444505948659581	-6.123415543655847e-05	0.00011403977046521682	-8.630719386383122e-06	-2.4484631684539276e-05	1.6898135908141078e-05	0.00010418914348223692	2.360748298344266e-05	1.5737349446118352e-05	-1.6885432725500626e-06	-1.845457164341836e-05	-1.31332497909974e-05	-2.281489892589901e-06	-3.1073666643069854e-06	-6.384653018576367e-05	-1.0326254612569698e-05	-7.10971619249112e-05	-1.355667614330537e-05	0.00017091042237148265	-2.042872438882238e-05	2.285882931020195e-05	-6.304444262054281e-06	-2.3483046153654173e-05	2.666232024028611e-05	0.0004909024195129327	3.88591837001982e-05	8.921140861569712e-05	2.652065459574066e-05	1.24366848084942e-05	-2.1851897010767942e-05	-5.9518530422000046e-05	-3.6553555650709215e-05	-0.00016298322577756007	3.1659927007808585e-06	-4.27319420146391e-05	-1.6284360732658678e-05	3.61887212449322e-06	-3.270736270030819e-05	-6.985888650121229e-05	-2.930973149343447e-05	-5.863457809086327e-05	1.919427526333279e-05	0.0007220212578072887	-2.8241017542148753e-06	0.00025901348815285125	-1.7999838284657444e-05	-1.6952551578676054e-05	-7.923410172183665e-06	-7.115810218035585e-05	-1.9460407888744814e-05	8.505482616325347e-05	-2.2826400181969906e-05	6.885559444345761e-07	-4.470739993520605e-06	-1.8840789516832014e-05	-2.7403820034724676e-05	-3.862348142009113e-05	-2.7829988265342222e-05	-6.551650220337204e-05	3.694221047937621e-05	0.00021220965922823395	-1.032003118925487e-05	9.787376843655858e-05	-3.642760736871021e-05	-3.044996911110917e-05	2.0809607319934465e-05	0.0005792951989542668	-2.2422088091853822e-05	3.3369833408303197e-05	-9.225277506643391e-09	2.625146887743799e-06	3.7796220236210388e-06	-3.0452186566079194e-05	-9.858109788541525e-05	-0.00010967206828393005	-3.4213487814520555e-05	-2.5252876210255524e-05	-2.176864584541824e-05	2.102830882056675e-05	-2.0763901311563718e-05	-2.905685148568547e-05	-4.4296602461995857e-05	-9.449841692483227e-05	0.00014802212692136127	0.00035650600686316794	8.268224315631392e-05	0.0001261492043575106	-1.2387607413853795e-05	-2.2638618519629187e-05	-4.3028267349779924e-05	-5.715519138531431e-05	1.3060539797686381e-05	-3.457039819764352e-06	-2.7093376721061904e-05	-3.0633758171669722e-06	-6.794885859412155e-06	-3.4213884962295237e-06	-2.8040978014045247e-05	-1.631458174275349e-05	-3.287699723420807e-05	-4.871602543322863e-05	-5.974920233087005e-06	9.047946714698459e-05	4.997951034776233e-06	5.2876661562022706e-05	-3.0001664955939472e-05	-2.248358978090446e-05	0.00010902569478355838	0.0007154847967277556	-3.1995720010744326e-05	1.760678313830191e-06	-1.6999112028399433e-05	-8.151158296189494e-06	-1.1277580488353478e-05	-1.1658632524066872e-05	-0.00010465149744594727	-3.6085886943084886e-05	-2.965518558074355e-05	-8.109602563894681e-06	-7.93052143863019e-06	5.778440032938668e-05	-2.059962064786318e-05	1.7402537875351159e-06	-3.597279413952373e-05	-2.2570417337980766e-05	-8.300502613658404e-05	1.3283937078704565e-05	9.812933699863188e-06	5.351671567255473e-05	2.112951266974747e-05	-2.1675987958332302e-05	-2.6317513611638665e-05	-1.7148056553109125e-05	-1.5758644305645993e-05	-2.865359303164003e-05	-3.3059726233517547e-07	-1.0610024988543117e-05	-3.43589043778662e-05	2.0322121552344768e-05	-5.899816032814745e-05	-3.961349358826637e-05	-4.680194909506701e-05	-2.8715200830140453e-05	4.860704762246705e-05	0.00022871457158036798	1.2370851317784542e-05	0.00012047431882066494	-3.873374213733113e-05	-2.272788491972295e-05	-3.23352097123779e-05	-3.726542424019075e-05	-7.377939104510087e-05	4.595695501129725e-05	1.4209783580977392e-06	1.6448496042429587e-05	-3.292005799438293e-05	-1.4235990336990259e-05	-1.877696876351507e-05	-2.7419690943489912e-05	-7.465670372206655e-05	-4.0628203430939484e-05	4.3773523178269034e-05	0.00012503823936976766	2.8100650331709524e-05	7.376944764466857e-05	-2.596955509021081e-05	-1.0032162461688675e-05	1.8688912771215593e-05	0.0003692928978352647	-2.2063518344240152e-05	5.663836519342793e-05	-2.159914130569655e-05	-5.4945752629098296e-06	-2.8196480122514092e-05	-1.250647697257593e-05	-7.486926556199793e-05	-0.00010785113261196607	-1.4849301072223785e-05	-3.2627917551362985e-05	-4.1473099285410284e-05	-1.8081844479598045e-05	-1.833497086541533e-05	-1.737763243105908e-05	-4.5335526360287576e-05	-6.102761781776809e-05	0.0002224708129918093	0.0003820581706699903	6.02022740832397e-06	0.00017561421069008662	-2.144104734721824e-05	-4.282335112904424e-06	-5.360833267899001e-05	-3.834242556810709e-05	2.8975932944482613e-06	4.2374218690516404e-05	-2.9970896825792272e-05	1.4310635312802004e-05	-2.358512052145196e-05	1.6508095039980807e-07	-3.0561262119220285e-05	-5.350885363148409e-05	-2.1087541478153856e-05	-1.4463991261584467e-05	3.792720085154746e-05	4.174008672605935e-05	-1.0123968599803131e-06	1.3432942431312151e-05	-2.207846789826671e-05	-5.5886827843545396e-05	5.9650101963694933e-05	0.00083616891134119	-2.9203363224140867e-05	2.1275526001541872e-05	-1.5892788331650382e-05	-8.09698166199415e-06	-2.1184764640611264e-05	-1.957355670983502e-05	-0.00013775066432330021	-5.872766062716751e-05	2.414279420742411e-06	-1.461029825942017e-05	1.5240777234347218e-05	2.19064751818866e-05	-3.752936497436154e-05	-8.581840035660408e-06	-6.793424166768734e-05	-8.134285472488216e-05	-6.141433807171242e-05	-4.5280368856911676e-05	2.022560789999376e-05	-6.072496777490325e-06	-1.5452677270826444e-05	4.42559952473228e-06	-4.237877196207806e-05	-3.567297572922397e-05	-2.8663860314765045e-05	-1.7049805694780768e-05	-2.526217652056202e-05	5.915595963857582e-07	-3.2003973808560873e-05	6.0765428353015715e-06	-8.925524610006692e-05	-2.9273822068566664e-05	-3.0343921221007278e-05	-1.7305395896037698e-05	5.1390387235305136e-05	0.000106293004257853	1.969848074242662e-05	2.7255746937799924e-05	-4.2112611481790054e-05	-1.2194371338513065e-05	-5.47973255237059e-06	-2.765188473978779e-06	-3.827298828223708e-05	-4.702545473871751e-05	-2.1200365095432213e-05	-1.2542012963095322e-05	-2.3556226883863953e-05	-3.5680244665053e-05	-4.509560522092523e-05	-4.1162332781810866e-05	-4.919890892849711e-06	-3.866349893902823e-05	3.0540066700227226e-05	9.791798079528547e-05	-1.6642145485916047e-05	4.2126448727008645e-05	-1.751899078307218e-05	-6.428900985906461e-06	6.293128006569417e-06	5.705154265428589e-05	-3.706499584401772e-05	-1.04777693301231e-05	-3.0571202484276134e-05	-2.327338409469792e-06	-2.0302370429055414e-05	-1.029192925712264e-05	-4.572867056155315e-05	-0.0001054440746647929	-3.3652064971590454e-05	-8.738232140768627e-06	-2.12916803980604e-05	-2.1733258280489366e-05	-1.2756300136631258e-05	-1.2336972427968347e-05	-3.0522603358218155e-05	-5.6392772809263657e-05	0.00018311744570506726	0.0003315908508232572	6.398965513113974e-05	0.00011761590966806099	-1.8651144509558408e-05	-8.904735546114991e-06	-4.38038685884355e-05	-1.1659247136212663e-05	4.49966076516117e-05	2.0640141827796732e-05	-3.587871305269142e-05	1.2149136927290126e-05	-1.1276748071014725e-05	-1.7824605562880735e-05	-2.636361188760545e-05	-3.117801368828719e-05	-3.148396417362867e-05	-2.456414806488661e-05	-2.4396535132259782e-05	-9.58410737978064e-06	-2.412533566376171e-07	-9.092576704313306e-06	-3.304858503557409e-05	-1.9024419918769244e-05	-2.4272950259625423e-05	0.0008708432158755792	-1.4217988125903654e-05	4.6175395931567016e-05	-1.0473862531383467e-05	1.1513821749858585e-05	-1.6929491961906705e-05	-1.3021974540421746e-05	-8.203226438806114e-05	-8.311998885882706e-05	-3.581371721658375e-05	-8.398752291094447e-06	-5.401778569644856e-06	2.1042395752938212e-05	-2.7431813817402426e-05	-1.4974290352466689e-05	-6.796759764238344e-05	-3.24450779443808e-05	-5.001380956360616e-05	-2.3643635839914903e-05	-1.2018591708619418e-06	-1.5279095814957626e-06	-2.8465434953857524e-05	-1.7643578353600112e-05	-3.337490449936448e-05	-4.151536403117689e-05	-2.1783788567629995e-05	-2.1298384778817978e-05	-1.57580623689287e-05	-4.6163937022223646e-06	-1.351030013370543e-05	8.470568240673704e-07	-4.526802653566066e-05	1.6864291132303926e-06	-3.3409019791745206e-05	-6.618209528675751e-06	1.795066469873868e-05	4.3267200846126505e-06	2.0820514580392274e-05	1.0429285387919925e-05	-3.555671314474647e-05	-1.1562809226376889e-05	-1.5076627761395644e-05	-2.390306022157312e-05	-4.579662795812915e-05	-6.700045109295043e-06	-1.7205916613582625e-05	-9.296321949619078e-06	-2.9636812078427628e-05	-1.0794985670360766e-05	-2.2669234578607403e-05	-1.4264983143379137e-05	-3.092066263980106e-05	-1.3664880139220602e-05	4.140177782808958e-05	6.180083782829333e-05	1.5716342777797015e-05	1.8478704105295927e-05	-1.0864173094690894e-05	-2.531472069415688e-05	-8.061427813417445e-05	8.625455229727998e-05	-3.828252622024522e-05	-4.083096076645224e-06	-3.380377493593858e-05	-2.2511174039527583e-05	-1.5292109358860836e-05	-2.1764734523150098e-05	-6.838050584384234e-05	-0.00010845203282681514	-3.31928914198082e-05	-1.7692318460585992e-05	-1.1677943042892125e-05	-1.6793214373976985e-05	-1.5142860172651218e-05	-2.0765022098321662e-05	-3.5048607361758496e-05	-2.395772848966051e-05	0.0001021883710611754	0.00022309503969658248	4.717778523232027e-05	6.947145167635738e-05	-6.33948095436567e-06	-1.2111508387023891e-05	-2.8242158044213423e-05	-2.393657897845178e-05	-1.5256882423094343e-05	2.6675686179765824e-05	-1.5132697855870262e-05	9.56286054761731e-06	3.020512812343379e-06	-4.7524791568144705e-06	-3.47380131774314e-05	-2.478123138374652e-05	-2.7161661698046934e-05	-2.2047389761139597e-05	7.771956665219215e-06	-1.4014741260034099e-05	-2.1874578977215686e-06	-1.4120511863110308e-05	-1.1221129943944094e-05	-1.3819910352091274e-05	1.0887894865444555e-05	0.0004961937986040707	-1.2266065401086816e-05	1.922897066643746e-05	-1.6112659973137078e-05	-1.2545580979921543e-05	-1.2245389628777161e-05	-1.3737154575127703e-05	-4.916455779392518e-05	-5.779891892778355e-05	-3.929946718423676e-05	-5.0134877239505285e-06	2.2710442260770979e-07	-1.0529830656679434e-05	-1.3651979511292004e-05	-1.8724281177569975e-05	-5.770790250032035e-05	-5.1840120673925515e-05	-3.2424518194093944e-06	-1.4960913109833302e-05	-9.025690915444448e-06	-1.915088019189488e-05	-2.326468333328373e-05	-2.1616319119305e-05	-1.9565258441585386e-05	-3.913694918788725e-05	-2.184404082689631e-05	2.487078121176159e-06	-1.1974487355912561e-05	6.47020179876136e-06	-1.9915955387749343e-05	-8.555270121746045e-06	-4.7389130608862704e-05	-2.7370139436150428e-05	-3.273255217140544e-05	-1.2564927287254249e-05	1.5934213999409935e-05	1.8435325394795712e-06	3.2934399688818805e-06	-7.122165429336114e-07	-4.641037916942422e-05	-8.017565912883261e-07	1.0082597413725222e-06	-2.05942152084723e-05	-3.8300243881457844e-05	-2.272036619847435e-05	-1.017233445690718e-05	-9.195419706051512e-06	-3.58433680383548e-05	-1.5313769129609184e-05	-2.316032313041106e-05	-2.712597417860784e-06	-3.0491028051589104e-05	-1.0403804337598887e-05	2.4834753177582476e-05	5.3579714427700616e-05	-1.9207922908390885e-05	3.197522368685431e-05	-3.39759112790404e-05	-6.730391108626996e-06	-6.621216958389256e-05	-4.335842105373687e-05	-2.7167105542997986e-06	-3.266304599454091e-07	-2.4339804350082943e-05	3.0668249563434857e-06	-1.426381795910012e-05	-1.6096866896476258e-05	-6.31316429481863e-05	-6.341754313295362e-05	-1.5286762376476702e-05	-1.3316360076643896e-05	-2.6947393286714703e-05	-8.930689091794969e-06	-5.408012741184396e-06	-8.43629295500401e-06	-3.597562932744746e-05	-2.2039255916667805e-05	0.0001150975947804458	0.0001610204239169069	2.3395804496280847e-05	7.170244644684812e-05	6.737774586444234e-06	3.0921051954140965e-06	-2.351559983557556e-05	-1.3457977654508026e-05	-2.9198412864337635e-05	3.0381827620386075e-05	-9.776677522873792e-06	8.548124166081646e-08	-1.4624239086394902e-05	-1.4731154462662704e-05	-2.7884511131104258e-05	5.50808312215555e-07	-3.139147466425926e-05	-8.427105700063196e-06	-1.1090910007328258e-05	-8.502686579195469e-06	-4.3860176273516945e-06	5.462797181016155e-06	-1.9496006423688083e-05	-1.9566432922526436e-05	-1.8035529949408588e-05	0.00042308734170440516	-1.0903667788396399e-05	6.718281254598562e-07	-2.8037186569402115e-06	-7.266381076378259e-06	-5.341608398778258e-06	-1.2457334760128193e-05	-6.764423454578357e-05	3.664886569238607e-07	-1.981403906015245e-05	1.0267460381162705e-05	-1.3115927716432835e-05	-4.002048053822186e-06	-3.076308350887598e-06	-2.961887400933554e-05	-5.280792357406302e-05	-2.7303834965025593e-05	-1.9118553539890305e-05	8.327079751100014e-06	-1.4962929500269488e-06	-3.157418274092063e-06	-2.3290542683846824e-05	-1.0232203161765426e-05	-3.6222948938014924e-05	-1.704935489612142e-05	-9.041511775203579e-06	-6.878988142174162e-06	-1.4864880388317727e-05	-7.97409805225926e-06	-1.9053794574065163e-05	-1.85963195354136e-06	-2.0188452591167537e-05	-3.288922982564021e-08	-6.11224974052039e-06	1.2286298737220891e-05	1.5455842027468672e-05	1.2469754623462309e-05	-9.969854305300993e-06	-7.218232082843128e-06	-2.7891118488128496e-05	-6.877467458692078e-06	-4.3684207965868685e-06	-7.110875966415416e-06	-5.376129745765019e-06	7.322288904747695e-07	-5.136431709530279e-06	7.660940815368785e-08	-5.493798218661585e-06	-6.601569279224435e-06	-1.1285297070998861e-08	-4.310285002638925e-06	-8.779758201100311e-07	4.040244438037711e-06	4.941357844339108e-05	2.9578475391775242e-05	2.218400147199916e-05	2.1310117930166945e-06	4.8736920430996505e-06	-2.020739333912232e-05	-0.00017703405906139397	0.00012120744403663279	-1.4413038564641917e-05	1.1180577158011316e-05	2.767516340212844e-06	-3.7679437104532112e-06	-8.751391114326894e-07	-1.2987950156334616e-06	-2.0558397423570617e-05	-4.1703307694809705e-06	-6.410893309236158e-06	5.302183349402475e-07	-1.4784334851363718e-07	-1.253456646645694e-06	9.346038357670721e-07	-1.6925768502038734e-06	6.0553264757442886e-09	7.608603146990344e-05	5.3507235294823855e-05	4.355288127680132e-05	1.4265202256360731e-05	1.5137637391192022e-07	3.4584888363183265e-07	-3.348407427057032e-07	3.9034316661030506e-07	0.0	-4.038013137404984e-08	-1.2050182741733883e-07	0.0	-4.084642467684523e-08	0.0	1.1422536427037427e-06	-1.2145639031945004e-07	0.0	-1.196865175071786e-07	-8.142588081804738e-08	0.0	-3.992684342890402e-08	-8.077326810574926e-08	-8.130359164778947e-08	-4.0031114766685e-08	-3.971284334127011e-08	-4.086394434138372e-08	0.0	-1.212593694970028e-07	0.0	-8.100243701525079e-08	0.0	-3.972855931158959e-08	0.0	0.0	0.0	0.0	-4.5645383978586e-08	0.0	0.0	-4.1499037389143375e-08	0.0	0.0	0.0	-4.0031114766685e-08	-4.1499037389143375e-08	0.0	0.0	-4.038013137404984e-08	0.0	0.0	0.0	0.0	0.0	-4.038013137404984e-08	-4.5645383978586e-08	0.0	-4.1499037389143375e-08	-4.1499037389143375e-08	-1.1657660906473978e-07	5.939499485451743e-07	0.0	-7.97596740782746e-08	0.0	0.0	-4.038013137404984e-08	0.0	0.0	-4.038013137404984e-08	-4.084642467684523e-08	0.0	0.0	0.0	0.0	0.0	5000.0	P1
P1_SQ4_10000	9.86299416336692e-06	0.018851293027467464	1.7202245918338267e-05	-2.4979993343751094e-06	7.25744754750301e-07	-5.915787490428877e-07	-4.665147296347586e-07	-2.11374526024612e-06	-6.603057485437103e-07	2.838371654693009e-07	-5.575288545107435e-07	-2.621639526780341e-07	-0.002424558202104573	0.001041208887402903	0.0005935351502003817	0.0002049237410618168	-0.02679380773035331	-0.0054672780168986	-7.261631168634379e-05	-0.008388293958264695	7.627992226712406e-07	2.044618407559422e-06	1.4146558417107386e-06	4.5793526141642786e-07	-0.006784138521739334	0.00759322211684213	-0.0030486214761023638	0.0006884407880618196	-0.0008855487475778172	-0.0004052092093811444	-0.00010688609136693976	-5.3135560944735105e-06	-0.0007395947263810166	-0.0001955889449609925	-1.027099491834367e-05	0.006383422990092424	-2.751970109631137e-05	0.0035091948764562064	0.0016028939538938452	0.0010659025374875693	0.0008325661364383423	0.011231502943652105	0.0008331598300521693	0.0036230669958089382	0.00014688203898878907	0.0071947224887910395	0.00010473916356228022	1.3480724010453708e-05	-0.0008091446612446263	0.009278588541778196	0.0005816377202870534	0.0018594933843162883	0.0003582436800410886	0.0026175495785068417	0.00022631027206401993	0.0010032929062541193	2.57339398841705e-06	0.00014564944538691298	0.0002711903840623255	0.0022124297272371335	-0.009843491544699882	-0.0016536017522499735	0.0011274063654954135	0.0006943901712013183	0.00020606770155080908	0.0044648058391178105	0.0005943892630228898	0.0031162081343820286	0.0001742193961334009	0.0023457330763570015	0.00011252987188812397	0.0012662306969563487	-0.0002082408460456252	0.003765273247037411	0.00040590154043017106	0.0010282335334435518	-0.008721076990314307	-0.007409468079846295	-0.0006927860632119742	-0.0005852132954369503	-0.0003349079983969727	0.00019150699073275292	0.00016229665674023265	0.0011243414666327889	0.00012852190143917497	0.0011731291895337973	0.0008005698012569663	0.000931470877075311	0.00024736126521176496	0.0010463026012690296	0.00018295646668229634	0.0008187329876564345	0.00012865352948031414	0.0007348693291704855	0.00011691473239647634	0.0006658609735024383	-0.0001907931910465929	0.0009211786019907705	0.00019779961171967927	0.000430212581563593	9.576421221436151e-05	0.0005226894237936694	0.0002625620568414927	0.0015499292316217411	8.838891624003134e-05	0.00033776706619001754	0.00013307658258399107	0.0003276624748706372	7.159497453591889e-05	0.0004151528883049897	0.00027195974823542805	0.000524241199702951	0.00010785637402136963	0.00043737697395752743	9.530342121541246e-05	0.0003175594033937762	0.0001331469586267914	0.00033505877591661856	9.574670990666553e-05	0.002624112968746607	-0.0004049404540774702	0.0007346467388800086	7.360201398338723e-05	0.00023374485058107782	6.121872455318989e-05	0.0002616770695960352	9.473655719475105e-05	0.0010172519545302958	8.42269574914903e-05	0.00047304599817812507	0.00011668578141829232	0.0003181277855979522	9.562767239084611e-05	0.0002483095021231004	0.00045259376480533543	0.00028863886023213154	-0.0010636487465758597	-0.0011331293706949063	-0.0002945741344034197	-0.00020024348366438406	2.4959501593069017e-06	0.00020071367982785974	7.902268954462912e-05	0.0007154516097520073	7.233610389873363e-05	0.0008428381070561476	0.00015760013527682255	0.00034765809241736416	7.948497681642386e-05	0.0003256405802901992	8.246305802797014e-05	0.0002217122377420383	0.00012032268196868483	0.00023866853259418754	8.091209248007778e-05	0.000351893415218075	2.8315796450700858e-05	0.00020771946007957392	0.0001439054660594553	0.0002129107456111327	9.593348990343946e-05	0.0005588164401768353	0.0001475509941948126	0.001108166175308623	8.398274787149913e-05	0.00041733608270343875	6.407963482762017e-05	0.00018580285282131682	4.490271936778299e-05	0.0003116633008871739	8.88183456170846e-05	0.00035889896927548937	8.776251616626735e-05	0.0004071680845598171	9.962738088156769e-05	0.00013103961334409004	0.00016781689034884532	0.00023848800418017836	7.830909059282359e-05	0.002483177877178758	-1.2864937475105375e-05	0.0003576699717389442	7.835386050591628e-05	0.00022907225124131137	9.080935988074919e-05	0.00014278301586649275	0.00010535062888739061	0.0007607021951680543	0.00019087546801173046	0.0004855303472607363	9.576683413474663e-05	0.00027344177987619696	5.657420032804963e-05	0.00010151936804702282	6.479656261121672e-05	0.0002653655468603585	-0.00016767742547251743	-0.00017868899810416982	-8.140388706103017e-05	2.1386859156541024e-05	7.021601994114255e-05	0.000215106257362871	6.380855967289464e-05	0.00046564654503619446	7.33422683287444e-05	0.0006970843845098575	0.00010535680326639505	0.00035130650027228607	5.9606715701597486e-05	0.00012894406284252614	8.540680945151827e-05	0.00026537232951268205	7.088974132225467e-05	0.00024808323941821384	8.440424293271114e-05	0.00022621030624589812	5.7352532537005476e-05	0.00012604883731741562	7.265933492959972e-05	0.00015417462214865782	9.745982605275033e-05	0.0012324587660876374	0.00018406168407205368	0.0010255115734036794	7.540343828621064e-05	0.00025569503603230963	5.546880119099165e-05	9.964497831277419e-05	7.343403221821325e-05	0.0006222833654444609	8.846539983473013e-05	0.0004189005900760808	7.966936729292571e-05	0.00025741969580213547	8.787831878388671e-05	0.00015633784062978496	0.00012541657970790299	0.00030324695177198313	6.631416149812709e-05	0.0019171816587466358	7.755806047656698e-05	0.0003765542462739152	7.718595009225955e-05	0.00021746731493435046	8.0833650567496e-05	0.0003881918861722898	0.00010907970931725016	0.000757099469317114	0.00016790709370428502	0.00040864458173095735	0.00010688074214239648	0.00019138753554884486	8.078809411716367e-05	0.0002635614585648551	6.438955010292294e-05	0.00034184553282844176	3.2055938428436e-05	0.00044202246967097814	-4.5976354970991276e-07	0.00016310899749776052	9.971738881652307e-05	0.0002096377880187832	0.00011322084675695609	0.0006006588148381815	0.0005978201396426908	0.0012100719586387652	0.0001675857214993141	0.0003094747728059601	7.465644379856228e-05	0.0001379193754459931	4.8385887705525046e-05	0.000352197046235082	0.00021159409670914667	0.0004702921418416096	8.602869183975862e-05	0.00015390154567951982	4.097861235994292e-05	0.0001088044055069067	8.247538331379437e-05	0.0003692921293211608	0.00014738999828101855	0.0035128682431223475	0.0002167880289635528	0.0004914356722414838	0.00011310134996540686	0.0002264012111948588	0.00010474471749173439	0.00023389368981385197	0.00011050273109781044	0.0011683943610074948	0.000144427709474796	0.00028976288170637875	7.994326334559597e-05	0.00014046718504273723	7.469305312658687e-05	0.00031368479664773427	8.23121478234042e-05	0.00030355412770476456	0.00010074309690759548	0.0009635517169729216	8.967790681204465e-05	0.0003306637611259068	0.00010583216751745009	0.00020903739771504105	8.389959914505702e-05	0.0004003176350872884	0.00017175177842502197	0.0007774100154334695	0.00013520608863633587	0.00029522797959276596	7.241669727415932e-05	0.00011472691860536311	5.535752696891809e-05	0.00024769265782572964	0.0001278917791941346	0.000309352192383504	8.621411084924969e-05	0.00016139141767018282	5.2412699745803726e-05	0.00010587331877829145	7.509293519317775e-05	0.00019114133841494454	0.0006074851248228418	0.0027309630606495595	0.00020211630198556547	0.00040671006835417	0.00010892687516448046	0.00014678857586057094	6.229619767305516e-05	0.00014677530638841635	0.0002148964686337296	0.0010080616794464043	0.00013758880515423475	0.00023950404982470619	6.572152347642787e-05	0.00011851508102241401	6.371559100624546e-05	9.739235613164204e-05	0.0001103708957220047	0.00036071618432465327	0.00032940561894623287	0.0007855132947043961	0.0001923916264748737	0.0002710285740788686	0.00015692154491998123	0.00016432968796425268	0.00013115918923069887	0.00030939571639348226	0.00022528479396903588	0.0004500629287491546	0.00018612711579765582	0.00025456771932734316	7.034778262197388e-05	0.00012117528134530529	0.00012937574792848552	0.000259972797129403	0.00011673913060240122	0.0002555516835286855	0.00016047456446546598	0.0003010370711100869	5.80551719884177e-05	0.00013337239367607891	0.0001110446257852843	0.00018265857471511104	0.0013572280002735913	0.002714791099716748	0.0002840662875269966	0.0003841620121672458	0.0001318780657989372	0.0001823722411301564	8.842222405023185e-05	0.00014991503342331813	0.0004081341836651418	0.0008782795851093273	0.00017185263076860305	0.0001989411321892878	0.00010848667608668266	0.00014723672123036636	6.827342762555545e-05	0.00010225819607118759	0.0001375872057496442	0.000318996972837468	0.0003406415221669616	0.0005641893698386492	0.00018491174289516656	0.00031374026557781773	0.0001793215381818767	0.00019042185228470968	0.0002263727953765918	0.0003440293094303478	0.00014199193091224313	0.00022295957989846725	0.00011983163481589493	0.00019011961237641768	6.468252306434172e-05	8.644753290580219e-05	0.0001895567181291802	0.00021870903347947352	0.00013244422763653794	0.00018037154539363496	0.0002818809608812257	0.00045079132003320683	0.00013271032931397065	0.00016750527169021078	0.00011609121972876033	0.00014240759757890226	0.00010327801561464992	0.0001912317979943499	0.00042722011699129335	0.0005455128369001412	0.000163951006400332	0.00012262974331960213	9.853855009911693e-05	0.00011518788351836315	0.00010535505919454026	0.00012671351789559217	0.00022418280851972124	0.0002625859207016842	0.00010741745892304302	0.00014434272635800867	9.357921210590884e-05	0.00010759464119382544	0.0001061675279483008	0.00016531067463904157	0.0008690683199945874	0.0025184438685117508	0.00021379371988884276	0.0003281771427095291	0.00010949249648803801	9.019349002642902e-05	0.00010501542480819824	0.00011962850073539901	0.00032037006829251666	0.000842425650471514	0.00015305880023481247	0.00017327144824658694	8.463415671786751e-05	8.342409794414186e-05	5.78568084768611e-05	8.3784104205917e-05	0.00019390747980763356	0.00027259626998043975	0.00043942911175384237	0.0006194647002561256	0.00020818870009350681	0.00021049722150401904	0.00014453461580141852	0.00013752252771945028	0.0001770911406233736	0.00025042257345854945	0.00026136564456767327	0.0004138663448266778	0.00018028743390379576	0.00020184978562102682	0.0001494580075034797	9.725341205101909e-05	0.00013295639333372322	0.00017836340120743307	0.00015626591646429052	0.00021248380375565038	0.00013118268336709368	0.00014291616286988017	8.892144268133581e-05	0.00010711798039182892	0.00012649033065269174	0.00018758544378089928	0.0016264211863433664	0.002807505348676638	0.00024309968767457558	0.00023126268291428413	0.00012756278410191898	0.00010160473949675697	0.0001056817143330081	0.00011023727795113868	0.0006747691307997493	0.0010078058113003662	0.0001499876505700378	0.00014203116617282	0.00010739724436574955	0.00010190267928472164	9.622817050674711e-05	6.32692331734085e-05	0.0002347010897988077	0.0002730758699918547	0.00027519516328812423	0.00026570654944436164	0.0001621443732743959	0.00021341541831800318	0.0002203098757147523	0.00013257531767549345	0.0003416458980874226	0.0002902047695344307	0.0001286752637836592	9.087520888809064e-05	0.00011571855738063585	0.00012358805752853965	0.00011316593038458044	6.835955362402394e-05	0.0002763133370890376	0.00018676734055910875	9.817214881919042e-05	0.00010703451376968667	0.0002389463475116274	0.00018135350114808157	0.0001347018619015004	0.0001178515200194003	0.00012280733926040444	0.00011429845711605972	9.557057783406668e-05	0.00016830974375448801	0.0003492190727227036	0.00029719766271264325	0.0001232068662590771	9.12959405017846e-05	7.641130439813037e-05	9.26593546687374e-05	7.594932460542345e-05	0.00011524419813825209	0.00016935450075849894	0.00013186134539024884	9.942587714826227e-05	8.112772103780635e-05	8.741921200497562e-05	8.160029525451033e-05	0.00013897089137675461	9.442795447795109e-05	0.0006886341831781363	0.0018097374328229863	0.00019881040011348515	0.00018454347892199452	0.00010231820272114142	8.158057466072711e-05	7.043227315294714e-05	7.205751208186077e-05	0.0002556507032193587	0.0005700041074353326	0.00012208504653079307	0.00010430736261076747	8.706010237609889e-05	6.415984141911889e-05	7.371264476511432e-05	3.4746475286676385e-05	0.00012779369387776266	0.00016955910450678702	0.0004453629305474693	0.0004743408460390517	0.0001702213704283896	0.00022411837563156712	0.00010348148763780147	7.165765929215235e-05	0.0001252854828927851	0.00017974571548563242	0.00021365191329094415	0.0003230484275672063	0.00016631507723325516	0.00016627010659414838	7.844991921360318e-05	5.663623563341761e-05	0.00012820046296929967	0.00012788174448734424	0.00013038374092461618	0.00012533540107508077	9.019266839625258e-05	7.657044841998106e-05	7.642522983339459e-05	6.753162167862011e-05	0.00013134579453607246	0.00010483195043374158	0.0015126380180121857	0.0028030825900666172	0.00020507525168246907	0.0001775881749041334	8.166665415701763e-05	7.486326700256553e-05	8.074466889506008e-05	6.914895027024395e-05	0.0005534541396359383	0.0008493032992630133	0.00011737995416163157	9.99620070148038e-05	8.047701201639284e-05	4.427377749234481e-05	6.396430477675864e-05	5.932088327720582e-05	0.00019790867034678563	0.0001976353493098503	7.64013957689426e-05	8.130449087643694e-05	0.00013180533852764778	0.00012675503102491467	0.0001537931996634424	0.00010065293563726277	0.0002840249116904032	0.00021349478102091905	5.9702615831279e-05	5.418972278950951e-05	7.89494221306127e-05	7.479610078637872e-05	6.974199070759331e-05	5.76790005760723e-05	0.00021589648719902638	9.70938988674492e-05	6.724470253335644e-05	5.454168514303881e-05	0.00016519029300685853	7.828997942840567e-05	5.9567411098450075e-05	4.305160196526402e-05	0.00015154145763374263	8.624399777846874e-05	8.72550997846787e-05	0.0001249159740484335	0.00018754467444958672	0.00019421079800003378	0.00011453197221604041	5.0753921870067025e-05	6.905764443589164e-05	4.901368385844616e-05	7.597368403219944e-05	7.409805223350374e-05	0.00011764810524071294	7.896671770281569e-05	7.844350224976297e-05	7.340913149249986e-05	7.991700985821211e-05	6.11923362399625e-05	8.466624356300259e-05	9.67309523114842e-05	0.00046705096091011504	0.001127956753767791	0.00013498454867127166	0.00017959587724480247	0.00011000601678479681	8.471107739229083e-05	6.69963999024985e-05	5.7493412303351006e-05	0.0002062972262074952	0.00030364397118811683	7.642573597486477e-05	7.400172556170807e-05	8.400264144369234e-05	3.774059317101967e-05	3.61879249955484e-05	3.603684453393243e-05	0.00012355019341828795	0.00012453963976383559	0.0003585644038081739	0.00035315122837432727	0.000142495209889509	0.00013248622686467485	9.846826893770017e-05	4.491211200604144e-05	0.00012714526839547306	0.00011749467851816448	0.00018725607908217317	0.0002197383088394148	0.00016610049324523299	8.789593396728315e-05	4.4955732506860485e-05	3.678682879328588e-05	9.356849032497421e-05	8.259444743666616e-05	0.00013123937706242526	0.00011660892579875028	8.36743409483125e-05	5.343027166581583e-05	5.143023684048498e-05	4.2237488769447464e-05	0.00010990102140025505	0.00013741067415153676	0.001168533248729479	0.0020055600568602006	0.00013826348326427963	0.00016025409501498885	5.633395824761666e-05	4.6816239337935735e-05	6.473822240138125e-05	5.5856584717806266e-05	0.0005556477966466186	0.0005463527635373353	9.043569228055315e-05	7.781992570864821e-05	6.713114955988469e-05	4.340253568337026e-05	5.527528012370009e-05	3.301246635459535e-05	0.00017752362564451006	0.000168301059866235	7.719244719475748e-05	7.24939475580094e-05	0.00010239823702150045	9.414250039027478e-05	0.00011665021278853152	6.728074992757134e-05	0.00025228030668725634	0.00014494101299561594	4.5590344940441826e-05	4.016195522066779e-05	6.942519407625449e-05	4.431510237131486e-05	6.16535710422732e-05	4.523900822172162e-05	0.00019435910483819023	7.65888280912735e-05	8.352625844976636e-05	6.868843114731954e-05	8.067762860455515e-05	3.1618578449804435e-05	5.90292276582115e-05	4.5697170795558584e-05	0.00014805722309012108	5.5021350784953236e-05	5.4841372544197015e-05	9.281841747209497e-05	0.00015781138840047037	8.659812514416994e-05	5.4551598988980744e-05	4.3366778197752214e-05	8.958552137080665e-05	3.538708654290749e-05	6.887565380963814e-05	5.822409809622575e-05	6.735144887616492e-05	4.642373139710651e-05	6.431537967635617e-05	5.551486887789896e-05	5.1910411194979416e-05	4.564532920739011e-05	5.992587695711685e-05	6.284637389975721e-05	0.0002580492365887011	0.0008056465884742287	7.131431050680273e-05	0.00012460010423014876	9.767294291840794e-05	5.072743892138283e-05	5.5761092326336284e-05	3.965810531958811e-05	0.00016635971148493454	0.00024710260662039565	5.177543564650159e-05	5.22060363242093e-05	5.4808329499076794e-05	2.9207574178380656e-05	4.4983187460633875e-05	2.5810655670766174e-05	0.00010640011290517096	7.904017190945084e-05	0.0002702044244202134	0.00026654011059607863	0.00010424990897706256	0.00011437759253215917	5.168611486381874e-05	3.300798739982402e-05	8.72892896826163e-05	6.17301649758593e-05	0.00014824915818801307	0.00016449462192996413	6.867514201526446e-05	5.6691495194935814e-05	4.852978083785219e-05	3.775416301963346e-05	8.454160921489629e-05	5.881582973906806e-05	8.40897694239238e-05	7.413521982810951e-05	4.300118742431186e-05	3.602459182030978e-05	3.583459467325738e-05	3.0298330094475043e-05	7.205446699348438e-05	0.00011797767791820135	0.0007820638945354595	0.001346431073738187	8.747938041638465e-05	7.420816797381956e-05	4.2676264762619756e-05	3.259020559098541e-05	4.51119459885188e-05	5.73419779793382e-05	0.0003631330275420504	0.00038154085495264534	5.746670191919087e-05	4.4091798762187695e-05	2.4882862058791413e-05	3.495091144899164e-05	3.372159138441286e-05	2.75874674054329e-05	0.00014610717041069605	0.00011563536722938484	3.46035081675645e-05	5.216752083923047e-05	3.681159250012978e-05	5.424905795253172e-05	5.82391177433659e-05	6.158642330416038e-05	0.00013040140305795115	6.421310958972745e-05	3.795851475434703e-05	1.642634480325002e-05	3.59524128521222e-05	3.5890904591717955e-05	2.4645744815103235e-05	3.9345362077760525e-05	5.8127468580298716e-05	4.647409831521299e-05	2.5795228470061425e-05	1.9324310712213635e-05	3.307136971838626e-05	2.1738907933425255e-05	3.149775925944519e-05	3.822118512342917e-05	5.137609553937279e-05	2.6976955659709537e-05	2.9099080107456035e-05	6.192959264348594e-05	6.144684272249612e-05	3.63568175675211e-05	2.0894524350075905e-05	1.3508140822668129e-05	8.502119426778092e-06	1.7612807843123688e-05	2.4263851784993817e-05	3.1147219281009554e-05	1.222094233189365e-05	1.0256997662220433e-05	1.3828970289509699e-05	1.316740682791946e-05	6.7063947075939745e-06	1.0497271047713047e-05	1.2029236979827874e-05	6.316741254990807e-05	0.00034180057277201446	0.00013493891294378462	6.086827882203249e-05	6.426243002611667e-06	9.969297727548011e-06	7.28183767125933e-06	2.0810294999664032e-07	2.1713921757448117e-05	0.00013280939916938424	1.806440192895753e-05	1.840336533937049e-05	-3.934234280882178e-07	5.425891902518188e-06	-1.2434369930543165e-07	1.8482694040234833e-06	1.8076677997548777e-05	1.4541098599459687e-05	9.799936840512425e-05	6.007334427292788e-05	3.1940758768676615e-05	9.40551025787163e-06	6.800250905002117e-07	-2.9052606123799694e-07	-3.348407427057032e-07	-2.460317782595245e-07	0.0	-4.038013137404984e-08	-1.2050182741733883e-07	0.0	-4.084642467684523e-08	0.0	-1.304953144558952e-07	-1.2145639031945004e-07	0.0	4.807802039930964e-07	-8.142588081804738e-08	0.0	-3.992684342890402e-08	-8.077326810574926e-08	-8.130359164778947e-08	5.6043560673359e-07	-3.971284334127011e-08	-4.086394434138372e-08	0.0	-1.212593694970028e-07	0.0	-8.100243701525079e-08	0.0	-3.972855931158959e-08	0.0	0.0	0.0	0.0	-4.5645383978586e-08	0.0	0.0	-4.1499037389143375e-08	0.0	0.0	0.0	5.6043560673359e-07	-4.1499037389143375e-08	0.0	0.0	-4.038013137404984e-08	0.0	0.0	0.0	0.0	0.0	-4.038013137404984e-08	-4.5645383978586e-08	0.0	-4.1499037389143375e-08	-4.1499037389143375e-08	-1.1657660906473978e-07	-4.2424996324655304e-08	0.0	5.207070474220004e-07	0.0	0.0	-4.038013137404984e-08	0.0	0.0	-4.038013137404984e-08	-4.084642467684523e-08	0.0	0.0	0.0	0.0	0.0	10000.0	P1
