	m0.000	m1.000	m2.000	m3.000	m4.000	m5.000	m6.000	m7.000	m8.000	m9.000	m10.000	m11.000	m12.000	m13.000	m14.000	m15.000	m16.000	m17.000	m18.000	m19.000	m20.000	m21.000	m22.000	m23.000	m24.000	m25.000	m26.000	m27.000	m28.000	m29.000	m30.000	m31.000	m32.000	m33.000	m34.000	m35.000	m36.000	m37.000	m38.000	m39.000	m40.000	m41.000	m42.000	m43.000	m44.000	m45.000	m46.000	m47.000	m48.000	m49.000	m50.000	m51.000	m52.000	m53.000	m54.000	m55.000	m56.000	m57.000	m58.000	m59.000	m60.000	m61.000	m62.000	m63.000	m64.000	m65.000	m66.000	m67.000	m68.000	m69.000	m70.000	m71.000	m72.000	m73.000	m74.000	m75.000	m76.000	m77.000	m78.000	m79.000	m80.000	m81.000	m82.000	m83.000	m84.000	m85.000	m86.000	m87.000	m88.000	m89.000	m90.000	m91.000	m92.000	m93.000	m94.000	m95.000	m96.000	m97.000	m98.000	m99.000	m100.000	m101.000	m102.000	m103.000	m104.000	m105.000	m106.000	m107.000	m108.000	m109.000	m110.000	m111.000	m112.000	m113.000	m114.000	m115.000	m116.000	m117.000	m118.000	m119.000	m120.000	m121.000	m122.000	m123.000	m124.000	m125.000	m126.000	m127.000	m128.000	m129.000	m130.000	m131.000	m132.000	m133.000	m134.000	m135.000	m136.000	m137.000	m138.000	m139.000	m140.000	m141.000	m142.000	m143.000	m144.000	m145.000	m146.000	m147.000	m148.000	m149.000	m150.000	m151.000	m152.000	m153.000	m154.000	m155.000	m156.000	m157.000	m158.000	m159.000	m160.000	m161.000	m162.000	m163.000	m164.000	m165.000	m166.000	m167.000	m168.000	m169.000	m170.000	m171.000	m172.000	m173.000	m174.000	m175.000	m176.000	m177.000	m178.000	m179.000	m180.000	m181.000	m182.000	m183.000	m184.000	m185.000	m186.000	m187.000	m188.000	m189.000	m190.000	m191.000	m192.000	m193.000	m194.000	m195.000	m196.000	m197.000	m198.000	m199.000	m200.000	m201.000	m202.000	m203.000	m204.000	m205.000	m206.000	m207.000	m208.000	m209.000	m210.000	m211.000	m212.000	m213.000	m214.000	m215.000	m216.000	m217.000	m218.000	m219.000	m220.000	m221.000	m222.000	m223.000	m224.000	m225.000	m226.000	m227.000	m228.000	m229.000	m230.000	m231.000	m232.000	m233.000	m234.000	m235.000	m236.000	m237.000	m238.000	m239.000	m240.000	m241.000	m242.000	m243.000	m244.000	m245.000	m246.000	m247.000	m248.000	m249.000	m250.000	m251.000	m252.000	m253.000	m254.000	m255.000	m256.000	m257.000	m258.000	m259.000	m260.000	m261.000	m262.000	m263.000	m264.000	m265.000	m266.000	m267.000	m268.000	m269.000	m270.000	m271.000	m272.000	m273.000	m274.000	m275.000	m276.000	m277.000	m278.000	m279.000	m280.000	m281.000	m282.000	m283.000	m284.000	m285.000	m286.000	m287.000	m288.000	m289.000	m290.000	m291.000	m292.000	m293.000	m294.000	m295.000	m296.000	m297.000	m298.000	m299.000	m300.000	m301.000	m302.000	m303.000	m304.000	m305.000	m306.000	m307.000	m308.000	m309.000	m310.000	m311.000	m312.000	m313.000	m314.000	m315.000	m316.000	m317.000	m318.000	m319.000	m320.000	m321.000	m322.000	m323.000	m324.000	m325.000	m326.000	m327.000	m328.000	m329.000	m330.000	m331.000	m332.000	m333.000	m334.000	m335.000	m336.000	m337.000	m338.000	m339.000	m340.000	m341.000	m342.000	m343.000	m344.000	m345.000	m346.000	m347.000	m348.000	m349.000	m350.000	m351.000	m352.000	m353.000	m354.000	m355.000	m356.000	m357.000	m358.000	m359.000	m360.000	m361.000	m362.000	m363.000	m364.000	m365.000	m366.000	m367.000	m368.000	m369.000	m370.000	m371.000	m372.000	m373.000	m374.000	m375.000	m376.000	m377.000	m378.000	m379.000	m380.000	m381.000	m382.000	m383.000	m384.000	m385.000	m386.000	m387.000	m388.000	m389.000	m390.000	m391.000	m392.000	m393.000	m394.000	m395.000	m396.000	m397.000	m398.000	m399.000	m400.000	m401.000	m402.000	m403.000	m404.000	m405.000	m406.000	m407.000	m408.000	m409.000	m410.000	m411.000	m412.000	m413.000	m414.000	m415.000	m416.000	m417.000	m418.000	m419.000	m420.000	m421.000	m422.000	m423.000	m424.000	m425.000	m426.000	m427.000	m428.000	m429.000	m430.000	m431.000	m432.000	m433.000	m434.000	m435.000	m436.000	m437.000	m438.000	m439.000	m440.000	m441.000	m442.000	m443.000	m444.000	m445.000	m446.000	m447.000	m448.000	m449.000	m450.000	m451.000	m452.000	m453.000	m454.000	m455.000	m456.000	m457.000	m458.000	m459.000	m460.000	m461.000	m462.000	m463.000	m464.000	m465.000	m466.000	m467.000	m468.000	m469.000	m470.000	m471.000	m472.000	m473.000	m474.000	m475.000	m476.000	m477.000	m478.000	m479.000	m480.000	m481.000	m482.000	m483.000	m484.000	m485.000	m486.000	m487.000	m488.000	m489.000	m490.000	m491.000	m492.000	m493.000	m494.000	m495.000	m496.000	m497.000	m498.000	m499.000	m500.000	m501.000	m502.000	m503.000	m504.000	m505.000	m506.000	m507.000	m508.000	m509.000	m510.000	m511.000	m512.000	m513.000	m514.000	m515.000	m516.000	m517.000	m518.000	m519.000	m520.000	m521.000	m522.000	m523.000	m524.000	m525.000	m526.000	m527.000	m528.000	m529.000	m530.000	m531.000	m532.000	m533.000	m534.000	m535.000	m536.000	m537.000	m538.000	m539.000	m540.000	m541.000	m542.000	m543.000	m544.000	m545.000	m546.000	m547.000	m548.000	m549.000	m550.000	m551.000	m552.000	m553.000	m554.000	m555.000	m556.000	m557.000	m558.000	m559.000	m560.000	m561.000	m562.000	m563.000	m564.000	m565.000	m566.000	m567.000	m568.000	m569.000	m570.000	m571.000	m572.000	m573.000	m574.000	m575.000	m576.000	m577.000	m578.000	m579.000	m580.000	m581.000	m582.000	m583.000	m584.000	m585.000	m586.000	m587.000	m588.000	m589.000	m590.000	m591.000	m592.000	m593.000	m594.000	m595.000	m596.000	m597.000	m598.000	m599.000	m600.000	m601.000	m602.000	m603.000	m604.000	m605.000	m606.000	m607.000	m608.000	m609.000	m610.000	m611.000	m612.000	m613.000	m614.000	m615.000	m616.000	m617.000	m618.000	m619.000	m620.000	m621.000	m622.000	m623.000	m624.000	m625.000	m626.000	m627.000	m628.000	m629.000	m630.000	m631.000	m632.000	m633.000	m634.000	m635.000	m636.000	m637.000	m638.000	m639.000	m640.000	m641.000	m642.000	m643.000	m644.000	m645.000	m646.000	m647.000	m648.000	m649.000	m650.000	m651.000	m652.000	m653.000	m654.000	m655.000	m656.000	m657.000	m658.000	m659.000	m660.000	m661.000	m662.000	m663.000	m664.000	m665.000	m666.000	m667.000	m668.000	m669.000	m670.000	m671.000	m672.000	m673.000	m674.000	m675.000	m676.000	m677.000	m678.000	m679.000	m680.000	m681.000	m682.000	m683.000	m684.000	m685.000	m686.000	m687.000	m688.000	m689.000	m690.000	m691.000	m692.000	m693.000	m694.000	m695.000	m696.000	m697.000	m698.000	m699.000	m700.000	m701.000	m702.000	m703.000	m704.000	m705.000	m706.000	m707.000	m708.000	m709.000	m710.000	m711.000	m712.000	m713.000	m714.000	m715.000	m716.000	m717.000	m718.000	m719.000	m720.000	m721.000	m722.000	m723.000	m724.000	m725.000	m726.000	m727.000	m728.000	m729.000	m730.000	m731.000	m732.000	m733.000	m734.000	m735.000	m736.000	m737.000	m738.000	m739.000	m740.000	m741.000	m742.000	m743.000	m744.000	m745.000	m746.000	m747.000	m748.000	m749.000	m750.000	m751.000	m752.000	m753.000	m754.000	m755.000	m756.000	m757.000	m758.000	m759.000	m760.000	m761.000	m762.000	m763.000	m764.000	m765.000	m766.000	m767.000	m768.000	m769.000	m770.000	m771.000	m772.000	m773.000	m774.000	m775.000	m776.000	m777.000	m778.000	m779.000	m780.000	m781.000	m782.000	m783.000	m784.000	m785.000	m786.000	m787.000	m788.000	m789.000	m790.000	m791.000	m792.000	m793.000	m794.000	m795.000	m796.000	m797.000	m798.000	m799.000	m800.000	m801.000	m802.000	m803.000	m804.000	m805.000	m806.000	m807.000	m808.000	m809.000	m810.000	m811.000	m812.000	m813.000	m814.000	m815.000	m816.000	m817.000	m818.000	m819.000	m820.000	m821.000	m822.000	m823.000	m824.000	m825.000	m826.000	m827.000	m828.000	m829.000	m830.000	m831.000	m832.000	m833.000	m834.000	m835.000	m836.000	m837.000	m838.000	m839.000	m840.000	m841.000	m842.000	m843.000	m844.000	m845.000	m846.000	m847.000	m848.000	m849.000	m850.000	m851.000	m852.000	m853.000	m854.000	m855.000	m856.000	m857.000	m858.000	m859.000	m860.000	m861.000	m862.000	m863.000	m864.000	m865.000	m866.000	m867.000	m868.000	m869.000	m870.000	m871.000	m872.000	m873.000	m874.000	m875.000	m876.000	m877.000	m878.000	m879.000	m880.000	m881.000	m882.000	m883.000	m884.000	m885.000	m886.000	m887.000	m888.000	m889.000	m890.000	m891.000	m892.000	m893.000	m894.000	m895.000	m896.000	m897.000	m898.000	m899.000	m900.000	m901.000	m902.000	m903.000	m904.000	m905.000	m906.000	m907.000	m908.000	m909.000	m910.000	m911.000	m912.000	m913.000	m914.000	m915.000	m916.000	m917.000	m918.000	m919.000	m920.000	m921.000	m922.000	dose	pattern
P1_SQ1_r500	-0.0001290662009976436	0.34386392751287964	7.064280122069829e-05	3.017764635520111e-06	-6.062942627086006e-06	-5.415854758406908e-06	3.842423869656696e-06	4.3698661572482005e-05	1.881212865758671e-05	-4.038702228030195e-06	-7.112552955965468e-06	8.561187232115806e-06	-0.05630761979633195	-0.012700716635831832	0.012469932029899072	0.0011589154681563869	-0.09360390920615558	0.1999063461739612	8.970166903219182e-06	-0.061733085441044805	-1.7707928025732905e-05	-1.0099618073006339e-05	-2.577840173718084e-05	-1.1809697621392052e-05	-0.2020000405416837	-0.37957509458423555	-0.017381568297213545	-0.00030002537894109615	-0.009415455082531492	-0.006800999655207167	-0.0011356760076715296	-3.62581473023235e-05	0.030025067535790456	0.025660870790498315	0.0015133689865985817	0.29682714479346095	-0.04663318154862911	0.07441088089895947	-0.013412286357378296	-0.011930385269965715	-0.010643855768743549	-0.11193314125967208	0.02640663944517481	0.03477941276860222	0.001190473912184905	-0.077205213040238	-0.0004471265355660793	0.0002552782505746941	-0.05561967750314806	-0.18012639102432434	-0.01495192407788628	-0.01282126316160273	-0.007536111864736791	-0.029657486290218298	-0.0027690981218531684	-0.014264090694663223	0.0010530337210071287	0.0014937271173758055	0.0029311820671193353	0.09253957886137626	-0.16084251841674507	-0.07305336868760173	-0.029647416082728528	-0.00930768173738511	0.04890418779629874	-0.054549463574852436	-0.0025874486674784224	-0.02516641201804782	-0.0023243117850752313	-0.03430590464303289	-0.001536346191699462	-0.010154825486971282	-0.032272605115810614	-0.08382814695116568	-0.010382832526868422	-0.002135324491562139	-0.10950872728335878	-0.13262931006753725	-0.011194719581879401	-0.011478828675448464	0.08091927286976967	0.012088111637858188	0.001865336035385235	-0.004542918503093109	-0.01512518337506627	-0.021759067249950866	-0.013445164200723607	-0.009615437886595211	-0.0030221369105798077	-0.014851390662678675	-0.0022890113899938723	-0.008592169816163349	-0.000773527615086928	-0.00848936332351366	0.0011993815047543314	-0.006034444908953336	0.0017034658300239293	0.00542756161414637	-0.004307990098523208	-0.0042860475852433185	-0.0010233026960807575	-0.007937410187509937	0.003960045880554987	-0.007915206136217282	-0.001625777436382325	-0.004336221787752217	-0.0015033278264815534	-0.002937456671214785	-0.007160827816172043	-0.009838162972225152	-0.005879634933998046	-0.006269754395385928	-0.0016296060970068344	-0.0065163248987275945	-0.0011038667589807903	-0.003936925103099478	-0.0015049341478913882	-0.005162157105543196	0.0020047184325559936	0.015637986409210602	-0.008829004139832236	-0.02102398159980736	-0.003571286626374435	-0.002061459693246715	-1.5741272090094918e-05	-0.0024822574084038505	-0.0009095024686464914	-0.005192392205349852	-0.0010276971002060407	-0.005378864710915936	-0.00148751532253637	-0.005680308834622068	-0.0027233286129692185	-0.005435741013889056	-0.006595167340838089	-0.00033810992720123556	-0.014179096031083338	-0.04186010685277388	-0.005917378402857301	0.013189256782378596	0.002331617667390709	0.0007230632684277795	-0.0006450637723779389	-0.005855661640908212	-0.0019827076838318876	-0.009160108599801445	-0.0014053968721869725	-0.006860641133239318	-0.000853384385973645	-0.006137147708649411	-0.0008294027138222413	-0.003192639406207928	-0.001250248469690067	-0.002568624733760571	-0.0004988220668683306	-0.0054618653877277525	0.0014343306483277562	0.004197371367543876	-0.0022748709721603115	-0.002361188793499072	-0.0012301177662194245	0.0029586648384122595	5.082114038336763e-05	-0.009636060971819373	-0.0006571703241972267	-0.0039023905819220613	-0.0008124771127505982	-0.0029678371265785992	-0.0006577429932576053	-0.005314625043412253	-0.0005509288125637524	-0.004955487058815711	-0.0009805938147687326	-0.005823273234649311	-0.0014102449548253084	-0.0030463008919056796	-0.0019353129362105273	-0.0021645928742889302	0.0011418240521250218	-0.010802047209884591	-0.0024975314183016996	-0.005746707982089618	-0.0013329491132215415	0.004622921638180396	1.3090101529515587e-05	-0.0030352878485217357	-0.0013671372772536558	-0.008640095947416831	-0.0027264624857116326	-0.005390643292136087	-0.0012698632502795276	-0.004540029464170741	-0.0008732775030830876	-0.001938421212556175	-0.0008706923395758858	8.038874779536624e-05	-0.0024925265703464455	-0.01582923136805421	-0.002741428712866838	0.006885317776784122	-0.0008618142607794569	-0.003019884507199029	-0.0006545474895308147	-0.0062055520009466555	-0.0007021360879176887	-0.00684124831254132	-0.001411723654197694	-0.0033674902488334086	-0.0010413551133881004	-0.001430952442827438	-0.0008899319343268616	-0.002200977053489559	-0.0007833534153487481	-0.003299227873662859	-0.0007379277784618013	-0.0041806862390964435	-0.0008617213793941482	-0.0016623580669639162	-0.0009874486945044704	-0.0017669160150155915	-0.0006228021258906824	0.0027109625723536757	-0.0019549574190753007	-0.0096200121547531	-0.000855270941978918	-0.0023415579885846327	-0.0006523616977694466	-0.001981344316232895	-0.0007398348275562863	-0.006683739383273974	-0.0012550130356737545	-0.0045653426986666705	-0.0008237633216292431	-0.0036190227251274047	-0.0008555307460221323	-0.0023317481601782108	-0.0017100566329890108	-0.002235082333947225	-1.2596787038588082e-05	-0.01666700443555455	-0.0014354985654064815	-0.004871224506405519	-0.0010565448171690546	-0.0027551709919093857	-0.0005904895646858955	-0.004339906730201918	-0.0008504850091408808	-0.008585756030161935	-0.0012939285289823238	-0.004745690010515135	-0.0009615846727186426	-0.0031456569785467793	-0.0007434855329502799	-0.0032301850637943543	-0.0006228117236657393	-0.002952925044257383	-0.001402241213948316	-0.011157470074195819	-0.0013089974810107628	-0.0004997479863494813	-0.0012268599118041	-0.0027623024547157324	-0.0009315149259072784	-0.0008336518670344004	-0.0029185179616178034	-0.0116665060398334	-0.0011632433668666183	-0.0032125930358448077	-0.000984381926004093	-0.0021050300593513285	-0.0008356156408521143	-0.0036348367497297633	-0.0020552370723956504	-0.005336423149067552	-0.0011046135543021788	-0.0033201939414719385	-0.0006543966685678955	-0.0020659174625557893	-0.0007812794711035157	-0.002883623729481064	0.001196884448734989	-0.01777066778163089	-0.002104115518640798	-0.004746848471423232	-0.001185487399568736	-0.002806510245000101	-0.0007011090273180739	-0.002576642771741385	-0.0012239351326507977	-0.011851455254874955	-0.0015215114165826379	-0.0034312284565601566	-0.0008858353966332889	-0.00199022155108576	-0.0010595329377706304	-0.004037705059801918	-0.0009054440731298664	-0.0023262652963800604	-0.0020139480010406743	-0.011645255648498484	-0.0016181396512675002	-0.0031972330734221857	-0.0015008334638053717	-0.00267619584589043	-0.0010523286706439407	-0.004465788658063271	-0.0019408699137634152	-0.007586711951138395	-0.0013431601871606246	-0.0032436047813930438	-0.0008299056313688159	-0.0010069688728385384	-0.0007170887378000991	-0.0027100654065726772	-0.0013363191790637051	-0.0032561474178933476	-0.0015890059721664555	-0.0044211995161563405	-0.0013543283235460414	-0.0017029561898788317	-0.001261260121123728	-0.002285114694298853	-0.004615721420475165	-0.010142030145169609	-0.0021484840145553716	-0.0037043477175969196	-0.0013163435962255665	-0.001844396108992849	-0.000805779912029172	-0.0019861530591605563	-0.0032222500914156947	-0.010272533398534478	-0.0014881945535966134	-0.0028311256087294513	-0.0011323618031396621	-0.0018631460155401616	-0.0008824745437346784	-0.0015451152854137422	-0.0012225910553643406	-0.002061847647723632	-0.004417430445924667	-0.008187574886138502	-0.0024743450984527357	-0.002803836228998222	-0.0017786991967621763	-0.002200241501277442	-0.0017238467130545705	-0.0036002594852044293	-0.002138246830992987	-0.004652656136908256	-0.0016566908383771417	-0.0029038743881423133	-0.0015143920371271063	-0.0019993848950389985	-0.0019541005255851564	-0.00378027585888068	-0.0017530962852015314	-0.002556131481957378	-0.0022436082642315713	-0.004699946109772127	-0.0013182744716641356	-0.0013881471187498868	-0.0013870081545999675	-0.0020382741542810737	-0.010901938091204266	-0.0044581429047971105	-0.0033712992368037853	-0.003122073651847943	-0.0018019636287635687	-0.001962015640562074	-0.0012621886827275189	-0.0017390497146017058	-0.004924617004184834	-0.009241543809371106	-0.0021182295391654928	-0.002732405225463185	-0.0017450995884440768	-0.0032432710963514345	-0.0012561379422998619	-0.002216784756408148	-0.0017815588561665365	-0.001920313190948996	-0.00427100942268651	-0.0060475341448164716	-0.0025535187057891696	-0.0035765623642998413	-0.0020031839044686787	-0.0024318124613041353	-0.0026766091024503836	-0.0031546127765994733	-0.0017253999064276364	-0.002947614386805972	-0.0017991587677857858	-0.0022280235206351487	-0.001417951871048319	-0.001630906929894004	-0.0026354109938656364	-0.0034211674324491435	-0.0016579510068849184	-0.001935650145883068	-0.003956518533543296	-0.005745938338468046	-0.0015682546672541845	-0.0023126195213567955	-0.001407240481526126	-0.002024134279621977	-0.001512225804003982	-0.0019984231289891003	-0.0042819265413426765	-0.006031469486467916	-0.0016279431862472361	-0.001971692779453643	-0.0012548750205564547	-0.0013660598212005583	-0.001270257128268339	-0.0019114940446860202	-0.0031422541256644824	-0.002705933704973227	-0.00224759449769708	-0.0023279030671247824	-0.0018695738718041547	-0.001778397998613226	-0.0017917546322634105	-0.001912017424710853	-0.004909844628014425	-0.014611891402101576	-0.0024197592964052324	-0.0027907357646948187	-0.001418409140807912	-0.0015479502965397864	-0.0013407484766740194	-0.0015574165705180155	-0.004370205296675497	-0.009244988970867207	-0.0017981822658054633	-0.0017645969167096429	-0.001655300181991444	-0.0016246342185750999	-0.0012594795059903074	-0.0012916949291217421	-0.0024270810047566974	-0.001938884266139116	-0.006601773826009821	-0.0070492935846728395	-0.002318565650497371	-0.002837261629821012	-0.0016370172122188013	-0.0014903102221864996	-0.0021046700213303276	-0.0028359600238003694	-0.002757065673384204	-0.0038541575407022508	-0.0020420473587014726	-0.0021048834445772527	-0.0015573930875976813	-0.0012020257413851575	-0.002038125416627809	-0.0026876124357931314	-0.001798964727208769	-0.002383681937323423	-0.002117192854080646	-0.001880557538713815	-0.0013401751633137782	-0.0013587728710333891	-0.001895799645501592	-0.0020754271247800118	-0.016569830480793253	-0.007558502722410973	-0.0026648141149572353	-0.002102172471591576	-0.0017226960970568922	-0.0011728040445479124	-0.00140012445702518	-0.0013884371270874863	-0.007914312079944984	-0.00976787347947508	-0.001936668615994657	-0.0016637861246880787	-0.0020197418230643418	-0.0015278839193088693	-0.0013258207107800333	-0.001429774805291901	-0.002274646442003072	-0.0016808784310893181	-0.003223794196522172	-0.0025049881100183326	-0.002376263543357215	-0.0025657321499033855	-0.0023512707280476343	-0.0017008876139380314	-0.0034509518927060565	-0.0027533480003743708	-0.0012229028810758632	-0.0013090508534788709	-0.0014086834404512336	-0.001636911045944582	-0.0013699260694505085	-0.0010978784334865967	-0.003684845052091615	-0.0028777354099529706	-0.001644278039336742	-0.0013145802736405736	-0.003610329106136726	-0.0029616137525761014	-0.001394522891827411	-0.0015206798766396737	-0.0016606164718217635	-0.0014424497617398738	-0.001400044135890416	-0.0020051609368368995	-0.0041301926034181735	-0.003648095517259045	-0.0015896131731921955	-0.0009929653484453123	-0.0010796026105173119	-0.0008317900954321993	-0.0012796180124627168	-0.001349347100098227	-0.0021311488368719192	-0.0014059817733076453	-0.002038874505635346	-0.0017846301596288311	-0.0016220318116750817	-0.0015136156470460706	-0.0018301930288448368	-0.0011880314516155173	-0.0065416944144202245	-0.013430294272981244	-0.0022971907376343054	-0.0016665184199969813	-0.0018845588531031386	-0.001460070455188372	-0.001071689199075601	-0.0008679851344786134	-0.003515125066654579	-0.006564569304125344	-0.001480524399717629	-0.0011807501828347946	-0.0011874413371291504	-0.0008223095719197646	-0.0010712112048330987	-0.000705922522063012	-0.0018400950175232384	-0.0012896225578108806	-0.006153364197698808	-0.005468883925063435	-0.002377414047089142	-0.0020190784763655127	-0.0011419224665951701	-0.0009263864428105527	-0.001651425799876699	-0.001833123079240514	-0.0022911858591785966	-0.0028744077851011116	-0.0019257775615654483	-0.0014330228354780144	-0.0011837225273618479	-0.0008254548014901059	-0.001685706224113541	-0.0014750285365838344	-0.0015050105854132836	-0.0014528350198124453	-0.0016047131086592164	-0.000943116761861494	-0.00111116948814677	-0.00099550383566961	-0.0018075485796494697	-0.001422152607100137	-0.015683756908060002	-0.01310723780215664	-0.0019417741554444866	-0.001431539169861741	-0.0011536408562875346	-0.0006488169747465337	-0.001450389188958453	-0.0009783921258951652	-0.006536635550895295	-0.008399734245290086	-0.0015847159920645713	-0.0012582854431785837	-0.0013764324138339533	-0.0007733017121634288	-0.0012759038918804544	-0.0007755415898813782	-0.0021851973273815106	-0.0007682014528999923	-0.0015313291621835714	-0.0011391407283719113	-0.0017104479827553891	-0.0014177897291279056	-0.00195348816829971	-0.0011736913611273751	-0.0032484865889928893	-0.0019825835880111814	-0.001000429447051106	-0.0008073973523744304	-0.0011043350770221835	-0.0008300153020830698	-0.0012483016513736265	-0.000822721330433091	-0.002840638940108421	-0.0015950413729075882	-0.001312794007153333	-0.0008180445942299158	-0.0024961680667709273	-0.0012144869867511032	-0.0009812483395998648	-0.0006696145005783505	-0.0018640991932540607	-0.0013030313837571242	-0.0011452016482188666	-0.0010242320428225037	-0.002546434990195591	-0.0017939351529669301	-0.0012930676201982749	-0.0008300803758318269	-0.0010551407509068922	-0.0007854891061580446	-0.00114210629594851	-0.0007106403657022275	-0.001580759301435055	-0.0010431221414286755	-0.0017399098956141354	-0.00147943662905417	-0.001589674898905958	-0.00113258903252347	-0.0013036286240950448	-0.0009088472759602073	-0.004600552125325015	-0.010209428441764049	-0.0018319729280951193	-0.0018330726121705354	-0.0016184328771774365	-0.0008625228170683976	-0.0010890772866550382	-0.0008535423113051368	-0.0028663667864312526	-0.004174597794464311	-0.0013791965656584422	-0.0007774328551027801	-0.0010510806262157835	-0.00045679608832970237	-0.0007526173149825285	-0.0005501330070232735	-0.0013166952788109861	-0.0009681702945204922	-0.00543234840145152	-0.004096721509126135	-0.0019854530947104932	-0.0017315108830769982	-0.0009734655694497161	-0.0005790161246829339	-0.0012660338475892886	-0.0009875985155345529	-0.002275084705892614	-0.0024032027567101335	-0.0018807427826575116	-0.0010833246019930078	-0.0008069818201032254	-0.0006118570865916527	-0.001347876041273261	-0.001024791273756859	-0.0018032979838989473	-0.0012302368849290036	-0.0014311175148153093	-0.0005720365092959065	-0.0011034872880485171	-0.0005875852156399224	-0.0014602902372027346	-0.0012668949483497242	-0.013088735361658343	-0.010163553904123365	-0.0018408807305970378	-0.0009977294974509942	-0.0010058131904538087	-0.0006195978468407604	-0.0011029352022733948	-0.0006254431124818859	-0.006436895364403805	-0.006348202468427459	-0.0014946545358856238	-0.0009980266850394934	-0.0009569996307664281	-0.0005686777110081431	-0.0009335925191706657	-0.0005622631194881327	-0.0019851597429530825	-0.0010404202492863557	-0.001215659210192782	-0.0008076156768039016	-0.0014190632101579034	-0.0011484865173229557	-0.0016532985661778003	-0.0008209157003338876	-0.0027153692877909257	-0.0011617145456119086	-0.0007840670176454808	-0.0004614063858715938	-0.0008675101407881645	-0.000534245596082576	-0.0008311166368349407	-0.0006071761515124469	-0.0027405399705198886	-0.0012568211856948152	-0.0012031375705785902	-0.0006233333118783928	-0.0017045159439820514	-0.0006835037877614403	-0.0007108360470326771	-0.0006171941674565615	-0.0015491422566342573	-0.0008483703862687404	-0.000970464569208519	-0.0009607802733273142	-0.002189377867530784	-0.0009433028580282813	-0.0008715478707136155	-0.0005674802861688217	-0.0010998325201295861	-0.0005237601156611718	-0.0008118661950279044	-0.0005588169398104469	-0.0010703451694431584	-0.0006088710203507122	-0.001673028164579955	-0.0010785963978953773	-0.001343231324965626	-0.0007880812699342667	-0.0011640972603755174	-0.0007472657069823672	-0.003981527093676409	-0.006792515104340681	-0.0013365054779843244	-0.0010848761389688011	-0.0014371662427687488	-0.0007369221454504682	-0.0008749487704118947	-0.0004943417169441323	-0.002055521268682868	-0.002461108439992876	-0.0008063119147033081	-0.0005897433484369321	-0.0006933515808458634	-0.000357048584446587	-0.0007472454781319521	-0.0003721452717942999	-0.0012034143655437664	-0.0007144422683274822	-0.004382196008160932	-0.0025458540679708626	-0.0019419735121425198	-0.001173869902745749	-0.0007171268118570266	-0.0005428587052100101	-0.0007379856490173536	-0.0007607284641195121	-0.0018445339826171714	-0.001656335165919713	-0.0012740972102233475	-0.000644417377438531	-0.000659449717413073	-0.0004401029369864211	-0.0010700261420227616	-0.000618518651524716	-0.001170565237676746	-0.0008237754030556333	-0.0006718369949090964	-0.0004089975539045794	-0.0005429237193836938	-0.0004570036556455956	-0.0010299263995202476	-0.0012138608881063014	-0.010729999137387456	-0.005091243548585762	-0.0012873161444538286	-0.0005142476556599003	-0.0005115165909195572	-0.000315647851559203	-0.0007462918618535675	-0.0008118457892798589	-0.004658685026251018	-0.0038049175072070035	-0.0008656940269087602	-0.0006195319163319748	-0.0006573674039330407	-0.0003412920572787	-0.0005117715112437164	-0.0004096690648106228	-0.0014830050355648904	-0.0005825996634705351	-0.0006969812173643378	-0.0006660225148911661	-0.0005685771545565202	-0.000495842778236124	-0.0007025195165097452	-0.0005688267573662605	-0.0011643596490421369	-0.000714109008448165	-0.0002949744240516269	-0.0003425323640205476	-0.00045142413662939987	-0.000315346446604446	-0.0005825089575435653	-0.0005158458143377754	-0.0010049873698804068	-0.0006215440799533495	-0.0003422500621790747	-0.00025999636457712134	-0.0006539635685560745	-0.00023865224712689415	-0.0004938918655560237	-0.00030053421117689995	-0.0006105084804562642	-0.00033697278000350704	-0.00024733655409853866	-0.0006211788807660051	-0.0006854824450636818	-0.00035248184387634215	-0.00024716846997622556	-0.00019947146186392482	-0.0001915704365582124	-0.00015476790613901185	-0.00018377683610602618	-0.00033819935033347064	-0.00019607951356270743	-0.00015614525156621356	-0.0007592311232803134	-0.00022826226971391713	-0.0004978541813551166	-0.0001675358864142776	-0.00027942404586319547	-0.00011871515796412239	-0.005124832122713608	0.000256835953337615	-0.0008147263706914406	-2.4596279923234758e-05	-0.0002561059273726705	-0.00010316504861530944	-6.89989957249675e-05	-0.00011319599762626517	-0.0015140607168559086	-8.57918666487739e-05	-0.00018722160584241403	2.9606614886795398e-05	-1.2172896413354412e-05	1.135556522524454e-05	-1.8176148088029615e-05	-4.573485904904161e-05	-3.429691147756393e-05	-0.00018017649080211942	-0.00019888150048323768	7.880087746604819e-05	7.226671675046558e-05	2.9296430089479312e-05	5.014904779873537e-06	1.3172307685017359e-05	-3.1385967691978025e-06	0.0	-5.144511796144165e-07	-1.5388086901452797e-06	0.0	-5.207572972638721e-07	0.0	7.0579452898331705e-06	-1.548804781394843e-06	0.0	-1.5289888835428671e-06	-1.0408558407595638e-06	0.0	-5.108277843338526e-07	-1.0315850815977245e-06	-1.0373884725189313e-06	-5.109374906614595e-07	-5.067670311644609e-07	-5.20790586423644e-07	0.0	-1.547646951804991e-06	0.0	-1.0340180640499644e-06	0.0	-5.07223608547555e-07	0.0	0.0	0.0	0.0	8.139477993812157e-06	0.0	0.0	-5.300280564257115e-07	0.0	0.0	0.0	-5.109374906614595e-07	-5.300280564257115e-07	0.0	0.0	-5.144511796144165e-07	0.0	0.0	0.0	0.0	0.0	-5.144511796144165e-07	8.139477993812157e-06	0.0	-5.300280564257115e-07	-5.300280564257115e-07	7.236494023472844e-06	-5.407663519894932e-07	0.0	-1.0181610992090146e-06	0.0	0.0	-5.144511796144165e-07	0.0	0.0	-5.144511796144165e-07	-5.207572972638721e-07	0.0	0.0	0.0	0.0	0.0	500.0	P1
P1_SQ2_2000	0.0001557897205249182	-1.5387355551698128	-0.00013023952549163093	-5.140120765540609e-06	7.299853230552539e-06	3.867998398701273e-06	-1.3599314688512212e-05	3.779257861056565e-05	-2.7085526011125555e-06	-4.038702228030195e-06	-7.112552955965468e-06	-2.6322289884222004e-05	0.16278994217902276	-0.02150541382714133	-0.03922192304595319	-0.00929745628997087	1.7378725089754612	0.10678743606714969	0.0032164646371102357	0.39436476232284245	-3.782148290070631e-06	-1.4178560773536702e-05	-1.649454858007266e-05	3.8125730891405746e-05	0.5332578997192821	0.2271920239143439	0.296490157126977	-0.02692843252036635	0.041529860652484006	0.021701287855703393	0.005312328678621737	0.0005427048394659952	0.019626633040547403	-0.00481242184820181	-0.00020151098137699476	-0.8231596765576027	0.06771885698157315	-0.29294254253905705	-0.03733805639680129	-0.025752559981761892	-0.00826758409499298	-0.2993195415798559	-0.014081698521315321	-0.16921487849049405	-0.00639484435609784	-0.17720546554958141	-0.0041629872693606275	-0.0008751303224759275	0.12470556454722562	-0.08856755607050598	0.010008025502948839	-0.0495354479152758	-0.004308550807183644	-0.06222352874668184	-0.006374112574021268	-0.02656159914114809	-0.0008899558360865459	-0.009833309782724248	-0.021314198376708424	-0.1668103071824434	0.5740828855691901	0.15736732748771162	8.19589800449827e-05	-0.0018599895159371882	-0.02128661215289353	-0.09627935333080341	-0.013170937059059484	-0.08083695434198407	-0.0018350879309598934	-0.0600824499549175	-0.003776564626720688	-0.05001254732322916	0.05194121030885565	-0.024405134363665593	0.00132813192687848	-0.02998258639972177	0.45482203245772707	0.436073817672239	0.039466176772702984	0.04089070019729256	-0.018979887968720875	-0.015007618091220417	-0.005002934116073114	-0.03386278785956594	0.01619086836795676	-0.014418484022355953	-0.009645625534578043	-0.02085796630958808	-0.004187379316352088	-0.022457008841784646	-0.004552755427546777	-0.01834846871602232	-0.006178164315559116	-0.02178230486044914	-0.005292437873767622	-0.031781666292535135	0.01924325434093706	-0.009713754307197488	0.0005362190363029963	-0.011967881871124384	-0.0006247783069735406	-0.010463336842544862	-0.009550691578492334	-0.05019431000820615	-0.001406505365507728	-0.009016793503950495	-0.0034385827437695463	-0.00827437607505783	0.004423366892197477	-0.0021912485193481927	-0.002274594607515031	-0.010346401187539569	-0.0030625275527924353	-0.01577567956002775	-0.0027803511804759965	-0.010156367096850494	-0.003437964782088003	-0.009968381613091225	-0.005216650084323122	-0.13706180420131203	0.02255441088898004	-0.00893261945913082	0.0004979702917518418	-0.006185612510891408	-0.002157774114700868	-0.00566649328070762	-0.002678781577797656	-0.03402360427162246	-0.0025469223063859887	-0.01394279281159746	-0.0042487960084686485	-0.014707086568514754	-0.0018333046449954043	-0.008154913742068145	-0.012685863242326578	-0.012132965618138987	0.05379227234736553	0.06875673256942112	0.01603366787892683	0.004571155899624684	-0.0007228567683531251	-0.006258972676481937	-0.0026517319378245585	-0.019096988320366548	-0.0004025047986814306	-0.02506042064091569	-0.0029843901237126443	-0.015414813132685844	-0.0027779552160922248	-0.014891758727628542	-0.003235263584924297	-0.0077995010902977705	-0.003925485289009134	-0.007342731733658797	-0.003701773275444496	-0.024621801103455382	-0.0025512062334073562	-0.013643788039819745	-0.0036673633575913644	-0.007205065103846045	-0.00366233151313402	-0.0269956064180747	-0.007019225241109265	-0.031108416231474593	-0.0028061452541374666	-0.010403702779261538	-0.002337973534476674	-0.0071524041540610974	-0.001819637454978366	-0.009182039995481716	-0.002644436007351169	-0.010804228775836101	-0.0029229682630337044	-0.01856089705435483	-0.003353704330839385	-0.010775302018879706	-0.006347967800906757	-0.008814336366548173	-0.004602480740516665	-0.10941114523212729	0.0015151129689018657	-0.014653723612313964	-0.0021923223927779794	-0.008392393546810564	-0.0029857364712119762	-0.00612636889180592	-0.003467271929078079	-0.019982224666380655	-0.0057271623026358695	-0.014544183978708481	-0.0031050945079469624	-0.011426551633878337	-0.0022293274574195087	-0.004867348240873135	-0.002884170810742332	-0.008891661818415723	0.007904709681389238	0.005985254614781818	0.005020597458808651	-0.005133095403339038	-0.0017230888667598171	-0.007113131310915039	-0.0023327835887479833	-0.014571335472919498	-0.002669578132908504	-0.021548906490932176	-0.00307468908868611	-0.010122799059783898	-0.002461415831259469	-0.005512830380359444	-0.0022849617704170677	-0.006923304519046702	-0.002288255309112652	-0.007889338744672974	-0.0024627278024880344	-0.012723911297802828	-0.0020567042689825844	-0.007514782184237441	-0.002278926906932297	-0.005331238432384543	-0.003943796954134342	-0.059126511103078656	-0.007068751002211345	-0.03475147892856113	-0.0031554249681096727	-0.007343000985429815	-0.0023049597842545676	-0.0053848912678572825	-0.002244153098263309	-0.014847058023609434	-0.0030321414511544683	-0.01125624701165596	-0.0028107859799141547	-0.009984067749383235	-0.002736755639035016	-0.006310128930312783	-0.005605813210897894	-0.010034682816052727	-0.0048184925092704485	-0.08353009048757609	-0.002138143510983386	-0.013983235047694957	-0.002931625911380816	-0.007491967315209776	-0.002348888596331691	-0.011486686860670836	-0.0025611672877936865	-0.019944561092466628	-0.005272372952515456	-0.012197811518561972	-0.0026065980373555764	-0.008305040419226306	-0.0020256843199907863	-0.008110041660020497	-0.002602813105629369	-0.009815742241141562	-0.0006413789014890802	-0.019476012848104726	0.0002552466599431715	-0.010462311108460621	-0.0024206551393881055	-0.006619680107024442	-0.005137059024323582	-0.021492952299243556	-0.018069005176058153	-0.03381051150926395	-0.004466959970810621	-0.008979785701069862	-0.0024467611363359846	-0.005237611088990559	-0.002352558303159941	-0.008760702127223095	-0.004877347040743782	-0.011614496801672331	-0.0026933661941906484	-0.009416990534407286	-0.001991875011857447	-0.007047977953320675	-0.003073540625175924	-0.009216251842191277	-0.011696435117056375	-0.1400138583411285	-0.007911288404312615	-0.019501383383088357	-0.0037033226322502246	-0.0068129462351864175	-0.0024955086810390316	-0.006133703570204125	-0.0033765073144493424	-0.027127834506385992	-0.004887262738929491	-0.00846230254066952	-0.0025191322789774677	-0.006109823546148819	-0.0025631112072235806	-0.008379365036320998	-0.003180685913437284	-0.00911961051608063	-0.005673206593121046	-0.04014978219316462	-0.0032429599057224225	-0.014739225613390892	-0.0031576801015877594	-0.006250959132140442	-0.0027292481957584894	-0.010693166257272384	-0.006412670187566323	-0.02074662975825528	-0.0036115259203175396	-0.007519673175136113	-0.0022759579625182434	-0.004599367367778119	-0.001972380568290393	-0.006038697710666571	-0.003096927251050643	-0.007806254499256485	-0.0029271242113001828	-0.007111912235315599	-0.0013549801466416482	-0.0061455326438874915	-0.00228378097736945	-0.0054454142924232635	-0.030356104340609313	-0.10672830115618316	-0.00736426690866445	-0.015693742757555574	-0.0031973753091882845	-0.005423061468540746	-0.0022652105484825906	-0.0042038845334615065	-0.006294842256577467	-0.02255138493633339	-0.003912273985442996	-0.006524321847549923	-0.002720374100594944	-0.004959442874685469	-0.0018948493595585137	-0.004035665524980817	-0.0036141775860728817	-0.008358078092372276	-0.014921804955086028	-0.030500436062168713	-0.00735111748968512	-0.010983063925441319	-0.0041272441076157405	-0.005285739570250372	-0.0038014485571019516	-0.009178462828912267	-0.005831346846359354	-0.011221277765322666	-0.004022670105556561	-0.006340831222820332	-0.0026551921180989007	-0.004113037911342068	-0.0033740102860577337	-0.0067883580982622625	-0.003538772806903694	-0.006567551254959563	-0.004960288531903475	-0.0112071686188853	-0.0029764261977367973	-0.005776864890520136	-0.0029447836143111222	-0.004988831595614089	-0.052229787910014744	-0.10480789139977961	-0.00920123373489282	-0.011169611488424247	-0.004234238280544133	-0.005175365586378533	-0.0027693084636491523	-0.0037439362224059437	-0.010406992343606026	-0.0203032750297504	-0.004437080045501103	-0.005365405092196101	-0.0036231539325505577	-0.005635558758618097	-0.0024695997683847498	-0.004592421449926255	-0.004496731721637186	-0.007731502745721562	-0.012580656109285809	-0.021355651121484052	-0.006959743741327648	-0.010130607122115498	-0.004316844407166208	-0.005119586369673392	-0.005714994960841763	-0.008148802619673606	-0.003956525999047232	-0.006211745364484936	-0.0041755608990943875	-0.005265265597973299	-0.002929160709648402	-0.0038400067217000565	-0.00484390854183896	-0.0063631634173838955	-0.0034534798229331515	-0.004490116600272976	-0.00991725809800871	-0.017349448598628414	-0.004874282214347759	-0.007693352680393582	-0.0035778364178529814	-0.004174597659854058	-0.00304961062398684	-0.0053820582628842815	-0.011238736948032645	-0.014089457347457342	-0.0037770063282406914	-0.004238338738625492	-0.0025712410175280248	-0.0027156596675776586	-0.0026912953853461133	-0.003890776467693726	-0.005761212932784777	-0.005560034905157867	-0.004812518171897602	-0.006371543865686538	-0.0036061069641615444	-0.004777770226085683	-0.003756539837360941	-0.004400796802212707	-0.03569587223907663	-0.09783026323887661	-0.007691489958563003	-0.01194384228626095	-0.0034587104326520035	-0.003784298799792978	-0.002657110480340287	-0.002838917457360373	-0.008198839609297345	-0.01946977236237781	-0.004287994168443239	-0.004554059031841435	-0.0029191149742313315	-0.001835530676041448	-0.0017379048792170444	-0.002375863094366441	-0.004948436671246244	-0.006249659013277207	-0.018144269105147288	-0.021784892762068856	-0.007751761747907926	-0.008845081516321752	-0.0041862151295674	-0.0033597790423728524	-0.00400080187165261	-0.006289095368102333	-0.0070302049492540295	-0.010114150839998682	-0.004270164632685241	-0.004647116535565223	-0.0033488228603694927	-0.0024172743023725515	-0.0037121261134323937	-0.004954243487906666	-0.004073715526944921	-0.0048992879507622315	-0.005256208434858806	-0.004861554026410211	-0.003420042323595134	-0.0031363492652157683	-0.00357385891819531	-0.00398442587068745	-0.059017155263390506	-0.10928068721814072	-0.007016339326187442	-0.006907932538253712	-0.0036973065813333127	-0.0029689276538157026	-0.002890371871958184	-0.0027746053470177287	-0.015142307994257137	-0.022204415080091352	-0.004051395957546071	-0.003551222258934521	-0.003950370694207013	-0.003035983856571363	-0.002753521716318561	-0.002998179440176953	-0.0055666353291524955	-0.006508367007792399	-0.00961381562325902	-0.0073417039543308615	-0.005768700756518632	-0.006184593145272066	-0.0047922770986893425	-0.003636046838519511	-0.007620013769919703	-0.006617909026804791	-0.003045178186524553	-0.0026957825912368575	-0.0033868199287404445	-0.0030301374668636636	-0.0024110285615071897	-0.0021954427101655875	-0.005837886938769378	-0.0048229497903174295	-0.0030578777976560923	-0.0026014463354056988	-0.008297475920465936	-0.007143488086365362	-0.004236924740840355	-0.003961905296901499	-0.003364303514705821	-0.003146688544237209	-0.0027297805143488836	-0.0048736477042321796	-0.010825290902243503	-0.007495161410306063	-0.0034426788999871553	-0.002422178791321122	-0.0023250832006590466	-0.0018894722712154523	-0.0023157723205281346	-0.002451751142892323	-0.004080166353887545	-0.0027613581045260412	-0.004579436280875487	-0.004477802303387376	-0.003810699294671109	-0.003775729787634275	-0.003530916121931983	-0.0030719282017366975	-0.026295078257959254	-0.06665150956594994	-0.006007752960264222	-0.008734717276733701	-0.0033056090870870166	-0.002632832385798766	-0.0021310506828532685	-0.0017267503881869372	-0.006519121312354944	-0.01246302559412205	-0.0032248425210757354	-0.0026413503113229906	-0.0025190276604998302	-0.001523693647050121	-0.0017655431420338856	-0.0015554030444310915	-0.0036356461937508424	-0.003622037878178711	-0.015428095229960923	-0.015695584673961715	-0.006502983977145478	-0.006856579699374199	-0.00288160238641741	-0.001990404492685664	-0.0029026700971550613	-0.0037083396971595486	-0.005544607816010274	-0.0073976473886184285	-0.0038794565722168124	-0.0032419944431562216	-0.00212282395935089	-0.0013837606788871517	-0.0028870383064362216	-0.0026821301892854883	-0.0033610724768627863	-0.0031211388995877965	-0.003697414292457626	-0.002324658362164905	-0.0024758232846473394	-0.001771140005562244	-0.003272198767085818	-0.003165950470827306	-0.05040905592908138	-0.1084420533016324	-0.005350531517933501	-0.006090368524596172	-0.002514190419939236	-0.001890221221990717	-0.002269626377269211	-0.001748821654286184	-0.01230204701253693	-0.017227666405566017	-0.0032854208478126238	-0.0024479439630754746	-0.0030108934627392793	-0.0017844262388654302	-0.002330627574560206	-0.001843636985996157	-0.00468844949578218	-0.00470621309792982	-0.004636472253219298	-0.0029096792232875023	-0.0039996462135124975	-0.003148224928246015	-0.003527445353052954	-0.0023947197970730426	-0.006571763633499126	-0.00450751659862867	-0.002081877656342714	-0.0015312590459680157	-0.0022462723762854205	-0.001762636700474823	-0.002217079448896354	-0.0017787264681362659	-0.0050352239377263065	-0.0032982660021037714	-0.0023367151433269836	-0.0017204148596537423	-0.005278065781902529	-0.002312305803554546	-0.0030570582530999603	-0.0019953121331206768	-0.0033554885484056523	-0.002458348381810935	-0.002291779276900972	-0.0026022721625784317	-0.005241539618805851	-0.0036558153269768707	-0.0024303668518969278	-0.0014220000554820032	-0.0019727107041128756	-0.001266428540933874	-0.0015968752710063363	-0.0015456389205455697	-0.0027355067932857695	-0.0017268961753923143	-0.0038593419913147873	-0.003241365941667464	-0.0033026428031019276	-0.002854941159802494	-0.002554876514310661	-0.0023217291089408123	-0.017981913447568002	-0.04405498674283801	-0.004884746601075033	-0.006299550674493946	-0.0027911842939815548	-0.0018393264514269523	-0.001668755294111937	-0.001161732231665251	-0.004845672174943972	-0.0077775037931223185	-0.0023687779190034804	-0.0016100369648575303	-0.0019482547651267354	-0.001176017718585336	-0.0014718348195502868	-0.0011210842889271457	-0.0028691356429969054	-0.002559625658076172	-0.01240323337797618	-0.010423455086193653	-0.005107530455475829	-0.004504422330804755	-0.0021636588565807943	-0.001327922904933868	-0.002286425857294706	-0.0025000045380424905	-0.004887055193325994	-0.005294645668319863	-0.003441344890551534	-0.0019903507685436425	-0.0016820710958878975	-0.0008933234737505839	-0.002372364960907302	-0.00180915350286279	-0.003045265676704442	-0.0023157841350185913	-0.002669009263710168	-0.0013569553340310055	-0.0018616701401801916	-0.001271919109969662	-0.0027597919861676425	-0.0029065428066790892	-0.04130991377553966	-0.0783217321292675	-0.0045226414603939035	-0.00467049209181689	-0.0020174853955856496	-0.0012649721164460156	-0.0016367557915869177	-0.0013301742489155702	-0.011010194139782237	-0.012565079981113449	-0.002543054322261431	-0.001795182470660801	-0.002221052124310793	-0.0010960270421139745	-0.0018185266359205749	-0.0012768414921311305	-0.0044139716140892985	-0.0037097043051753627	-0.003155970364842237	-0.001989116977960536	-0.0029971185039709843	-0.002186346618563608	-0.002734750102679095	-0.0017628146965322177	-0.005243671333356618	-0.0029707544454579213	-0.00155505141179447	-0.0010759726608638091	-0.0016780255281792355	-0.0011360051387088374	-0.00189048184661855	-0.0015229254499519414	-0.004436622864384726	-0.0023464628167099285	-0.0019351635379886573	-0.0013384749349311153	-0.003623325054097945	-0.0013632119926341021	-0.002289456187216661	-0.001449818241427402	-0.002778872127622777	-0.0017815542357309617	-0.0017989876069290237	-0.0020288631579813044	-0.004064551482882369	-0.0022812450382192822	-0.001787293442667974	-0.0009948133938263487	-0.0016260546147717203	-0.0009243665670766718	-0.0013037667319374623	-0.0012861959232240714	-0.0020937024516589774	-0.001118778346914915	-0.0031120868470629367	-0.0022735061508172396	-0.0027648357576241897	-0.002070215955003489	-0.002010060972342804	-0.002003159385256642	-0.012596768783269022	-0.029143763328194173	-0.0037693540919582586	-0.004757870998139593	-0.002318018222364756	-0.0012689181941143842	-0.0012662725662578038	-0.0008374177052427249	-0.0036894351005734515	-0.005246805659654922	-0.0017040443792039684	-0.0010909303379123267	-0.0014084934702312916	-0.0006698842113361174	-0.0011524927914043266	-0.0007820355763587859	-0.0022063694281172653	-0.0018656942999192567	-0.009746994454324809	-0.007672496614005076	-0.00420037998615505	-0.003293539374129046	-0.0015497247995778592	-0.0009353082027797755	-0.0015839514904238152	-0.0017724081227742427	-0.00409476846317255	-0.0032392323371666434	-0.0019235446997587385	-0.001145045109513049	-0.0010862209057843025	-0.0006755684036322036	-0.0016671425603733037	-0.0011981995862168481	-0.0023782030585517825	-0.0013860241817213277	-0.0013520923458058877	-0.0007665623766080473	-0.0011446832619855895	-0.0008320110154099122	-0.0020718468094139924	-0.0036298547141611188	-0.032993043247389525	-0.050110954852755914	-0.0031450618635473714	-0.0031789819484985484	-0.0011301559527445916	-0.0008563621080107044	-0.0012602730737979412	-0.0014700149465401591	-0.008753687537101356	-0.00733398346595763	-0.001650603934805891	-0.0010335046236480247	-0.0012021560779874759	-0.0006116455256592139	-0.0010873676476234482	-0.00102014841223389	-0.0031831616801197707	-0.002388175527138451	-0.0016737731396016613	-0.001250339653602628	-0.0016761893025813875	-0.00131565665954219	-0.001548484026398859	-0.0014060648085103221	-0.0024022539263842207	-0.0015205840511907846	-0.000703740419988806	-0.0006164008596438767	-0.0007694606279112329	-0.0006380239329379353	-0.0010749693551603495	-0.0011612200840567396	-0.0019376066383780268	-0.0011622692497188151	-0.000874238791363691	-0.0006960526039041502	-0.001386543469665155	-0.0005962213285871269	-0.0010694888004059472	-0.0008150879893644589	-0.0011686618136170634	-0.000851523496977147	-0.000770606942402314	-0.0011659675548651115	-0.0014959959691532299	-0.0007623839928512201	-0.0005611244216536945	-0.0003564487057750346	-0.0004357575709289047	-0.0003117448839042205	-0.00033611255266149454	-0.0005911084185871569	-0.0005664452129227983	-0.00044393939394565823	-0.0015790408792723933	-0.0007382080624440913	-0.001304299543655415	-0.0005251265297094948	-0.0006282656038770043	-0.001906687939929975	-0.016350869846494222	-0.005049272800680407	-0.0029866134878349724	-0.0006614463191776792	-0.0005090140641116419	-0.00012932818875654808	-0.00017364982629283255	-0.00024400996833130785	-0.0030578200103888015	-0.00032126345515791057	-0.0003093144411184101	-6.632374562083684e-05	-9.938198842305056e-05	-3.2248914243128265e-05	-5.3059758277317965e-05	-0.00016782782740204928	-0.00024360056872379634	-0.0012703626053339194	-0.0009576618066918854	-0.0003049272184759751	-0.00010215452803207093	-1.4307916305942947e-05	-3.705964499210917e-06	-4.26943087315155e-06	-3.1385967691978025e-06	0.0	-5.144511796144165e-07	-1.5388086901452797e-06	0.0	-5.207572972638721e-07	0.0	-1.6629239892512834e-06	-1.548804781394843e-06	0.0	-1.5289888835428671e-06	-1.0408558407595638e-06	0.0	-5.108277843338526e-07	-1.0315850815977245e-06	-1.0373884725189313e-06	-5.109374906614595e-07	-5.067670311644609e-07	-5.20790586423644e-07	0.0	-1.547646951804991e-06	0.0	-1.0340180640499644e-06	0.0	-5.07223608547555e-07	0.0	0.0	0.0	0.0	-5.81391285272297e-07	0.0	0.0	-5.300280564257115e-07	0.0	0.0	0.0	-5.109374906614595e-07	-5.300280564257115e-07	0.0	0.0	-5.144511796144165e-07	0.0	0.0	0.0	0.0	0.0	-5.144511796144165e-07	-5.81391285272297e-07	0.0	-5.300280564257115e-07	-5.300280564257115e-07	-1.4843752556116095e-06	-5.407663519894932e-07	0.0	-1.0181610992090146e-06	0.0	0.0	-5.144511796144165e-07	0.0	0.0	-5.144511796144165e-07	-5.207572972638721e-07	0.0	0.0	0.0	0.0	0.0	2000.0	P1
P1_SQ3_5000	1.485128443335542e-05	0.38491900465915396	6.914675506617134e-05	1.6803259198236674e-05	-6.062942627086006e-06	1.7699883082636158e-05	1.8846666430857367e-05	-3.9054913006923024e-05	2.4486127940460874e-05	4.072793051812203e-06	-7.112552955965468e-06	-1.9878040446948174e-06	-0.048496872362518456	0.009126829724719787	0.012669558467074987	0.0011331626078005617	-0.3688865535536663	0.04051163184030204	-0.0009257229709200105	-0.09769028899538129	1.2909931095910497e-05	-3.206870791648061e-06	-2.6997149735664954e-05	-1.4856567617602336e-05	-0.1633656836283044	-0.2051249242869968	-0.06310625000906489	0.003436797338946085	-0.010484244485013686	-0.006163799858081872	-0.0013527804932235172	-0.00028733527630622193	-0.0048875248407957775	-0.000538895050046645	-0.00015675988125447133	0.46704483988510503	-0.028081135012494318	0.14220603680921667	-7.769409468867672e-05	-0.002819513452505619	-0.003989067744542482	-0.004213854722642019	0.001122150510714806	0.030795111044155665	0.001189290475353405	-0.013689386540360032	-0.000792455441557767	0.0003333471252425276	-0.050210815344706256	-0.07430869576591848	-0.010439319862186339	0.0022456070868842257	-0.0021543848387319195	4.691758478235497e-05	-0.00011854772688286476	-0.0024114299423736857	-0.00037419756890547974	-0.0015083834428284218	0.0034095414911676815	0.03769536429118772	-0.15597381958949522	-0.05500479420180472	-0.014390059468085609	-0.011648758684624387	-0.0054904606082601184	-0.012779657273368342	-0.002221211768918735	0.0004882610354143141	-0.0009108952793685302	-0.008720790285752539	-0.0005903396426936072	0.0018916030368536993	-0.023471580180361704	-0.03842852333066596	-0.005223522111675913	-0.002480903135333737	-0.11893152158413274	-0.12403317828191371	-0.010561025351320119	-0.017680174756465106	-0.0072290959597255365	-0.0016188822751914515	-0.001191477444805732	0.0016665060227332648	-0.01024294978072433	-0.009072995517144924	-0.005564244154826085	-0.001886578152770168	-0.001520752391421752	-0.004255320190427028	-0.0014540979023474846	-0.0015987016729072205	-0.001097167951467453	-0.0031579572270214844	0.00048634648368232284	0.005954434408160271	-0.011168297091276591	-0.018643008407025152	-0.0030929397543619794	-0.002071408246645456	-0.0010992436954309595	-0.002618090644411753	0.0014028858500780231	0.0033949844941431676	-0.0007524835026401031	-0.00034029599648676377	-0.0006313069795163048	-0.0012356531775178543	-0.00466612163234911	-0.0052067907151670065	-0.002692109642851742	-0.0021266100070520804	-0.0009507620799036939	0.0008911481903233313	-6.425061493820026e-05	0.00021602551420884727	-0.000128690407072256	-0.0015976733785087356	0.0002418768874979365	0.013347638574204235	-0.007705207231578995	-0.009352379897560124	-0.0019496972082665648	-0.0019083910100493803	-0.0003825467894949821	-0.0008819320270897161	0.0002559021251172483	0.0008231892481068495	-0.00023908067642893632	-0.001249428081071811	-0.00030351847651635244	0.0009770505763326016	-0.0010271551485656547	-0.0015205905910029398	-0.0007655148534078428	-0.0019658866432041636	-0.015492056281009914	-0.029225721190302742	-0.00508348398867431	-0.005726093851980425	-0.001530600901948123	-0.0007944074248450433	-1.5895185095803847e-05	-0.0003562410786838721	-0.0013252566072379209	-0.0023713365443787313	-0.0008477362269585526	-0.001892298909544704	-0.00030491688940997635	-0.0009784393970275924	-0.00027056685903302817	-0.000578775754802122	0.0006577153769048759	-0.0004881768501402454	0.0002512049455996061	0.006832501776055634	-0.00051243564056357	0.0007196607719553612	-0.001062724558894227	-0.0012335446360059454	-0.0002949241062481754	0.0016804326609567086	0.0002670233172511697	-0.00025388458824625315	8.989403575354951e-05	-5.932395916402773e-05	-0.00024494879586650685	4.603668311561459e-05	-0.00040771570088006526	-0.0012455341374126346	-0.0003331990968397057	-0.0017741833772225019	-0.00023903280706766544	0.0029604387838446447	-0.00024310762776300152	0.0012402450363857617	5.034915123759004e-05	-0.00031647708405939563	0.00010156766215636999	0.0009450251888364625	-0.0015045869590467938	-0.0008891705752283006	-0.0006592169456203869	-0.0006720704348443813	-0.00042687612920176395	-0.0010029534814919427	-0.00011314271125491965	-0.0013774360100082261	-0.00019905077357024962	0.0002999371980858881	0.00010228698747964931	0.0005060437546485462	-0.00022848287994414783	-0.00036384558324193805	-0.00018503495463582367	-0.0014763440656285643	-0.002860017091787576	-0.006790697804206221	-0.00207332405796745	-0.0019004351809946696	-0.0003799183076312997	-0.00047330542516248707	-0.0001476883240705642	8.547735789774837e-05	-0.00025012201473577226	0.00024500711520720683	-0.0005263972962105826	-0.0005722231113186385	-1.625014492890632e-05	-0.0004008021046786872	-0.0002649999753597649	-0.0010339580263697473	-0.00034988907592676524	-0.0007844448122319228	-0.00026326653022341754	0.002433046681156842	-0.0001154688821093184	0.00045937281134187	-0.00023796130767528506	-0.0006720829829795693	8.920096063774578e-05	0.005052678180608269	-2.894168675266883e-05	-0.0013178825155731669	-0.0004935266418058374	-0.00034684269326154364	-0.00020674419215764876	-0.0001989188591498851	-0.00017842899981526964	-0.0009529887097261356	-0.0002972651215474593	-0.0013073105838920466	-0.0003736888367892725	0.0008139576054699855	-0.00031258270875030155	9.727594361288658e-05	-4.562184830662983e-05	-0.000977010031688418	-0.0003150642808358566	-4.026668711230863e-05	-0.0002674338724515156	0.00043240527684258387	-0.00036331577446339783	0.00024470529203207345	-0.0003108280617103074	-0.0005119328055394282	-0.000274481759114	-0.0011466601432085013	-5.8312655321011465e-05	-0.0002832292416756529	7.529981087351593e-06	5.733895534049474e-05	-0.00017375033788856594	-0.0006174079136081105	0.00011730870433087877	-0.0006307590208425046	-0.0008582878469647476	0.005654713922730321	-0.0007834758781926159	0.0014376158745297869	-0.00011432291474742368	-0.0003246509129495676	0.00020864180876664726	0.0012981857738365576	0.00027171025690915507	0.00012217827249848962	-2.798135357547516e-05	-0.00025038346505929995	-0.00017102695937695755	-3.752287604017954e-05	-4.2996985619999685e-05	-0.000830338395808131	-0.00013944437066307387	-0.0009299058199035166	-0.0001770951576938306	0.0021668766761174657	-0.00026354915968857884	0.00027963549846523553	-8.479513962066218e-05	-0.00031559984492346774	0.0003252434332270508	0.005757261465786062	0.00048495528936175376	0.0011081052186928397	0.0003332133150426792	0.0001479654417522432	-0.00028233611047748805	-0.0007695408345898885	-0.0004712693160138725	-0.002153230944586939	3.312136393006371e-05	-0.0005594109296142725	-0.00021144680232177684	3.6600408499935615e-05	-0.00042103901631816796	-0.0009068861864926546	-0.00037852494816721085	-0.000764261318691126	0.00023586193318769245	0.009189621697228131	-4.133772579579913e-05	0.0032880405855143027	-0.0002347227690543876	-0.00022681615904700594	-0.00010510813502638246	-0.0009275008730808224	-0.00025829511206070053	0.0010473448571300219	-0.0002967866499399554	-3.4661911208436896e-06	-6.037554757131391e-05	-0.00024722306797013687	-0.00035236616483477843	-0.0005030077178438197	-0.0003597103740263243	-0.0008497069101153151	0.00046604706865154	0.002696129749190949	-0.0001354813070632635	0.001238179936015214	-0.00046861359881130576	-0.00039788120669713607	0.00020485097510803893	0.007127343266293093	-0.000296971661127016	0.0004017178020431708	-4.874098073402028e-06	2.531451254037323e-05	4.487767250994706e-05	-0.00039502651142431363	-0.0012687631420951612	-0.0014537968811957867	-0.0004424629395050261	-0.0003325864242399827	-0.0002819359030297843	0.00026040211546723806	-0.00026768908891236943	-0.00037708669360494605	-0.0005705680267711266	-0.0012204940798520468	0.001866853733116661	0.004510397095254144	0.0010446463367921842	0.0015946378898263353	-0.00016431647400749934	-0.0002970571767986589	-0.0005549511580998927	-0.0007453473934688169	0.00015733769238028463	-6.333679026100485e-05	-0.00035190813869708177	-4.9374919005747836e-05	-9.075177816355402e-05	-5.005385646384298e-05	-0.0003632876855662183	-0.00021997075399299206	-0.0004249667537244927	-0.0006324099675211609	-8.42390893607001e-05	0.001137603410746842	5.912427232577979e-05	0.0006658978055636977	-0.0003874538119802307	-0.00029518830808409474	0.001261305792893165	0.0089164202692823	-0.0004229305721270161	4.661211253380662e-06	-0.00022314333673179726	-0.00011177597048077272	-0.00014805588302651933	-0.00015458926956447632	-0.001355650398193329	-0.0005052521785008715	-0.0003853572821862442	-0.00011213136560444138	-0.00010737205927637602	0.0007276410275474455	-0.00026731406179878034	1.3780945560023204e-05	-0.0004663416340161758	-0.00030097994743605045	-0.0010811007131388203	0.00013123315794926968	0.00011490232917931841	0.0006678271955783705	0.0002628260457841246	-0.00028451423783991837	-0.0003451543742483505	-0.00023219277270414458	-0.00020729559239457103	-0.00037574593103466194	-1.0677734202868376e-05	-0.0001436129316943818	-0.00044292267062344664	0.00025318299635627116	-0.0007613327015996534	-0.0005165691038594468	-0.0006026055529746296	-0.0003731784654303844	0.0006052068940011514	0.0028957781651713713	0.0001506061075360497	0.0015268411553958005	-0.0004997698371121684	-0.0002968417137777504	-0.000417337153091953	-0.0004839654650375851	-0.000961591941582551	0.000561919573874279	1.2239699528235944e-05	0.0002033644888927823	-0.00042386862574625905	-0.00018587242628356716	-0.000243701339722565	-0.0003558426060019928	-0.0009623884559252843	-0.0005276460445817442	0.000550394020115327	0.0015861174497692537	0.00035231790836124516	0.0009332091748330586	-0.00033712687387379156	-0.00013480825916093245	0.00016423458887102754	0.004433325720395356	-0.0002926892375329955	0.0007061146251580285	-0.00028090354499577365	-7.596327443162767e-05	-0.00036369873885237335	-0.00016406040332974173	-0.0009707167178077281	-0.0014219595432445296	-0.00019613129460533795	-0.0004232044091315307	-0.0005340361525882215	-0.00023450357344986014	-0.0002371872582800816	-0.00022555966947378344	-0.0005867619205766851	-0.0007893680180200112	0.002812655141647219	0.0048520599152364514	6.472219732382191e-05	0.0022293381925358458	-0.0002800210701191337	-5.9584223249449855e-05	-0.0006902292538258281	-0.0004997667396270397	2.5406180684464305e-05	0.0005243506302385556	-0.0003891861216585124	0.00017549399591830755	-0.00030608339116242316	-1.5592216177414547e-06	-0.00039621216363296217	-0.000691060996186617	-0.0002757623016661618	-0.0001924550353735073	0.0004760820810309225	0.0005255418725049685	-1.7797550799144093e-05	0.00016674348486150426	-0.0002876100199221965	-0.0007195479959491006	0.0005945668418342043	0.010463094529532868	-0.0003835843432264908	0.0002616652019399625	-0.00020829162527379128	-0.00010749829830924854	-0.00027476080680041964	-0.0002539434744617771	-0.0017929913955012523	-0.0008013148006604937	2.428738032880795e-05	-0.00019192212655060612	0.00018804559710246943	0.000274493798529962	-0.0004834167393768349	-0.00011468477092701915	-0.0008762970171126852	-0.0010489493019454682	-0.0007987731448056423	-0.0005886370713555729	0.0002494565304675799	-8.693745091773852e-05	-0.00020487028602288009	5.086691628432196e-05	-0.0005539728791121206	-0.00046600333004205574	-0.00037037610554368876	-0.0002214283003150728	-0.00032735626575407586	2.740535257774075e-06	-0.0004125385163696359	7.378956040747205e-05	-0.0011501422625773729	-0.0003819471804631762	-0.00039210253240698923	-0.00022490395016702865	0.000643156789034021	0.0013464538389796055	0.0002452183400846403	0.00034220215636561555	-0.0005429184124423696	-0.00016066044573354336	-7.409208310853047e-05	-4.265311728797721e-05	-0.0005073531898947808	-0.0006126968373750376	-0.0002758090353763864	-0.0001635066966092064	-0.0003041415084225228	-0.0004579025116203501	-0.0005788035289128377	-0.0005286547840350456	-6.941856426681374e-05	-0.0004974245544245946	0.0003820714283501404	0.00124257457996512	-0.00021888122131265113	0.0005310740446964422	-0.00022888694946715006	-8.632758302680931e-05	3.022305268146966e-05	0.0005386546928535657	-0.0004816647068268754	-0.0001458229674572084	-0.00039550357262083894	-3.3855577913498476e-05	-0.0002623506147498367	-0.0001338797831584495	-0.000595032297313767	-0.0013708967522408789	-0.0004341027784400997	-0.00011543304976332396	-0.0002756690074142321	-0.0002796656206583599	-0.00016552926879716962	-0.00015964634459649505	-0.00039522131229615017	-0.0007250996244648426	0.002313627934422446	0.004214317024654534	0.0008065427936578481	0.0014915801510620242	-0.000242148588363278	-0.00011638156153977847	-0.0005633993098130776	-0.0001545553284390054	0.0005654189579798689	0.00025179967931105145	-0.0004638895135238683	0.0001500747918345333	-0.00014722409817289998	-0.00022946265726258306	-0.00034105616814046483	-0.00040192865878442563	-0.0004070201107297701	-0.00031825079312883297	-0.00031657310512054433	-0.0001256037722054586	-6.713848679636321e-06	-0.00011860942676796427	-0.00042700329448444813	-0.00024762424754442734	-0.0004502290933700373	0.010913687105662595	-0.0001892146520442355	0.0005810679069676063	-0.00013722371896821538	0.00014410055106316242	-0.00021956691917944917	-0.0001688388147921421	-0.0010723202629441212	-0.0010989655234068946	-0.0004622109836169182	-0.00011101971403103131	-7.352219682707408e-05	0.0002657072617127047	-0.00035355534933263376	-0.00019396462083345824	-0.0008751115758919448	-0.000421416926716928	-0.0006446554404284472	-0.0003054741456077017	-2.1297725657252152e-05	-2.417993413537326e-05	-0.0003686768324663689	-0.00022860515871409503	-0.0004371494281742881	-0.0005367115492871189	-0.0002809550018437455	-0.00027387824964854616	-0.0002043359278073478	-6.144123626164737e-05	-0.00017606525697650083	7.920294224016047e-06	-0.0005869153067701955	1.6028591958452704e-05	-0.00042982237150144577	-8.698281916841863e-05	0.00022119847381536772	5.2013737610359136e-05	0.00026123328887326866	0.00013025381920341982	-0.00045918681232194484	-0.0001514906436599398	-0.0001959181003211405	-0.00030880248004754723	-0.0005924498841681407	-9.100170768827718e-05	-0.00022329982355171352	-0.0001207165234975631	-0.00038128467681919245	-0.0001398110449379545	-0.00029178618544687296	-0.00018424399306170053	-0.0003986081749793578	-0.0001769716344739963	0.0005220384646582392	0.0007834777065154211	0.00019460277057494315	0.00023115768545366698	-0.000142554234937412	-0.00032604229515061567	-0.0010619334058184528	0.0010041022415533465	-0.0004954046547890872	-6.044114401066152e-05	-0.00043567504248985403	-0.000289843924076215	-0.0001975940112069652	-0.00027945199851149127	-0.0008805532118086185	-0.0013978054275841107	-0.0004270659787315293	-0.00022809878596763986	-0.00015209166760874414	-0.00021593708506299726	-0.00019536922852408218	-0.00026647549956375924	-0.0004515470801615888	-0.0003095338944640964	0.0012845586985725018	0.0028339325162536916	0.0005944562898758535	0.0008800030729829442	-8.402450968355386e-05	-0.00015643625661413514	-0.0003637841011482276	-0.00030909598413924374	-0.0002025802785320602	0.000332290728281154	-0.0001985370894876065	0.00011897981201042544	3.582399742162222e-05	-6.208817128488815e-05	-0.0004468508762351204	-0.0003188579029734088	-0.00035135053960230365	-0.0002847240329355255	9.510134974445887e-05	-0.000180683917286798	-3.065942980787716e-05	-0.000182037345171013	-0.00014750550514328704	-0.0001806607245362921	3.8703460056736805e-05	0.006177054382967076	-0.00016282474523398715	0.00023931634927167478	-0.00020843515185169233	-0.00016173151735717492	-0.00015891683399540208	-0.00017731375007401713	-0.0006496193263403789	-0.0007625046772961677	-0.0005053925777338325	-6.675481384061602e-05	-5.868865725878157e-07	-0.00013593811392554115	-0.0001769762901509867	-0.0002408912647509974	-0.0007439012870101964	-0.0006670485294927092	-4.583787781965807e-05	-0.00019342309251790726	-0.00011947012564039001	-0.0002474203356040434	-0.000300965299381365	-0.00027827774243292824	-0.00025837100282593683	-0.000503818671123534	-0.0002809782894320715	3.0118971832552134e-05	-0.00015531948070468472	8.081681985502832e-05	-0.0002570593381654091	-0.00011138613287483266	-0.0006123720950805094	-0.0003530151748635862	-0.0004205818615042247	-0.00016222518440157214	0.00019811258415493348	2.1660048422901274e-05	3.888104571050715e-05	-1.1060597955014299e-05	-0.0005965925765416733	-1.3019248598081104e-05	1.0057683537696444e-05	-0.0002656365479528581	-0.0004947939698667818	-0.00029308151288641796	-0.00013239107238588043	-0.0001187180582141519	-0.00045983659975296336	-0.00019668509715866885	-0.0002974083128289614	-3.6458276333451844e-05	-0.0003920335620309417	-0.0001343612469771108	0.0003116788843446974	0.0006800651465902244	-0.0002498948943160948	0.0004043721495510066	-0.00043628160027965623	-8.86363037066757e-05	-0.0008654950981357868	-0.00061247634597918	-3.9665901889027796e-05	-1.0230720241840956e-05	-0.00031424182894037363	3.716512372056572e-05	-0.00018403333246542228	-0.00020661272068404	-0.0008112940642614327	-0.0008176752828959275	-0.00019756280822821057	-0.00017140916063222754	-0.0003458140607592833	-0.00011495430363690025	-7.072933104682218e-05	-0.00010875535068116985	-0.0004622272404677685	-0.00028379909957963615	0.0014540271784335389	0.002045109829906704	0.0002921679110626319	0.0009103331326068267	8.369659360915973e-05	3.8140797654807965e-05	-0.0003022380656746283	-0.0001742670265325668	-0.00037896936187116264	0.00038282715245004746	-0.00012786715776293383	-7.17282286592227e-07	-0.00018818528524139593	-0.0001888633382535022	-0.00035822764640491725	5.251901005164095e-06	-0.0004040198816190276	-0.00010952999200126946	-0.00014339277694961554	-0.00010950588426889181	-5.7678651731988715e-05	6.84116259691167e-05	-0.0002518214112994534	-0.00025482803996824174	-0.0003030980086074983	0.005330294939374584	-0.00014327293973655448	4.743211787981011e-06	-3.741745990615275e-05	-9.384751214747589e-05	-7.019156297099387e-05	-0.00016110362305778213	-0.0008792802271206379	-7.284519308370374e-06	-0.0002552955333248099	0.00012939136856312552	-0.00016907223500527992	-5.1930937573193615e-05	-4.092051347821335e-05	-0.0003793072355370911	-0.0006787402566209378	-0.00035173893119786	-0.0002460285369677755	0.00010438923602351831	-2.128680920124998e-05	-4.202897764694338e-05	-0.0002992252487849351	-0.00013247278311466818	-0.00046576543187529587	-0.00021969668495700596	-0.00011636078112008488	-8.866167845958048e-05	-0.00019066099789417435	-0.00010264940094866545	-0.0002446949278280638	-2.551827700617037e-05	-0.00026074442250960395	-2.152109665047282e-06	-7.928118545086739e-05	0.0001557032942152484	0.00019535049285443105	0.0001582137116883705	-0.00012850014078310526	-9.312170902517195e-05	-0.00035747539911561675	-8.89857511666459e-05	-5.676503172295799e-05	-9.23261116715058e-05	-7.063232149419167e-05	8.268343071854097e-06	-6.630909895096175e-05	4.669888322571974e-07	-7.073310428316778e-05	-8.46183124892634e-05	-6.736248615606317e-07	-5.573363900370312e-05	-1.1979697316218075e-05	5.087642399454704e-05	0.0006276410264438417	0.00037629439267716346	0.00028048247343793174	2.6542927005481875e-05	6.124330678856493e-05	-0.0002598673498986513	-0.0022921718422532697	0.0015409055183168091	-0.00018745462031541892	0.00014194008048991466	3.447617191486697e-05	-4.821274086041053e-05	-1.1418435387734727e-05	-1.6885996311551555e-05	-0.0002669077674215224	-5.356492223698364e-05	-8.218886000086644e-05	6.680206999235593e-06	-2.04317864016571e-06	-1.602592368344347e-05	1.1832203961421189e-05	-2.1820045943887317e-05	-2.519970465679152e-07	0.0009687517717244529	0.0006812051502408513	0.0005549390610629511	0.0001817604323698046	1.9150742537418486e-06	4.405530780631481e-06	-4.26943087315155e-06	4.972898510644596e-06	0.0	-5.144511796144165e-07	-1.5388086901452797e-06	0.0	-5.207572972638721e-07	0.0	1.4560066570433512e-05	-1.548804781394843e-06	0.0	-1.5289888835428671e-06	-1.0408558407595638e-06	0.0	-5.108277843338526e-07	-1.0315850815977245e-06	-1.0373884725189313e-06	-5.109374906614595e-07	-5.067670311644609e-07	-5.20790586423644e-07	0.0	-1.547646951804991e-06	0.0	-1.0340180640499644e-06	0.0	-5.07223608547555e-07	0.0	0.0	0.0	0.0	-5.81391285272297e-07	0.0	0.0	-5.300280564257115e-07	0.0	0.0	0.0	-5.109374906614595e-07	-5.300280564257115e-07	0.0	0.0	-5.144511796144165e-07	0.0	0.0	0.0	0.0	0.0	-5.144511796144165e-07	-5.81391285272297e-07	0.0	-5.300280564257115e-07	-5.300280564257115e-07	-1.4843752556116095e-06	7.570728927852904e-06	0.0	-1.0181610992090146e-06	0.0	0.0	-5.144511796144165e-07	0.0	0.0	-5.144511796144165e-07	-5.207572972638721e-07	0.0	0.0	0.0	0.0	0.0	5000.0	P1
P1_SQ4_10000	0.00012654059206477868	0.396071420388342	0.00021999853433453962	-3.18657124808177e-05	9.265182092757777e-06	-7.5294685967320335e-06	-5.935252328590321e-06	-2.6858818726522782e-05	-8.407286098829209e-06	3.6253601318916965e-06	-7.112552955965468e-06	-3.3301028044563306e-06	-0.03268236332663896	0.01517170838675308	0.007707177503776516	0.0026247964948809266	-0.4949731047951105	-0.08700074048487583	-0.0009216975246709265	-0.11262384594733446	9.777900656466967e-06	2.610719683526558e-05	1.8092475531012973e-05	5.898454862560808e-06	-0.09968383306395695	0.12130277155081459	-0.04152848448061189	0.008847808883573297	-0.011327217020234771	-0.005172004877218693	-0.0013611040450171908	-6.512986365506818e-05	-0.009468029418220884	-0.002492457018472595	-0.00013034089207375986	0.07601239271381632	-0.0003732916667892605	0.04597707388344263	0.020761203023594132	0.013692633485535365	0.010868837883697913	0.15305434709552146	0.010787208188319922	0.04746698376871636	0.0018879771702699534	0.09478004824515188	0.0013392350269988938	0.00017512999127325402	-0.010867584704103678	0.12701835726917488	0.007510116127458666	0.023981983304241818	0.004604523222065095	0.03384704930106708	0.0028945583293783703	0.012855192913776878	3.4777342519324694e-05	0.0018644708902105494	0.003478027523555041	0.0287716104719985	-0.13575741613956163	-0.021945614517633952	0.014567583686529523	0.008953784193130768	0.0026420324251341595	0.05809002824237505	0.007614937764543705	0.04032015389186201	0.0022314848966008462	0.030255481161298517	0.001438541472796164	0.016281394280597293	-0.0027098628060828467	0.04929807155882146	0.005208507624889967	0.013215300285203638	-0.11713720147370656	-0.10128707407382956	-0.008869335552556971	-0.0075141841969014606	-0.00431969849831873	0.002458976718872633	0.0020746609524697167	0.014432894460665424	0.0016579725076370337	0.015106447847129355	0.01027162970049731	0.011949580465814905	0.003162700981106088	0.013416063354428381	0.0023378990560153287	0.010483175649489203	0.001645767589143656	0.00941121234486959	0.0014955354932047957	0.008537201074239172	-0.0024334699311308605	0.011888766923398755	0.0025330806962613438	0.005505219302733819	0.0012251492791586112	0.00670072256175654	0.0033634919476235123	0.019991607623668188	0.001130307379508178	0.004323737857318922	0.0016995936538816963	0.0041879809827716045	0.0009208209539846232	0.005317096489939718	0.0034789474910694295	0.006705972359975023	0.0013782617511002892	0.005596926535365077	0.00121707272520593	0.004059379738607288	0.0017009175444713462	0.00428678876261108	0.0012270922403763117	0.03434008335980149	-0.005171384070504468	0.009481849372506325	0.0009451551050564319	0.0029906903193092985	0.0007824142910384363	0.0033441271865569467	0.0012101029061768525	0.0130780311778659	0.0010756381871775654	0.006049331786633201	0.0014898132538262616	0.004065406979269102	0.0012234241255754414	0.003178223880732507	0.005793612160469953	0.0036978514094614563	-0.013637470034043479	-0.014707542732297116	-0.003757499650610621	-0.002551255537829665	3.4284375778211376e-05	0.0025674619858433827	0.0010093300623247319	0.009161670137067639	0.0009260483655024795	0.01081723288622708	0.002014654331551357	0.004447242192157717	0.0010152380725994442	0.004160554376385222	0.001053296845886687	0.0028315045138061195	0.0015368715437085439	0.0030491506104713597	0.0010338303242812558	0.00450076403045287	0.0003623357270280351	0.002657126276386104	0.0018384791841575838	0.0027199558566978962	0.0012254677071150237	0.0071662770307522085	0.001887778120464808	0.014236760469910924	0.0010735889003303384	0.005338102037994742	0.0008182460842525662	0.002373020656567728	0.0005737434219304526	0.003985526791779236	0.0011345567617660978	0.004586406189066113	0.0011203496292795274	0.00520677753736901	0.0012721186118833426	0.0016720459352445177	0.0021443818015217863	0.0030478864705172515	0.001002581562204557	0.03235752011772672	-0.00015947043508222382	0.0045891749493752465	0.0010018992391256816	0.002929202619303437	0.0011597412119512033	0.0018278064724742069	0.0013455726872757274	0.009738485184555296	0.00243778741179911	0.00621125998903427	0.0012230784863212136	0.0034942957734650885	0.0007225675727608968	0.0012966056055665268	0.0008279914315862361	0.003391869584801612	-0.0021354163657795336	-0.0022681019674157324	-0.0010349382643145876	0.0002798814230076836	0.00089773936800792	0.002748894873131175	0.0008148138723777336	0.005955057107886625	0.0009366778235607035	0.00892906208865283	0.0013458071588075306	0.004491615009241471	0.0007609908218730184	0.001646821730991589	0.001090637810384652	0.003389966396488025	0.0009051260932201877	0.0031699139530441834	0.0010780091657619745	0.0028917568986496604	0.0007322567175109692	0.001610195100465183	0.0009277947413521988	0.0019688768541624513	0.0012452173198060782	0.01585802035905566	0.002352761428176594	0.013156655374687971	0.0009632759096173701	0.0032680402759552377	0.000708315147498975	0.0012723677443261952	0.0009376931808509352	0.007961181847133405	0.0011296219457441505	0.005355504039000628	0.001017366885148978	0.0032899657041270923	0.0011222274408744124	0.0019969880369262467	0.0016024720539944215	0.003875584156943607	0.0008483053404306209	0.024773171827519633	0.0009924923425956092	0.004820639354813631	0.0009860256217099394	0.002778667378840343	0.0010320827566373753	0.004962424130847985	0.0013928182078580724	0.009692210286449978	0.002145006479312827	0.005225285661555997	0.001364790687582433	0.0024452324526624512	0.0010315735871619042	0.00336711098584074	0.0008224924275541164	0.004369877720721602	0.000411144103222487	0.005674022343718867	-4.157572307542795e-06	0.002087518476725168	0.0012738247032194725	0.002677628683637025	0.0014467820571943037	0.007697240647785191	0.007654852368917761	0.015528114720068653	0.002141192314561084	0.003955401929797963	0.0009533101915829099	0.0017611221349035826	0.0006176878847238502	0.004500997454039939	0.0027028878393995986	0.006012520765480884	0.0010986079910404517	0.0019660930087047387	0.000523238634450484	0.0013885694460284799	0.0010535174963776342	0.004720429703229412	0.001886078517986639	0.04568321238237885	0.0027717570846011053	0.006293561560689456	0.0014448234250699736	0.0028928876374976964	0.0013375052282191481	0.0029876799285817835	0.0014110190649114494	0.014976759343525124	0.0018447016937629106	0.0037029004837225103	0.0010206448557594128	0.0017938797833144029	0.0009534037281447479	0.004007510013002313	0.001050910123040075	0.0038789432233310613	0.0012867870560238212	0.012374543754452613	0.0011461610349932433	0.00423121763008541	0.0013514843017109275	0.002670101637560207	0.0010712202175535805	0.005117365430482048	0.002193987767650984	0.009955717955652005	0.001726579489170813	0.00377259569776818	0.0009245511430657901	0.0014650980696952033	0.0007065824728588414	0.003163996512962095	0.0016329468941412703	0.003952697253711205	0.0011014581364816953	0.002065793727013824	0.0006697993125850308	0.001352778973942004	0.000958696849474664	0.0024413884201729833	0.007780599732856351	0.03537906444801138	0.0025832287228496637	0.005205085112457115	0.0013910040794915105	0.0018749272985652456	0.0007953138658626708	0.0018743086219780592	0.0027443223008518387	0.012913936929464773	0.001756845686032826	0.0030598347897378394	0.0008388888113502893	0.0015136603524240509	0.0008134366611201424	0.0012433634481757187	0.0014092552874085651	0.004610074319899382	0.004212300970499924	0.010071290090110784	0.0024587636783168516	0.0034656384590282877	0.002004108168608256	0.0020988599069713416	0.0016746056347335721	0.00395363179924141	0.002877762813464275	0.0057549594877298	0.002377101024710976	0.003252442037074221	0.0008979645667283485	0.0015471909906321028	0.0016515336741133105	0.00332064864687578	0.0014904197982336855	0.0032647086780736943	0.0020501662148745886	0.0038515840933519563	0.0007416465277742161	0.0017041581337978598	0.0014176128855478034	0.002332449513425593	0.01744186382451328	0.03517213215882331	0.0036309098333955642	0.004912646070955949	0.0016842246921963842	0.002329592466631672	0.0011288539465407598	0.0019142843843474784	0.005216107449755113	0.01124612012630602	0.0021945997582433485	0.0025408442314413422	0.0013854974026096343	0.00188208385093109	0.000871737723566678	0.0013055462350763485	0.0017568665513367186	0.004076523142867879	0.00435563302667967	0.0072236273875056385	0.0023628312153929267	0.004011387318675588	0.0022902521222662496	0.0024323785954212607	0.002891459098076067	0.004396857299283673	0.001813050218030277	0.0028480966612697573	0.001529988400462581	0.002428451128144696	0.0008253869474797253	0.0011034942171763411	0.0024200533033044173	0.0027930195633347355	0.0016907722172673635	0.0023037486946757557	0.0036034022893119636	0.005769153512904003	0.0016952321885943646	0.0021406778890246	0.0014820101664226202	0.0018182671414622457	0.0013183419156504337	0.002442428593544036	0.0054623046345640535	0.006978311200206337	0.0020936526444514467	0.0015659058500480522	0.0012578331297968307	0.0014705996678599522	0.0013449120653395339	0.0016178300379667632	0.0028630979885348115	0.0033542950982781514	0.0013716498092426104	0.0018447128594061687	0.0011945832728836505	0.0013737440093584668	0.0013554447933367781	0.0021111968082550663	0.011147528157153995	0.03257769719335184	0.002732569044955979	0.0041980873982739135	0.0013978050558443754	0.001151341870399272	0.001340637620178023	0.0015271486066797402	0.004092564124406756	0.010784024166695758	0.001954475274067979	0.00221306434022146	0.0010804026027686352	0.0010659104678306277	0.0007386829039332768	0.0010699336685111474	0.0024762445879712236	0.003482314140630027	0.005621169775288103	0.007933422866734131	0.002659976097179627	0.002690599548237603	0.0018457111372173485	0.0017562558836067689	0.0022613636930917886	0.0031988409848867526	0.0033391203971091772	0.005291337079448245	0.0023022088477123673	0.0025782463214498582	0.001908358804455254	0.0012416525615827644	0.0016969833446691621	0.0022773302996017767	0.001995139893380689	0.0027138031553595706	0.001675482533372668	0.0018257056728038764	0.0011354825694681317	0.0013678913271008997	0.0016145744753962598	0.0023951967843173962	0.020924271487283493	0.03638806346824831	0.003106214868991002	0.0029556727356546287	0.0016289081421651678	0.0012974618342423438	0.0013490976943379995	0.0014073248814711718	0.008630382735750593	0.012909575615010067	0.0019150375756035705	0.0018135203803198194	0.001371256344487458	0.0013013647374543794	0.0012283575160468544	0.000807231465248792	0.0029973834835956836	0.003488452152231987	0.0035179629075641344	0.0033960523189583364	0.00207122080865837	0.00272657056328992	0.0028138515819896084	0.0016928705905614912	0.004365492339934921	0.0037077756479697316	0.0016427902124083972	0.0011601791848711994	0.0014775762908877835	0.0015779315225928543	0.0014447815316298608	0.0008728805626426906	0.0035290497086487684	0.0023847197004336013	0.0012531060274524075	0.0013665101122387036	0.0030535721074801594	0.0023175320024487155	0.0017205461227949408	0.0015053983325561526	0.0015674103631666348	0.0014590084483880618	0.001220016343089134	0.0021497718796295133	0.004463703654971746	0.0037972345948720744	0.00157296478192468	0.001165643047675009	0.0009752441478417654	0.0011828994767571484	0.0009693138605757147	0.0014713414008007417	0.00216239502806137	0.0016834937942697605	0.00126894998692236	0.0010358685057604098	0.001115187990873883	0.001041187090113133	0.0017744531990642205	0.0012058082175641083	0.008822973213743618	0.02331683677709899	0.0025402441990780983	0.0023592754518517185	0.0013057299114188855	0.0010412166895959686	0.0008987807474054033	0.0009197468976106325	0.0032651057317838053	0.007289062819132473	0.0015587506243371616	0.00133168083947536	0.0011112343712165974	0.000819025096630006	0.0009409396957694557	0.0004434180285994324	0.0016314387311089297	0.0021650583398046632	0.005696446067011989	0.006069938210251206	0.00217423655981854	0.0028643623649428967	0.0013212166241777816	0.0009148342650333843	0.001599266504629231	0.0022953167913278647	0.002729042619465661	0.0041285571872755455	0.002123586782879157	0.002123371298718092	0.001001386675510591	0.0007230498935412322	0.0016365781995625953	0.0016325663878730607	0.0016645667582916054	0.001600209408990153	0.0011516511645691821	0.0009775878498752646	0.0009756745270360595	0.0008620194013900168	0.0016765832983658322	0.001338234203383202	0.019445388838073778	0.03632390160019232	0.0026201242395572834	0.002269580802111748	0.001042630497293379	0.0009558459715390643	0.001030491402856723	0.000882570382929049	0.00707632964815404	0.010871293991242544	0.0014982063336752604	0.0012759983541568896	0.001027284304505575	0.0005651264883123829	0.0008162123656681648	0.0007568989740811488	0.002526893509319098	0.0025240898154569808	0.0009755989757369238	0.0010383171622850677	0.001683179234518095	0.0016185822444730324	0.001963658481902273	0.0012849750095058569	0.0036281851330029757	0.0027267546399011447	0.0007619488081724566	0.0006916037238380711	0.0010078219521247084	0.0009548674009731844	0.0008900236571455257	0.0007362095094172053	0.002756419409308892	0.0012392172776780554	0.0008580842672691559	0.0006961280420436221	0.002110100051692345	0.000999780218169969	0.0007605496352359391	0.0005496559319294577	0.00193449053879502	0.0011006432192906647	0.0011136742467096517	0.0015948837819920749	0.0023953412085159975	0.0024803754826864975	0.0014620892200739965	0.0006477928524905301	0.0008812311248297452	0.0006254937904233507	0.0009696641122550571	0.0009459613984745415	0.0015019770277739158	0.0010079306541122444	0.0010010929339423062	0.0009371495822458175	0.0010193578880316385	0.0007808234292618625	0.0010806709941243563	0.0012351456272313966	0.0059767843943021835	0.014484731997960222	0.0017241734855456279	0.002295501667015497	0.0014041088490134518	0.001081318132794865	0.0008550682110212548	0.0007336984382983348	0.002634289298498447	0.003879101801608726	0.0009753450880785066	0.00094452866210738	0.0010721515366354031	0.00048157724863916174	0.0004617130634965276	0.00045984069381424866	0.0015772260391775715	0.0015899481027206851	0.004584237251681783	0.004515959243516658	0.0018201185221266682	0.0016924360808408135	0.0012571644389252944	0.0005732369465439916	0.0016231265385766793	0.0015000765786305076	0.002391293330385011	0.002807071603436965	0.002120868378503715	0.0011220850448699729	0.0005736569480321468	0.00046945339612651364	0.0011942059847683223	0.0010542118690018399	0.001675436503799943	0.0014886948930998766	0.0010681987315103733	0.0006819783706917466	0.0006564542762828062	0.0005389581532089247	0.001402886945343411	0.0017545146495792185	0.015000006452878321	0.025883435074923578	0.0017661772781224902	0.0020477665156147682	0.0007190436155223774	0.0005976159781121654	0.0008261782948448075	0.0007128692290873104	0.0071038945605083476	0.006986347463722722	0.0011542701507913761	0.0009933007268232957	0.0008567701757907116	0.0005538974283133759	0.0007053298622048314	0.000421042505199809	0.00226622959048884	0.0021490624767513244	0.0009856578340432629	0.000925711268696546	0.0013075143880745248	0.0012018961680846279	0.0014891766009881078	0.0008587721030528064	0.0032223352287598494	0.0018505860866834304	0.0005817547426963481	0.0005126022293001097	0.0008860922691962937	0.000565609923817705	0.0007866701625695925	0.0005773284712442849	0.0024813286510564983	0.0009772184809073692	0.0010659671316584243	0.0008767475203290565	0.0010302240810107265	0.000403697582467902	0.0007537333450323381	0.0005834208233738156	0.0018899569240131498	0.0007021250826510495	0.0006998507734694384	0.0011849427146319283	0.0020152457728434964	0.0011056130694016226	0.0006962416128827639	0.0005534817067345758	0.0011433171182675035	0.00045157335852927087	0.000879043362307463	0.0007432734688985413	0.000859691177502711	0.0005924738278236014	0.0008205177564552719	0.0007087402219277555	0.0006616847529458984	0.0005822511823195958	0.0007648156088668149	0.0008023535531046714	0.003299301443970025	0.010328625043118208	0.0009109904123716394	0.0015922381472104619	0.0012465387051830055	0.000647410523995349	0.0007115086899160432	0.0005060871639602968	0.002124102525411924	0.003156317703744395	0.0006607456849341091	0.0006663415395177458	0.0006993993618431621	0.0003727144999584618	0.00057407253463064	0.00032932925219952207	0.0013581960436700267	0.0010089693111994752	0.003453120509410254	0.003407496788439157	0.00133115096458897	0.001461097682820418	0.0006598044221206114	0.00042135843657126366	0.001114247618661222	0.0007879010520203929	0.001892851166721385	0.002100841729470564	0.0008762973516702095	0.0007235642711498924	0.0006193149876746165	0.00048178536066413255	0.0010790256660633726	0.0007507633459537474	0.0010733167328902025	0.000946330459739786	0.0005488270543066419	0.00045979613816285036	0.00045726003876909354	0.00038666858170323805	0.0009196529442007909	0.001506592677682338	0.010022601342917076	0.01732046547975139	0.0011172895357228524	0.0009482350731742331	0.0005447159722029328	0.0004159784412056354	0.0005755838125901316	0.0007318382806460807	0.004640093622081488	0.00487627133452973	0.0007332855611811115	0.0005627949282396298	0.000317442134639823	0.00044606864460815287	0.0004302620790516557	0.0003518382815742816	0.001865250986080242	0.0014763691921489768	0.00044178772928399335	0.0006659293974658317	0.00047004384172947655	0.0006926042980682722	0.0007433871210915746	0.0007861796178211162	0.0016647407425868944	0.0008196032908715798	0.00048448570832062014	0.00020959622996736518	0.00045884730728730364	0.00045802224581579576	0.00031430903647179913	0.0005020581737115717	0.0007415241500534379	0.0005931524285017677	0.0003291098739949853	0.0002466902223934608	0.00042237735501374175	0.0002775500837769965	0.00040214941733337	0.0004879188686171637	0.000655580584473011	0.0003442145651027838	0.00037142665183603437	0.0007905733313370365	0.0007845001733782289	0.00046407864051097524	0.00026664050994751494	0.0001723928823249592	0.00010840816522939619	0.00022476790143193546	0.0003096582231779336	0.00039760872247680574	0.00015598981282664598	0.00013089545764474443	0.00017625491454839343	0.00016830613779685933	8.502459098577156e-05	0.0001340774653941862	0.00015351027561748168	0.0008069151213922212	0.004369620264863695	0.001725219897599468	0.0007777230074468315	8.232748108616644e-05	0.0001271350402988412	9.293382987266965e-05	2.625596109142377e-06	0.0002771613587223429	0.0016956791621326067	0.00023060822305936963	0.0002348546868201646	-5.010895900498937e-06	6.922948856242116e-05	-1.5926648034407057e-06	2.3580982268888543e-05	0.00023071312218866545	0.000185603764626035	0.00125156682619139	0.0007672358244074336	0.0004078602867950058	0.00012011181789265038	8.684270773822726e-06	-3.705964499210917e-06	-4.26943087315155e-06	-3.1385967691978025e-06	0.0	-5.144511796144165e-07	-1.5388086901452797e-06	0.0	-5.207572972638721e-07	0.0	-1.6629239892512834e-06	-1.548804781394843e-06	0.0	6.135073476379024e-06	-1.0408558407595638e-06	0.0	-5.108277843338526e-07	-1.0315850815977245e-06	-1.0373884725189313e-06	7.153124869260432e-06	-5.067670311644609e-07	-5.20790586423644e-07	0.0	-1.547646951804991e-06	0.0	-1.0340180640499644e-06	0.0	-5.07223608547555e-07	0.0	0.0	0.0	0.0	-5.81391285272297e-07	0.0	0.0	-5.300280564257115e-07	0.0	0.0	0.0	7.153124869260432e-06	-5.300280564257115e-07	0.0	0.0	-5.144511796144165e-07	0.0	0.0	0.0	0.0	0.0	-5.144511796144165e-07	-5.81391285272297e-07	0.0	-5.300280564257115e-07	-5.300280564257115e-07	-1.4843752556116095e-06	-5.407663519894932e-07	0.0	6.645901260712877e-06	0.0	0.0	-5.144511796144165e-07	0.0	0.0	-5.144511796144165e-07	-5.207572972638721e-07	0.0	0.0	0.0	0.0	0.0	10000.0	P1
