	m0.000	m1.000	m2.000	m3.000	m4.000	m5.000	m6.000	m7.000	m8.000	m9.000	m10.000	m11.000	m12.000	m13.000	m14.000	m15.000	m16.000	m17.000	m18.000	m19.000	m20.000	m21.000	m22.000	m23.000	m24.000	m25.000	m26.000	m27.000	m28.000	m29.000	m30.000	m31.000	m32.000	m33.000	m34.000	m35.000	m36.000	m37.000	m38.000	m39.000	m40.000	m41.000	m42.000	m43.000	m44.000	m45.000	m46.000	m47.000	m48.000	m49.000	m50.000	m51.000	m52.000	m53.000	m54.000	m55.000	m56.000	m57.000	m58.000	m59.000	m60.000	m61.000	m62.000	m63.000	m64.000	m65.000	m66.000	m67.000	m68.000	m69.000	m70.000	m71.000	m72.000	m73.000	m74.000	m75.000	m76.000	m77.000	m78.000	m79.000	m80.000	m81.000	m82.000	m83.000	m84.000	m85.000	m86.000	m87.000	m88.000	m89.000	m90.000	m91.000	m92.000	m93.000	m94.000	m95.000	m96.000	m97.000	m98.000	m99.000	m100.000	m101.000	m102.000	m103.000	m104.000	m105.000	m106.000	m107.000	m108.000	m109.000	m110.000	m111.000	m112.000	m113.000	m114.000	m115.000	m116.000	m117.000	m118.000	m119.000	m120.000	m121.000	m122.000	m123.000	m124.000	m125.000	m126.000	m127.000	m128.000	m129.000	m130.000	m131.000	m132.000	m133.000	m134.000	m135.000	m136.000	m137.000	m138.000	m139.000	m140.000	m141.000	m142.000	m143.000	m144.000	m145.000	m146.000	m147.000	m148.000	m149.000	m150.000	m151.000	m152.000	m153.000	m154.000	m155.000	m156.000	m157.000	m158.000	m159.000	m160.000	m161.000	m162.000	m163.000	m164.000	m165.000	m166.000	m167.000	m168.000	m169.000	m170.000	m171.000	m172.000	m173.000	m174.000	m175.000	m176.000	m177.000	m178.000	m179.000	m180.000	m181.000	m182.000	m183.000	m184.000	m185.000	m186.000	m187.000	m188.000	m189.000	m190.000	m191.000	m192.000	m193.000	m194.000	m195.000	m196.000	m197.000	m198.000	m199.000	m200.000	m201.000	m202.000	m203.000	m204.000	m205.000	m206.000	m207.000	m208.000	m209.000	m210.000	m211.000	m212.000	m213.000	m214.000	m215.000	m216.000	m217.000	m218.000	m219.000	m220.000	m221.000	m222.000	m223.000	m224.000	m225.000	m226.000	m227.000	m228.000	m229.000	m230.000	m231.000	m232.000	m233.000	m234.000	m235.000	m236.000	m237.000	m238.000	m239.000	m240.000	m241.000	m242.000	m243.000	m244.000	m245.000	m246.000	m247.000	m248.000	m249.000	m250.000	m251.000	m252.000	m253.000	m254.000	m255.000	m256.000	m257.000	m258.000	m259.000	m260.000	m261.000	m262.000	m263.000	m264.000	m265.000	m266.000	m267.000	m268.000	m269.000	m270.000	m271.000	m272.000	m273.000	m274.000	m275.000	m276.000	m277.000	m278.000	m279.000	m280.000	m281.000	m282.000	m283.000	m284.000	m285.000	m286.000	m287.000	m288.000	m289.000	m290.000	m291.000	m292.000	m293.000	m294.000	m295.000	m296.000	m297.000	m298.000	m299.000	m300.000	m301.000	m302.000	m303.000	m304.000	m305.000	m306.000	m307.000	m308.000	m309.000	m310.000	m311.000	m312.000	m313.000	m314.000	m315.000	m316.000	m317.000	m318.000	m319.000	m320.000	m321.000	m322.000	m323.000	m324.000	m325.000	m326.000	m327.000	m328.000	m329.000	m330.000	m331.000	m332.000	m333.000	m334.000	m335.000	m336.000	m337.000	m338.000	m339.000	m340.000	m341.000	m342.000	m343.000	m344.000	m345.000	m346.000	m347.000	m348.000	m349.000	m350.000	m351.000	m352.000	m353.000	m354.000	m355.000	m356.000	m357.000	m358.000	m359.000	m360.000	m361.000	m362.000	m363.000	m364.000	m365.000	m366.000	m367.000	m368.000	m369.000	m370.000	m371.000	m372.000	m373.000	m374.000	m375.000	m376.000	m377.000	m378.000	m379.000	m380.000	m381.000	m382.000	m383.000	m384.000	m385.000	m386.000	m387.000	m388.000	m389.000	m390.000	m391.000	m392.000	m393.000	m394.000	m395.000	m396.000	m397.000	m398.000	m399.000	m400.000	m401.000	m402.000	m403.000	m404.000	m405.000	m406.000	m407.000	m408.000	m409.000	m410.000	m411.000	m412.000	m413.000	m414.000	m415.000	m416.000	m417.000	m418.000	m419.000	m420.000	m421.000	m422.000	m423.000	m424.000	m425.000	m426.000	m427.000	m428.000	m429.000	m430.000	m431.000	m432.000	m433.000	m434.000	m435.000	m436.000	m437.000	m438.000	m439.000	m440.000	m441.000	m442.000	m443.000	m444.000	m445.000	m446.000	m447.000	m448.000	m449.000	m450.000	m451.000	m452.000	m453.000	m454.000	m455.000	m456.000	m457.000	m458.000	m459.000	m460.000	m461.000	m462.000	m463.000	m464.000	m465.000	m466.000	m467.000	m468.000	m469.000	m470.000	m471.000	m472.000	m473.000	m474.000	m475.000	m476.000	m477.000	m478.000	m479.000	m480.000	m481.000	m482.000	m483.000	m484.000	m485.000	m486.000	m487.000	m488.000	m489.000	m490.000	m491.000	m492.000	m493.000	m494.000	m495.000	m496.000	m497.000	m498.000	m499.000	m500.000	m501.000	m502.000	m503.000	m504.000	m505.000	m506.000	m507.000	m508.000	m509.000	m510.000	m511.000	m512.000	m513.000	m514.000	m515.000	m516.000	m517.000	m518.000	m519.000	m520.000	m521.000	m522.000	m523.000	m524.000	m525.000	m526.000	m527.000	m528.000	m529.000	m530.000	m531.000	m532.000	m533.000	m534.000	m535.000	m536.000	m537.000	m538.000	m539.000	m540.000	m541.000	m542.000	m543.000	m544.000	m545.000	m546.000	m547.000	m548.000	m549.000	m550.000	m551.000	m552.000	m553.000	m554.000	m555.000	m556.000	m557.000	m558.000	m559.000	m560.000	m561.000	m562.000	m563.000	m564.000	m565.000	m566.000	m567.000	m568.000	m569.000	m570.000	m571.000	m572.000	m573.000	m574.000	m575.000	m576.000	m577.000	m578.000	m579.000	m580.000	m581.000	m582.000	m583.000	m584.000	m585.000	m586.000	m587.000	m588.000	m589.000	m590.000	m591.000	m592.000	m593.000	m594.000	m595.000	m596.000	m597.000	m598.000	m599.000	m600.000	m601.000	m602.000	m603.000	m604.000	m605.000	m606.000	m607.000	m608.000	m609.000	m610.000	m611.000	m612.000	m613.000	m614.000	m615.000	m616.000	m617.000	m618.000	m619.000	m620.000	m621.000	m622.000	m623.000	m624.000	m625.000	m626.000	m627.000	m628.000	m629.000	m630.000	m631.000	m632.000	m633.000	m634.000	m635.000	m636.000	m637.000	m638.000	m639.000	m640.000	m641.000	m642.000	m643.000	m644.000	m645.000	m646.000	m647.000	m648.000	m649.000	m650.000	m651.000	m652.000	m653.000	m654.000	m655.000	m656.000	m657.000	m658.000	m659.000	m660.000	m661.000	m662.000	m663.000	m664.000	m665.000	m666.000	m667.000	m668.000	m669.000	m670.000	m671.000	m672.000	m673.000	m674.000	m675.000	m676.000	m677.000	m678.000	m679.000	m680.000	m681.000	m682.000	m683.000	m684.000	m685.000	m686.000	m687.000	m688.000	m689.000	m690.000	m691.000	m692.000	m693.000	m694.000	m695.000	m696.000	m697.000	m698.000	m699.000	m700.000	m701.000	m702.000	m703.000	m704.000	m705.000	m706.000	m707.000	m708.000	m709.000	m710.000	m711.000	m712.000	m713.000	m714.000	m715.000	m716.000	m717.000	m718.000	m719.000	m720.000	m721.000	m722.000	m723.000	m724.000	m725.000	m726.000	m727.000	m728.000	m729.000	m730.000	m731.000	m732.000	m733.000	m734.000	m735.000	m736.000	m737.000	m738.000	m739.000	m740.000	m741.000	m742.000	m743.000	m744.000	m745.000	m746.000	m747.000	m748.000	m749.000	m750.000	m751.000	m752.000	m753.000	m754.000	m755.000	m756.000	m757.000	m758.000	m759.000	m760.000	m761.000	m762.000	m763.000	m764.000	m765.000	m766.000	m767.000	m768.000	m769.000	m770.000	m771.000	m772.000	m773.000	m774.000	m775.000	m776.000	m777.000	m778.000	m779.000	m780.000	m781.000	m782.000	m783.000	m784.000	m785.000	m786.000	m787.000	m788.000	m789.000	m790.000	m791.000	m792.000	m793.000	m794.000	m795.000	m796.000	m797.000	m798.000	m799.000	m800.000	m801.000	m802.000	m803.000	m804.000	m805.000	m806.000	m807.000	m808.000	m809.000	m810.000	m811.000	m812.000	m813.000	m814.000	m815.000	m816.000	m817.000	m818.000	m819.000	m820.000	m821.000	m822.000	m823.000	m824.000	m825.000	m826.000	m827.000	m828.000	m829.000	m830.000	m831.000	m832.000	m833.000	m834.000	m835.000	m836.000	m837.000	m838.000	m839.000	m840.000	m841.000	m842.000	m843.000	m844.000	m845.000	m846.000	m847.000	m848.000	m849.000	m850.000	m851.000	m852.000	m853.000	m854.000	m855.000	m856.000	m857.000	m858.000	m859.000	m860.000	m861.000	m862.000	m863.000	m864.000	m865.000	m866.000	m867.000	m868.000	m869.000	m870.000	m871.000	m872.000	m873.000	m874.000	m875.000	m876.000	m877.000	m878.000	m879.000	m880.000	m881.000	m882.000	m883.000	m884.000	m885.000	m886.000	m887.000	m888.000	m889.000	m890.000	m891.000	m892.000	m893.000	m894.000	m895.000	m896.000	m897.000	m898.000	m899.000	m900.000	m901.000	m902.000	m903.000	m904.000	m905.000	m906.000	m907.000	m908.000	m909.000	m910.000	m911.000	m912.000	m913.000	m914.000	m915.000	m916.000	m917.000	m918.000	m919.000	m920.000	m921.000	m922.000	m923.000	m924.000	m925.000	m926.000	m927.000	m928.000	m929.000	dose	pattern
P1_SQ1_r500	0.0	-0.004008644381998301	-0.00016897159748811169	-3.068067111244887e-05	-7.539121306374063e-07	0.0	1.0270446545357514e-06	1.0648484136025053e-05	0.0	-4.6530534109503406e-08	1.1667813271241773e-06	5.859349559490294e-06	-0.0009439144241808834	-0.0007288308868305382	-0.0010779515030471792	-0.0012230332763073712	-9.574515215268452e-05	-4.9215568171553556e-05	6.883568389810975e-06	0.00015837921251714467	1.5391257607261572e-06	-3.4812432625187486e-06	-5.1415485278440376e-08	0.03717218914021135	0.0013450081048459557	-0.00044338283505503497	-0.003289756483417358	0.022927155403526606	-0.009901363105892808	0.010661096772906054	-0.00014027199162617437	-0.002617226543775963	-5.002267395254567e-05	2.7402308384141024e-06	9.762319923624294e-06	1.858044718525515e-06	-0.000180507873139883	-0.0031603347593469767	-0.004545743331836876	-0.015126507845636503	-0.0009035390096972951	0.015358872827097358	0.0033386748538781277	0.011343868962171141	2.7420434767368163e-05	-0.02535854400593781	-0.0017964024611920467	-0.0017182274905254002	-7.263276887732535e-05	-0.001071494989834101	-0.011436670163138877	-0.02111983020704406	-0.004349283008418341	-0.012933513564134573	1.189608679496093e-06	0.0035419536269517965	0.0018238635505733996	0.006419659176914359	3.329426422243355e-05	0.0001743523334208504	-0.0001104078967159441	-0.0022949985824682988	-0.01099782321228613	-0.022436238604851895	-0.004135594534834242	-0.009039575633366463	-0.003190402404494368	-0.001820959818774115	-0.00039834567493662876	-0.0016409721933285937	0.00023088345033862954	-0.000750865181745863	-0.0016870110263748782	-0.0005775081710565214	-0.01224608718001954	-0.011909215208911892	-0.004238224034869956	-0.014188022006202422	-0.0041370195761491835	-0.004361436007376977	-0.0008290249398177759	-0.0015055565856708728	-0.00045086265204216896	-0.0006914226638106043	-0.0003435353996184675	-0.002717517720223638	-0.008799615857174647	-0.009553708485105039	-0.003540729530081365	-0.00698143908085208	-0.0020851693186865524	-0.007592173893504146	-0.0013650808230790336	-0.001334549458430213	-0.0005416115385640846	-0.001372672078515792	-0.0002627571036030107	-0.0011193835901516529	-0.008128584826761109	-0.005524688698463193	-0.001502157620159795	-0.004058968215420269	-0.0032981410613977203	-0.0022272585793500846	-0.0005686353148476727	-0.0022110274351120358	-0.0005675264613950164	-0.0010032598829643408	-0.0003638166092764881	-0.0019982851892243864	-0.005217893041167956	-0.004452770231256642	-0.0010364778528411242	-0.0026330108148091775	-0.0015746409304332647	-0.009195264994770523	-0.0022322878875692	-0.0013010715581693675	-0.0003917772346566893	-0.0005350538421822764	-0.00041904067600289914	-0.0006792170965939596	-0.004521184337636273	-0.00250319780532268	-0.0006969376289826518	-0.0014450107665411318	-0.0031574349571843884	-0.0038277261388776716	-0.005787306630468271	-0.0024470424530315094	-0.0006219736348804599	-0.0009727522945963219	-0.0006762615203526447	-0.0014048546277478412	-0.0027271783707828495	-0.0017286602311534388	-0.0004284341681591488	-0.0016691661131730145	-0.0010867411418939757	-0.00508385914323515	-0.0011741761903123833	-0.0025151400888321004	-0.0007918703217356552	-0.0005506789231912802	-0.00047046988032866364	-0.0005403368671508917	-0.0012493623708769485	-0.0011799603185566917	-0.0004359106961756245	-0.0016627477587095102	-0.003906649181719287	-0.003846454003764195	-0.005482319591492674	-0.002554521675735586	-0.0008543896197847446	-0.0010433131791440838	-0.0003836922574224419	-0.0006678994292575262	-0.0013236431865804295	-0.0007729328707252384	-0.00025078897638711623	-0.0013540397524854971	-0.0016564314465152778	-0.0033844557908900043	-0.0021912453570523643	-0.00484081063630469	-0.0011464244256137947	-0.000704827420795825	-0.0004538481824844144	-0.0005426935647937521	-0.0010678012791363394	-0.0007274094466071497	-0.00014071076325582513	-0.0006555094195322556	-0.0023789000449144296	-0.0015892531822323018	-0.0031770320926875987	-0.001451398274640188	-0.0020201297753889963	-0.0009184185165570227	-0.00037339296330159957	-0.0007310663759576732	-0.0006939678987856268	-0.0007214747264170069	-0.00024111945236341786	-0.0011371007192890986	-0.001523373227666954	-0.0038996696504033043	-0.0014049501715441876	-0.004132702439562043	-0.0012720703374048303	-0.0009376515495479658	-0.0004242560402084787	-0.00025783815024039546	-0.00046428894345949796	-0.0003230957971256371	-0.00017110122133462164	-0.0005855123224265331	-0.0017515353588163265	-0.0016993664847872532	-0.0033516617565121564	-0.0019946625176293646	-0.0029149486157840363	-0.001193441215334413	-0.00039521014036978806	0.0010062520416525018	-0.0003522914727500852	-0.00044388019085465306	-0.00023563827404851292	-0.0008573280636508031	-0.0009818520691452777	-0.002759789692080177	-0.0012472814114615385	-0.0031040346102830406	-0.0011982285137521862	-0.0016369480627629895	-0.0005550621572164727	-0.00025916100178438736	-0.0002643823249694163	-0.00021921558524295136	-0.00019443099866440843	-0.0004707178677472966	-0.0016633640779304725	-0.0016251698565416337	-0.0032250546307775233	-0.0018829491467178884	-0.0027983312731849636	-0.0011594888985606473	-0.0006866950565557835	-0.0004505212845492058	-0.00022899947907751162	-0.00020693367440470034	-0.00020856098209822826	-0.0008138700222803664	-0.0007186529191557397	-0.0019962223696706476	-0.0013471765962173184	-0.002722454269759902	-0.0011339059506302507	-0.0019997676986799866	-0.0007626001503622178	-0.0005134444288977837	-0.0005632028559866746	-0.0002760039841096087	-0.0001773722947014074	-0.00034765670360392773	-0.0010802203989646476	0.0005788934904124602	-0.0021037607014255852	-0.001602368730417028	-0.002349270111383338	-0.0009910913946006587	-0.0010565173312881693	-0.0005374664749074194	-0.00025378953738337546	-0.00032651321685532044	-0.0002477941172535617	-0.0007281271439224888	-0.0005531608687290802	-0.0017527528494365775	-0.0011175135518353594	-0.0024006860759907835	-0.0011226007861854554	-0.0019216250239345693	-0.0006970193577720098	-0.0004966527370689902	-0.0002961051941829106	-0.00022431622408224377	-0.0002458384968529279	-0.00034482062286735987	-0.0007943342701008404	-0.0006461290914172791	-0.0015861723998672618	-0.0011613897579577973	-0.002083543165599127	-0.0010316819927556342	-0.0013083912067578167	-0.000569249373988996	-0.0002714413212756865	-0.0002378019191111117	-0.00017981870758398583	-0.000503401441145621	-0.00040662327865215604	-0.0013561036330862486	-0.0008144778770338161	-0.001910597301964964	-0.0009049667034408316	-0.0018232534839731276	-0.000638297715013289	-0.0008079164979879944	0.0003292558588672313	-0.00042120797155944666	-0.0002641375670776301	-0.00034424995117233277	-0.0006243846427791753	-0.00051501102141762	-0.0013166928144073284	-0.000790602451336578	-0.0017141947476610117	-0.000934928774806184	-0.0013299732584238374	-0.0007251507122626881	-0.00048030254314960607	-0.000332878387855771	-0.00018070141311643764	-0.0003809101064470143	-0.0002478272679602825	6.961470099093453e-05	-0.0006053346070991787	-0.0014386493637601862	-0.000758609490815858	-0.0015331477041479152	-0.0006567507761050229	-0.0009453947301765126	-0.0004479454706673036	-0.00040371241777228234	-0.0002485457838306978	-0.00028627739141821965	-0.000535390067846609	-0.0003975462901706558	-0.0010090433496509701	-0.0006334490698824615	-0.0013201605596901641	-0.0006962540292582522	-0.001187004238138418	-0.000643723716011626	-0.0005390683999710726	-0.0003737979588940058	-0.0001845797973531408	-0.00033539192703845684	-0.00022348197790230542	-0.0006088800004257512	-0.0004182015648893565	-0.00102061546318289	-0.0005852225563247085	-0.0012676258894536595	-0.0005577638577333043	-0.000946874521271222	-0.0004522657416753062	-0.0003639106829549739	-0.00025834805756953815	-0.00018802676949389237	-0.00033005422414573353	-0.0003593829379290248	-0.0006556001268015747	-0.0004991322407967328	-0.0009394364733739715	-0.0005662492146456938	-0.0011416363268838157	0.0011144128117108604	-0.0006292754347688947	-0.00040889334224036194	-0.00022495244662245335	-0.0003099162436299402	-0.00019134929796106465	-0.00045318135703504534	-0.0003225936022847261	-0.000904350493692921	-0.00046696923223756004	-0.001012803309438693	-0.0005163918026501684	-0.0009327527624708014	-0.00042308589675046665	-0.00040237729724076324	-0.0002653280528284186	-0.00012034492847666072	-0.0002777358872901623	-0.00031041146896255956	-0.0005001127679903698	-0.000334567678546887	-0.000764168604720412	-0.0004512863493214448	-0.0007952683519801155	-0.00043500794758249105	-0.0006445449871919591	-0.0003549727203637649	-0.0002815407871263587	-0.0003054460110216243	-0.00014366739783302959	-0.0002854525401991948	-0.0002379158238734282	-0.0005772422472237514	-0.00030845571446894886	-0.0006798030243037515	-0.00043535373467466564	-0.0007535240700326813	-0.0003780905256425674	-0.0004448994603740834	-0.00026169401233379607	-0.00021530549104185922	-0.0002059414496507531	1.3633978632813658e-05	-2.1966105506927847e-06	-0.00042982339092939993	-0.0005082900669945973	-0.0003585882857110275	-0.0006553183545586739	-0.0003740583531208055	-0.0005497434571926871	-0.0003634572371489416	-0.0003101173054929268	-0.0002682710586727721	-0.00017889156278417737	-0.0002153111755900517	-0.00021196325523567333	-0.00042146806564450896	-0.00026159818641206193	-0.0005435080257216533	-0.0003351002206097446	-0.00033572122475008896	-0.0003108501674234816	-0.00044919148241534453	-0.0002668698505381026	-0.0002508395214662013	-0.00020753199068896747	-0.00017843808701633918	-0.00027707935568444875	-0.00034103816086831877	-0.00039117851624391773	-0.00027054945447177155	-0.0004970899804331303	-0.00026318322809417425	-0.0005183863447756476	-0.0003200652544643561	-0.00027242243014295216	-0.00017036301117358323	-0.00021170095177008998	-0.0003340238163529772	-0.0001370661143436656	-0.0002903486514539156	-0.00019650354408596937	-0.0003817583366796802	-0.00023784167794338356	-0.00042386196615428764	-0.00024101657210023872	-0.0004790125994274424	-0.00027986170991929637	-0.0002941449055830224	-0.0001877136273713272	-0.00012619693678185543	-0.0001898595220725151	-0.00016505600314360084	-0.0002848023626247016	-0.00023059793491008522	-0.0003985063162867678	-0.00026310074820746815	-0.000399979214106054	-0.0002298790168925832	-0.0003118920013048121	-0.0002516319832265578	-0.0003068102130838167	0.0008577894311003371	-9.966586122984094e-05	-0.00012145997892358128	-0.0001482489768751922	-0.0002908610222304337	-0.00016109039738673725	-0.00032867196585130415	-0.00024520314389199916	-0.0005148186376056521	-0.0002204821672968889	-0.00023170394961559957	-0.00017699720290576912	-0.0001543429165474144	-0.0001671520307026106	-0.00014456266562637394	-0.0001980461631209144	-9.098934115578418e-05	-0.00026095929875027187	-0.00014578704787573184	-0.0003264170416495315	-0.00023788261983302258	-0.0002811834902566678	-0.00018034751502231722	-0.00014912556407230114	-0.0001428404456485707	-0.00011890703688743045	-0.00016337007723470987	-0.0001021319284166005	-0.00020295583528730972	-0.0001398875624114366	-0.00020297183676198105	-0.00016977186818965064	-0.00030621361488288414	-0.0001610101765793544	-0.00020087859417534191	-0.00018488020651571992	-0.00015354527278653047	-0.00012736724515515933	-0.00010497813552201563	-0.00015110623812439452	-0.00013017461212368281	-0.00019474904359674294	3.317934382460674e-05	-0.00021948729981141114	-0.0002183278920301568	-0.00021791613493122845	-0.0001569496762869652	-0.00014354016716442713	-0.00012737846292901336	-0.00010682127434214248	-0.00011749987942712653	-9.933821255743322e-05	-0.00015661814262162314	-0.00015087834635218154	-0.0001807992439547568	-0.00012134732421489628	-0.00020128645799237548	-0.0001601436194857745	-0.00015807410263245672	-0.0001374906945799992	-0.00010017164615428028	-0.00011882814194169922	-7.475508083397669e-05	-0.00012726977217961957	-7.552911586603956e-05	-0.00013409553045806222	-0.00010369713146833468	-0.00019239179889702474	-0.00017834550406526736	-0.0001989934132406957	-0.00014092290810521508	-0.00014028373110491456	-8.45051075107311e-05	-0.00010497410109272495	-0.00011119475665518232	-0.000100070195095031	-0.00010993741500010809	-0.00016047691350734946	-0.00025214890651539346	-0.00013454650975110803	-0.00017253335642804777	-0.00011504497398683337	-0.00015172408500975097	-0.00011521049878540387	-0.00012300359293974152	-0.0001128315419644128	-8.602677927022783e-05	-0.0001217514445645414	-7.970026890092282e-05	-0.0001381111688739069	-9.467224603285028e-05	-0.00014623573886524957	-0.0001066383487931817	-0.0001476982407996043	-8.955438882298313e-05	-0.00013324791274126697	-9.213332899596665e-05	-9.024307003114468e-05	-8.512113312104038e-05	-8.118708993209567e-05	-0.00010937386856513106	-0.00020294546117055417	0.0006021681334579402	-8.883965955780793e-05	-0.0001038021912396283	-9.649495275835019e-05	-0.00012008734966964247	-0.00011747399880561122	-0.00010901591004823741	-0.00013279883532294457	-0.00019924951670207802	-7.445479796666737e-05	-7.301300158570387e-05	-8.204060352605009e-05	-6.0023137685431664e-05	-0.00010986307144672885	-5.1538974395877644e-05	-0.00011605515501354894	-3.4467411590655595e-05	-0.0001491857561920626	-6.61413295365663e-05	-0.00010116183103675558	-8.237895194407498e-05	-5.723376802049892e-05	-7.790813601947281e-05	-6.263379683378004e-05	-0.00011855953984558694	-5.420398609917917e-05	-8.458108660611816e-05	-6.549192428587813e-05	-9.507391041628731e-05	-7.606530071934989e-05	-5.125227917008175e-05	-9.672898735348731e-05	-7.941385464361934e-05	-7.439103227907273e-05	-3.904735799293625e-05	-0.00011346695316664089	-5.465692776476353e-05	-8.814395114150421e-05	-6.513699931995123e-05	-0.00010097355873125442	-7.152279153244774e-05	-7.779887692143116e-05	8.321196898925627e-05	-0.000125199110680358	-9.56363496075839e-05	-7.938604145262772e-05	-5.929299873036959e-05	-5.81867341618232e-05	-7.042403522225605e-05	-4.411244998476584e-05	-8.55549735490178e-05	-8.014070797945051e-05	-8.140456471744232e-05	-8.720546677686892e-05	-8.212421495374236e-05	-6.739881009766227e-05	-4.2284481940997706e-05	-6.004044139042936e-05	-2.8821643228239038e-05	-0.00012161006400416554	-2.1786051862349252e-05	-6.142040579005083e-05	-3.962075655723459e-05	-8.375990162522786e-05	-6.866445541631815e-05	-9.113302459013079e-05	-5.01097176015843e-05	-8.494221351364699e-05	-9.697267974713702e-05	-5.1988740873609394e-05	-5.4349847505362104e-05	-3.523877080060858e-05	-4.059386127630957e-05	-3.0954546337579576e-05	-5.308274992026479e-05	-6.246432094450316e-05	-4.8629166398989936e-05	-0.00013572789871252387	-0.00010067543999695786	-7.69591966222924e-05	-5.587950956455011e-05	-5.956042168227926e-05	-5.040881129933959e-05	-5.4029159309369306e-05	-3.910686790594496e-05	-8.127345165431054e-05	-3.0882971873715735e-05	-8.258296250082247e-05	-4.7884034735588935e-05	-4.5099399009780006e-05	-4.5228451340862025e-05	-5.8339411996964524e-05	-4.085963998356028e-05	-5.064139415197504e-05	-3.1539447599226974e-05	-4.785380969766534e-05	-3.2790214309309275e-05	-3.685430644495674e-05	-3.795906525826721e-05	-3.703802076965655e-05	-4.075280404329484e-05	-0.00048384334388336435	0.0009641549100555687	-5.8815259192310123e-05	-1.2325316613502222e-05	-3.529268496154033e-05	-3.9838559390704026e-05	-4.864705709473163e-05	-4.06621806370653e-05	-0.00012616280292014414	-5.982946398234984e-05	-5.260330342526107e-05	-2.9720652173572267e-05	-5.055599179950668e-05	-2.2023718559991757e-05	-5.258990571852174e-05	-3.157589104738229e-05	-2.9956179002712212e-05	1.229999889520822e-05	-4.8509862810473695e-05	-3.771708144914001e-05	-4.14019454095454e-05	-1.9249580213502127e-05	-2.832664568258177e-05	-5.2788140317237115e-05	-3.5419646619552344e-05	-3.952152622547778e-05	-2.384296109419016e-05	-3.745805335158891e-05	-2.0586270466922753e-05	-2.5161467702657072e-05	-1.366598192959567e-05	-2.54296460783796e-05	-5.701982410165704e-05	-3.601762450052045e-05	-3.8540808543630744e-05	-1.9557482269630822e-05	-6.368188912112829e-05	-1.4484340230287634e-05	-3.0886495411225026e-05	-2.3737318418620396e-05	-5.009123118801572e-05	-2.729691432648603e-05	-2.0947811034547045e-05	-5.149716865280544e-06	-5.333425468637956e-05	-5.198037346652294e-05	-5.246461330814676e-05	-4.207050239363355e-05	-3.599691388578547e-05	-3.259992075612963e-05	-1.254081246293246e-05	-4.32953271497907e-05	-2.8786193003165904e-05	-2.3899722523495612e-05	-4.65679507315644e-05	-1.4995737419249546e-05	-2.785636491774057e-05	-4.595078208101351e-06	-3.690547507234945e-05	-1.3137916908899169e-05	-0.00025770903294888934	0.0001796501924745097	-5.655249667856633e-05	-8.036619150575728e-06	-2.7342869542144828e-05	-1.4352723546522678e-05	-2.701768218430456e-05	-3.4978333616814394e-05	-5.217204107945794e-05	-3.644967659438974e-05	-2.600394800218359e-05	-1.9830271748795163e-05	-1.1840317741416195e-05	-1.414179859809389e-05	-2.805580420088583e-05	-2.3460008961855125e-05	-3.1468097972638124e-05	-2.3177646794205507e-05	-0.00016148747327902896	-1.3519107060403976e-05	-7.661553669572967e-05	-1.2124721327093807e-05	-2.6014762905331348e-05	-1.3403171466370718e-05	-3.398408472973439e-05	-8.613842368729668e-06	-3.20282543769186e-05	-2.0884249999928703e-05	-5.1186778131324045e-05	-2.1179142520206413e-05	-1.7224135846402225e-05	-2.413342345991156e-05	-1.882161121950276e-05	-1.73497531193403e-05	-2.989742315295618e-05	-1.374293521229082e-05	-1.934210080141194e-05	-2.7929128354279506e-05	-2.1614347660023945e-05	-1.079787383791999e-05	-2.778944419653163e-05	-1.7644885432020695e-05	1.8078760463322886e-05	0.0003361208249312163	-2.361673737260873e-06	1.5134141976206786e-05	-2.1141297921113716e-05	-9.711279310648722e-06	-1.1548857785214771e-05	-7.488752426100396e-06	-0.0001119166923701592	-1.8176736271103083e-05	-3.7431148022789604e-05	-2.267398098969048e-05	-3.429646471189975e-05	-7.368743056059399e-06	-2.2105746108917297e-05	-6.7116828005428015e-06	4.598081605643872e-06	-5.661232940242479e-06	-3.057318503823866e-05	-2.297280773991373e-05	-3.643506897972284e-05	-1.3581715279978453e-05	-1.7390131098987475e-05	-2.2779269370838874e-05	-1.8115587833818614e-05	-1.0602901968031816e-05	-1.6046829059282707e-05	-2.0420880061856463e-05	-1.8063730890230242e-05	-7.3265456528582384e-06	-7.755750262704627e-06	-5.418652247842198e-06	-1.2081840334500358e-05	-1.3865976007326201e-05	-1.3964163321473428e-05	-1.2176903358839376e-05	-2.3136264239508722e-05	-2.1748311600806754e-05	-2.1741702772395027e-05	-7.1193998988986065e-06	-1.9374030166159712e-05	-1.1186381476834582e-05	3.3597329663878875e-06	-2.1450838969023383e-06	-2.9986764748635993e-05	-5.8167363252738586e-06	-1.8371070721871323e-05	-9.597675289403853e-06	-8.15078007314087e-07	-9.680938502193188e-06	-7.059998726950324e-06	-1.858637016410573e-05	-3.8096982653004562e-06	-8.891997492871109e-06	-2.429063402664757e-05	-7.2150079765719426e-06	-3.7732654148995236e-06	-1.885702664865627e-06	-2.85230039891511e-05	5.549162687513916e-06	-0.00010963928267826429	7.929728562475923e-05	-3.375841232822367e-05	1.2866881294482095e-05	-1.114388054388599e-05	-1.1200367335193416e-05	-7.046022868878461e-06	-4.529583302625465e-06	-2.5702250626825756e-05	-3.3553835634334673e-07	-6.158838002068773e-06	-4.974335873112516e-06	3.8895404678794685e-06	-2.0237873167889063e-06	-6.778045309921098e-06	-2.2425805359905226e-06	-5.405374990401325e-06	-1.468115849713808e-06	-6.383515433463366e-05	-2.2530210186190802e-05	-1.8582125073698915e-05	-1.2599037756957079e-05	-2.8324943558202154e-06	-6.845507053884253e-06	-7.2862469790968515e-06	-2.0270595784922567e-06	-2.555135685386542e-06	-8.470279325734467e-06	-2.8547676509601173e-06	-4.3031825727900035e-06	-9.281616453758879e-07	-2.6246565205062566e-06	-2.0722869906918888e-06	-2.169408452886293e-06	-3.4600877837166944e-06	-1.2255608830843366e-07	-2.208230466859797e-07	-1.4005199510303562e-06	-7.95048061994855e-07	-5.813327716958884e-07	0.0	0.0	0.0	0.0	0.0	0.0	0.0	0.0	0.0	0.0	0.0	0.0	0.0	0.0	0.0	0.0	0.0	0.0	0.0	0.0	0.0	0.0	0.0	0.0	0.0	0.0	0.0	0.0	0.0	0.0	0.0	0.0	0.0	0.0	0.0	0.0	0.0	0.0	0.0	0.0	0.0	0.0	0.0	0.0	0.0	0.0	0.0	-5.427075001246121e-08	0.0	0.0	0.0	0.0	0.0	0.0	0.0	0.0	0.0	0.0	0.0	-6.54897758724517e-07	0.0	0.0	0.0	0.0	0.0	0.0	0.0	0.0	0.0	0.0	0.0	0.0	0.0	0.0	500.0	P1
P1_SQ2_2000	0.0	0.01374631342275447	0.0004866449177361572	4.628594309913158e-05	7.96607944480092e-06	0.0	-6.784103893785387e-07	1.2931860165193866e-05	0.0	-4.6530534109503406e-08	-3.096856737175216e-06	-1.1195107695135003e-05	0.0030974330562473056	0.002205310916502942	0.004198789637319488	0.004409641019051095	0.000278681370877033	0.00022356609885652954	-0.0003595525706060296	-0.0016053145935124035	-2.724538327526654e-06	9.694900719072426e-06	-9.0414384443953e-07	-0.0029900711289812445	0.000265333544532406	0.0020524861323859365	0.012244078194860356	-0.05232846840876629	0.05231861110661395	-0.037063640425583744	0.001240784327646331	-0.005913641292571225	-5.1742850337271266e-05	-8.346228101953434e-05	1.243099894959574e-05	-1.2252306739080493e-05	0.00065509133852851	0.011090888818814287	0.015173105265360263	0.037398096627545896	0.00034190852799621113	-0.07973941925495891	-0.01011622192854643	-0.06409104722260647	-0.002306721180908293	0.09655999364875392	0.006000416810180258	0.005883110843580969	0.00022715305646590916	0.0035141835711562834	0.037420972805886736	0.056120421973092784	0.01255347426394802	0.01775635665148422	-0.000457206148278046	-0.04854460178046098	-0.005556567187674222	-0.02948348108594581	-0.003453130253508461	-0.002843329501983758	0.0001895841228853614	0.0010166752430522952	0.03658479248799546	0.06396928408959018	0.01083720541837418	0.006603043003882456	0.005174122983296262	-0.0063176450453093225	-0.00152524261318779	-0.012139499803839274	-0.0017152234532663195	-0.0035775017705670844	0.0048568011541843936	-0.00013340863983276469	0.04040597041016773	0.03522884874607084	0.01255528944208641	0.012977585155110188	0.003172516207541885	-0.0024031024127578546	-0.0005123139905583197	-0.006150180759709608	-0.0011038120118321982	-0.004569384091811062	-9.342625730053415e-05	0.005464354494304065	0.029156998274362807	0.027457492825632642	0.010711727437424792	0.017364543060753655	0.005707530618527696	-0.003481407252082045	-0.000567288121485507	-0.0010833375612075424	-0.0006975527975155874	-0.0030280361259868984	-0.00020772699339132784	0.001201266670154774	0.026610857580221883	0.015994008128017337	0.004519137281156755	0.008357375029146338	0.006716900728330888	-0.00076147810347354	-0.0019412146494480398	-0.00013797387365242948	0.0002538472953045501	-0.0007887123917696428	-0.00012463771188185677	0.003958429719395508	0.016661415681912674	0.013345217692502012	0.00263989040083881	0.006061463425566494	0.003781092328767323	0.008724863815581015	0.0016398346328424752	-0.0010264131805038648	-0.0005510770753848538	-0.0015526374283902974	0.00041827434858959637	-0.006181455247140573	0.014758719840997974	0.006899129743423377	0.0016013884053721178	0.00378758860414528	0.008677970951415304	0.005665339291673496	0.0034872556370958516	-0.0012114642029401662	-0.0003780094194305178	-0.0014645607072535872	0.0010938401273892103	0.0025095033332281735	0.009014540276501722	0.004904442691526776	0.0007039893324347138	0.0042854001865472325	0.003128865766126856	0.012595235928916338	0.0030697091780374644	0.0010993735209845245	-4.8149482817209325e-05	-0.0004936957917582409	9.193950617443318e-05	-0.0008218494127045348	0.003305635299695347	-0.0008174553291216769	0.0009795273412151766	0.003319070757631445	0.012953658240382636	0.010068346051926299	0.011738551957282448	0.0028327335362612173	0.00039158208374400253	-0.0010612756242445328	0.00013880711080538582	0.0005722983287646897	0.003793743513861042	0.001331614148091942	0.00021786700108581834	0.003236939712229723	0.00543248961225661	0.0038237781090832527	0.005723214997474068	0.008696019023985263	0.0018064824301950552	0.0003997216136740983	0.0006835286178563374	0.00013911586987131212	0.002758574536053076	-0.00016555335135501944	-0.00018404430748035266	0.0006718861889516358	0.008155446671088053	0.004911258196916608	0.010276010628858372	0.0034897624956674272	0.003095471102954849	0.0005925312991968907	0.0005747082628439972	-0.001395040760715591	0.0019400326499913723	5.5104951134130054e-05	8.875584518211151e-05	0.0031454405440540104	0.005124931985694655	0.013242460603318056	0.004975593007043608	0.01005709670127731	0.002990602319888214	0.0008227077103803719	0.0005954072182105068	0.00019206972493554823	0.0009618856771932416	4.8389431773222455e-05	4.5062924675353115e-05	0.000570649532117939	0.006380790117026145	0.005124262609737234	0.012199781798426523	0.00656394367723157	0.008803464929355641	0.0022876039378025305	0.00059824547715718	-0.006479043448384817	-0.00013426523655409137	-0.0010002665837666022	0.0003372047056246502	0.0022498465363005797	0.0029751682216351033	0.00984140916170537	0.004258046459437655	0.010511938283446483	0.0035109653581926127	0.0036346664979859836	0.00126228037558013	0.00021133276798644208	0.0005378879912197267	6.049093320272057e-05	0.00024016589612203517	0.0010446708216051385	0.005812583925618318	0.001844937424429472	0.012283192420762618	0.00613738916526244	0.009662602554717488	0.0033345751073322613	0.0023416653531521388	0.0007051747958777392	0.0004235648338037271	-0.0009331605956836342	-0.00045207913528410676	0.001989496600827281	0.002352294352148647	0.006936262384605298	0.0047455571729064505	0.009998069169582697	0.004517918649434841	0.006850147554407787	0.0022969107737654563	0.0004904261515969791	0.0005328702809133864	8.704383881734422e-05	0.0004977095701154939	0.0007787713376705864	0.0033703709131291137	-0.0018382481223126875	0.006181754384607189	0.0025731262467143935	0.00873922692024378	0.003527734322395122	0.003795533262977222	0.0015132524873955498	0.0006951122509271849	0.0001393365830010925	0.00010065285606805077	0.0019051026250171417	0.0018234554340526496	0.00601450345554895	0.003769193152018923	0.009369971516872999	0.004155329711669297	0.007137991011904009	0.002236494386669569	-0.0034541509606730767	0.0005676218301215874	-8.872046111693915e-05	0.0006280199785135339	0.000720738840886565	0.002599107072157676	0.0019144532835721766	0.006008735570968647	0.003341258705078054	0.007539685550176816	0.003356517965097325	0.0050592594457978856	0.002120422256419863	0.0010380671960388403	0.0005401024556544405	0.0005067000032947088	0.001312098856038248	0.001152499737543113	0.003088714292696982	0.0025182035460434666	0.006885116228624611	0.003438492720652799	0.006873969813384147	0.0024944993294607983	0.002945220162416568	-0.0009152873608307824	-0.001258873256934823	0.0006776223577300703	0.0003205867512371055	0.002149127615980416	0.0017072975206354926	0.004981096426850098	0.002779665975584578	0.006901121130754986	0.003052975853015464	0.0054122246854467855	0.002492619522408609	0.0019033846222013305	0.001173664328296662	0.0006470526242315644	0.0008791519773855253	0.0006225308516307426	-0.004144471721840489	0.0011821117614754671	0.0038774883558454717	0.002737430925510027	0.005704187949006633	0.00258496506106216	0.003599404548310965	0.001896771259331791	0.0006067371959087197	0.000845827594429519	0.00040442195949083766	0.0016770319101745046	0.0010109545131414485	0.0035881915213249946	0.00226614406990342	0.005285041495917036	0.0023355763881196066	0.00474003553937993	-4.2032011693282634e-05	0.001962780121587271	0.0007277683977038002	0.0006532562014304962	0.000782503074512081	0.0006870031899540298	0.0019082237487146514	0.0014784985267078388	0.0030329887555589925	0.001864598806057275	0.0048120041315351785	0.00230323609875371	0.0035736824791197637	0.0021387949788359353	0.0013778539892820901	0.0010130032301184843	0.00048636918785243007	0.0009643289672309221	6.402082311695689e-05	0.0020735496654106507	0.0016773744709345415	0.0034959173303043	0.0018331176081035202	0.003684324853039966	-0.007352239829179643	0.0023090246174574786	0.0008022940433386999	0.0008112811502399414	0.0007798554263534835	0.0005759824687155907	0.0012736249937305424	0.0009600144661580845	0.0022307265749526763	0.0017232591198301258	0.003436339416186794	0.0018902665417056246	0.0033600827041228355	0.0014837179664204836	0.0015496358101792676	0.0009922016954666516	0.0007231999634590128	0.0007349957623221096	-0.0009259123110076507	0.0013066838044286592	0.0008783556274424337	0.0026236783942544086	0.0013094516723340457	0.0030739111895783833	0.0016402735334122276	0.0028460108290227124	0.001294766680526296	0.0010606855042943784	0.0009294009004265007	0.0005185456020602428	0.0007942498951249939	0.000834442240353526	0.001863519624308512	0.001090399404325025	0.002826024575153547	0.001499403338878216	0.002179608342702868	0.0014343464832034568	0.0018713003394245	0.0009559469066395265	0.000708680033843859	0.0009452036122526755	3.65048837373058e-05	-0.0009540191780427994	-0.00026333380537826964	0.0017760416442078042	0.0009763198956831239	0.0024027514856049437	0.0012421532691267688	0.0022600691395884	0.0013094818532610427	0.0011572340466803584	0.0007306046264986944	0.00047029977142756986	0.0005119078252666467	0.0006425485555109343	0.0014776764337169441	0.000941566683859787	0.0017254891867288717	0.0004691336322231146	-0.0038645251805802566	0.0009957535158878947	0.0014184928485446134	0.0010215203675586076	0.0007376370896836147	0.0007235880919109995	0.0004934662540057363	0.0007760195549615257	9.697609054991742e-05	0.0012598702437289912	0.0007472625531561511	0.001761459770770273	0.0006979979306936921	0.0020907702477818767	0.0009040555952995676	0.001123702779113181	0.0005356230981342317	0.00030845718441216565	-0.00015759068864323682	0.0003419901707683117	0.0005335603424035699	0.0005185674572918764	0.0012651988251972455	0.0008563542731847999	0.0017150810795986326	0.000812594279041937	0.0010831939849467024	0.0008429852931667833	0.0009033946624424884	0.0006280731264947353	0.0003472511767803537	0.0006003223944291522	0.0005427302119890127	0.000818613270122615	0.0005184723965885864	0.0010797898603863523	0.0006103875737018935	0.001343224454844701	0.0007444166302569867	0.0011974139831879443	0.0006593923374946473	-0.0009092802921281895	-0.007803604699135033	9.785709085918955e-05	0.00018177843002864134	0.0004323750735198458	0.0008737704431950157	0.000617151808376996	0.001119789221083856	0.00048031515370566884	0.0007366279157765233	0.000837550621113018	0.0009523652342527235	0.0005350641965797197	0.00019254862637530038	0.0004878271326316469	0.0004146934898210282	0.0007005025048157736	0.0003741723851743095	0.0006453653849056881	0.00024222413845167534	0.0010531342467067	0.0004914315624374821	0.0010027951012885896	0.000542795800927869	0.000578604832483314	0.00043626239640542273	0.00037403383610838735	0.0004660352036353316	0.0002808699026759973	0.0006148908759901188	0.0005701002340319913	0.0007503777278163217	0.0004526332335508895	0.000990355962997742	0.0005204546141915776	0.0005958096531427323	0.0003604791488961547	0.000310384702427321	0.0004503339166094304	0.0002167450888894498	0.0004414057048969878	0.0003754375196779553	0.0006276963858615403	-0.00034463238866707876	-0.0003740686140976577	0.00012126417511960409	0.0005864670841843756	0.00043561214173929303	0.0005722498176593193	0.0004204311602305875	0.00031235675860364406	0.0003268415321482285	0.0002512624241046375	0.0004048347040710131	0.0002168909392052749	0.00044250112845938705	0.00043328351064295264	0.000619651224285626	0.0005648404079608896	0.00042808187305592527	-0.0004013962666412923	-0.003121130267567887	0.00015711926125783784	-2.3220832569652067e-05	0.0003704818538698211	0.0001612530500161377	0.00037797473487884224	0.00028319938545189456	0.0006752646602979605	8.30905085613049e-05	0.0005640444696933782	0.00041352580581563816	0.0003035690829359201	0.0004174440599217175	0.00032273332550685873	0.0002878199429344053	0.00017441851269818848	0.0003273986563098487	-0.00011477554945602984	-0.00031366146858034794	0.0002908548391339587	0.0003260935205454596	0.0002829321677225142	0.00044572380663743943	0.0003671371457209931	0.0004042836306142998	0.0001962134395234884	4.000948104389621e-05	0.000258139787204766	0.00020216411994112456	0.00029575519068075843	0.00016702413411826824	0.00046503560138360734	0.00033422214462366766	0.0005561098409236398	0.00026523497976628594	0.00032972670931856316	0.0001796840743797458	0.00022610405672735388	0.0003045139501136841	0.000154845243045303	0.00023707758789566854	-0.001664590605975359	-0.0056758058075073725	5.0938410880102287e-05	3.6298579638430173e-05	0.0002628198986536672	0.000301166979275215	0.0003648750889412575	0.0003851460287410288	8.143934761485071e-05	-4.651863451355677e-05	0.00017559683347530505	0.0001332770225043418	0.00013598666855117462	0.00011471621874781614	0.0001618798105288716	0.00013722101954798864	0.00020492752857448633	0.0001810893943491728	0.00015217050297724734	7.009983924679712e-05	0.00021875008535764416	0.00011309911413310886	8.643773148179443e-05	0.00014959591446650806	0.0001537898897601994	0.0002751556265384391	9.02253880390362e-05	0.00020885331909658154	0.00013378802200401775	0.000281406583062006	0.00014792741928438275	0.00016439855129365592	0.00020133812429033816	0.00018209634778889745	0.00017120812284119233	0.00010746587127549513	9.574076010440994e-05	0.00014763814122209713	0.0001599117066822861	0.00015810533676112942	0.0003014574706667826	0.00011051663167992585	0.00021041177970664918	-0.0005148919147421273	-0.00047260613287050993	-9.994988242699308e-05	5.405409127173016e-05	0.0001022823162897061	0.00010831628258937016	0.00012629732690241986	0.00016766974236278443	0.00011561798571714882	6.381421774657217e-05	0.00018910941631168897	9.398066592915393e-05	0.0002144241891387728	0.0001341525429805517	0.0001659815156414418	0.00011261990078469523	3.8018924561656606e-05	-0.0006794866800742066	-0.002181618415918867	-6.376988984963959e-07	-7.577172390935082e-05	9.761473742162923e-05	0.00012275308908656592	0.0002157563591301398	0.00010009861059559155	9.0751217927258e-05	1.8079334041375453e-05	6.780608318008039e-05	0.00012816600808966482	-3.4917675556330255e-05	9.842540229762901e-05	0.00011660049656278669	0.0001515020455625772	3.582458178596641e-05	0.00011019875166115865	-0.0002893376459177911	-0.00015735054004736794	1.687924012482714e-05	-4.54291184373551e-05	0.00011935414697946387	4.029572995187247e-05	0.00012696961454735143	9.385762094391709e-05	7.907225322750138e-05	4.587385777109112e-06	0.0001238982302837088	5.106637056075487e-05	8.758202058564013e-05	8.328359261979878e-05	0.00011309063337101017	7.467298539171696e-05	0.00010041911135772414	0.00012586829767276904	1.9231544271646882e-06	4.806275208520046e-05	4.655836529625144e-05	5.037800936122181e-05	-4.3171994498334605e-05	3.621931150741829e-05	-0.0026054413209596512	-0.0029617489737486756	-0.00011058072685476831	-7.88011189484417e-05	4.442822614443722e-05	5.589208585220943e-05	5.987457809568385e-05	4.132583602148552e-05	-6.728663919896322e-05	-6.737693154295664e-05	2.104838324219089e-05	5.179597526299836e-05	5.03875883963101e-05	5.200898574964716e-05	5.166695777090996e-05	3.079990065522331e-05	5.952464202768989e-05	4.133221092971139e-05	-0.0001472791910831436	-7.331279801809577e-05	-5.51026638717291e-05	-4.814660760034197e-06	1.804083346086854e-05	1.7070539262045863e-05	3.965606557098339e-05	3.498210891646276e-05	3.5313119013547964e-05	8.489553207992655e-05	7.108616045378867e-06	4.5740702672810826e-05	-2.368049245393461e-05	1.884756077679561e-05	-1.0374206888162614e-05	3.914832501823089e-05	-2.3358578948279456e-05	6.28114071393442e-05	-0.00012666859028738812	-1.6677477235268491e-06	7.934343896403239e-07	3.0581407387502e-05	3.673208437492706e-05	1.058848676448713e-06	-3.2390047567966106e-05	-0.0005824551414601753	-0.00021921991879033767	-2.712414223819703e-05	-6.115734082485534e-05	4.607583752771688e-05	2.1071935445141014e-05	8.97538569566792e-05	3.003264771412989e-05	4.203019105883813e-06	-9.809521551268143e-06	8.336011504044675e-06	-5.801056752806042e-05	-1.4693950115245102e-05	-6.677588381953637e-05	1.0116819123487242e-05	4.815035652163297e-06	-1.082987309877782e-05	-0.001199275901989559	-0.0008132738507622058	-0.00015542763951740624	-6.875668818831187e-05	-3.0066853243483632e-05	2.7837268883731752e-05	1.8075400450940846e-06	5.449235109635419e-05	-2.769552265384506e-05	-1.5554189291582443e-06	-4.000045034489202e-06	4.0457724842294824e-05	-6.951867747677934e-05	2.0832593269839864e-06	-3.6472836781028114e-05	7.681501091720806e-05	-1.0977717255985901e-05	6.69166619418442e-06	-0.0003852256463507083	-7.131860015748176e-05	-0.00012348430568156636	-2.5330489977861456e-06	3.787559705028771e-05	6.511204649862079e-06	5.265097604706867e-06	4.078548618757232e-07	-6.687688462939982e-05	1.324791151322005e-05	5.2205132547315835e-06	2.148071689697776e-05	2.5158035205058844e-05	7.424577461874144e-05	2.3368635617475967e-05	-6.154944426379985e-06	-2.38184736849733e-05	-2.7853677011229557e-05	-3.713855442234826e-05	5.111816089284035e-05	2.7397744972565592e-05	5.290179207562663e-05	-9.857565598718953e-06	2.0666110223015077e-05	-0.003382859518317455	-0.0007872150985164278	-0.00016707645139813553	-6.274753714730606e-05	-3.46739196647191e-05	2.4229863131519438e-05	1.5954831693767163e-05	2.1144616928190594e-05	-0.00013576458473024894	-2.7256988426474178e-05	-7.09246303844551e-06	2.8513133534980148e-05	-9.170115723630619e-05	-2.1425234115748996e-06	-8.821129740749071e-06	-1.4660816428972502e-05	-4.3893407881776106e-05	-1.9490671807375807e-06	-0.00012235669146630718	-2.2479098997718266e-05	-4.342259073865705e-05	-1.3471246804222465e-05	-9.221550311517234e-06	-3.057158783111877e-06	-4.311795352343897e-05	2.7602053155410552e-05	3.9786742274812296e-05	-9.61029494497359e-06	-1.6440657031379456e-05	8.98474496099531e-06	-3.787499321086001e-05	2.1730608073071276e-06	-5.6036510856582856e-05	1.4575292774430264e-05	-8.712462527882199e-07	-1.4349762259887274e-05	-4.120843168336107e-05	1.9675526059581886e-05	-2.7600245152369305e-05	-6.541512331748105e-06	-3.755556248163433e-05	3.933920122443511e-05	-1.8892180065499506e-05	-0.0004480798979534995	-0.00012708920970045095	-3.593618455467978e-05	-1.9113728284040725e-05	5.286651586963169e-05	-7.718962803169544e-06	1.0041208187454317e-05	3.2850041177359996e-05	-9.096352866014358e-06	-5.597891169101554e-06	3.253212935312072e-05	-8.639854043249698e-06	8.051217802434404e-06	1.1600071151631717e-05	-6.61697743978791e-06	1.3753457215580495e-05	-5.425574426822294e-06	-0.000932451195831104	-0.0002614992052992716	-9.930567731470576e-05	-3.365556309330465e-05	-2.118370827325657e-05	2.1682544979860536e-06	1.0586299379624596e-05	2.7130621133425096e-05	-3.962094172300136e-05	-1.956486907276002e-05	1.2326103519044873e-05	7.541569704357485e-06	4.467451121100304e-06	3.66998298388384e-06	1.4265046128286507e-05	7.522706553086238e-06	1.2226840228535307e-05	1.475277583551348e-06	-9.821871608374672e-05	-0.00012912968524326376	-6.726586525478918e-06	-2.3768255454857835e-05	6.08005341949719e-06	-1.536431880912589e-06	5.1191824526994334e-05	3.304390027566002e-05	2.6354956881616968e-05	-8.084980559300446e-06	-5.412947705419158e-06	1.0059056120392706e-06	6.939101570901349e-06	5.24260669577098e-06	6.647704584746437e-06	1.4417671257796603e-05	1.3979720286127292e-05	7.744707127968802e-06	-2.208230466859797e-07	-1.4005199510303562e-06	-7.95048061994855e-07	8.138658803742437e-06	0.0	0.0	0.0	0.0	0.0	0.0	0.0	0.0	0.0	0.0	0.0	0.0	0.0	0.0	0.0	0.0	0.0	0.0	0.0	0.0	0.0	0.0	0.0	0.0	0.0	0.0	0.0	0.0	0.0	0.0	0.0	0.0	0.0	0.0	0.0	0.0	0.0	0.0	0.0	0.0	0.0	0.0	0.0	0.0	0.0	0.0	0.0	-5.427075001246121e-08	0.0	0.0	0.0	0.0	0.0	0.0	0.0	0.0	0.0	0.0	0.0	-6.54897758724517e-07	0.0	0.0	0.0	0.0	0.0	0.0	0.0	0.0	0.0	0.0	0.0	0.0	0.0	0.0	2000.0	P1
P1_SQ3_5000	0.0	-0.00415607349902776	-0.00015754014674009768	-1.3022343719792007e-05	-7.539121306374063e-07	0.0	-6.784103893785387e-07	-1.1599468350590158e-05	0.0	-4.6530534109503406e-08	-1.4687357628082356e-06	1.8299127937120762e-06	-0.0009415067175534871	-0.0007693199308299007	-0.0010541199476710459	-0.000905389131364346	-9.51012901991375e-05	-6.242476357771694e-05	6.977874374415052e-05	0.0004384894319210573	-1.0964173531596735e-06	3.6519230910999615e-06	1.5380353282992419e-06	-0.008637429423973388	-0.0003263566619743566	-0.0006478188526638954	-0.0031017096070120632	0.014024645918109369	-0.011819302312664415	0.01364007949775499	-0.0001322075890934091	0.00022346116692758752	2.0654376174528805e-05	-1.7400144743582547e-05	-3.4899195784104687e-06	5.311252909415629e-06	-0.00019262960301809053	-0.003080768953134079	-0.003988094267300903	-0.011682786805160869	-0.00041702218494532074	0.02333533186853856	0.004145616761850011	0.019541816053217892	0.00046079377803199054	-0.02468455270640059	-0.001758985782326776	-0.0017078178996734156	-5.450344752496426e-05	-0.0010421472326578272	-0.010279052366598927	-0.016455864497124918	-0.0035018730511254155	-0.00700882877956157	0.0007795283840568643	0.012686310851527174	0.001758286087638259	0.008357125585854754	0.0004914059424744677	0.0004354702074577375	-7.357431086470255e-05	-0.0006221390393252937	-0.010090617923942672	-0.018612277407243194	-0.0031256154060014885	-0.0041748856931361385	-0.0018804330509956425	0.0013904312015721107	0.00042571608822815875	0.002262141600952873	0.00042435144554120365	0.00042806236973353534	-0.001472708608874551	-0.0012726381041651995	-0.011424199189642208	-0.010612468302467152	-0.0036679402155498906	-0.008056360513687306	-0.0020315012085884657	-0.0006273191577948513	-0.00016924458957412675	0.0008168103925778221	5.1539207567635574e-05	0.00022765294797741798	-0.000169991826507317	-0.0019744969637796182	-0.00816937456827752	-0.0079743231075301	-0.0031298423640377685	-0.0054281801590813595	-0.0017631572172137006	-0.002739886237750757	-0.0005981485216441222	-0.0002952548512454023	-4.557914181075695e-05	0.000258563906105385	-1.1470613024215561e-05	-0.0006465361937712613	-0.0075764592860124574	-0.004704501582674932	-0.001271404496943349	-0.0031294924864659662	-0.002202517230142138	-0.0009118632193413408	0.00028016021270288894	-0.0005933440908912919	-0.00020662643174328187	-0.00040340049197525084	-0.0001905785775030551	-0.001413342073691483	-0.004878721840183883	-0.003872479400199635	-0.000759901490995794	-0.0020700615620561713	-0.001250579401587095	-0.005114655018872949	-0.0011815243260734657	-0.0006163529495339633	-4.486947133089045e-05	-1.704196258535927e-05	-0.00017025796107312673	0.0017417214784786195	-0.004259759725971708	-0.002053324224557715	-0.0005433132112949239	-0.0011770273653703169	-0.002545347609315434	-0.0024203794806543846	-0.002970269585411714	-0.000759022080929931	-0.0002085144816419194	-0.00018833383167106811	-0.0005119428220301108	-0.001176466765390327	-0.0025070983167812585	-0.0013400775134702065	-0.0002888554060374586	-0.001278142942719332	-0.0009201134880324398	-0.0036072606392953434	-0.0008212827548772565	-0.0011097742564439026	-0.000368588949330028	-0.00013265828460397658	-0.00021936260014288392	-7.434725064026136e-05	-0.0009817811283524833	-0.0003343552218965798	-0.0003319165563108619	-0.0011001389261128115	-0.003413589309676773	-0.0031111945203727903	-0.003882943037634882	-0.001486136816687357	-0.0004481447195852279	-0.00044967120778796957	-0.0001963018614822375	-0.00034576809645607987	-0.001161369010861166	-0.0006390585849151356	-9.648251536286572e-05	-0.0010677233664470032	-0.001414722126585118	-0.0006242731199301767	-0.0017060818757009602	-0.003212349653503279	-0.0007301547485725588	-0.00032610659135639793	-0.0003816354317119576	-0.0002696468856508426	-0.0009152184534978916	-0.00025565827882634393	-6.459197446461503e-05	-0.00029102786278571735	-0.002177809132171622	-0.0012545949798389879	-0.0027518193997143727	-0.0011757715053803397	-0.0013237093554749552	-0.0005293083950330571	-0.0002588632811315097	0.00047955001471267295	-0.0005488435293921975	-0.00029120426197800156	-0.00012604119529568454	-0.0009811637106018171	-0.001390886999744309	-0.0036142537537789494	-0.001250067409760546	-0.0028337400222734057	-0.0009328588644837504	-0.0005817902218934105	-0.00030795912501526703	-0.0001866284586662676	-0.0003825214620324886	-0.0002065747940115482	-0.00011134983392644104	-0.0003863673534869462	-0.001656988539254833	-0.0012100272133430702	-0.0031273788625593526	-0.0017435907451851097	-0.002414067872915972	-0.0008662513199726983	-0.0002215926509653919	0.0019056210513893647	-3.5608925104615215e-05	0.0001054469955075253	-0.00012175915260771323	-0.0007143106018147977	-0.000905444454679906	-0.002591718119302109	-0.0011722256478742226	-0.0027147633761268842	-0.000882369617513094	-0.0011752882537311336	-0.0003999679402264932	-9.931373430831334e-05	-0.00020656815545227341	-0.0001583739720749408	-7.926412726173512e-05	-0.00043396728353909146	-0.001559211026634897	-0.00020245446607980618	-0.002936668146033068	-0.0015137177904755725	-0.0024889066990456538	-0.0009803050699239333	-0.000561391941969354	-0.0003157497944782328	-0.0001510488695781193	0.00010131555091477803	8.846006858740122e-05	-0.000541364901178175	-0.0006664668941449611	-0.0019000965777233886	-0.0012972661586340881	-0.0026782040785827493	-0.0010596186578145195	-0.001746036120277127	-0.0006290004982962209	8.74689648286671e-05	-0.00028343483625040795	-3.931103833092946e-05	-0.00016021915585594872	-0.0002746900650056338	-0.0010200123655558974	0.0007680520525432223	-0.001517926871033074	-0.000691875211387707	-0.002239812220969376	-0.0008732915138501432	-0.0009619607748106993	-0.0003343926666455752	-0.00017909192357793671	-7.789270927748373e-05	-6.866392903691581e-05	-0.0005530566035634403	-0.0005315491685605848	-0.0016091890416232797	-0.0010661814270111966	-0.002347945137284084	-0.0010529255218539976	-0.0017515925127630132	-0.0005888448501538004	0.0012880568012918151	-7.651610502116917e-05	2.972197788004031e-06	-0.00016606390950331574	-0.00023034932570562374	-0.000736882074641818	-0.0005483298637645475	-0.0015198842494529815	-0.0009151438333786734	-0.0019498787215375788	-0.0008425183347489726	-0.001220591558227894	-0.0004689658481761801	-0.00023475505807078897	-0.00014317776383224537	-0.00013201011334018777	-0.0004334101853716626	-0.0003473101103375029	-0.0005933994525819427	-0.0007317965830440996	-0.0016556689950458147	-0.0008511942245099065	-0.001718210775024094	-0.0005792553114128277	-0.0007221708761866402	0.00031057732786938814	0.0002811007336332525	-0.00018512637280216368	-0.00014827716824286662	-0.0005923921096383177	-0.0004565334317167853	-0.0012736171772337159	-0.0007193838564274967	-0.0016542573310217002	-0.0007727285611379215	-0.0013222304192744994	-0.0005537406009071461	-0.0004527276492686669	-0.00024697703298301725	-0.00016138539217872583	-0.0002895003670077444	-0.00019490507658291443	0.0013514318068229628	-0.00036179738870144003	-0.0009809212587778746	-0.0007056087380499689	-0.0013532484773509045	-0.0006454951831336452	-0.000880802900559791	-0.0003823930983662419	-0.0001780280758006638	-0.0002016735008925421	-0.00013314430259558831	-0.000500840172825327	-0.00030794865529562673	-0.0009808145148465473	-0.0005730080608643143	-0.0012444918008572535	-0.0006961669987440525	-0.0010879751575466608	0.00033967699649541756	-0.0004305028318375304	-8.312578679025987e-05	-0.00016312759123246923	-0.00023852255153412118	-0.0001763416449277095	-0.0005449527568879959	-0.000376525615419963	-0.000833071965185528	-0.00047508872771750136	-0.0011413380648464182	-0.0005375968596111614	-0.000858375445333082	-0.0004439162101072602	-0.0003325673196660489	-0.00020810204464472734	-0.00011351849029273486	-0.0002999261584534911	5.387534207605292e-05	-0.000603807929146366	-0.0004010166592503953	-0.0009245795302210608	-0.000545176992688942	-0.0008936105953070337	0.0024992938298206407	-0.0004952650871160123	-0.00011679748574332607	-0.00019497440020283265	-0.0001809617146158796	-0.0001704069544775322	-0.0003738669969435306	-0.0002629353716093958	-0.0006307850000878981	-0.0004135474465138105	-0.0008999304386046247	-0.00046831997340915555	-0.0007693080823843062	-0.00040253086462023956	-0.00036646272031678855	-0.00024217177021619216	-0.00017037623216999837	-0.00019251727768950639	0.00028939899250523746	-0.0003216362144206943	-0.00021581224212662302	-0.0006777273886824942	-0.0003735584115290071	-0.0007594830464141451	-0.00038564861521960415	-0.000641585702343797	-0.00028046485363863896	-0.00023079204891501433	-0.00021086396356743276	-0.00014105556604138706	-0.00021222561997951843	-0.00020883616732265422	-0.0005204806074929349	-0.0002860405766183049	-0.0006548187127848428	-0.0003035296671703151	-0.00042113847630365704	-0.0003143219321520238	-0.0003182650619637131	-0.0002302885188328631	-0.00020203120580470618	-0.0002008105193071675	9.760844873148524e-05	0.00029259355093114083	3.237670544959086e-05	-0.00045327955249430444	-0.00023734138279693582	-0.000606821286655401	-0.0003051689724673298	-0.0005307783676196219	-0.0002956178901136794	-0.0002518887229403927	-0.00017783643659384035	-9.636571639633223e-05	-9.70679181459049e-05	-0.00017071410884216123	-0.00037222762284909715	-0.00020806177918203576	-0.00045981185010341314	-0.0001359814671117401	0.001362078575184669	-0.00023525917637789122	-0.0003290420918032756	-0.0002410827304279904	-0.00019059000571529914	-0.00016229071881405843	-0.00012373824965875745	-0.00023873671089339954	-0.0001104553521727497	-0.0003508980831034669	-0.00021139059283090678	-0.0004583972844564158	-0.00018905607142469786	-0.0004755099587511549	-0.0002919900486024519	-0.0002871769640521995	-0.00017289467251611519	-3.855828748912854e-05	0.0003024841448270861	-5.426716957999942e-05	-8.534962205863374e-05	-0.0001442859983442385	-0.00033473107683636724	-0.00021593537866091306	-0.0003944304260515159	-0.00016185854375647005	-0.00026693979322108105	-0.0002126055922478402	-0.0001960668219451832	-0.0001628954654881747	-8.187329794345685e-05	-0.0001585328817225349	-0.00012244522228855033	-0.0002624282020775992	-0.00018283102778297126	-0.0002690432385726032	-0.00013904432035964946	-0.0003525280887328772	-0.0001825792912819359	-0.0002680845152819646	-0.00020192612085944168	0.0003696811147039867	0.002783687591380292	-3.267054524799546e-05	-3.6301043036297484e-05	-0.00012908726941319822	-0.0002468131313931451	-0.000129491429303033	-0.00030718460883350776	-0.00017453257191599086	-0.0002128481956635448	-0.00017500793718434047	-0.0001945202320395313	-0.00010489171839374358	-5.002122287440689e-05	-0.00014419764434256814	-0.0001162552611160583	-0.00017423739886249213	-0.00010232689264876019	-0.00013387195337533103	-5.219068312329212e-05	-0.00018637621161858982	-0.0001429415557989779	-0.0001957873151106281	-0.0001549419768092268	-0.00011012304716134552	-8.100391284883668e-05	-9.010011994752702e-05	-0.00013425086158345298	-7.394260092249248e-05	-0.00018209007330660583	-0.00011429246498891176	-0.0002000803136703156	-0.00011453126682976796	-0.00024867999904914573	-0.00013801541184241134	-0.00014683750642344284	-4.723416689359514e-05	-3.2251318201804654e-05	-9.045390849940802e-05	-4.86835523212441e-05	-0.00014001168469091654	-6.981667055069632e-05	-0.00015214217513245224	0.00017555476144235434	9.213415997003376e-05	-7.832600049142654e-05	-0.00015003861417251316	-0.00011119326848498223	-0.00012298642130715892	-0.00010368306722913513	-7.940874560948502e-05	-0.00010310595188635512	-5.6340917138646243e-05	-0.00011032892574757482	-5.098461501817515e-05	-7.945609195778765e-05	-0.00010548297814469282	-0.0001570476477131164	-0.00010866074944841791	-0.00013491116551794945	8.967770265061394e-05	0.0010362095024991328	-4.8270443374639625e-05	-1.609821529224278e-05	-7.338398575932838e-05	-2.6486568031482572e-05	-0.0001092806134670761	-7.616869306590694e-05	-0.00017412620625212766	-7.504707024131349e-05	-0.00016406248347790713	-0.00010920505827082384	-9.251686257237803e-05	-6.654156003806373e-05	-5.68258980837196e-05	-6.723127277660644e-05	-6.4363355566703e-05	-7.674615470995965e-05	0.00012084634879637511	0.00024050205448832387	-1.1553560988751359e-05	-2.6784684425747922e-05	-7.154792164074835e-05	-0.00010989182233839364	-7.388462315588216e-05	-9.500880411846112e-05	-5.064783096152435e-05	-2.1688911125251784e-05	-7.461091727649439e-05	-3.914404578272436e-05	-8.92647585105086e-05	-6.035794868558063e-05	-0.0001212662563007715	-7.170572785676136e-05	-0.0001240851462726225	-6.473802049190939e-05	-4.958985645290353e-05	-3.858538719347048e-05	-5.2171606655194205e-05	-5.216451727071858e-05	-6.559706082322676e-05	-2.8353035929519835e-05	0.0005456402490635361	0.0019175625174714939	-8.789109971501401e-06	-2.1552452942857957e-05	-6.814825340912674e-05	-6.488062465637859e-05	-7.696216243394267e-05	-8.664068478305583e-05	-5.1429619070782564e-05	3.929395952716479e-06	-5.250694167912808e-05	-3.1958219328627195e-05	-2.7336022169104535e-05	-1.469791616889174e-05	-6.818718700781643e-05	-4.544297665405593e-05	-8.588862611552899e-05	-5.18504874679265e-05	3.702441716380234e-05	7.308059589026454e-06	3.403586844691114e-05	-2.2206625454480265e-05	-2.636781268849613e-05	-5.375159714328727e-05	-2.1886157370847053e-05	-7.199818584341853e-05	-3.353675566092801e-05	-3.538697452757207e-05	-5.203372689367716e-05	-9.529692193474028e-05	-5.3647179233889486e-05	-4.263159748226942e-05	-3.916074319632918e-05	-4.0643275908788625e-05	-3.1900906276344283e-05	-1.6633984296093296e-05	4.301590818542452e-05	-2.308569571823725e-06	-3.57297329231093e-05	-4.7682100824929726e-05	-6.987984692758533e-05	-4.4612814713589546e-05	-6.705031807512852e-05	0.00021508075066025583	0.00011825302331535726	-1.0911104378060886e-05	-2.131267555437885e-05	-4.796161230198034e-05	-2.1006278542712423e-05	-2.9406827805945383e-05	-3.5343748302923346e-05	-6.345412017895674e-05	-1.5518789388624274e-05	-4.4690304100400955e-05	-4.987190994136412e-06	-1.6058648105039364e-05	-2.9791830400609237e-05	-4.176709614448851e-05	-7.510746175749269e-06	-1.981162427702976e-05	0.00019829793819185174	0.0007909441312892035	2.4675847286245278e-05	3.5159110514879576e-05	-5.076439909790757e-05	-2.2606699955600364e-05	-5.9653393934320134e-05	-2.6341990125364805e-05	-4.613605873801511e-05	-2.9115888464273176e-05	-2.0275243325926985e-05	-1.197766289540351e-05	3.0472829904214065e-05	-1.7288820389583064e-05	-1.7029184117922435e-05	-3.815204388273632e-05	-3.7028269837795946e-05	-2.075047178948323e-05	0.00012321550653052377	0.00022375424013189917	3.789218201937647e-05	3.8040750791895e-05	-2.753784735570511e-05	-9.897092319793198e-06	-1.9445958736678346e-05	-2.3052047044265248e-05	-2.6069544133360966e-05	1.7312176455753234e-05	-2.807763727695253e-05	-1.1439074015254317e-05	-2.1290031720486854e-05	-2.3282086999729047e-05	-1.5656205050277797e-05	-2.4804234762297223e-05	-1.788182676567716e-05	-2.9401004717898827e-05	2.743039637760156e-05	-1.7934733919667886e-05	9.072312061908267e-07	-1.5042617410069477e-05	-3.396708434957994e-05	-1.8726254784259537e-05	0.0007153596992853064	0.0013416835540978772	4.85152574192e-05	5.2447003476979997e-05	-1.760671019694133e-05	-2.2657641861434103e-05	-4.0263453392798285e-06	-5.034597290570173e-06	3.689247736474616e-06	3.5067639362732525e-06	-3.402985395720276e-05	-2.3395020975282508e-05	7.207814203524223e-06	-1.0732883969405614e-05	-1.5488493108096237e-05	-3.6723411697742447e-05	-2.5640771223423223e-05	-2.8501569962100767e-05	9.123489685741769e-05	3.811375317127664e-05	9.812380115741367e-06	-1.1522986970963008e-05	-4.0937525237602277e-07	-1.487336774181041e-05	2.3810670766993955e-06	-1.2766817151876959e-05	-1.8950746455042512e-05	-2.516467759512014e-05	-8.21339146004687e-06	-3.0617322236829893e-06	6.344532124349635e-06	-1.8793124927341117e-05	-9.182371595181649e-06	2.556629579248361e-06	-1.5781138061002426e-05	-3.425583502785493e-06	4.625241151970234e-05	1.0218013348554076e-05	2.457961984920183e-06	1.6592390197678374e-06	4.103936320955107e-06	-7.986197921673463e-06	1.076675163625184e-05	0.00021365938819761798	7.125686576459972e-05	2.5015845575585493e-05	9.908881545910367e-06	-3.30299636532071e-06	4.593240926643356e-06	-6.467720910051101e-06	-8.424113022123913e-06	-1.1171860631452204e-06	-1.760318163556465e-06	-3.664237681210065e-07	2.9101153949463927e-05	-7.584187517786388e-06	-1.0015815322632465e-05	7.5843061972359155e-06	-5.965629969429813e-06	1.9664959749128404e-05	0.0003747820522688242	0.000324662893960029	2.4933318190972336e-05	3.489539438155119e-05	-7.837633344256637e-06	-2.085847843617541e-05	-1.4221285416168454e-05	-1.7338552089308653e-05	4.427868732179824e-06	1.6168133665500338e-05	-7.818728145469889e-06	-9.630214823758535e-06	4.259350834332439e-05	-7.196273495192358e-06	6.21576465741705e-06	-8.958404057022024e-06	-3.1649172437416256e-06	-5.8452726832575885e-06	0.0002267576288739803	5.0818841174011685e-05	5.7696466697583666e-05	1.6112085958775875e-05	1.0470543968105206e-06	5.946498285572919e-07	8.676442119130934e-07	3.679837991637761e-06	9.18427135224067e-06	6.410475741458843e-06	1.0141594778587123e-05	-4.893214290226943e-06	5.18743366039655e-06	-2.153237174799735e-05	4.791415623102465e-06	-4.166344762691025e-06	-3.1082948303890503e-06	-2.1486893678230326e-06	1.7760391875149822e-05	-1.118043306113634e-05	6.377883389688545e-06	-1.590974987835034e-05	2.8383850668442983e-06	1.3139783444218134e-05	0.0012042130270181113	0.0002909990968732023	6.025212683046218e-05	1.367907972401888e-05	4.758559102584431e-06	6.128256948505461e-08	-2.0767410203258167e-05	2.4385310178323664e-06	-1.793488770937123e-06	1.079211687412148e-05	-5.63814198050792e-07	-2.746304447527156e-06	3.842817373342468e-05	1.7754325463322654e-05	-3.920984601612715e-06	-4.187790515815811e-06	-1.3415168084386774e-05	3.5303065948864233e-06	2.638368277969256e-05	2.3122105987944874e-05	5.668378662123779e-06	1.7007280624936905e-05	3.0048908589355575e-06	4.629143678200819e-06	-2.526835671162934e-06	-7.963078135184525e-06	-4.8395095795639555e-06	8.188662580081584e-06	-5.7331262945686895e-06	-2.8656042649649767e-06	1.0042497504236737e-05	-1.4402022527481456e-07	-1.0795905875924641e-05	2.9602754493229496e-06	-8.416531550708711e-06	7.284691933718743e-06	3.393180359764619e-05	-6.58072229299242e-07	1.2646416132045544e-05	1.4894929958846268e-06	-5.918392933840359e-06	2.6173957002543883e-06	-4.417739528972316e-08	0.00017214738112668072	4.992912446094821e-05	-1.8552191914468957e-06	4.039758724639573e-06	-4.206330189978766e-06	6.24482222132926e-06	-3.436978778977473e-06	8.681146487404421e-06	6.729904839010911e-06	3.4816585301712194e-06	-2.4549585266100068e-06	1.8004076521874746e-05	5.73542871990436e-06	1.505375463355956e-06	1.1796708046374705e-06	-4.138517338581357e-06	7.145436363720846e-06	0.0003064235099108267	0.00012533437656731412	2.2343663565810968e-05	9.968244979178548e-06	5.1002640871515934e-06	-6.081740358997336e-06	-2.54838689453233e-06	-5.884979710685511e-06	1.3996358800608927e-05	1.2606394431622435e-06	-8.084497022334184e-07	-3.964787152147537e-06	-3.7828418628793744e-06	-2.9520414056938233e-06	-5.381931242426851e-06	3.1077574875690932e-06	-7.420161985581164e-06	-1.311437853418092e-06	5.0640949994826826e-05	9.235397456102358e-05	1.049504333017504e-05	2.3576542935933523e-05	-1.5910458277648724e-06	-3.743938915211713e-06	-8.216319070975638e-06	-3.227785698956169e-06	-1.1977038999251186e-06	8.6653396171306e-06	-1.342656713724463e-06	-2.8297413510123556e-06	-9.668287543500594e-07	1.4069721544674777e-06	-2.0722869906918888e-06	-2.208075561860464e-06	-3.4600877837166944e-06	-9.752844474695233e-07	-2.208230466859797e-07	-1.4005199510303562e-06	-7.95048061994855e-07	-5.813327716958884e-07	0.0	0.0	0.0	0.0	0.0	0.0	0.0	0.0	0.0	0.0	0.0	0.0	0.0	0.0	0.0	0.0	0.0	0.0	0.0	0.0	0.0	0.0	0.0	0.0	0.0	0.0	0.0	0.0	0.0	0.0	0.0	0.0	0.0	0.0	0.0	0.0	0.0	0.0	0.0	0.0	0.0	0.0	0.0	0.0	0.0	0.0	0.0	7.59790500174457e-07	0.0	0.0	0.0	0.0	0.0	0.0	0.0	0.0	0.0	0.0	0.0	-6.54897758724517e-07	0.0	0.0	0.0	0.0	0.0	0.0	0.0	0.0	0.0	0.0	0.0	0.0	0.0	0.0	5000.0	P1
P1_SQ4_10000	0.0	-0.004154785161927641	-0.00015086311031587319	-2.8064649132244736e-05	-7.539121306374063e-07	0.0	-6.784103893785387e-07	-6.491791421197306e-06	0.0	-4.6530534109503406e-08	9.446201520861315e-07	1.6029464521461181e-06	-0.0009038499980220553	-0.0007436956001358212	-0.0012626306714983338	-0.0009065321403379442	-8.642902165198674e-05	-5.505469414752878e-05	0.00012067550222873906	0.0004661347723305259	-7.038003208448148e-07	-2.356262725431659e-06	-9.0414384443953e-07	-0.006759490441349958	-0.00030874298375371486	-0.0006383126477615131	-0.003376561098808264	0.008343287575750258	-0.015768078974278447	0.010572563237540397	-0.00025435948418991213	0.003286986690187418	0.00010093288910527262	2.916978162228956e-05	-8.569094569642223e-07	7.353501462030221e-06	-0.00018481386483606751	-0.0029076841480064485	-0.0032526696810713483	-0.004640426954151053	0.0003574307528737414	0.024893480457727296	0.0029862255746672603	0.01900831430538938	0.0006818120142787383	-0.025767678046760698	-0.0014950364562377515	-0.001603294633211368	-6.0765791402462015e-05	-0.0010179358324667624	-0.008700308994374807	-0.009655762237523478	-0.001680281785849837	-0.00032317564690861195	0.0006269123216385546	0.01671413093003564	0.0015206072655859684	0.006180405803880004	0.0011197582077133996	0.0004509679769534691	-6.788663102221828e-05	0.0002643494750212	-0.008742964280426068	-0.013454422966856259	-0.0019080589399724226	0.001727089174692005	-0.00023410286683329604	0.003206893680827938	0.0008376174507093376	0.004929364252794208	0.000569437903812222	0.0012478148687191763	-0.0014027448948173247	-0.0010911991243559458	-0.00998543693221982	-0.00855586470927181	-0.0026067430379912437	0.000951760970816791	0.0005795065867990421	0.002708787761722113	0.0005906964717318549	0.002471704356209834	0.0006152978632823322	0.0011885457769745802	7.412831751037467e-05	-0.0014449558884001802	-0.007196701893645863	-0.005784079538094008	-0.0025316224643559537	-0.003323763143730462	-0.0009870193209843402	0.00443790022468896	0.000497452428258523	0.0007332899227480176	0.0004074180691683643	0.0015134230300710002	0.00017778728842843066	-0.00017175273003876973	-0.006869613422700891	-0.003808937039632729	-0.0011018895268309183	-0.0014465894031153777	-0.0007850934086519453	0.001313211997496129	0.0009057941297907733	0.00013399539522552205	-2.239553429346573e-05	0.0005659479768348654	8.743883220470555e-05	-0.0008283389504347024	-0.004368961514094288	-0.003123926585106388	-0.0005628204277445391	-0.0011812663320034502	-0.0007580365868939739	0.0009088231107660348	0.00035118056651568114	0.0005463632977259925	0.00021782820828543294	0.0005243757485487873	-4.019817119090387e-05	0.0019372519835895163	-0.00395405128357305	-0.0017357207594975587	-0.000425629479862714	-0.0008372054467271578	-0.0017118530975803433	-0.000353174072819761	0.0011971003846202744	0.0013623439894118175	0.0004000561055185971	0.0007013752000668014	-0.00012251991906918856	-0.0008249244092604262	-0.0023903514876216924	-0.001210725691410346	-0.0001696315499797005	-0.0009153782620646505	-0.0006171788387810476	-0.002267059365156366	-0.0004874961920073408	0.0005576490963379163	0.00031086964696819025	0.0002547317057256459	0.00014168270029856975	0.0003687010093041403	-0.0009710657656072461	0.0004769548013836139	-0.0002346538277153981	-0.0007350829761103854	-0.0027827498102853954	-0.0022272356000103306	-0.0016115919636637754	0.00018625694895488785	0.00016680561442084765	0.0004462021026478799	0.00011887743529648536	2.4065388972392687e-08	-0.0009521806227228717	-0.0003777091038207963	1.7564241645887622e-05	-0.0007166498969322359	-0.0012422599914777928	-0.00018995794444266918	-0.0012715081649276707	-0.0009679394895408212	-0.00018833912629382375	5.038163263032373e-05	-0.0001285141881779419	4.52183513566459e-05	-0.0007655098283530983	0.00025582101194637926	9.396323157453187e-05	-5.9345408931274404e-05	-0.0019145016654484289	-0.0011104733049172768	-0.0020988104293918636	-0.0007327339778805866	-0.0002617884314779686	-4.334806864839634e-06	-6.934957392246469e-05	0.0003355752254107455	-0.0004428011339532218	6.883121735178294e-05	3.3714777568488014e-05	-0.0007906221392919572	-0.0012432488075950338	-0.003223533015266754	-0.0012380758881015115	-0.0017449516535262416	-0.0004969747809819669	-6.030454595911533e-05	-0.00012877501934814247	1.5544579926199007e-05	-0.0002603500931129681	7.159714595817942e-05	-3.0309462035612526e-06	-0.00016267965780110557	-0.0015271144110585578	-0.0011818658101389297	-0.0028968108323874663	-0.0014848292162454853	-0.0015981534598579939	-0.0003624109136361722	-0.00010202664516106115	0.0014551702162491232	8.025257943318942e-05	0.0003778087314710754	-6.571967070495219e-05	-0.0005994147810299153	-0.000772430429690738	-0.0023596158228043323	-0.0010330806997054702	-0.0022324936346551456	-0.0005926114608595014	-0.0006627290303293483	-0.00023099601689242357	-2.253898398960378e-05	-0.00014947100860258504	-2.8176243242771827e-06	-5.5737670310771826e-05	-0.00029897802471581705	-0.0014997197290059594	-0.00034786586964918355	-0.0028982536147890963	-0.0014456799270140806	-0.0022162020193401692	-0.000694145982701	-0.00040262218769046543	-0.0001289558486418954	-6.319280204366862e-05	0.00039178380184723893	0.00015907915098471173	-0.0003645242866796828	-0.0006069189927491185	-0.001777665931083102	-0.0012130068087907963	-0.0025119778177591858	-0.0009858862329938428	-0.0014953379002302823	-0.0004780145014738247	-4.103010311215711e-05	0.0001379753523370864	-1.288561639382576e-06	-9.802174562385557e-05	-0.00019270523680874562	-0.0009374984869924638	0.00015854902981744107	-0.0014843357399960309	-0.00038052973960911625	-0.0021546981237946135	-0.0006986442481762868	-0.0008689160337623881	-0.00026337153776499604	-0.00013135502214908415	7.403901726172604e-05	6.644709759413944e-05	-0.00036633372259385535	-0.00046405402657006975	-0.0016019003870251201	-0.0010189113044942392	-0.002305004219312917	-0.00098585180064152	-0.0015829027648054817	-0.0005268361918690682	0.0012358890485331874	-0.00016117888630185482	7.061132406025318e-05	-0.00013676843540865537	-0.00015553066692879216	-0.0006839467894262817	-0.0004843807197274709	-0.0014975905503591754	-0.0007159679543774807	-0.001854133385960988	-0.000702950654850965	-0.0011826827956905753	-0.0004023040398149838	-0.00021740164248630324	-9.905078864211997e-05	-0.0001030685615724352	-0.0003960072146597647	-0.0003350017862710755	-0.0008594587433212091	-0.0007222671173944229	-0.0017626314635787064	-0.0008578217636725802	-0.0016707350892001946	-0.0005536720149082915	-0.0006234325455209866	9.585973223841552e-05	0.0006140170777248571	-9.558241310445373e-05	-2.5428858795390028e-05	-0.0005608582414292835	-0.0004446919784141757	-0.0012673938223254613	-0.0006502089376096757	-0.0016267508756771297	-0.000660810873910029	-0.0012663493790530571	-0.0006170709762899315	-0.00043292582601433974	-0.0002594912032337722	-0.00011045727860624352	-0.00023556793920797138	-0.00014624000397062554	0.001016069688267663	-0.00031746123710153426	-0.0010015876754235675	-0.0006784099858194934	-0.0013516251886840048	-0.0006141499759596242	-0.0008374774577790888	-0.0003319507580391559	2.7196201472072155e-05	-0.00016037389150128168	-2.8185579072242755e-05	-0.0004975899577166769	-0.00031175247803699925	-0.0009739937747217872	-0.0005714007655020154	-0.0012668718225572362	-0.000607926134125792	-0.0010774075892192266	2.414002587468843e-05	-0.0004601660761486853	-0.00017216421041435503	-0.000126261345025599	-0.000245441528241331	-0.00018270718781865524	-0.0005064639363949982	-0.0003623270568121963	-0.0007572842730930938	-0.00040984833537045155	-0.0010341641244241031	-0.0005172465642602259	-0.0009167644769423799	-0.00043903180516489254	-0.00029490007398457515	-0.00020358981598290243	-0.00010997071739616844	-0.0002408274545202761	-0.00012104276909529735	-0.0006111855490747696	-0.0004144485678196658	-0.000898475007921202	-0.0005025324741859878	-0.000734189483245497	0.001547180114563373	-0.0004930968357932335	-3.497061516809599e-05	-0.00017545264379239823	-0.00017470101271774654	-0.00015437994372246387	-0.00033753910678462626	-0.00026018193690171545	-0.00047715372007525996	-0.00039775151438720184	-0.0008478885830027434	-0.000464025578361274	-0.0008191131371379444	-0.0003908794436673939	-0.0003913660383043549	-0.00022241832149253786	-0.00012777691667602325	-0.00011638782946820747	0.0003149271878698568	-0.0003760466655310069	-0.00018898077055826037	-0.0006658654699813144	-0.00031643753042584635	-0.0007421925927078316	-0.0003303232546406685	-0.00062207535970635	-0.0002521642720790965	-0.00020503680269150294	-0.00020495354950049834	-0.00013560560071212963	-0.000204390979147336	-0.00020055195114631775	-0.0004995320105988099	-0.00027287661368056315	-0.0006443053413142169	-0.00032796038519894996	-0.0005273926024987087	-0.0003236957459160151	-0.0003896672686701501	-0.0002464183791845825	-0.00015985648979194902	-0.0001806848727795829	1.035407680751463e-05	0.00020476998024982537	0.00016905234619992056	-0.0004207957110107951	-0.0002455126243281348	-0.0005972190133448628	-0.00030427914501294205	-0.0005220732825205136	-0.0003033941216014053	-0.00018440989029284678	-0.00017649597395634015	-0.00011746757151901688	-0.00016087381353460537	-0.00016024051781167312	-0.00040285325614656826	-0.00021097920559434165	-0.0004277223804978712	-7.40162418705378e-05	0.0009856937863062347	-0.00024164277278585443	-0.0003416881824298422	-0.0002206503680858399	-0.00016615264371921918	-0.0001857996077681925	-0.00011166897050673838	-0.00022413946069534167	0.00011131526401983059	-0.00033680385962839933	-0.00019683108400717073	-0.0004621833525635592	-0.0002189602626320251	-0.000490235762975238	-0.00028937878714585313	-0.00024097531951307113	-0.00013790521687734292	-7.714016852186797e-05	-1.003823762648487e-05	-8.404792529830162e-05	-0.0001432174664214884	-0.0001551109903459795	-0.0003381511546489171	-0.0002043594163218515	-0.0003587318004821366	-0.00015544097534561397	-0.00017445166002331557	-0.00017079489422556942	-0.00015136408270039473	-0.00014922427224930718	-0.00010090846407962423	-0.00016242414844028143	-8.478395044751185e-05	-0.0002479388795774759	-0.0001688802334909735	-0.00030533507855655823	-0.00016822104923534348	-0.00037595447292387846	-0.00020965834829892108	-0.00026367226649496407	-0.0001546431101790563	0.00046010948484691	0.0017451551543911509	-3.323185950479128e-05	-9.073456604381385e-05	-9.285980515584324e-05	-0.00021013973216878944	-0.0001348155055998782	-0.0003151788585494435	-0.0001385030868830835	-7.959754599382875e-05	-0.00017544968726032135	-0.00019962459191342357	-0.00012277056461341884	-7.584428234801355e-05	-0.00011076470461050274	-0.000104715178388497	-0.0001638205532455738	-7.774999874157962e-05	-0.00016407503645914356	-9.72218319302682e-05	-0.00022147628611151877	-0.00014653874151263573	-0.00022463774940172906	-0.00013254578620893059	-9.016541709042238e-05	-7.274655230773768e-05	-8.60480477900588e-05	-0.00011101020209047609	-7.185984206868943e-05	-0.00014950239762648833	-8.850222196882449e-05	-0.00021206669115055265	-0.00014601201907586084	-0.00023815354663130452	-0.00013851114861227663	-0.00015533668054556717	-4.674206292601461e-05	-5.80579002615086e-05	-0.00010125664409609109	-5.9371527183765295e-05	-0.00011505201501345018	-7.907126355854877e-05	-0.00013821767888692063	1.965427454604261e-05	7.842979202328211e-05	1.175201673473238e-06	-0.00013814635183167912	-0.00010375880890799448	-0.00012278284593756177	-0.00010850332907847061	-7.058722843336384e-05	-9.619710251845934e-05	-4.01788561747236e-05	-0.00011130454370837317	-6.93380695942829e-05	-0.00014847338300899614	-0.00010710330799930352	-0.00020722515589901674	-0.00010733763642715798	-0.0001345211245218795	0.0001357406004238921	0.000794773540183718	-8.035670676887597e-05	-1.1869067959045093e-05	-8.070315667359616e-05	-2.311193591109323e-05	-0.00010828611758059976	-6.49050887404481e-05	-0.00012607256347780244	5.9861090188666026e-05	-0.00015849597800625804	-0.00010063934238989719	-6.95373814441749e-05	-6.362013158784491e-05	-6.829562209426786e-05	-7.30327514407856e-05	-6.177310843635498e-05	-8.558342008098996e-05	5.059659277153539e-05	-8.74875869465489e-07	-6.420918223917587e-05	-9.384011336039408e-05	-7.1903117426212e-05	-0.0001080864009826403	-7.957116601009634e-05	-7.975975277156993e-05	-3.226727610715436e-05	-7.781562796376179e-06	-4.0170114422504095e-05	-3.994645851639026e-05	-7.705151954183308e-05	-5.703705514175403e-05	-0.00011903620650761808	-6.613873758363602e-05	-0.00011559885155245478	-7.49144442623239e-05	-8.30170305182598e-05	-6.305567896331299e-05	-5.230360097803588e-05	-6.913316809096633e-05	-3.2385723109905676e-05	-5.3189064643998794e-05	0.0005323850482453695	0.0010972715623420214	-2.7454208937347565e-06	-3.774234995117758e-05	-5.012967082750866e-05	-7.360465458080946e-05	-7.173170575377699e-05	-7.888557581552092e-05	4.178783309916368e-05	8.787193129832893e-05	-4.253345212358771e-05	-1.9095165567664687e-05	-3.760787528288924e-05	-3.7648746582203234e-05	-7.300446650047129e-05	-5.68274148966985e-05	-8.955608748613958e-05	-4.752496260476997e-05	-3.284526986908529e-05	-1.1657545682682946e-05	-3.901748681425931e-05	-4.844621217775467e-05	-2.2912270669699368e-05	-4.0324818226846116e-05	-9.869247725479964e-06	-5.8798870337432104e-05	-2.7405274540656714e-05	-4.480640339876569e-05	-3.2767840130157194e-05	-7.684486557852602e-05	-4.586903166362873e-05	-4.8209301551229366e-05	-3.1352730415784314e-05	-2.8536831859974065e-05	-4.6288645323960055e-05	-2.220903533564827e-05	-2.5189004316934728e-05	-4.017029246634708e-05	-5.270441499781488e-05	-4.4613979817233196e-05	-5.131855909759195e-05	-2.8465183658058873e-05	-6.328097279201149e-05	0.00010635166446076763	0.00013029863228873465	6.795971827519543e-05	1.276696074951672e-06	-5.713969896918331e-06	-3.7669629547953747e-06	-2.880753472181881e-05	-2.8397695239223023e-05	-4.0794846736137277e-05	-9.285169375083122e-06	-5.393788647696911e-05	-2.546953434200716e-05	-3.977455950243439e-05	-5.114039115364467e-05	-4.406207962689794e-05	-1.2219542954198013e-05	-2.8316344620877806e-06	0.0002599056842445043	0.0005416799419943582	-9.271495367009334e-07	-8.104211459373709e-06	-1.5059269191767692e-05	-3.575751555423578e-05	-4.6027210757261075e-05	-3.0368677032632815e-05	-1.2615843007183374e-05	5.5694459343053895e-05	-2.8362957924928057e-06	-2.7063031804344404e-05	-9.07599513320684e-09	-1.1669696403902467e-05	-2.1116679284395842e-05	-3.4545553696859753e-05	-8.588972431888004e-06	-3.017061561663947e-05	9.517790200513963e-05	1.7337952526204532e-05	6.456464373936094e-06	-1.7065579589678226e-05	-3.585860726000741e-06	-2.7844776485403102e-05	-2.283048686933666e-05	-2.0482735815058472e-05	-8.805973728285253e-06	3.172817479455374e-06	9.953982750151674e-06	-4.158560816588586e-06	-8.456711416988092e-06	-4.187458681421207e-05	-3.203585838557577e-05	-2.6275558813069916e-05	-1.657726706944665e-05	-3.213488884765276e-05	2.483854431367357e-06	-2.1346566372964623e-05	-1.8137380520303966e-05	-1.0315176096139825e-05	1.571967389937618e-05	-2.0988578542770517e-05	0.0013352480265343262	-1.1193283261680224e-05	5.84907557414505e-05	7.458542722632713e-06	-7.354708307655744e-06	-1.4112746174658347e-05	-2.831884914530802e-05	1.434326440868735e-06	7.27941944401013e-05	4.028654939324994e-05	-2.28455652233736e-05	-3.509109857639624e-06	-1.1340896195241942e-05	-1.4033932721627126e-05	-2.911570537788823e-05	-3.468523161849043e-05	-2.633551613600053e-07	-3.2079575178176845e-05	2.767975764884678e-05	1.8203055724316493e-06	1.744534043512461e-05	-1.645237355305391e-05	-1.1709091177984927e-05	-3.498106348375288e-05	8.001454054662907e-06	-8.909507547390203e-06	-1.9356924904625865e-05	-2.413804316783406e-05	-1.2016393336800415e-05	-1.9744829285216648e-05	-1.7574136665662827e-06	-1.569165561739495e-05	2.1944786301119707e-06	-1.757980739094329e-05	1.330748994610887e-05	-1.9435024810612562e-05	2.236474600852929e-05	-1.2110179654328758e-05	-1.5523375820945877e-05	-1.4099648725905705e-05	5.0387217248236914e-06	-1.069433144892083e-05	-1.1499594841577463e-06	0.00014516787202485302	5.5052469882268715e-05	1.3825481917342075e-05	-4.284784503891145e-06	8.36433643916623e-07	-9.427205473139564e-06	-1.5911018473182515e-05	-1.140972798019865e-06	1.3402621515956896e-05	-6.821120753364022e-07	-7.533382084626197e-06	-3.871505908548402e-06	-1.6737110388882862e-06	-3.916832109253349e-06	-1.578068940390411e-05	-4.805013387446742e-06	-1.1731763878978138e-05	0.0005719120293415361	-4.704971378902156e-05	3.752407814497049e-05	-9.162604656644203e-06	-8.089352840971416e-07	-1.0146221069885089e-05	-1.1368570338651188e-05	-1.7093462911337714e-05	5.2224948196030936e-05	1.5120324167979045e-05	-3.704887638446744e-06	-8.937906561614033e-06	1.085320661378626e-05	-1.0380348375686486e-05	-1.2714918796231413e-05	-1.0146786185179926e-05	-5.41581964729886e-07	-7.120082675409338e-06	0.00013560920093188893	-1.4292329066616381e-05	5.93684441985129e-05	-1.090540117106931e-05	-1.3797777263996807e-06	-5.39215656987083e-06	-8.547174856865367e-06	-1.213150238639483e-05	2.1540030907758314e-05	3.4801107984845235e-06	1.651879775993181e-05	-5.801746249929507e-06	-1.2114726578313763e-05	-9.386674910328702e-06	1.5500064436245887e-06	-1.2559478949680371e-06	6.675204812430714e-06	1.8561500922016446e-06	2.1643824097335846e-05	-1.1749371489279719e-05	-5.871024175644842e-06	-1.872283045771071e-05	1.4049009391023929e-05	1.3738670431375898e-05	0.0009472306540983916	-0.0001437843427751648	5.344789856204162e-05	-2.15395615228418e-05	-1.0242083797845102e-05	-8.47857434966096e-06	8.33405425597835e-07	-8.233592845714883e-06	0.00010298675622165239	8.005316409010065e-06	-4.813941857497047e-06	-2.137097465637947e-06	3.032115352938251e-05	-6.109136287195497e-07	-2.0013447446664396e-05	-1.185657455967172e-05	-3.971338062796527e-06	-3.0744935642588447e-06	3.681882479265557e-05	1.0783506490673304e-05	-3.3886122954901096e-06	4.898644090017228e-06	1.140105939827812e-06	5.209353678282764e-06	2.1652276383100368e-05	-6.45347382446608e-06	-8.91592755806572e-07	1.9500839204896302e-06	2.565663414902054e-06	-2.9554496598465835e-06	4.668849048375474e-06	2.992292667041509e-07	8.023906991754787e-06	-8.104679281698435e-06	-6.712616906433292e-06	3.9096958422325275e-06	2.037888186131512e-05	-7.6816824404377e-06	-6.5364770981267455e-06	-8.452201537463126e-06	1.3070719021551807e-05	5.35917979742753e-06	6.849760366309956e-06	0.00010697895006512144	4.352140210053782e-05	-4.840004092473872e-06	-2.0910585955880484e-06	-1.321112050356037e-06	5.225448791624826e-06	-3.246155493784741e-06	1.4138727684637908e-07	7.926440751778836e-06	-1.4092992484080895e-06	-8.878759263775189e-07	1.1114594558617023e-05	-2.5784032329674578e-06	-1.4335042747615029e-05	1.5392951131395192e-06	-4.848121636140035e-06	-5.915139899238136e-06	0.000313246664212406	-4.451951307174657e-05	3.0205233553324548e-05	-4.609476773786083e-06	1.7542606950429527e-06	-2.4364729006212485e-06	-5.4696460398500034e-06	3.717134467399426e-07	2.8521099384175633e-05	-1.973663277660954e-06	-3.6174157313715856e-07	-5.1461726033482735e-06	5.360651045389132e-07	-4.976109132836304e-06	-7.179362638646772e-06	-1.1606175031947642e-06	-1.1345962289602935e-06	-5.187123085379013e-06	4.13271874792024e-05	-5.820688845996976e-06	6.892379721474344e-06	-7.45031961683066e-06	-5.297476332662086e-06	-1.527452203258421e-07	-2.4350824863351684e-06	-5.16569307083066e-06	-3.8091637829131778e-06	6.807155462681741e-06	-2.4323636682095836e-08	-3.672609074137708e-06	-1.7808900045369775e-06	-2.1302251638106565e-06	-2.0722869906918888e-06	-1.0013988053655435e-06	-3.4600877837166944e-06	3.718752683871661e-07	4.5275733354688846e-07	-1.4005199510303562e-06	-7.95048061994855e-07	-5.813327716958884e-07	0.0	0.0	0.0	0.0	0.0	0.0	0.0	0.0	0.0	0.0	0.0	0.0	0.0	0.0	0.0	0.0	0.0	0.0	0.0	0.0	0.0	0.0	0.0	0.0	0.0	0.0	0.0	0.0	0.0	0.0	0.0	0.0	0.0	0.0	0.0	0.0	0.0	0.0	0.0	0.0	0.0	0.0	0.0	0.0	0.0	0.0	0.0	-5.427075001246121e-08	0.0	0.0	0.0	0.0	0.0	0.0	0.0	0.0	0.0	0.0	0.0	-6.54897758724517e-07	0.0	0.0	0.0	0.0	0.0	0.0	0.0	0.0	0.0	0.0	0.0	0.0	0.0	0.0	10000.0	P1
