	m0.000	m1.000	m2.000	m3.000	m4.000	m5.000	m6.000	m7.000	m8.000	m9.000	m10.000	m11.000	m12.000	m13.000	m14.000	m15.000	m16.000	m17.000	m18.000	m19.000	m20.000	m21.000	m22.000	m23.000	m24.000	m25.000	m26.000	m27.000	m28.000	m29.000	m30.000	m31.000	m32.000	m33.000	m34.000	m35.000	m36.000	m37.000	m38.000	m39.000	m40.000	m41.000	m42.000	m43.000	m44.000	m45.000	m46.000	m47.000	m48.000	m49.000	m50.000	m51.000	m52.000	m53.000	m54.000	m55.000	m56.000	m57.000	m58.000	m59.000	m60.000	m61.000	m62.000	m63.000	m64.000	m65.000	m66.000	m67.000	m68.000	m69.000	m70.000	m71.000	m72.000	m73.000	m74.000	m75.000	m76.000	m77.000	m78.000	m79.000	m80.000	m81.000	m82.000	m83.000	m84.000	m85.000	m86.000	m87.000	m88.000	m89.000	m90.000	m91.000	m92.000	m93.000	m94.000	m95.000	m96.000	m97.000	m98.000	m99.000	m100.000	m101.000	m102.000	m103.000	m104.000	m105.000	m106.000	m107.000	m108.000	m109.000	m110.000	m111.000	m112.000	m113.000	m114.000	m115.000	m116.000	m117.000	m118.000	m119.000	m120.000	m121.000	m122.000	m123.000	m124.000	m125.000	m126.000	m127.000	m128.000	m129.000	m130.000	m131.000	m132.000	m133.000	m134.000	m135.000	m136.000	m137.000	m138.000	m139.000	m140.000	m141.000	m142.000	m143.000	m144.000	m145.000	m146.000	m147.000	m148.000	m149.000	m150.000	m151.000	m152.000	m153.000	m154.000	m155.000	m156.000	m157.000	m158.000	m159.000	m160.000	m161.000	m162.000	m163.000	m164.000	m165.000	m166.000	m167.000	m168.000	m169.000	m170.000	m171.000	m172.000	m173.000	m174.000	m175.000	m176.000	m177.000	m178.000	m179.000	m180.000	m181.000	m182.000	m183.000	m184.000	m185.000	m186.000	m187.000	m188.000	m189.000	m190.000	m191.000	m192.000	m193.000	m194.000	m195.000	m196.000	m197.000	m198.000	m199.000	m200.000	m201.000	m202.000	m203.000	m204.000	m205.000	m206.000	m207.000	m208.000	m209.000	m210.000	m211.000	m212.000	m213.000	m214.000	m215.000	m216.000	m217.000	m218.000	m219.000	m220.000	m221.000	m222.000	m223.000	m224.000	m225.000	m226.000	m227.000	m228.000	m229.000	m230.000	m231.000	m232.000	m233.000	m234.000	m235.000	m236.000	m237.000	m238.000	m239.000	m240.000	m241.000	m242.000	m243.000	m244.000	m245.000	m246.000	m247.000	m248.000	m249.000	m250.000	m251.000	m252.000	m253.000	m254.000	m255.000	m256.000	m257.000	m258.000	m259.000	m260.000	m261.000	m262.000	m263.000	m264.000	m265.000	m266.000	m267.000	m268.000	m269.000	m270.000	m271.000	m272.000	m273.000	m274.000	m275.000	m276.000	m277.000	m278.000	m279.000	m280.000	m281.000	m282.000	m283.000	m284.000	m285.000	m286.000	m287.000	m288.000	m289.000	m290.000	m291.000	m292.000	m293.000	m294.000	m295.000	m296.000	m297.000	m298.000	m299.000	m300.000	m301.000	m302.000	m303.000	m304.000	m305.000	m306.000	m307.000	m308.000	m309.000	m310.000	m311.000	m312.000	m313.000	m314.000	m315.000	m316.000	m317.000	m318.000	m319.000	m320.000	m321.000	m322.000	m323.000	m324.000	m325.000	m326.000	m327.000	m328.000	m329.000	m330.000	m331.000	m332.000	m333.000	m334.000	m335.000	m336.000	m337.000	m338.000	m339.000	m340.000	m341.000	m342.000	m343.000	m344.000	m345.000	m346.000	m347.000	m348.000	m349.000	m350.000	m351.000	m352.000	m353.000	m354.000	m355.000	m356.000	m357.000	m358.000	m359.000	m360.000	m361.000	m362.000	m363.000	m364.000	m365.000	m366.000	m367.000	m368.000	m369.000	m370.000	m371.000	m372.000	m373.000	m374.000	m375.000	m376.000	m377.000	m378.000	m379.000	m380.000	m381.000	m382.000	m383.000	m384.000	m385.000	m386.000	m387.000	m388.000	m389.000	m390.000	m391.000	m392.000	m393.000	m394.000	m395.000	m396.000	m397.000	m398.000	m399.000	m400.000	m401.000	m402.000	m403.000	m404.000	m405.000	m406.000	m407.000	m408.000	m409.000	m410.000	m411.000	m412.000	m413.000	m414.000	m415.000	m416.000	m417.000	m418.000	m419.000	m420.000	m421.000	m422.000	m423.000	m424.000	m425.000	m426.000	m427.000	m428.000	m429.000	m430.000	m431.000	m432.000	m433.000	m434.000	m435.000	m436.000	m437.000	m438.000	m439.000	m440.000	m441.000	m442.000	m443.000	m444.000	m445.000	m446.000	m447.000	m448.000	m449.000	m450.000	m451.000	m452.000	m453.000	m454.000	m455.000	m456.000	m457.000	m458.000	m459.000	m460.000	m461.000	m462.000	m463.000	m464.000	m465.000	m466.000	m467.000	m468.000	m469.000	m470.000	m471.000	m472.000	m473.000	m474.000	m475.000	m476.000	m477.000	m478.000	m479.000	m480.000	m481.000	m482.000	m483.000	m484.000	m485.000	m486.000	m487.000	m488.000	m489.000	m490.000	m491.000	m492.000	m493.000	m494.000	m495.000	m496.000	m497.000	m498.000	m499.000	m500.000	m501.000	m502.000	m503.000	m504.000	m505.000	m506.000	m507.000	m508.000	m509.000	m510.000	m511.000	m512.000	m513.000	m514.000	m515.000	m516.000	m517.000	m518.000	m519.000	m520.000	m521.000	m522.000	m523.000	m524.000	m525.000	m526.000	m527.000	m528.000	m529.000	m530.000	m531.000	m532.000	m533.000	m534.000	m535.000	m536.000	m537.000	m538.000	m539.000	m540.000	m541.000	m542.000	m543.000	m544.000	m545.000	m546.000	m547.000	m548.000	m549.000	m550.000	m551.000	m552.000	m553.000	m554.000	m555.000	m556.000	m557.000	m558.000	m559.000	m560.000	m561.000	m562.000	m563.000	m564.000	m565.000	m566.000	m567.000	m568.000	m569.000	m570.000	m571.000	m572.000	m573.000	m574.000	m575.000	m576.000	m577.000	m578.000	m579.000	m580.000	m581.000	m582.000	m583.000	m584.000	m585.000	m586.000	m587.000	m588.000	m589.000	m590.000	m591.000	m592.000	m593.000	m594.000	m595.000	m596.000	m597.000	m598.000	m599.000	m600.000	m601.000	m602.000	m603.000	m604.000	m605.000	m606.000	m607.000	m608.000	m609.000	m610.000	m611.000	m612.000	m613.000	m614.000	m615.000	m616.000	m617.000	m618.000	m619.000	m620.000	m621.000	m622.000	m623.000	m624.000	m625.000	m626.000	m627.000	m628.000	m629.000	m630.000	m631.000	m632.000	m633.000	m634.000	m635.000	m636.000	m637.000	m638.000	m639.000	m640.000	m641.000	m642.000	m643.000	m644.000	m645.000	m646.000	m647.000	m648.000	m649.000	m650.000	m651.000	m652.000	m653.000	m654.000	m655.000	m656.000	m657.000	m658.000	m659.000	m660.000	m661.000	m662.000	m663.000	m664.000	m665.000	m666.000	m667.000	m668.000	m669.000	m670.000	m671.000	m672.000	m673.000	m674.000	m675.000	m676.000	m677.000	m678.000	m679.000	m680.000	m681.000	m682.000	m683.000	m684.000	m685.000	m686.000	m687.000	m688.000	m689.000	m690.000	m691.000	m692.000	m693.000	m694.000	m695.000	m696.000	m697.000	m698.000	m699.000	m700.000	m701.000	m702.000	m703.000	m704.000	m705.000	m706.000	m707.000	m708.000	m709.000	m710.000	m711.000	m712.000	m713.000	m714.000	m715.000	m716.000	m717.000	m718.000	m719.000	m720.000	m721.000	m722.000	m723.000	m724.000	m725.000	m726.000	m727.000	m728.000	m729.000	m730.000	m731.000	m732.000	m733.000	m734.000	m735.000	m736.000	m737.000	m738.000	m739.000	m740.000	m741.000	m742.000	m743.000	m744.000	m745.000	m746.000	m747.000	m748.000	m749.000	m750.000	m751.000	m752.000	m753.000	m754.000	m755.000	m756.000	m757.000	m758.000	m759.000	m760.000	m761.000	m762.000	m763.000	m764.000	m765.000	m766.000	m767.000	m768.000	m769.000	m770.000	m771.000	m772.000	m773.000	m774.000	m775.000	m776.000	m777.000	m778.000	m779.000	m780.000	m781.000	m782.000	m783.000	m784.000	m785.000	m786.000	m787.000	m788.000	m789.000	m790.000	m791.000	m792.000	m793.000	m794.000	m795.000	m796.000	m797.000	m798.000	m799.000	m800.000	m801.000	m802.000	m803.000	m804.000	m805.000	m806.000	m807.000	m808.000	m809.000	m810.000	m811.000	m812.000	m813.000	m814.000	m815.000	m816.000	m817.000	m818.000	m819.000	m820.000	m821.000	m822.000	m823.000	m824.000	m825.000	m826.000	m827.000	m828.000	m829.000	m830.000	m831.000	m832.000	m833.000	m834.000	m835.000	m836.000	m837.000	m838.000	m839.000	m840.000	m841.000	m842.000	m843.000	m844.000	m845.000	m846.000	m847.000	m848.000	m849.000	m850.000	m851.000	m852.000	m853.000	m854.000	m855.000	m856.000	m857.000	m858.000	m859.000	m860.000	m861.000	m862.000	m863.000	m864.000	m865.000	m866.000	m867.000	m868.000	m869.000	m870.000	m871.000	m872.000	m873.000	m874.000	m875.000	m876.000	m877.000	m878.000	m879.000	m880.000	m881.000	m882.000	m883.000	m884.000	m885.000	m886.000	m887.000	m888.000	m889.000	m890.000	m891.000	m892.000	m893.000	m894.000	m895.000	m896.000	m897.000	m898.000	m899.000	m900.000	m901.000	m902.000	m903.000	m904.000	m905.000	m906.000	m907.000	m908.000	m909.000	m910.000	m911.000	m912.000	m913.000	m914.000	m915.000	m916.000	m917.000	m918.000	m919.000	m920.000	m921.000	m922.000	m923.000	m924.000	m925.000	m926.000	m927.000	m928.000	m929.000	dose	pattern
P1_SQ1_r500	0.0	-0.026621373353395386	-0.004610856912132984	-0.0016554747048418417	-0.0005208279637397146	0.0	0.0013021264703640878	0.0029532718593469993	0.0	-8.451453535700041e-05	0.0007804151670028855	0.0016626546334506083	-0.014845830285980598	-0.010545981133667927	-0.01109571395928724	-0.00887357516213752	-0.004090371044554533	-0.002806097955059865	0.0014777685220503933	0.004269947001881616	0.0009811161205869764	-0.001002910331510681	0.00025839925843047264	0.22509015331408538	0.038967574348667045	-0.006448063271865284	-0.02110931716983039	0.054013430231395265	-0.030595794828091327	0.0343768119830829	-0.001338285689734528	-0.017606745156074938	-0.001982190339415737	0.0004351063383368492	0.0012976919574327478	0.0006338550811194228	-0.006341967518009183	-0.029820169092472468	-0.03179609412168635	-0.04308753693577477	-0.005621012125672981	0.05052879407976307	0.02067265005283564	0.04651610249852056	0.0004679534745329894	-0.08557615781218603	-0.022722560998001545	-0.020912407833362227	-0.0025825993166133376	-0.016875878149466242	-0.060378508311321494	-0.08416942453685486	-0.027450140787418198	-0.0499375337732717	9.674355226707565e-05	0.02316032451168648	0.0181401918578753	0.0440411219296209	0.004160375174430325	0.005244288674584277	-0.002508366879235044	-0.0136377689170053	-0.06521438255840604	-0.09814828591031705	-0.03979200808198956	-0.04884122962398105	-0.027508851207962842	-0.009251737836925233	-0.0038121933287209864	-0.0045748814808307114	0.0035821806905143444	-0.005338207503428893	-0.021138703852260146	-0.004752758692212339	-0.07145081715537521	-0.07094059952636148	-0.03910689707233431	-0.05851288133552979	-0.03225825019368647	-0.027238438821645755	-0.011033301550822189	-0.008578301198172184	-0.0057330813870966335	-0.001026244179856181	-0.006686623684021981	-0.027709973916013028	-0.060923626638313924	-0.05296750640616227	-0.03568808533516453	-0.05192874735605223	-0.02605909731080261	-0.04260391732579044	-0.01830637924330676	-0.01696141308016748	-0.010011943973459538	-0.0135042266398014	-0.006032241868048661	-0.01733137460153942	-0.061122487809516596	-0.049633255992243566	-0.0240953454012236	-0.043323362409920047	-0.03514064689330822	-0.01843932685285808	-0.005141675231509699	-0.016412524375834292	-0.010578843685409171	-0.01462164660213551	-0.008642816017979435	-0.028573256956661984	-0.05021919808532548	-0.04561608410484328	-0.019772258985462428	-0.0305548685414007	-0.025399495125707876	-0.05933855110640304	-0.026879840510449074	-0.014853690109037254	-0.006287103373750685	-0.006631255991056989	-0.008571061700367193	-0.002957305906888641	-0.044840088247154165	-0.032120470298690994	-0.016472498749810344	-0.024345297654878015	-0.03902662269043543	-0.040598698374068876	-0.048320472536935596	-0.025739138758784252	-0.010621047400680289	-0.013199038758941226	-0.014539705047862853	-0.019808372638663453	-0.03306949083653022	-0.02328391349636503	-0.010770820695577776	-0.024771765646635302	-0.0214801573271197	-0.047320484206597804	-0.022865669764697366	-0.030706427224566943	-0.015367827813980217	-0.010765065182122814	-0.012578030421256485	-0.008609803849196213	-0.011990676536351746	-0.01365343132472889	-0.010529893992301323	-0.026575073556314277	-0.043952789280265095	-0.042356972537713415	-0.05100069959332172	-0.03208364062625549	-0.017141940669641684	-0.015919774548716292	-0.010482735231355629	-0.015000394242204694	-0.024611379800054928	-0.014960730574200075	-0.007762654690708463	-0.021376996875757066	-0.024584305562249872	-0.02189987986176395	-0.028907695454875953	-0.04545864212960231	-0.020853698146230386	-0.01421948550645518	-0.01159183016540924	-0.013674871653168781	-0.021645731375579277	-0.014273019980669543	-0.0038239880100594884	-0.01431922863722293	-0.03340278895110753	-0.022493148255895802	-0.038203502735628954	-0.02282495239990994	-0.02945735956378468	-0.016551080786241075	-0.010346238222993007	-0.00908618504084012	-0.015341105559783276	-0.014468340411063693	-0.008561413000447275	-0.02238991493935321	-0.025918263453214192	-0.04189030945173514	-0.015170738197379241	-0.038843829939816055	-0.021652042511613928	-0.01609413131406192	-0.011320111252245295	-0.0065597050634623524	-0.013103311901339957	-0.008872524228265725	-0.006291285707306124	-0.01469224127682902	-0.02781926351848457	-0.02543684413226297	-0.03951231301731925	-0.02950861512164736	-0.036657963081445304	-0.02170463668654868	-0.010651068514067281	0.013901860984999265	-0.00654865140941243	-0.00673443332722122	-0.008012856035709143	-0.017553197538048522	-0.020582074661443447	-0.03622081156738617	-0.023142886732284974	-0.03652461449194286	-0.024479449765071645	-0.026387824168438843	-0.014780642436454574	-0.007104027993767893	-0.008824921447205168	-0.006596808569610625	-0.006715786491434551	-0.010781525120981052	-0.02580986130151854	-0.017440933684049115	-0.03727619973853573	-0.02742842516286728	-0.03545927432628337	-0.02133939638933665	-0.01622326951726378	-0.012373401459604187	-0.009042051584888407	-0.0031048184232905437	-0.005210023134876188	-0.017414153183207166	-0.01659721210211104	-0.027206413224468692	-0.02327807287570702	-0.03269484105001867	-0.02102298562131784	-0.028620401086139148	-0.018172418149497868	-0.010261724298828455	-0.018726465560377523	-0.009341754497241332	-0.006911083734627805	-0.011073723494038377	-0.020452262831960628	0.005697458049308171	-0.021484073340127932	-0.021168121588027222	-0.03011327361913891	-0.0179976266641158	-0.019680131441005562	-0.014112043674314897	-0.009717987784773119	-0.009357520821205376	-0.008092141535966307	-0.017671055990367595	-0.013858788343108813	-0.027172326708715853	-0.021764930266588305	-0.03037713612382973	-0.02045899311801744	-0.026715520127314797	-0.015592787446965701	-0.00288639841080561	-0.008401928421730598	-0.005969203045828715	-0.008939551761767944	-0.011173958342278814	-0.018685642845624132	-0.01619654801273846	-0.026041154674445226	-0.022067940873378565	-0.027229431204444147	-0.019779624710372708	-0.022712853382106556	-0.012114983291183781	-0.008757128196622211	-0.007598956971105998	-0.006995139289466882	-0.012539354081292135	-0.01233570979397355	-0.021229172342201057	-0.01884848795346167	-0.027362130555290146	-0.01899487967159206	-0.02856120528226337	-0.01623874664648278	-0.017250378638980487	0.005140420140899216	-0.0058586045405535775	-0.008604410859709585	-0.010506203536217718	-0.015325796530265813	-0.012420651093578313	-0.02287406611386491	-0.01786725577553558	-0.02627541032866944	-0.020142273509846983	-0.022696146781451102	-0.015246361801248401	-0.012988032888513239	-0.009804523857485588	-0.007775271607582249	-0.011627977190314737	-0.007484976113957785	0.0020496328025678134	-0.013515128302867677	-0.02116840898958578	-0.017093377815340153	-0.025219349287400765	-0.015673970361333087	-0.01960322524540677	-0.013585743072785882	-0.011337383891350944	-0.0090140030135663	-0.009514012039611872	-0.013523410533772644	-0.010276259384718447	-0.019983574548982228	-0.014822712104854172	-0.02222550006436315	-0.01484297761145591	-0.020785537094477786	-0.009017946031808902	-0.013093983620264909	-0.009460570446563156	-0.00716730882619691	-0.010967797274621386	-0.009195102032762999	-0.015514199239710726	-0.0127325963179639	-0.019541182830504288	-0.015021107916157017	-0.023116036690075847	-0.014855685466650524	-0.017431951735189685	-0.012149725821221865	-0.010637999054464713	-0.009401076263106583	-0.007543732645225287	-0.011811889628863287	-0.009230033792310549	-0.016622665006673736	-0.01312462295287177	-0.019423051965440995	-0.013968206906690244	-0.021037104645497122	0.012643666755330074	-0.012673103802822813	-0.009297183577089377	-0.007769595882897329	-0.010808731505530227	-0.007865156826854753	-0.014129608484049476	-0.012065703252574562	-0.020359106946449795	-0.013701228055269719	-0.022097796761982154	-0.014582447097473583	-0.01970798590572398	-0.012698628414867175	-0.010546424446739169	-0.009123703306015578	-0.003588120452196964	-0.008489987285684678	-0.00510773184415713	-0.01351657997741769	-0.009123954902316357	-0.018890020457049468	-0.013330208713170085	-0.018420238194979864	-0.012334980235627471	-0.014989474686584531	-0.011692230408326652	-0.009753538060469902	-0.011084417696419699	-0.005789899991301542	-0.008353969851482644	-0.00931981090026051	-0.014642146819500337	-0.010155393105022514	-0.014796168086269715	-0.01347869773734358	-0.01531310396693971	-0.01225543622077252	-0.012174135974531305	-0.009306183692070456	-0.008145774584501005	-0.007535019529958366	0.0004314538979220753	0.00038827780824231273	-0.009895841372434128	-0.01449018888055175	-0.012100921935481027	-0.01747612838732265	-0.011676525783727035	-0.014506333309176122	-0.011801012535099572	-0.010844566034957304	-0.010171331166342397	-0.008962740210861991	-0.006881275269668995	-0.009542933791466588	-0.011511777481215665	-0.009773324632927238	-0.014272047571654737	-0.008728107487555169	-0.0014622274831001258	-0.010000988358360746	-0.011617699594271037	-0.009534442876787837	-0.0092894632225042	-0.008701661039805507	-0.008822185340176808	-0.010752754630112143	-0.010693072442524421	-0.012968837854318401	-0.009788748513298935	-0.01348615806459921	-0.008456183960510958	-0.014805278948720786	-0.010952897449788182	-0.009061477926952666	-0.005916055516133133	-0.00813856119892116	-0.007856873654474968	-0.006144964613735711	-0.009287271087948825	-0.009298222388839485	-0.012708718713052503	-0.009897160058052988	-0.012536082380704555	-0.008957295717639733	-0.012806875688999839	-0.011554516192850594	-0.01154965774226386	-0.007674121628017757	-0.005400864686425387	-0.008064162338702588	-0.00716008544258815	-0.010338766803853082	-0.009578149038490615	-0.014148493383373763	-0.010326634548743115	-0.012473966044068276	-0.009052145207265683	-0.01159290895645757	-0.009461331306751499	-0.004772727869074213	0.014610770549494084	-0.003950727708300093	-0.0038962064085631964	-0.0066209814860162496	-0.010438169368686051	-0.006964019409545094	-0.010557208580450297	-0.01034738616698528	-0.015048799378384336	-0.00979871060704567	-0.008718851780189045	-0.0076428719663242765	-0.0070072100243574464	-0.008397678611714803	-0.00656771468664424	-0.007921939286924676	-0.0033145426153284585	-0.007961627675442989	-0.004774353671516435	-0.010937616354678034	-0.00948794283001371	-0.010668676963010923	-0.007569324352272713	-0.006954666903067229	-0.006519803554308146	-0.006597671673057276	-0.007478206389587853	-0.005068238725287538	-0.008152383550862171	-0.006301500187066829	-0.006814560191041454	-0.007784249661577045	-0.010756012442413844	-0.007165213617943445	-0.008457350860811102	-0.007727105364025065	-0.00649514368601873	-0.005902992764289641	-0.005229302241117551	-0.00702995140065062	-0.007117971305699269	-0.008619759206572711	0.0010563866464439117	-0.004791992166677299	-0.0079857265253684	-0.00876252996208569	-0.007295196961814614	-0.006124756162095834	-0.0059946596129446025	-0.005931906624268755	-0.005514802904609678	-0.005076170148173947	-0.0072475569439082455	-0.008529356121626414	-0.007766388131137541	-0.005725287743874045	-0.007663888938932779	-0.00804200159874276	-0.005862208095987302	-0.0032644221991922837	0.002463576481546409	-0.005074117888257127	-0.0028005238158091313	-0.006893674338765813	-0.004413883095138677	-0.006854241530221336	-0.005665595736927332	-0.008281394435035705	-0.007327651623760319	-0.008712139849127207	-0.006971241972272271	-0.006263795098326922	-0.0038040374905166097	-0.006151880387574327	-0.006448333725013749	-0.00611236195871802	-0.005506405580255603	-0.005889914328663828	-0.006821287021588865	-0.007062484091093925	-0.006604200194020814	-0.006822939710972437	-0.007924116600183847	-0.006653940355599157	-0.006175420010720165	-0.006415962093134232	-0.004312755111387439	-0.00736602743341541	-0.00488135385707353	-0.007549176222142883	-0.00543909143536442	-0.007802306993796807	-0.006249975405246216	-0.007091482313211758	-0.005056484351507634	-0.006463476608445078	-0.004937577228384043	-0.005393446596300054	-0.004717645699469973	-0.005337126970890022	-0.006169608143644027	-0.0007078784694308504	0.012607417817107391	-0.004203928409167237	-0.0040471441098690955	-0.004844518254337293	-0.006411169299255472	-0.0071076652407480664	-0.005663226890397008	-0.007436715732540712	-0.00854605368989509	-0.004772903951282041	-0.005257773007248818	-0.0044973275896545255	-0.00369898881383943	-0.0064098837147016745	-0.0028112501724285657	-0.006166191179645449	-0.0015165977365515018	-0.0057307459816676246	-0.002943450712561378	-0.005148096596263661	-0.0045620908168040805	-0.003487865351837184	-0.00491968353079115	-0.004048735706985829	-0.007256610770560288	-0.0036893068713410547	-0.005530714827241623	-0.004544517417721756	-0.005107380480261041	-0.004119514707406204	-0.002544500083314208	-0.006212569144163054	-0.005183000640707763	-0.004890976777832923	-0.0026200626573068646	-0.005818170609240284	-0.003257192908753131	-0.004966511220353896	-0.00416277194959141	-0.0062636285529054005	-0.0048096378433122415	-0.004098262181756778	0.0031459158182954167	-0.0028388310361342206	-0.004560141003379935	-0.004637137618283382	-0.003853980081770467	-0.0040781070121053715	-0.004752858245331969	-0.003065618544048465	-0.0054923464731891185	-0.005291853709121197	-0.005679128733280001	-0.005944718810909588	-0.004904372356990691	-0.004029776393299661	-0.002138823479636419	-0.0041564726626281846	-0.001657695390222872	-0.0019134541725508852	0.004064420365877508	-0.0031544245746440505	-0.001736126802716998	-0.0053677311669921655	-0.004865914527323977	-0.006519075686510398	-0.0038763972075735124	-0.006115311709387436	-0.0050124938498551964	-0.0040988988359475995	-0.00432864475362529	-0.002129443244398996	-0.0026702639969660626	-0.0020958371986322076	-0.003465256117568861	-0.004598073021501524	-0.003097105517238215	-0.004788847353572028	-0.0033639331169907846	-0.0042224764753445235	-0.003028419649729379	-0.004880024160530639	-0.004526975531710525	-0.003766462299004453	-0.003077688052846042	-0.005595703888677351	-0.0020990958167792315	-0.005660484321709503	-0.003853904972898982	-0.0030285020629599105	-0.0034372406136381935	-0.004141565932227484	-0.0030895029123486246	-0.00410768862573936	-0.0022901240462636276	-0.003478529867899139	-0.0024507188425428802	-0.002977144898440899	-0.0030994141550651794	-0.002759727900967056	-0.002753743705696681	-0.0018322692826880094	0.018095083863765335	-0.002698543090201816	-0.0005270241829646929	-0.0024679481954056164	-0.003018989664767111	-0.0038717188070764574	-0.003899066100142087	-0.007345586577674744	-0.003428306939832513	-0.004007088877966266	-0.002447836991043095	-0.003247305990069005	-0.0016217550321357254	-0.003912271887618061	-0.002404473159593929	-0.001970332200087327	0.0010492657149389177	-0.0019256120578782857	-0.0022994582377922033	-0.0025103873003965126	-0.0013206785049942205	-0.002098474866057149	-0.004466893092870945	-0.0025690926634450995	-0.0031499399831451252	-0.001596217914643431	-0.00296827734083247	-0.0016627673975517076	-0.002219103408079936	-0.0009675812095307507	-0.002015263793470442	-0.0045478959374048895	-0.003313927483172125	-0.0032659834687624924	-0.0017125053895384497	-0.0038645057674410767	-0.0012392508493452858	-0.0022013857225861265	-0.002132214649655904	-0.003970776298877807	-0.0023168981292625117	-0.0016599592107280521	0.0014476852813621807	-0.0015515635463869241	-0.003356100657699264	-0.003817557490397798	-0.003952739815438885	-0.0031406587586612442	-0.002631987353592661	-0.0010101029512324892	-0.0036621385002763174	-0.0023818345005994015	-0.002524554005961091	-0.0034250575048851845	-0.001418487295050579	-0.0013446519063125238	-0.00027019121268219426	-0.002804566632723828	-0.0009289303971955383	-0.001999667837097499	0.006882076484661298	-0.0025732777102581254	-0.0002847324693676864	-0.002163462953094492	-0.0012168239702490362	-0.002591655814109646	-0.0038144319652209154	-0.003477085553968237	-0.002768215854305797	-0.002415312634698654	-0.0018674018656306829	-0.0006631084788113369	-0.0012145194481768522	-0.0025169315045890685	-0.002200231252305611	-0.0027157860009921556	-0.0021483465834642515	-0.004629920597128117	-0.0003825560773901525	-0.004094759816712843	-0.0008133367459349297	-0.002431041275215597	-0.0015845032494184105	-0.003377172995270846	-0.0008080617286379491	-0.0022987301884931644	-0.0020920622467910776	-0.003946460077472973	-0.002278286122138191	-0.0015149414581653031	-0.0025659104597724833	-0.0017376128182324188	-0.0019070498793843597	-0.003044389863988188	-0.001502465796275115	-0.0016334981749684067	-0.0031301372212009897	-0.0020877089563877457	-0.0008707651019595995	-0.002346106252008647	-0.0013941765803107808	0.007410026993718982	0.012040193998072178	0.0005638200099152731	0.0014877535135895074	-0.0019005671188458	-0.0010069854701983717	-0.0009638331147502066	-0.0008990380533749412	-0.006172474612071434	-0.001592681422703109	-0.003912014495226582	-0.0026906384943903554	-0.002251153078158397	-0.0008169229754053618	-0.0019208211299485533	-0.0005966855543073184	0.00048140752006330806	-0.0005164327927700448	-0.0014387765399790468	-0.0018199630882463694	-0.002748701083191021	-0.0013952929487339848	-0.001649482057893276	-0.002826180266726308	-0.0015357285329288834	-0.001269079011924244	-0.0016756193894440548	-0.0030287629400905106	-0.0020427663295157997	-0.0009083554733784107	-0.0006480887137895915	-0.0006617690113285331	-0.0008235925540876279	-0.00185436974057142	-0.0014854645766008458	-0.0017826959537941087	-0.0015377263629308118	-0.002898911255689006	-0.0019935432684243595	-0.0009032727977512107	-0.0018511179034009402	-0.0011763766965928787	0.0004777108475290306	0.001988518961235919	-0.0013275457555893266	-0.00045899622628097804	-0.0018500252233571487	-0.0011637370489937706	-3.225863660226945e-05	-0.0011996546355304795	-0.0008222578913228695	-0.002104680858186608	-0.00043941069137791444	-0.001258843183577425	-0.0022775403669204677	-0.0010976301362168673	0.00026354404156886217	-0.0002628802195096848	-0.0037672258951897833	0.0006229451260237398	0.0007513177375502375	0.0048956598459349715	-0.00184392102876264	0.0014715966765338172	-0.0015814024198067562	-0.0017581927576549097	-0.0014339296892051144	-0.0006999198256832963	-0.0023050025419562078	9.451221367707749e-05	-0.0013799390033267323	-0.0005063300641827539	0.0007743194304366376	-0.00020855512351950628	-0.001500738215409359	-0.0005357181176550343	-0.001064824977005178	-0.0002021523346975281	-0.004285334944578912	-0.00019793750549738226	-0.002285360987286212	-0.0011348651254930817	-0.0004361143645993	-0.0018972659588858357	-0.001302722401021548	-0.00018911846183142234	-0.00046114445225660296	-0.0013269024534498224	-0.0006380950468674804	-0.0011177411427762572	2.880874703795771e-05	-0.0009176993404258153	-0.0010805811308137563	-0.0007010984339497176	-0.0016721152282105653	0.0005074242920832403	-0.00036699042758630456	-0.0005524519631744836	-0.00045988963293430973	-0.0002987285961648056	0.0	0.0	0.0	0.0	0.0	0.0	0.0	0.0	0.0	0.0	0.0	0.0	0.0	0.0	0.0	0.0	0.0	0.0	0.0	0.0	0.0	0.0	0.0	0.0	0.0	0.0	0.0	0.0	0.0	0.0	0.0	0.0	0.0	0.0	0.0	0.0	0.0	0.0	0.0	0.0	0.0	0.0	0.0	0.0	0.0	0.0	0.0	-9.127363148868607e-05	0.0	0.0	0.0	0.0	0.0	0.0	0.0	0.0	0.0	0.0	0.0	-0.0003170672769123534	0.0	0.0	0.0	0.0	0.0	0.0	0.0	0.0	0.0	0.0	0.0	0.0	0.0	0.0	500.0	P1
P1_SQ2_2000	0.0	0.09280908606902272	0.012838142418305484	0.0024364886508254496	0.00396010097873237	0.0	-0.0006795301778478954	0.0032997397270689436	0.0	-8.451453535700041e-05	-0.002352863888482471	-0.0046039321643418	0.04823093301920568	0.0328011103316839	0.043200848784554824	0.03037488514658107	0.011209938677214811	0.012314413635467661	-0.010184532482924218	-0.03175629665598423	-0.0021521724972282095	0.0022007915331482856	-0.0011428435955036253	0.014439301048120468	0.01453807700547937	0.04097802334929227	0.07854552617496749	-0.12451827134968962	0.1931082652890988	-0.11936664289500781	0.013768436430704398	-0.051279386441341446	-0.002061492867433401	-0.007301513518032219	0.0016092043988443598	-0.0015526259041529185	0.02557267059205663	0.10039533536786696	0.09694881402420225	0.10310719076459995	0.0024159987524181026	-0.24137905845317248	-0.06240281421049923	-0.23305903528827937	-0.016272993373070838	0.3244319544152664	0.06860622043735301	0.06827669739963803	0.0076779660029586035	0.05501061233229072	0.17771263630103257	0.19536340506739253	0.07188002214582284	0.06390454012604413	-0.0035589437855336747	-0.19473956109072954	-0.058465996332372386	-0.18889000505318065	-0.05207914483867136	-0.04365805726284629	0.004398164525413521	0.006031941199100749	0.19099450310462218	0.23828390943228972	0.08453375142362343	0.03351893607744563	0.03950688040238229	-0.03946203134780346	-0.01846868649574218	-0.08551854002836244	-0.022058337398549566	-0.0323358631929057	0.05719031153588988	-0.0008352473033402807	0.20658009105700306	0.1785322824452783	0.0975720164985775	0.04991235560080837	0.023071671221825296	-0.01380544620913396	-0.006318646284222254	-0.06058137509924885	-0.018625248633444197	-0.05984882044836971	-0.0014113755316666615	0.050224105760940066	0.17705498873499573	0.135145438685313	0.09380180702833357	0.10742024630010216	0.05977429122874736	-0.016830624353823653	-0.0065601980296900175	-0.013183722279005772	-0.013793155331351142	-0.041100083258486096	-0.004537629835275912	0.017113560423055174	0.1748595894791684	0.11890324694899679	0.06019105319452869	0.07224855699991925	0.05845012529425456	-0.005368144018668197	-0.02111290608381633	-0.0007910435288871198	0.004520722500907848	-0.010966210011219252	-0.0024159702667166313	0.047068947791250024	0.13778430210313108	0.11187349373202939	0.0416541961679099	0.05935258580211006	0.04994883073370829	0.0499650696253503	0.018515896557886755	-0.01116776860776518	-0.009244109135694623	-0.025876713338658805	0.008063933166938674	-0.049802843461012755	0.12974707216268339	0.07382419218193581	0.03302891999331349	0.05223590720946761	0.08353970887686181	0.049460424259767335	0.02760348667460369	-0.010782384648482649	-0.005888842811592757	-0.022394958424890886	0.020823336849360594	0.03219142232020415	0.09593163327236455	0.056338848849217166	0.015498576314067515	0.05238285635932213	0.04977100492945558	0.09221210292071522	0.04592271727535029	0.01334753079288302	0.00027152169963153006	-0.009394927937139114	0.0028775816381446037	-0.013978220965999495	0.031370927922239514	-0.00914842954428835	0.020817690644777717	0.04275282261300212	0.11492308476839562	0.0892608948570053	0.08513797225842806	0.03046665788230124	0.007822359889159552	-0.01628462104964589	0.003986737089982484	0.011549716854546997	0.05796876569874543	0.02359762711187846	0.006193995688860331	0.042743457224348275	0.06807868420459387	0.02295616102131595	0.061918999076491676	0.06536943212182242	0.027305639828652334	0.00792485484818651	0.015555505298109513	0.0038793921565775866	0.048273003848931975	-0.0024489127325297497	-0.005152172661942615	0.012955006925218268	0.09453936209770052	0.05869884389536842	0.09601670523048529	0.044976406759769424	0.03633387870175907	0.010028990533545265	0.013668338740200327	-0.018944394691871924	0.03628866033308383	0.0018711612679229647	0.0032820859592407187	0.050401796006555775	0.07275927781792357	0.11850085089879335	0.050365341624158164	0.07625118956463633	0.04074243798065648	0.012641501357584614	0.013889858588094037	0.004714847466802598	0.023351856324617677	0.0017325831737642627	0.0017506255487496972	0.013082622500603706	0.085229413397205	0.06256022108013869	0.11799748036226254	0.07735255735478955	0.084369870870346	0.03353353844718454	0.01416787119882948	-0.07421671673684024	-0.002337927909586854	-0.01781772147327245	0.009842495012422632	0.03969715679246661	0.05396723703230094	0.10764676548229442	0.06654201779599209	0.0987743590988163	0.05374533234081663	0.04633132862740913	0.02677105918880133	0.0056653267391282985	0.015588430765627603	0.002332145188509903	0.007419492221085441	0.02156064881186255	0.08035893206678132	0.01796266066967614	0.12037649017139423	0.07305531419213802	0.09916078656449612	0.04999362419124984	0.04257758196443378	0.016505657574013843	0.01379086480564563	-0.02070801836624586	-0.013354734081559731	0.03390213199309449	0.04769626139102826	0.08523769994068094	0.07285937085806418	0.10567171845924997	0.06955997558522756	0.07850654205517252	0.042556977132252205	0.008840031014158346	0.013379415446608096	0.002889689442799409	0.016647627472602847	0.02060056484807518	0.05917188007410575	-0.018633794677052534	0.05727747724102339	0.02918470273837681	0.09873659454152095	0.05272988150253173	0.058628983444183644	0.031113860979448175	0.020827197716516786	0.0037951437382152883	0.003164422770100997	0.036327621233312415	0.040948882205650954	0.0823300981438467	0.0662848502817766	0.10630636478108699	0.0659743412531478	0.08350838923108142	0.042865614525262885	-0.03787547339731438	0.013929031323191676	-0.00213954053750217	0.018915197419024376	0.01925021784113482	0.05319531430507224	0.04106875113320591	0.08841765578242392	0.05099875602098703	0.08860663068651997	0.05161767356046396	0.07455023135681996	0.0387877974845951	0.028322390806690113	0.014623174517305666	0.016688426650308716	0.029137194800096328	0.030586661441242086	0.040880383580957136	0.052250049663337024	0.08731403323843395	0.06389063928200667	0.09102658947714441	0.052195902127940536	0.05073829343012872	-0.014318021440266587	-0.023348460121724104	0.018540848675423632	0.008466506707284785	0.04798772764194139	0.03689841394692555	0.08018266287458896	0.052416075921749884	0.09450388990915487	0.05263913687858835	0.08101478932447236	0.04336215646578607	0.04353000124227152	0.028602029876024657	0.021889634142769416	0.023019264312264552	0.017355032249244333	-0.041334147274701014	0.023480927347524515	0.049556387397486495	0.05408995773503725	0.07891413027560822	0.05444988429612901	0.06264939472211953	0.044509805440782965	0.014066816103866092	0.025929440761240735	0.011611095527052515	0.041585355154228655	0.02410735106965408	0.0672565537254514	0.046620177498526275	0.08056099373247996	0.04547519615671385	0.07336100182097921	-0.00045691577653138304	0.041142169708343265	0.01595743521742183	0.021772935614999205	0.022798914347454076	0.0243642654978546	0.043494336389453755	0.038766581367646005	0.04932951629121735	0.04010001488775721	0.07100515444441963	0.05198162752284492	0.05998605747913487	0.049369920490390296	0.03341144206578253	0.03012546532101158	0.01573574767175562	0.02931853498125591	0.0018282823477116517	0.04927249359544211	0.038018676137088585	0.06765753313472034	0.04075771226814668	0.055954563430356374	-0.06980659013687633	0.04032837161633354	0.015487489171369877	0.024147538652175095	0.021487517648237447	0.02106938546931165	0.03375611252182768	0.030140317118197944	0.03945990406675018	0.04207731737420087	0.061657227876231895	0.045933048322714304	0.05869083071723714	0.03999664289815505	0.03678724335806515	0.02988913978174351	0.02048561166988496	0.019623407382553117	-0.018503470866386637	0.030450767572211664	0.020926531991795047	0.0544324620331839	0.03290651055816256	0.06285503926629524	0.03853743354707627	0.060085446066000595	0.03408505250020008	0.030111462185029983	0.02583853192059475	0.01996428647122404	0.02206879978005441	0.027789229738427176	0.04124167633248992	0.032613801790819685	0.05619362156084439	0.03677334707737302	0.037529944500065464	0.03793318703634689	0.041132239201996976	0.030797132895083137	0.022797034005319697	0.029971049515307057	0.0010271629212217914	-0.015898851407430678	-0.005736584663100022	0.04185423805196847	0.026654633021295858	0.05415874634806433	0.03281660490602483	0.05216764481199533	0.035047398833208364	0.03157541322837098	0.022344878314465223	0.018305672604323104	0.015141611816884226	0.023442404702306904	0.03640101020161116	0.0292534992505673	0.039092977031831386	0.011024710360386866	-0.04266168230683451	0.02750362991595489	0.02958936473126489	0.03116444315002294	0.0229299845454679	0.02604768626677096	0.018891567953663126	0.026314584616762258	0.003022797959458784	0.03658853507797008	0.02354666256781826	0.04421609361882123	0.020881808361268593	0.05060341786903147	0.02825468673947046	0.033963628368552136	0.017841885910694456	0.010251361458893306	-0.0034157364792141154	0.013393418485095902	0.014805925273635397	0.02060132757687689	0.035968588450575455	0.030289566098506995	0.04290766625124582	0.0248659711904078	0.02334962713488009	0.026570999797363264	0.02626506603523782	0.023150897212536607	0.013279129108209508	0.023088620597640896	0.01919246843499057	0.02826188567896792	0.018847201027148174	0.0316829347150923	0.0194975009467504	0.03852291765291782	0.025243176505872413	0.035716531770801016	0.021022526684219438	-0.01821160176145324	-0.09082807321150115	0.003625699634139657	0.005674157603201738	0.016398428407044658	0.026389890484453605	0.023216870063015416	0.03304362313077283	0.017580655847306042	0.017146333368722066	0.028223486210213592	0.029820008326551566	0.018988403250601492	0.008007610390054806	0.01989308324710545	0.016714661519622573	0.024718239045705193	0.013653263261563506	0.017346911453830376	0.00734118261733472	0.028098634479531655	0.016321173868810095	0.030160364900080897	0.019807018058972666	0.021996074127347814	0.016087496426740282	0.017034423450553636	0.01864930229153164	0.013267973528665704	0.021979049299925654	0.020912816484476703	0.023689051419871026	0.018230853844908763	0.0292409519226942	0.020858103598606233	0.021798904084985943	0.01238020574391931	0.010789713623018393	0.01759621981961224	0.00995577870002964	0.018850447084068564	0.015681273289999575	0.023206697230478038	-0.009408885871437449	-0.008541419323764288	0.004045518530114256	0.020081007831074013	0.0165252877641992	0.021906707082775204	0.017208093880717243	0.014531533386847904	0.014172876627539764	0.010936367338348539	0.016996758460932425	0.0101778158891449	0.016415756695989554	0.01798929488480039	0.021553485545033533	0.021158898370466285	0.015532986926566048	-0.011138104606754726	-0.053167867196721445	0.006204441073669728	-0.0008024940154199058	0.01570233734371614	0.008155625537032814	0.01749568430378293	0.013811466302083027	0.02477286828914616	0.0032215081224246066	0.02219826219823993	0.017148931016313845	0.012750410213911947	0.016046525168263142	0.015067505820621569	0.013637136687008496	0.009157735147477683	0.014021910879033147	-0.00403956597592724	-0.008762141795423312	0.011630656127667057	0.010921985014461524	0.013663793241634636	0.018924715924338423	0.017074533692285395	0.017514365780551218	0.009082301663769617	0.0018894524237582332	0.011952118198759656	0.009872439396224932	0.013734456761086172	0.008748836605552455	0.019794819196196602	0.01517417443445944	0.022339753686602792	0.012970857038130192	0.013211470558456399	0.00874705941901546	0.011446363762357997	0.014552703856832525	0.008561203991148413	0.010803964675461263	-0.039995648356574896	-0.08446904446405615	0.0022020830144556525	0.0014738778208692078	0.01146892901056875	0.013378173460575623	0.01662087251632887	0.017082807841611196	0.004028224430240156	-0.0015642144152827192	0.009564778688643628	0.0075558263845305895	0.006729432422260772	0.0064200050557865	0.009040538621172666	0.007837550662112978	0.010263676093486895	0.008538693873122099	0.00509672215505428	0.002914751110157241	0.008921442478366747	0.005589355489471062	0.004789205205653027	0.008222625897233826	0.00817084937135001	0.012832085744616317	0.006046864216553163	0.011026323580420369	0.008026285403670255	0.013911955859893785	0.007522434689122434	0.008293217189174501	0.009877518684037946	0.009360123750834146	0.009461492501795784	0.00664256051056095	0.004213562371565945	0.007359540086933489	0.008151893579176062	0.008617249551837465	0.014131599806840648	0.006554931634654218	0.010483480252822877	-0.01720121349887986	-0.015226608995913792	-0.0047952170503093305	0.0029133785842474086	0.005781773720569736	0.00626566744622286	0.007574297026239466	0.009455984809630186	0.0068450662036831054	0.0037556722340776096	0.01063332428757945	0.0053431385876090455	0.010666804436103312	0.007628776110668509	0.008896436992698417	0.006388429171279332	0.002185665727991618	-0.022952960598321803	-0.049307129774178775	9.42336948569003e-06	-0.003523492135723002	0.0055896476471190525	0.00737462086572338	0.012012345083051542	0.006850195331808119	0.005444625071560075	0.001031325391449657	0.00473038122159559	0.00792162921140059	-0.0021081225489007725	0.005716972118315136	0.00696649526397513	0.009187575245891935	0.002479204560095351	0.006601090004272343	-0.012680515725588964	-0.005753784357980948	0.001006691158557501	-0.0024021656551704677	0.007482387643452663	0.0032210445172262334	0.007890468905427054	0.006300008162288463	0.004542997756717133	0.0003467781804979246	0.006768717627668102	0.003601975580898217	0.00536351214270438	0.0058869296276015375	0.007006883640164621	0.005310156078059408	0.006710485287416867	0.008307293015646484	0.0002181489727826648	0.003569831750375089	0.003282316317636093	0.00397017117039946	-0.0033052824388671853	0.002487966411250868	-0.05389697989937692	-0.05849096495780884	-0.005543897311823729	-0.004199740170210475	0.0028080961833022444	0.003823982778979832	0.004190503250669338	0.0032605813098298426	-0.0033616116445662723	-0.003938947804087621	0.0018777044317971163	0.003920835558374016	0.002913057970217365	0.003783426415387179	0.003729568893706854	0.0026378456407748097	0.00369694863619998	0.002897885087563161	-0.007712031949536624	-0.00494525670845101	-0.003459113278074088	-0.00025676813759550887	0.0013137002460507918	0.0016823586022754519	0.002712283059972481	0.002820709952075444	0.0029155415329328027	0.00612691497552722	0.0006654699009658836	0.0036928664885198612	-0.0017593017914442118	0.0015294380129012054	-0.0005805652402959688	0.003060180294452314	-0.0018021057028751487	0.004741412547679494	-0.009511706973650653	-9.250349429003671e-05	0.00013769824624820098	0.002626848895389569	0.002614530414051519	0.000213248852897455	-0.0027235820037331375	-0.02267131597344985	-0.009508039292935675	-0.0015517631979021507	-0.004584147020978865	0.0034934023219095455	0.0016316940426051394	0.006463231542036518	0.0023799838938950418	0.0003904693347720079	-0.0007452123285477587	0.0008545302341854341	-0.004488715254436932	-0.0013867826947870174	-0.00486357073095516	0.0009805514019588044	0.0005088239856486862	-0.0007567480751305249	-0.03652891798851433	-0.029374514457160304	-0.0093404887152965	-0.0049449674004763446	-0.002408577119661099	0.002522532444592565	0.00037413523721356937	0.004927083557355345	-0.0015404799373164996	-5.293719310310932e-05	-0.00022737885368625914	0.0035503904728517895	-0.005602724448083532	0.00025567555614964405	-0.003441523449696048	0.006219724329350059	-0.0008281014555541685	0.0007151231436449256	-0.018385660436160883	-0.00448583869028607	-0.007641766753977318	-1.1172890281449521e-05	0.0030535578889830974	0.0007535743026455509	0.0005618273384058615	0.00010317574601676274	-0.005719560762360729	0.0012460091459847809	0.0005236232188681154	0.002083309522939515	0.0020350779250447384	0.006150767790870173	0.0020017768627854475	-0.000525348900935127	-0.002319620036094844	-0.003688999509866964	-0.0035040182622374082	0.004717292326568392	0.0023818702966634814	0.004943520406840233	-0.0007106198904837397	0.0016170485319480284	-0.06949043463839523	-0.03067432118268086	-0.010000791825176564	-0.006229817590773451	-0.003350746194571895	0.0025858054620014094	0.0014823223897158233	0.0023184774722648394	-0.008079983426207625	-0.0025071560109031082	-0.00046410990995013855	0.002825493560427904	-0.008361936126932267	-0.00019719150918723338	-0.0005515001680051843	-0.001697824951694184	-0.00406144108093571	-0.00011984714202737008	-0.008679792127078182	-0.0017719144910215354	-0.0033683974067016953	-0.0013825905249043487	-0.0008276322093666248	-0.00022125623031304074	-0.0046286210352636395	0.002881430053318859	0.0035794413069890323	-0.0012125442716094054	-0.0018317562837087253	0.001184611783104644	-0.004270866599909863	0.0003733546363405369	-0.006376766235468981	0.0017068805415582974	-1.3245560694919584e-05	-0.0021658880820673134	-0.003085204446454489	0.0022363511423912578	-0.0026455655153213645	-0.000817065546324749	-0.004194578453189379	0.0038049139117010636	-0.0020302720604485607	-0.02233216519151633	-0.009308653735728652	-0.004081788595277392	-0.0019350073047994971	0.0054602957584767	-0.0008792274948296458	0.0014052803771810365	0.0035617898840195252	-0.0009473060331222413	-0.0006662797174293474	0.0038764588876761107	-0.0004902123820428005	0.001144035480236557	0.0016521035943854664	-0.0010709655216797594	0.0015157466609273841	-0.0005675110556333813	-0.03474869038352941	-0.01556014419356839	-0.00767822789233653	-0.004327696252244756	-0.0036729169531419656	0.0005759970361515687	0.0018961541459754927	0.004076766505307019	-0.0041504488223718765	-0.0027574785845322297	0.0021775254647135936	0.001649876404540904	0.0008605303667837284	0.0006878680902328623	0.002828124015667963	0.0015975366757700268	0.0022652458814953983	0.00035731399492418617	-0.00833155097404522	-0.015865882124186333	-0.0006046218748700007	-0.0024703526050519394	0.0014697436214176464	-0.00021882806971647902	0.008125671234180395	0.0053994141401690334	0.004793399420727299	-0.0012565083314991458	-0.003065118863624153	0.0005607020918276312	0.003108494835575944	0.002161986748112171	0.003400347811658328	0.004234649194590337	0.004664875254263587	0.0035871103806212265	-0.00036699042758630456	-0.0005524519631744836	-0.00045988963293430973	0.0041822003463072785	0.0	0.0	0.0	0.0	0.0	0.0	0.0	0.0	0.0	0.0	0.0	0.0	0.0	0.0	0.0	0.0	0.0	0.0	0.0	0.0	0.0	0.0	0.0	0.0	0.0	0.0	0.0	0.0	0.0	0.0	0.0	0.0	0.0	0.0	0.0	0.0	0.0	0.0	0.0	0.0	0.0	0.0	0.0	0.0	0.0	0.0	0.0	-9.127363148868607e-05	0.0	0.0	0.0	0.0	0.0	0.0	0.0	0.0	0.0	0.0	0.0	-0.0003170672769123534	0.0	0.0	0.0	0.0	0.0	0.0	0.0	0.0	0.0	0.0	0.0	0.0	0.0	0.0	2000.0	P1
P1_SQ3_5000	0.0	-0.028096157854905504	-0.004232288915642375	-0.0006448582815140637	-0.0005208279637397146	0.0	-0.0006795301778478954	-0.0025252507533234277	0.0	-8.451453535700041e-05	-0.0004166577754073136	0.0008725327314409803	-0.014780850879242462	-0.011375728982935165	-0.010775852235999334	-0.006407014887297863	-0.004054312433386626	-0.004011616495226803	0.0031687872793785474	0.008499845180623106	-0.0002159663841530522	0.0009865460386352517	0.0012285149114422168	-0.055996050134612244	-0.012333373797918698	-0.013454668733654217	-0.019500261668493057	0.033312339240634925	-0.039977256313037224	0.04290879192040298	-0.0012435310277368605	0.005775792224303938	0.0010834756719088241	-0.0010169824944904204	-0.00042726604460465584	0.0010882163606205364	-0.007359903526088845	-0.028387804463591404	-0.026423172691241975	-0.03271117207605373	-0.002442353309202505	0.07107771508793381	0.024806934404816267	0.06993386401993523	0.0034104896368950532	-0.08170337940340977	-0.02192537401271466	-0.020693041528103716	-0.0018599685246240422	-0.01599547070145787	-0.050701554887904815	-0.06033919433344187	-0.021123682334204724	-0.025447730516029887	0.006115434872023678	0.052316361390561006	0.017627268302928767	0.052006026680732065	0.009359311894245992	0.008358256515610993	-0.0016066235798366246	-0.003481090132200021	-0.05517139934725543	-0.0729941553655041	-0.026259382184358165	-0.020210321041150142	-0.014742175142629765	0.00985104657625091	0.005650747109629942	0.01827364605276169	0.005788647581331963	0.004494245704659727	-0.017020768157724873	-0.011123372153176547	-0.061861486731829715	-0.057710831449996905	-0.030930526463141456	-0.03114599326415396	-0.01426099707828532	-0.0023923721220810434	-0.001502682616946957	0.01092765121324249	0.0026705206300322026	0.008653031550763204	-0.0029736277571950007	-0.017996462257789198	-0.05163429867197099	-0.04084954835181104	-0.028709636627764837	-0.0356627276595905	-0.020400342307732647	-0.012498166368812652	-0.006984444295085851	-0.002346704697436086	0.0004572133320619523	0.00679074324029777	0.0004178715673578137	-0.008925992926975601	-0.0511577925404406	-0.036726976398489014	-0.01802506743551431	-0.02905115241101705	-0.020363019082632397	-0.006653568668144205	0.0036679073434805753	-0.004098776037457952	-0.0034963097633955997	-0.004838340191815227	-0.004048401574682045	-0.017198726178289242	-0.04202667163950349	-0.03444898700917012	-0.0122404127812819	-0.021570129719973824	-0.017716028465894394	-0.028715705428573296	-0.012340094978361624	-0.005930742981263268	-0.0002766925318341551	0.001392771950311747	-0.0031069858695390723	0.013937587552049158	-0.038313276141816316	-0.022722220449073738	-0.010884575784281973	-0.017392010296504702	-0.026800407577990584	-0.021985062252742785	-0.020796791191914327	-0.005810944462160378	-0.002802153479214725	-0.0007030232856019697	-0.010069117030602183	-0.015648573647022684	-0.027395241425695327	-0.015903452799119255	-0.0066128473276214975	-0.016592956112883327	-0.01608385613604235	-0.02819952577661361	-0.0131597275327867	-0.01110835988815756	-0.0059370435588878695	-0.0014760992060104186	-0.004968530243685182	-0.000599992753283124	-0.008958082383872856	-0.0034499865335026053	-0.007377961543379601	-0.014693718304962078	-0.032788936998545425	-0.02924882750139915	-0.03073026102521821	-0.016015297646542304	-0.00774160673710559	-0.00494726295886401	-0.004692027107197537	-0.006708234409944863	-0.01900270769573289	-0.0115684223634537	-0.0025819315814710683	-0.015263927682524693	-0.018479803615749746	-0.003544138384973833	-0.019680649619727972	-0.02617745203943586	-0.011535240107393235	-0.005622539975002901	-0.009275667220479657	-0.00579757916375865	-0.01600877890523366	-0.004186481388629447	-0.0015959288562464521	-0.005380834759770574	-0.026846879665591433	-0.015589120950252451	-0.029253547967062886	-0.0168945720757031	-0.016831252674061326	-0.008587234884666575	-0.006617937042583538	0.006409177673637731	-0.010631161515238553	-0.004830523375599666	-0.003909708418530548	-0.01715836181560767	-0.021044530863399788	-0.03515957016103239	-0.012981061584592363	-0.023078324083784685	-0.014093329660900607	-0.009236447889499289	-0.0075893782785533895	-0.0045758245592093585	-0.009805400098875101	-0.00523329744796646	-0.003847969124462638	-0.008526822876380138	-0.024064525602692007	-0.014498474388648694	-0.03310099192131032	-0.0228037225109725	-0.026647023911543888	-0.014031542286350555	-0.005170483403679017	0.02111634294751419	-0.0005232728256121394	0.0025832342187711577	-0.0036721925604132483	-0.013026195350326113	-0.01717713264118561	-0.03041752519345823	-0.02004106893792999	-0.02827260989811567	-0.014289657405158883	-0.016301553653087268	-0.009277282287236364	-0.002317733879735745	-0.00635094220354903	-0.0044537264417124425	-0.0023713021040468185	-0.009680774445271267	-0.021901336834785776	-0.0016050918279231496	-0.02910717864109362	-0.01839971324405458	-0.02751852828704672	-0.01616498299604733	-0.011763945021304602	-0.007807760994219308	-0.00521169641611283	0.0028900698478023998	0.002839229773820222	-0.009810201742718704	-0.01412378886775675	-0.024272286697395083	-0.021111442778402104	-0.03138778200382746	-0.018026222981605534	-0.022240890047657287	-0.013111002833597216	0.0018636282228703047	-0.007571615280357907	-0.0009009006582201412	-0.006000886731660306	-0.007931788551478601	-0.017808032144107012	0.007414379483690628	-0.013728160527727143	-0.007647070804681327	-0.026768593635629695	-0.014632682007240855	-0.016497700886490538	-0.007078528939148551	-0.005887470459643333	-0.0018216771631296147	-0.0018676053951537513	-0.011456825141635561	-0.012786576855162029	-0.021735456023073474	-0.01903082473270564	-0.02854507030592182	-0.017686224678991152	-0.022149417744043665	-0.01154680849211677	0.013916248989468472	-0.001539445511882634	0.00026705327596138195	-0.0051339458695039385	-0.0063912488065899845	-0.015421909216768812	-0.011735615812918657	-0.022511473883943693	-0.01470315054094315	-0.023454071110482817	-0.014092922990103625	-0.019235358592933665	-0.009007232766529025	-0.0069289180251060935	-0.004083551920666194	-0.0045778113999537	-0.009918332977240818	-0.009230789187919645	-0.006393716235177038	-0.014296085996487008	-0.019206784803889584	-0.016004172369458128	-0.02409001697561071	-0.01289953359339439	-0.014109623000217932	0.00488153250975662	0.005770228576579078	-0.005360378131479094	-0.003906357517555331	-0.013472581037200934	-0.0100621343411002	-0.020462362535691375	-0.014616755475793875	-0.02340235898634144	-0.013938877127163525	-0.022321431122509023	-0.009889852870491614	-0.011489903128961722	-0.0062499140960206555	-0.006536135197382435	-0.007670565021319482	-0.005385216218667853	0.012770276013130882	-0.006625303502066852	-0.011829815953343627	-0.014387098425852844	-0.018726488748491983	-0.014981643751707543	-0.016551293217007615	-0.009712900688051578	-0.004254804230214085	-0.006313796782542472	-0.003645924190384564	-0.011514173156623543	-0.007020703415565432	-0.018204983552679698	-0.01206007254762783	-0.01873073015895298	-0.01483939108794495	-0.016709192186430844	0.004561928445863547	-0.008686707239894492	-0.0013574703960531967	-0.005902662560755667	-0.00625082695823494	-0.005838516428940503	-0.012086478563335692	-0.010078469768742927	-0.013645141384181943	-0.010178700207616971	-0.018311388638432062	-0.013467675785624057	-0.014098189663277902	-0.011620074669324933	-0.009155583811018612	-0.006333810055136745	-0.0039030231798312873	-0.009742224350708713	0.0015921131613129205	-0.013047545057246285	-0.008737897422741288	-0.018350405671703703	-0.012947896410694094	-0.013497058553524663	0.02249771589892932	-0.008769289716756543	-0.00221592359864288	-0.006218169470587516	-0.00501979433678279	-0.006430994935269215	-0.009552472486677184	-0.007792867298217758	-0.01139664265643655	-0.010473173568909411	-0.016320975091739756	-0.011376727608429421	-0.012885398834592554	-0.011232651675285012	-0.0088768376662208	-0.007673871914934842	-0.005697967488028002	-0.005124696203486125	0.005548978349757608	-0.0064256333028758494	-0.005049357540971203	-0.013740140276974906	-0.009402543154370044	-0.015801483150058037	-0.00985269485969855	-0.014780724244139447	-0.0075588679523795645	-0.006880026989187913	-0.006248839189146309	-0.005611351758265642	-0.00526044273833743	-0.007203235292142868	-0.01190376439277768	-0.008645500312211531	-0.01350360544299	-0.006779104134463393	-0.0062543398962756	-0.008298163968439212	-0.0066280042456524565	-0.007057823688954554	-0.007355738603275399	-0.007183616287190379	0.0025811419480627137	0.00476991947312401	0.0008824360101383905	-0.011355228230804423	-0.006118494114798159	-0.013834127284556852	-0.00798802376122839	-0.013144004255769354	-0.007846402133276972	-0.0075479672956472454	-0.005343566621355374	-0.003256143669467266	-0.00224431426127681	-0.00636675868478765	-0.009049001089119914	-0.006304236056377987	-0.010320125679068242	-0.00298465731252507	0.014060683550064304	-0.00626451813566023	-0.007519547358578738	-0.007790840226826034	-0.005972769106554466	-0.00527962877956898	-0.004896377994975085	-0.007928409397230968	-0.00284889194054265	-0.009914187432199267	-0.006419309544435887	-0.010955318053178523	-0.005017204152067741	-0.011516224015750257	-0.00908766721190463	-0.010167475116364193	-0.006046752222962793	-0.0007743675040174751	0.006595325441691405	-0.0015553693539418073	-0.0017102388068259214	-0.005197065514301845	-0.009396920863345804	-0.007849883571154846	-0.010628576118986745	-0.004648927861723624	-0.0058758254346483185	-0.007039115553728152	-0.006008086140589258	-0.005886293791908911	-0.0029788249676815093	-0.005638321981825508	-0.0045863044397483725	-0.008567220949564492	-0.006472518493889891	-0.006024074318905212	-0.0038571151916080813	-0.00899001301641135	-0.00588307064721711	-0.008194521046522206	-0.0066826141165591095	0.007346882829529361	0.029196307465538585	-0.0011590518820309842	-0.0009416650260067536	-0.0054061446602531454	-0.007818368716107357	-0.00465837857327556	-0.009121737790184447	-0.005878263500640791	-0.004778572787375666	-0.006268840962053223	-0.006256602586231945	-0.003409805610549703	-0.001510278467209341	-0.00644140464023053	-0.004649802319836551	-0.006235432893872218	-0.0038866873728058103	-0.0032391891471771905	-0.001457632851537681	-0.0043633382238745	-0.0045481669600591045	-0.005355395042320393	-0.005905856059665485	-0.004131022750329678	-0.002958370731617404	-0.004131251770300772	-0.005350543625567736	-0.003028573116263124	-0.006733099852917326	-0.004598912066591479	-0.006654943268078094	-0.003926702595674587	-0.007290818221973881	-0.005388202500177856	-0.004806582854119841	-0.0012413993779271867	-0.0009228616168455092	-0.0035114763366798085	-0.0017364669330929318	-0.006110851688191777	-0.0028500401530029314	-0.005445859240137827	0.004439824087700078	0.0020152768541419203	-0.002474526470385957	-0.004795830542972831	-0.004400484801779181	-0.0046588735052046915	-0.00433424246284532	-0.00374870999093857	-0.004519706715001567	-0.0024072055340524194	-0.003958461940434619	-0.0016536439238578268	-0.0020629976674997504	-0.004559796958605606	-0.004998210302539843	-0.004308441755994756	-0.004621262304923431	0.0024999358002030583	0.016022723087337043	-0.0017195049510355664	-0.0005364579515398822	-0.0030199744109402973	-0.001104950570121395	-0.0046798601172918855	-0.003442122584119729	-0.006826500484714004	-0.0026799827966150977	-0.00591728592908539	-0.00462954446148181	-0.003345157281986314	-0.002755860793563915	-0.0023335346208587064	-0.0029758640759907015	-0.0032745211503884576	-0.003277962731608717	0.00408081485057292	0.006103526643280864	-0.00010253172876120362	-0.00041338668186959027	-0.0032279827005164026	-0.004469363608853381	-0.003086419121965611	-0.004009509016358305	-0.002274665035287053	-0.0009430613064400593	-0.003704477689731575	-0.0019772099878667022	-0.003735596443415319	-0.0028785756824291978	-0.00556361045893319	-0.0034550275203679842	-0.005124861867362664	-0.0031037457756979414	-0.0015772832110178478	-0.0014678893589888352	-0.0024130457581878276	-0.0021755513986483586	-0.003986037764747489	-0.000888343868295078	0.01186791615535994	0.02449548779103622	-0.00034009475253489116	-0.0006820463329329091	-0.003042870057236021	-0.0025698194361598557	-0.003602253022574057	-0.0038916129024125657	-0.0023286136345429705	0.0003949371088101637	-0.0029458208277856335	-0.001842647160237916	-0.001084983859486445	-0.0005200184708666102	-0.0030351501384241752	-0.002353075806026254	-0.003912896364594572	-0.0025622859302836844	0.001371155538974586	0.000371871179403533	0.0017406743351080015	-0.0009021868596294121	-0.0013851787442176293	-0.0029795295186313547	-0.0010745784500242744	-0.003532090397716032	-0.0018757955481691815	-0.001524080286906232	-0.003313434510561472	-0.005126711807438376	-0.00260943726027469	-0.0019861676987681237	-0.0019190242427717767	-0.002193680111032728	-0.0014574138232495426	-0.0008372857567335058	0.002040334040748975	3.938232693263821e-05	-0.0014152871799451919	-0.0027695052119762597	-0.0036743285318521137	-0.0025774867879691955	-0.0033181944062914137	0.006473366717453223	0.0038672789908405017	-0.0003791627814110736	-0.0010018150306065274	-0.002980104917041303	-0.001187636484565418	-0.0013581488167018242	-0.002322686523478997	-0.0036142524614752227	-0.0006726206973504747	-0.0023290354832035363	3.5355076064301494e-05	-0.00028299147771355254	-0.0012324050198068877	-0.002102134476283015	-0.0002620719340027805	-0.0010934656580644311	0.006258085343935224	0.0159318114104524	0.0012089134625867665	0.0015955745624037787	-0.002811488397545213	-0.0010255821107742688	-0.003339169149897396	-0.0015789325595359123	-0.0027786413834044524	-0.0012522849502277986	-0.0012128580285745236	-0.0005526959505077998	0.0017929990187997985	-0.0009661302774582742	-0.0010097394633677877	-0.002138618537115014	-0.0024343321235511754	-0.0009678446286114188	0.004789220404258301	0.007629925636704123	0.0020240637827090395	0.0020196901535718646	-0.0018123858416532468	-0.0005107478091673206	-0.0008223417310216224	-0.001585154124376412	-0.0014221590515889199	0.0011465558337574039	-0.0014788465495759809	-0.0006627434262242334	-0.001192202056387686	-0.0013730374894468968	-0.0006063120033535166	-0.0015969175989394603	-0.0010197292457918596	-0.002083393055446272	0.0018354759440256212	-0.0011456557945392076	0.00017554501099472167	-0.0008926654601414796	-0.0024948852997103577	-0.0010771304063887342	0.015201337025754769	0.022493531073136647	0.002274384444059245	0.0025532327335425972	-0.0011474673233584191	-0.0015454233141214413	-3.407943872158793e-05	-0.00030212214413034497	0.0005384781344676161	0.0003751935113762289	-0.002273491924765737	-0.0018338098349641955	0.000516693141702735	-0.0006622402463692233	-0.0007418598782949863	-0.0029214287596195463	-0.001649936780013822	-0.001950651315214916	0.00434209066681842	0.0022726601480224096	0.0006465951589476847	-0.0007422161564182607	4.285893223096582e-05	-0.0007824912654700276	0.0003013440518094823	-0.0007060500434931775	-0.0011648274497412618	-0.0017434313550039656	-0.0005733656679100373	-8.456013807835346e-05	0.000500561717352209	-0.0014232208449292839	-0.0004923963386009485	0.0003235826879034419	-0.0011314079235641324	-0.0001935898534023272	0.0027997183586444055	0.0008897431396246054	0.00025164260884512346	0.00030806474503777825	0.00045441692253707366	-0.000541912723007491	0.0009110523209495958	0.0073714604245598905	0.00317741852528507	0.001712097926676065	0.0007503523751394153	-0.00016975588310659193	0.0004110289617967177	-0.00016142031542686064	-0.0006440336467605015	-9.369449280819536e-06	-0.00010552576504132757	3.755891954836631e-05	0.002126951819966333	-0.0006646841031077433	9.449593396063105e-06	0.0007732305438867722	-0.0002787933910030106	0.0013611765674838884	0.011208270186743662	0.010143181434726457	0.0016332410181616082	0.0023651498673174925	-0.0005283851303200301	-0.0019120596116020544	-0.001177036432483236	-0.001451724777561605	0.0006834468101426239	0.0011645248571808021	-0.0005792011616034785	-0.0007652161114232482	0.0028811067171672228	-0.0005641952757754563	0.0006350007659074088	-0.0005812224903750628	-0.00017473552427099172	-0.0004054723066868309	0.009140189658236621	0.003301324488730436	0.0033706064120805138	0.0014306974606533122	0.00017153749477907647	0.00011429025653062093	0.00017971640013719065	0.0004168174876385145	0.0008608927753075597	0.0006469769321258076	0.0008582987637829227	-0.0004063319142618201	0.00047516347989721985	-0.0022258994358382404	0.0004849474517538664	-0.00029937686286713935	-0.00017020230376204454	-5.856814493889438e-05	0.0015369905837760017	-0.0009322511464169847	0.0006525823732364266	-0.0014972479972060436	0.0003361641179856559	0.0010713771441465923	0.021664443498803934	0.011022274085225742	0.003484240687552386	0.0013791207427887031	0.0004572273404716363	0.00015742103786799307	-0.0019071717154641957	0.00033593297618141754	0.0005971509437641201	0.0009424581670712754	0.00015388014135856234	-0.00019036698193916797	0.0028487552710087377	0.0018750198392174441	-8.476100140933363e-05	-0.00027463537660607495	-0.0010204069168047586	0.0004406556248360508	0.001863032070791821	0.0020433956599848393	0.0005012119628021484	0.0016584547615835568	0.0003057025243435787	0.000626183502352988	8.185862608258224e-06	-0.0009196463472769881	-0.00041504824260043226	0.001087223534173492	-0.0005480208948332854	-0.00028491184714818894	0.0010286797364016005	7.055077518666915e-05	-0.000699706595146992	0.00041205769015978735	-0.0008355773518114677	0.0009826821143336106	0.0025079654564930005	6.213906216107415e-05	0.0012300404124894557	0.0002947016666335345	-0.0004192899157513495	0.00041545622023041184	0.00013074981477254922	0.00755923963411758	0.003213144286315129	-6.511852318192429e-05	0.00044344650147287897	-0.00038165573662546186	0.0007641397138580738	-0.0002863374835665577	0.0011333672936863302	0.0007308609894179259	0.0004328380061476636	-0.00023412365246064555	0.0020182853555873563	0.0008414034053288184	0.0007576526108621865	0.00021508646424104987	-0.000372311085523748	0.0007857234250685137	0.010485681645773536	0.006646900885229512	0.0018102865914810425	0.0011933931049299667	0.0008240633147710199	-0.000763447961238113	-0.0003886234049468029	-0.001006519639554804	0.001642307066613018	0.00029238499993430693	-0.00010723234803841717	-0.0003026575317884002	-0.0004789680812781194	-0.0003660460950160871	-0.0010606529654470743	0.0007369771397777334	-0.0016235384858218158	-0.00017101383056201264	0.003984033409264568	0.00671984429435071	0.0013867451563929073	0.0023280532495045594	-0.00012451175475560686	-0.000827333706740267	-0.0017935462770772334	-0.0005129271967749859	-6.117227093910792e-05	0.001279425088279748	-3.7081951946428375e-06	-0.0005666194888728298	-3.3296345658491346e-06	0.0010346694318388804	-0.0010805811308137563	-0.0007332368155535244	-0.0016721152282105653	-0.0008938185618508576	-0.00036699042758630456	-0.0005524519631744836	-0.00045988963293430973	-0.0002987285961648056	0.0	0.0	0.0	0.0	0.0	0.0	0.0	0.0	0.0	0.0	0.0	0.0	0.0	0.0	0.0	0.0	0.0	0.0	0.0	0.0	0.0	0.0	0.0	0.0	0.0	0.0	0.0	0.0	0.0	0.0	0.0	0.0	0.0	0.0	0.0	0.0	0.0	0.0	0.0	0.0	0.0	0.0	0.0	0.0	0.0	0.0	0.0	0.001277830840841605	0.0	0.0	0.0	0.0	0.0	0.0	0.0	0.0	0.0	0.0	0.0	-0.0003170672769123534	0.0	0.0	0.0	0.0	0.0	0.0	0.0	0.0	0.0	0.0	0.0	0.0	0.0	0.0	5000.0	P1
P1_SQ4_10000	0.0	-0.02808319109852571	-0.004013047905988221	-0.001502498184564622	-0.0005208279637397146	0.0	-0.0006795301778478954	-0.0005231998763789393	0.0	-8.451453535700041e-05	0.0006976914279237388	0.0008246075014071604	-0.013777072099152049	-0.010849198421848692	-0.013615231654753396	-0.006415822419938877	-0.00357464287212593	-0.0033248835589953975	0.004490958801538249	0.008905210236603275	4.8931104755013145e-06	-0.0006137154840761645	-0.0011428435955036253	-0.026179742587266283	-0.010740430633614946	-0.013093227780433134	-0.021858282713152904	0.020062755678786126	-0.06037703736481073	0.0341219199610443	-0.0026884545603424875	0.027687876961038166	0.004203000927280303	0.00216796793905635	-5.6148398182916115e-05	0.0013464175020589646	-0.0066950119980064594	-0.025375241366869403	-0.01966492373857437	-0.011930597869402149	0.0025141468623595398	0.07505698201427613	0.018846392276270774	0.06842896703033013	0.004893519170986738	-0.08795978223518688	-0.016600556913325404	-0.0185368204353151	-0.0021075532903000113	-0.01528384338285002	-0.03842242747290661	-0.028799449206587835	-0.008263028882839113	0.0004482856820251513	0.004952972221297924	0.06474927697691868	0.01575403096340977	0.04304545433587659	0.016106080423457153	0.00854006034218048	-0.0014688923587193245	0.001714593123868846	-0.04171703390139572	-0.0432333810684844	-0.012154894642955577	0.010489601889834443	-0.000284905250490769	0.019983518511475146	0.010083410998945455	0.0326947128775886	0.007413461224778706	0.010971655275769182	-0.015733778420286004	-0.00943052102618977	-0.046878259398175956	-0.03921411461656682	-0.017485458587570654	0.005539068284855397	0.005467032509682973	0.01749572303103239	0.008309668801289999	0.023455471169417846	0.011088298872475574	0.017992111130781432	0.001868130517159769	-0.011639133648532515	-0.03902740631084399	-0.025363215439378667	-0.01961159747144625	-0.01656553328498217	-0.00836268101636474	0.02584065146355302	0.006975396365021647	0.010106673344582123	0.008634992534239057	0.020067641695588445	0.0047573835532582626	-0.0013988969980348598	-0.04017744419813907	-0.024655978615842344	-0.01402328637242313	-0.008045597678876817	-0.004119444862617075	0.011318240584909711	0.009767543267801063	0.0011547346556439464	-0.00017236388801247782	0.008759159331932484	0.002491557036078035	-0.007521931888089278	-0.03170242790966979	-0.022362283182350035	-0.00754772538534048	-0.009185817715826647	-0.00781531800134859	0.008865870665341252	0.005488119577963732	0.0075564239024708685	0.0039534179242475265	0.008994901813434403	-0.0004540397694653489	0.015236621523770838	-0.031630899727418255	-0.016885618069226574	-0.007151695674938313	-0.00980838176513979	-0.013170722589044628	0.00027843359902832154	0.011981530148140934	0.015029367564410243	0.007250123158477256	0.011438923428322062	-0.0009334802397058597	-0.009713425416599641	-0.02464317176247268	-0.01362593962308875	-0.0033701801753836524	-0.009900031580109922	-0.007845685672315673	-0.01354862595883051	-0.005544737754003666	0.007835433722936963	0.006572173042106277	0.005946383494024793	0.004019706949635271	0.006264666532967214	-0.008838439364544676	0.005472319976751794	-0.0046411933597329535	-0.008091878908536645	-0.021105087845849385	-0.016116932544522178	-0.007375457053929557	0.004385942586713404	0.0040123362141882835	0.008893820214688014	0.003513953560792045	0.0008604987545217796	-0.012853515091245778	-0.005562775187330615	0.0008226018300660498	-0.008557582597638613	-0.014553216970120228	-0.0008068088533823847	-0.012396661065190662	-0.004126112728771725	-0.0013259894683868706	0.0017690949631739353	-0.0021012180487640086	0.001816763064324614	-0.011265320377579137	0.005097007347425353	0.0026917693214624783	-0.0004266489408207702	-0.019655894802235875	-0.012850136762495676	-0.017661858300706185	-0.008479143218217466	-0.0010537189277158437	0.0007397175698638653	-0.001155403111279693	0.004694378883661296	-0.0075296562142303375	0.0021222771108954028	0.0015748620589137452	-0.011629176651146794	-0.016332553965366398	-0.027145613789042268	-0.012813900005256049	-0.011484090681201736	-0.005670862569019747	-0.00034471652721738966	-0.0024697526790275065	0.0006094220665404868	-0.005458369078958615	0.0023147945289978752	0.00012909633856946628	-0.002568190189033877	-0.019549036566938877	-0.013931727870826326	-0.027369219628415917	-0.01677753696434635	-0.013081641856032	-0.0040069441695382985	-0.001802830004678846	0.017545459919834805	0.0015444984782846116	0.006790208131182571	-0.001736657742103763	-0.009740654347115789	-0.012085034436264519	-0.023668571166874687	-0.015020549602175921	-0.019427106155702062	-0.0067912308084931705	-0.0068405082547837726	-0.004124517661872294	-0.00020724715294926505	-0.004104278761916991	0.0004913245744114988	-0.001552828511083501	-0.005878887061296904	-0.01986545161238793	-0.0031221423724571012	-0.028128559518476197	-0.016902190232786087	-0.021459015936785904	-0.009003196883013084	-0.006827797464263409	-0.0022941009844733573	-0.0014926227444662897	0.00805757031245325	0.004556746891489771	-0.0054952792100150805	-0.011565836006914264	-0.02082544161121256	-0.01779562931281121	-0.02682029289787579	-0.015321311238826144	-0.016661099228520555	-0.008195237456238666	-0.0005273721312439791	0.004433788623982131	0.00027972775884069906	-0.002974606672913469	-0.004772853284854349	-0.014550083056657871	0.0017999785800606183	-0.013302974407199505	-0.0034883149462438395	-0.02435172765280006	-0.010087505946050068	-0.013620072887492549	-0.0049166120791920495	-0.003727231734226028	0.0021789348783854898	0.002198307204147959	-0.005847524921998366	-0.00971216306852463	-0.0214829837389297	-0.0167733275757348	-0.027123000043012414	-0.015237377160853265	-0.01803358465828917	-0.009437748812309847	0.01345450158641659	-0.0040379121631994724	0.0019634702051109926	-0.003869044408361947	-0.0036403382901993644	-0.012795826301497261	-0.00917423210891885	-0.02143842793464747	-0.009574178901811434	-0.02094240320125227	-0.010354884864533787	-0.017849517118669146	-0.007072160642411986	-0.006110903616450881	-0.0025669329515129596	-0.0032261332481408334	-0.008601733340930375	-0.008636387025006666	-0.011167523148416639	-0.013827567199044682	-0.022409100356208765	-0.016350679894173388	-0.022279001549007228	-0.011600438345910086	-0.010827243802376436	0.0018465527655923408	0.010704418826833498	-0.0020668167725881315	-0.00030443910993578627	-0.011794781255802508	-0.009606923272371205	-0.02013565619658717	-0.011797922295684132	-0.02218709618515776	-0.010260411698547856	-0.019773309272697936	-0.011780346428570065	-0.010474236735885385	-0.006740789876009505	-0.003608540642607523	-0.0055737803654322265	-0.003575906232200228	0.01004008112887364	-0.005483117801778785	-0.012220770106380889	-0.013110827402217112	-0.018673337314319416	-0.013174175410874438	-0.01469129724743307	-0.007154396563042967	0.0012466084883475392	-0.004190508746620154	-0.0001640023053157691	-0.011335046209762275	-0.007152442593186148	-0.017799446195459506	-0.011990509432943514	-0.01971488835322529	-0.011412814267559843	-0.01630637311728018	0.00043365288251041856	-0.009825444268156791	-0.0036780030020531346	-0.0038970446306257067	-0.006559054297791297	-0.006254011669154687	-0.010247871170680573	-0.009253531255064989	-0.011497350528054548	-0.007662856048445174	-0.014728847408151648	-0.012171009289815658	-0.01625631303679508	-0.011317173671881467	-0.007482326791927146	-0.006080623873541465	-0.0037425864827599457	-0.006258901090060498	-0.0026723668442850818	-0.013513422150143912	-0.00929696978249299	-0.016617952953485372	-0.011004008991467078	-0.009298164627900875	0.01578301197343049	-0.008709129425868413	-0.00040095778055485726	-0.005261706008877189	-0.004768297214137261	-0.005408120750792087	-0.007744884349763802	-0.007619602424979912	-0.007156464980164472	-0.009611111400423759	-0.014060573276409569	-0.011116452710303162	-0.014794724959584175	-0.010455616129342312	-0.010022439014447312	-0.006518818774033146	-0.003891516671320726	-0.002401839491100309	0.005967266193521878	-0.008412840508266885	-0.0041915673456738925	-0.01312507551319331	-0.006873823485051406	-0.014670798941054223	-0.007343452083350351	-0.01346577703583194	-0.006172910699254221	-0.00555792570297263	-0.005977394393225519	-0.005244714256826183	-0.004948881291769916	-0.006647202029643879	-0.010965295070581246	-0.00781552974167738	-0.012980978521659626	-0.007884468307989494	-0.008948336704941572	-0.008830767792389612	-0.009610029516262886	-0.008173321076676215	-0.005032393854354136	-0.005870241659158556	0.0003453635545086625	0.003489709748580566	0.0036869987625890097	-0.009699996951633979	-0.0064783861566327025	-0.013201198330443708	-0.007944179836675794	-0.012554549869050108	-0.00826248007011501	-0.0042593627947229845	-0.005279286876350396	-0.004544524646012911	-0.004655324427747482	-0.005653062726246397	-0.010549437222261617	-0.006477249345883566	-0.008953675895557043	-0.0013478563673516367	0.010771374618347582	-0.006558379632347466	-0.007928614912425608	-0.00652149947276599	-0.004758812379477489	-0.006961756003890856	-0.004140390428571856	-0.006969175893683614	0.0033998771053369292	-0.008969665631798397	-0.00566669683032724	-0.0111877964089812	-0.006348125337040551	-0.01256752271628344	-0.00892376969643165	-0.006928873392563449	-0.004303363077337974	-0.002254826885464238	6.271540995292368e-06	-0.003093303015949865	-0.003672774286155034	-0.005960410598213596	-0.009616981850122271	-0.006885811708073966	-0.00854816667709941	-0.0043340022360785525	-0.003214006727675238	-0.0046992563858488726	-0.0038817989461641528	-0.004978010225716544	-0.003985225352835194	-0.005919390569355802	-0.002556337333175566	-0.007521250963767746	-0.005655843309933548	-0.007973807729006945	-0.005221192651523439	-0.010613780650863026	-0.0076250916579301276	-0.007890177210938869	-0.004331703272121231	0.008813937606888228	0.021493321315911113	-0.0011813279103561093	-0.0027996071998014765	-0.003301503154114968	-0.005867249400332602	-0.005024375077953756	-0.0096419944632101	-0.003940399819403844	-0.0010217987026130207	-0.00629951530415691	-0.006574993956871247	-0.004378864377153277	-0.0027503332671196846	-0.003991406877662643	-0.00392430497808758	-0.005547736248716576	-0.0026638361205218973	-0.00429904669415445	-0.0030113537717063876	-0.00585672089667685	-0.004717141122031893	-0.006988232419205334	-0.004555091282883252	-0.002851150258574714	-0.002525937221774039	-0.003816812299474122	-0.003828534800023542	-0.00288753051027648	-0.004720359407792835	-0.0030312957541812104	-0.007324794700348341	-0.00601307896417657	-0.006717331467095949	-0.005424399189469537	-0.005332570948062158	-0.0012209317499838439	-0.0020112481732906633	-0.004179007813412013	-0.0023519409824332843	-0.0042321230841732525	-0.003438043408294525	-0.004529713879339658	0.0007222416807806109	0.001733218644211193	0.00026900189791251305	-0.004173276905076951	-0.003969493903549892	-0.004644990414906271	-0.004658830211321248	-0.0031086093115376585	-0.004062023028673135	-0.0014922766124498624	-0.004021513173167179	-0.0027304340724945593	-0.0057663422432711955	-0.004674979211761927	-0.008052789353895747	-0.004222784078633187	-0.00460096091802056	0.003587215286361016	0.013290802606498814	-0.003187933702649661	-0.00037956878566609495	-0.00349570282090134	-0.0008985072704179066	-0.004599600859150576	-0.0026201165040915	-0.003538090011693071	0.002420624572143846	-0.005516392797981953	-0.004051246867771242	-0.002081194324204009	-0.0025904748895107382	-0.0031581611790351925	-0.0033906219434081397	-0.0030881043652271657	-0.0038438828518286387	0.0018554228600832223	0.00023993536262000015	-0.0028000088968490496	-0.003088523919873489	-0.0032540073292825836	-0.004337247124240912	-0.003525817098735066	-0.0029451544282169256	-0.0012105991752097492	-0.0002758364837907451	-0.0014726848810760196	-0.0020299924455977406	-0.002911555273768282	-0.002651290420084204	-0.005380888871635545	-0.0030541063411965094	-0.004479064232544407	-0.0038734061908470147	-0.0033885490972800497	-0.002970369263295504	-0.002422431460617741	-0.0034303461594249445	-0.0014730658960936012	-0.002349403067996775	0.011663418179535937	0.017207170363190943	-7.159729138775384e-05	-0.0013138180800897417	-0.001981446244014369	-0.003122010950970467	-0.0032074943982793418	-0.0033232811118930443	0.0022972527079609915	0.0034035035941656876	-0.0021865182201650096	-0.0009175898763726167	-0.0016803334089200948	-0.002052922130221197	-0.003387779716855506	-0.0032202998961671486	-0.004170190723801089	-0.002296674499076723	-0.001104447440979095	-0.0004442843511172946	-0.0017195145273472892	-0.0024125099441107446	-0.0011649014339814613	-0.0020007346525487864	-0.00029076262261805777	-0.0026225716479790634	-0.001381244447572821	-0.0022106717579221218	-0.0017283385835401115	-0.0036124067023046366	-0.002114506861383064	-0.0023454068629018346	-0.0014149561637975538	-0.0013659562592380006	-0.002531195188764013	-0.001260854685478336	-0.0010635423583504576	-0.002283102689521019	-0.002487242486482289	-0.0025376576771864168	-0.002321416285729086	-0.0013850700991647306	-0.0030533528219261474	0.003747664271631916	0.004173537313493035	0.002972800177509557	0.0002466747834668562	-8.675653019521792e-05	-9.195189101071644e-06	-0.0013140027054298793	-0.0017611188609616968	-0.001913247937187841	-0.00028691209667498774	-0.0030944938387509544	-0.001262599750196887	-0.001799051489111983	-0.0027577690439035234	-0.0022655139239121727	-0.0005751010705273701	-7.399948731701828e-05	0.00768127766259686	0.012472998029088439	-4.643019109924068e-06	-0.00027921043583880104	-0.0004385591562069656	-0.0020197081635470685	-0.002182641139465119	-0.0019388995159728452	-0.00040291176966892467	0.002711675088681146	0.0001462468468784242	-0.0017762111947961547	7.159128672688114e-05	-0.0005807923739438413	-0.0013203862613275722	-0.0018371045693436755	-0.0003435345115815336	-0.0016544830356042765	0.0038785333509001214	0.0010614863339985792	0.00048521111284843474	-0.000795681772001778	8.919734122693306e-05	-0.0021232242779879295	-0.0010844925303554725	-0.0013617669934910277	-0.0003098779915770601	0.0002556560975082965	0.0009149221725924285	-0.00010475925637922802	-0.00028565630855206803	-0.003097887594634866	-0.0018601305598771375	-0.0017265678470071173	-0.0009109836597827759	-0.002348334735824839	0.0002553167708886292	-0.0014342024809250262	-0.0013246423026793339	-0.00048232465270514266	0.001233043824776913	-0.001241138497602122	0.022864989657391366	0.005707615221835188	0.002691435826351656	0.00045631216765042865	-0.00042945074474003836	-0.0008669073787499065	-0.0019859656223830593	0.0002504808492344128	0.003783339975042911	0.0022972600608697803	-0.001331669573984855	-7.869960300380813e-05	-0.000608050573872268	-0.0009358466552740717	-0.0018225758124386718	-0.0027139387682114345	0.00011554899901877053	-0.002244620574888334	0.0016781966871304461	0.00021966894827180408	0.0010759359670313197	-0.0011087377307119027	-0.0007876218129787022	-0.0025933522816884783	0.0006867791928691774	-0.000388478216765957	-0.0012001089312034946	-0.001646673947065443	-0.0008987101992337931	-0.0016589496751666637	-7.748435986144539e-05	-0.0011554544960234118	0.000325445656079483	-0.0014399782459707678	0.0011787420829361406	-0.0017002186428804363	0.0015315899865601217	-0.001018897681694754	-0.0010232250729089714	-0.0011463503248875778	0.0005202649808050616	-0.0007764225456799671	-1.7453458357030022e-06	0.005603122280687947	0.002601668162660987	0.0010579637339490251	-0.00018144215978314893	0.0001740715835014308	-0.0007121773058209793	-0.0009980968912873377	-2.022902472337794e-05	0.0010585912873867977	-2.1924204813512926e-05	-0.0006801526118499109	-5.807338913959778e-05	-9.669787567308935e-05	0.0004465728241499489	-0.0013089027964832047	-0.00019207357323598913	-0.0008238017837479631	0.014785826705447098	0.0013061594487425929	0.002220229837182758	-0.00035970187467596407	1.749727149526377e-05	-0.0007895487300049724	-0.000885542158707826	-0.0014229053120339737	0.0035533619739414463	0.0010949301061491251	-0.00020059107715481722	-0.0006943096024076851	0.0009019859867874305	-0.0008580692588792994	-0.0010070598588553647	-0.0007049314683035771	3.796140038907908e-05	-0.0005251800874413199	0.006374546652957971	-0.00043135368848314093	0.0034492400273144486	-0.0007087143008110003	-4.067748259886303e-05	-0.0005756007838913432	-0.0006785241424785912	-0.0011846279565744522	0.001697011600761137	0.00038151845465317184	0.0012825032125234545	-0.0005022593483242129	-0.0010332278948148883	-0.0007840277370491783	0.00020225799699285021	2.263686917869899e-05	0.0007227787601877846	0.0003937960225784288	0.0018310521637607269	-0.000998826742979601	-0.00046935897269609166	-0.001861183300175942	0.0012012920104405647	0.001115493648817625	0.01874398951038056	-0.00010029554677801894	0.003182838866560622	-0.00153584415601434	-0.0008541292177390147	-0.0008520153246618992	0.0001950280503461438	-0.0009988972461350155	0.005508749620721624	0.0007182586984461684	-0.00024483669680620823	-0.00012330967746785465	0.0023500615121850206	-2.270599767879508e-05	-0.0016935408362688253	-0.0012924073213316806	-0.000212760422330106	-0.00023855107122156688	0.002414527504130057	0.0011088307470983657	-0.0001417364298528269	0.0005433203524218173	0.00013931924056128503	0.000687486950210002	0.002080668873152563	-0.0007258702552847187	-4.498947722907445e-06	0.00034596003178542084	0.0003456425155763561	-0.0002970191361416786	0.0005460006058854994	0.00012928955107175018	0.0009858350548184944	-0.001008055530129533	-0.0006441598951211734	0.0005637623062651528	0.00163254261123481	-0.0008127079080402673	-0.0004627390421633251	-0.001105886068684372	0.001341642393780769	0.0007044245091078587	0.0008228784074990423	0.005574729539372603	0.0028832962211286887	-0.00036062898957984167	-0.00013965866686346633	8.111609068392825e-06	0.0006528816483511099	-0.0002599973473063604	0.00012393762048350243	0.0008480523598061486	-0.00014339684765210005	-4.56133537800156e-06	0.0014165405473360176	-0.0003453613299078274	-0.000791509888274906	0.0002692108241305639	-0.0004546226185717702	-0.000623928209270451	0.010630858601496242	-0.00043686006089757243	0.002269031171778433	-0.0003185059805797044	0.0003841752415382465	-0.00014014360019561252	-0.001041707041574108	0.0002840452534236754	0.002824730749493765	-0.00011309146801317428	-1.4111309920241191e-05	-0.0005417391227331356	0.0002535854757416047	-0.000722984858249065	-0.0016381004357035075	-0.00024915840192048233	-6.741976614541099e-05	-0.0009980898387518984	0.003442426114642679	0.0009855204500719868	0.001001241646712333	-0.0005744026354442457	-0.0011310711277827084	0.00012360794529037503	0.0004007223765267968	-0.001097774190491057	-0.0008735133269870193	0.0010349323147964265	0.00045735788279726826	-0.0008696715342382433	-0.0013724341068961402	-0.0005577055008330457	-0.0010805811308137563	5.472431981989531e-05	-0.0016721152282105653	0.0008674181316760098	0.0008783919816811166	-0.0005524519631744836	-0.00045988963293430973	-0.0002987285961648056	0.0	0.0	0.0	0.0	0.0	0.0	0.0	0.0	0.0	0.0	0.0	0.0	0.0	0.0	0.0	0.0	0.0	0.0	0.0	0.0	0.0	0.0	0.0	0.0	0.0	0.0	0.0	0.0	0.0	0.0	0.0	0.0	0.0	0.0	0.0	0.0	0.0	0.0	0.0	0.0	0.0	0.0	0.0	0.0	0.0	0.0	0.0	-9.127363148868607e-05	0.0	0.0	0.0	0.0	0.0	0.0	0.0	0.0	0.0	0.0	0.0	-0.0003170672769123534	0.0	0.0	0.0	0.0	0.0	0.0	0.0	0.0	0.0	0.0	0.0	0.0	0.0	0.0	10000.0	P1
