	m0.000	m1.000	m2.000	m3.000	m4.000	m5.000	m6.000	m7.000	m8.000	m9.000	m10.000	m11.000	m12.000	m13.000	m14.000	m15.000	m16.000	m17.000	m18.000	m19.000	m20.000	m21.000	m22.000	m23.000	m24.000	m25.000	m26.000	m27.000	m28.000	m29.000	m30.000	m31.000	m32.000	m33.000	m34.000	m35.000	m36.000	m37.000	m38.000	m39.000	m40.000	m41.000	m42.000	m43.000	m44.000	m45.000	m46.000	m47.000	m48.000	m49.000	m50.000	m51.000	m52.000	m53.000	m54.000	m55.000	m56.000	m57.000	m58.000	m59.000	m60.000	m61.000	m62.000	m63.000	m64.000	m65.000	m66.000	m67.000	m68.000	m69.000	m70.000	m71.000	m72.000	m73.000	m74.000	m75.000	m76.000	m77.000	m78.000	m79.000	m80.000	m81.000	m82.000	m83.000	m84.000	m85.000	m86.000	m87.000	m88.000	m89.000	m90.000	m91.000	m92.000	m93.000	m94.000	m95.000	m96.000	m97.000	m98.000	m99.000	m100.000	m101.000	m102.000	m103.000	m104.000	m105.000	m106.000	m107.000	m108.000	m109.000	m110.000	m111.000	m112.000	m113.000	m114.000	m115.000	m116.000	m117.000	m118.000	m119.000	m120.000	m121.000	m122.000	m123.000	m124.000	m125.000	m126.000	m127.000	m128.000	m129.000	m130.000	m131.000	m132.000	m133.000	m134.000	m135.000	m136.000	m137.000	m138.000	m139.000	m140.000	m141.000	m142.000	m143.000	m144.000	m145.000	m146.000	m147.000	m148.000	m149.000	m150.000	m151.000	m152.000	m153.000	m154.000	m155.000	m156.000	m157.000	m158.000	m159.000	m160.000	m161.000	m162.000	m163.000	m164.000	m165.000	m166.000	m167.000	m168.000	m169.000	m170.000	m171.000	m172.000	m173.000	m174.000	m175.000	m176.000	m177.000	m178.000	m179.000	m180.000	m181.000	m182.000	m183.000	m184.000	m185.000	m186.000	m187.000	m188.000	m189.000	m190.000	m191.000	m192.000	m193.000	m194.000	m195.000	m196.000	m197.000	m198.000	m199.000	m200.000	m201.000	m202.000	m203.000	m204.000	m205.000	m206.000	m207.000	m208.000	m209.000	m210.000	m211.000	m212.000	m213.000	m214.000	m215.000	m216.000	m217.000	m218.000	m219.000	m220.000	m221.000	m222.000	m223.000	m224.000	m225.000	m226.000	m227.000	m228.000	m229.000	m230.000	m231.000	m232.000	m233.000	m234.000	m235.000	m236.000	m237.000	m238.000	m239.000	m240.000	m241.000	m242.000	m243.000	m244.000	m245.000	m246.000	m247.000	m248.000	m249.000	m250.000	m251.000	m252.000	m253.000	m254.000	m255.000	m256.000	m257.000	m258.000	m259.000	m260.000	m261.000	m262.000	m263.000	m264.000	m265.000	m266.000	m267.000	m268.000	m269.000	m270.000	m271.000	m272.000	m273.000	m274.000	m275.000	m276.000	m277.000	m278.000	m279.000	m280.000	m281.000	m282.000	m283.000	m284.000	m285.000	m286.000	m287.000	m288.000	m289.000	m290.000	m291.000	m292.000	m293.000	m294.000	m295.000	m296.000	m297.000	m298.000	m299.000	m300.000	m301.000	m302.000	m303.000	m304.000	m305.000	m306.000	m307.000	m308.000	m309.000	m310.000	m311.000	m312.000	m313.000	m314.000	m315.000	m316.000	m317.000	m318.000	m319.000	m320.000	m321.000	m322.000	m323.000	m324.000	m325.000	m326.000	m327.000	m328.000	m329.000	m330.000	m331.000	m332.000	m333.000	m334.000	m335.000	m336.000	m337.000	m338.000	m339.000	m340.000	m341.000	m342.000	m343.000	m344.000	m345.000	m346.000	m347.000	m348.000	m349.000	m350.000	m351.000	m352.000	m353.000	m354.000	m355.000	m356.000	m357.000	m358.000	m359.000	m360.000	m361.000	m362.000	m363.000	m364.000	m365.000	m366.000	m367.000	m368.000	m369.000	m370.000	m371.000	m372.000	m373.000	m374.000	m375.000	m376.000	m377.000	m378.000	m379.000	m380.000	m381.000	m382.000	m383.000	m384.000	m385.000	m386.000	m387.000	m388.000	m389.000	m390.000	m391.000	m392.000	m393.000	m394.000	m395.000	m396.000	m397.000	m398.000	m399.000	m400.000	m401.000	m402.000	m403.000	m404.000	m405.000	m406.000	m407.000	m408.000	m409.000	m410.000	m411.000	m412.000	m413.000	m414.000	m415.000	m416.000	m417.000	m418.000	m419.000	m420.000	m421.000	m422.000	m423.000	m424.000	m425.000	m426.000	m427.000	m428.000	m429.000	m430.000	m431.000	m432.000	m433.000	m434.000	m435.000	m436.000	m437.000	m438.000	m439.000	m440.000	m441.000	m442.000	m443.000	m444.000	m445.000	m446.000	m447.000	m448.000	m449.000	m450.000	m451.000	m452.000	m453.000	m454.000	m455.000	m456.000	m457.000	m458.000	m459.000	m460.000	m461.000	m462.000	m463.000	m464.000	m465.000	m466.000	m467.000	m468.000	m469.000	m470.000	m471.000	m472.000	m473.000	m474.000	m475.000	m476.000	m477.000	m478.000	m479.000	m480.000	m481.000	m482.000	m483.000	m484.000	m485.000	m486.000	m487.000	m488.000	m489.000	m490.000	m491.000	m492.000	m493.000	m494.000	m495.000	m496.000	m497.000	m498.000	m499.000	m500.000	m501.000	m502.000	m503.000	m504.000	m505.000	m506.000	m507.000	m508.000	m509.000	m510.000	m511.000	m512.000	m513.000	m514.000	m515.000	m516.000	m517.000	m518.000	m519.000	m520.000	m521.000	m522.000	m523.000	m524.000	m525.000	m526.000	m527.000	m528.000	m529.000	m530.000	m531.000	m532.000	m533.000	m534.000	m535.000	m536.000	m537.000	m538.000	m539.000	m540.000	m541.000	m542.000	m543.000	m544.000	m545.000	m546.000	m547.000	m548.000	m549.000	m550.000	m551.000	m552.000	m553.000	m554.000	m555.000	m556.000	m557.000	m558.000	m559.000	m560.000	m561.000	m562.000	m563.000	m564.000	m565.000	m566.000	m567.000	m568.000	m569.000	m570.000	m571.000	m572.000	m573.000	m574.000	m575.000	m576.000	m577.000	m578.000	m579.000	m580.000	m581.000	m582.000	m583.000	m584.000	m585.000	m586.000	m587.000	m588.000	m589.000	m590.000	m591.000	m592.000	m593.000	m594.000	m595.000	m596.000	m597.000	m598.000	m599.000	m600.000	m601.000	m602.000	m603.000	m604.000	m605.000	m606.000	m607.000	m608.000	m609.000	m610.000	m611.000	m612.000	m613.000	m614.000	m615.000	m616.000	m617.000	m618.000	m619.000	m620.000	m621.000	m622.000	m623.000	m624.000	m625.000	m626.000	m627.000	m628.000	m629.000	m630.000	m631.000	m632.000	m633.000	m634.000	m635.000	m636.000	m637.000	m638.000	m639.000	m640.000	m641.000	m642.000	m643.000	m644.000	m645.000	m646.000	m647.000	m648.000	m649.000	m650.000	m651.000	m652.000	m653.000	m654.000	m655.000	m656.000	m657.000	m658.000	m659.000	m660.000	m661.000	m662.000	m663.000	m664.000	m665.000	m666.000	m667.000	m668.000	m669.000	m670.000	m671.000	m672.000	m673.000	m674.000	m675.000	m676.000	m677.000	m678.000	m679.000	m680.000	m681.000	m682.000	m683.000	m684.000	m685.000	m686.000	m687.000	m688.000	m689.000	m690.000	m691.000	m692.000	m693.000	m694.000	m695.000	m696.000	m697.000	m698.000	m699.000	m700.000	m701.000	m702.000	m703.000	m704.000	m705.000	m706.000	m707.000	m708.000	m709.000	m710.000	m711.000	m712.000	m713.000	m714.000	m715.000	m716.000	m717.000	m718.000	m719.000	m720.000	m721.000	m722.000	m723.000	m724.000	m725.000	m726.000	m727.000	m728.000	m729.000	m730.000	m731.000	m732.000	m733.000	m734.000	m735.000	m736.000	m737.000	m738.000	m739.000	m740.000	m741.000	m742.000	m743.000	m744.000	m745.000	m746.000	m747.000	m748.000	m749.000	m750.000	m751.000	m752.000	m753.000	m754.000	m755.000	m756.000	m757.000	m758.000	m759.000	m760.000	m761.000	m762.000	m763.000	m764.000	m765.000	m766.000	m767.000	m768.000	m769.000	m770.000	m771.000	m772.000	m773.000	m774.000	m775.000	m776.000	m777.000	m778.000	m779.000	m780.000	m781.000	m782.000	m783.000	m784.000	m785.000	m786.000	m787.000	m788.000	m789.000	m790.000	m791.000	m792.000	m793.000	m794.000	m795.000	m796.000	m797.000	m798.000	m799.000	m800.000	m801.000	m802.000	m803.000	m804.000	m805.000	m806.000	m807.000	m808.000	m809.000	m810.000	m811.000	m812.000	m813.000	m814.000	m815.000	m816.000	m817.000	m818.000	m819.000	m820.000	m821.000	m822.000	m823.000	m824.000	m825.000	m826.000	m827.000	m828.000	m829.000	m830.000	m831.000	m832.000	m833.000	m834.000	m835.000	m836.000	m837.000	m838.000	m839.000	m840.000	m841.000	m842.000	m843.000	m844.000	m845.000	m846.000	m847.000	m848.000	m849.000	m850.000	m851.000	m852.000	m853.000	m854.000	m855.000	m856.000	m857.000	m858.000	m859.000	m860.000	m861.000	m862.000	m863.000	m864.000	m865.000	m866.000	m867.000	m868.000	m869.000	m870.000	m871.000	m872.000	m873.000	m874.000	m875.000	m876.000	m877.000	m878.000	m879.000	m880.000	m881.000	m882.000	m883.000	m884.000	m885.000	m886.000	m887.000	m888.000	m889.000	m890.000	m891.000	m892.000	m893.000	m894.000	m895.000	m896.000	m897.000	m898.000	m899.000	m900.000	m901.000	m902.000	m903.000	m904.000	m905.000	m906.000	m907.000	m908.000	m909.000	m910.000	m911.000	m912.000	m913.000	m914.000	m915.000	m916.000	m917.000	m918.000	m919.000	m920.000	m921.000	m922.000	m923.000	m924.000	m925.000	m926.000	m927.000	m928.000	m929.000	dose	pattern
P1_SQ1_r500	0.0	-0.0541527621266267	-0.0022167220420377144	-0.00040463925942710007	-9.745882901854073e-06	0.0	1.309589969074655e-05	0.0001347536346930812	0.0	-5.963244714144532e-07	1.4750877889649586e-05	7.4627529533953e-05	-0.012349669074570562	-0.00958145596396183	-0.01432895094946749	-0.016750169793265074	-0.0012490977639982386	-0.000642133438670632	5.137390444558132e-05	0.001954901073673413	1.9594211392217664e-05	-4.505583251193477e-05	-6.731592166026149e-07	0.5012171599475012	0.017197020283315552	-0.005827389299962134	-0.044641821895577374	0.47626788658083274	-0.153137401878416	0.1577826076146902	-0.002092734704068941	-0.03477839666945669	-0.0006547637047422663	2.9848146396888172e-05	0.0001229755228383554	2.2816382926768195e-05	-0.002348037685729197	-0.04187316329744106	-0.06111637010056392	-0.2518404504198928	-0.012785010242808759	0.2262266640336399	0.04364760467368073	0.15650856589399242	-0.0002878227196951577	-0.3974677492410324	-0.023570375018567954	-0.02257842954754152	-0.0009586755265186065	-0.01401175005546684	-0.15891665255353835	-0.30764274291997573	-0.05886470382925052	-0.18725061269974919	-0.000479751803633896	0.03960612444663325	0.023423431069028264	0.08455338973727905	0.0002468999416121026	0.00209948748964299	-0.0014804282670758291	-0.03158352498809941	-0.15141507347736782	-0.32441659271178036	-0.05456379582059772	-0.12308912187750184	-0.04220159309526038	-0.025235795362441776	-0.005348915379456046	-0.02309997703114397	0.0027984621144293356	-0.010214469528561032	-0.02214375568734181	-0.007962407247595296	-0.16948437676636657	-0.1636595718433597	-0.05611523583159103	-0.20164226421087939	-0.054839626630593885	-0.05863112063948253	-0.01083967248705927	-0.020125422252141895	-0.005891099102122013	-0.009278106277543975	-0.00449519951920708	-0.035789416131208576	-0.11951599562037965	-0.13124820547957267	-0.046768144122364436	-0.09334186156851829	-0.027313680489325552	-0.10281899451179724	-0.01778104492059565	-0.01738376297229202	-0.007020803389028231	-0.017915150419470907	-0.003415445743331448	-0.01459103489425799	-0.1098945948954834	-0.07342308678296403	-0.019603924301477282	-0.05328929705389669	-0.043267826805530124	-0.029506915401803863	-0.0076237629326818546	-0.029607356093517723	-0.00739144699216332	-0.01304730984759235	-0.004723950365593102	-0.026073718164220293	-0.06941928868661829	-0.05887290577608222	-0.013488570140250514	-0.03452839982656147	-0.020521858519084946	-0.12309660609851206	-0.02912409766329458	-0.017021233198582827	-0.005133300403036084	-0.006996611210535922	-0.005469889226964923	-0.009527299300730818	-0.060011469596315994	-0.03280795408060303	-0.009056970424979941	-0.01883228139252055	-0.04138596750833733	-0.050121658537658584	-0.07625649128237436	-0.0319755216664255	-0.008085722491287094	-0.01264237870957368	-0.008787472725195542	-0.01836399258085573	-0.03586526765232804	-0.022626908938678636	-0.005568102224630095	-0.02178899435798077	-0.014141431333573037	-0.06713188697928346	-0.015259048695092967	-0.032753758836017416	-0.0102544476888559	-0.0071341968309614895	-0.0060817797409009585	-0.007050705290106488	-0.016650431014205422	-0.015485094801943239	-0.005673388462630293	-0.02165013115357855	-0.05151381330807768	-0.05060044471151213	-0.07225730503831881	-0.033284200482048026	-0.011067477751545526	-0.013530651701948289	-0.004968532339657212	-0.008653658909627918	-0.017245053228652787	-0.010057206286118387	-0.003254092652501878	-0.01766137494822892	-0.021658416701129453	-0.04569798735601166	-0.028669172442546024	-0.06369082178465567	-0.014885375437803916	-0.009143461465704179	-0.005890806615124212	-0.007022696956673965	-0.013898998494115567	-0.009434350534232493	-0.0018419436957448597	-0.008505425644628549	-0.031185781747178995	-0.02078771857904917	-0.04172110398366613	-0.018920779317371218	-0.026276914259887686	-0.011919828799849352	-0.00484476316972639	-0.009589012078001863	-0.009027141374064202	-0.009353647343331774	-0.0031177890966734255	-0.014797306953587084	-0.019887356579222266	-0.051524388712004564	-0.018569261600734452	-0.05450761367982326	-0.01655544730669868	-0.012190279180588334	-0.005504362909304735	-0.003358330219277844	-0.006025763882318444	-0.0041883878214247754	-0.0022192824335486062	-0.007592556929809234	-0.022905560038017733	-0.022200666673992932	-0.04417211686457063	-0.026078350503931744	-0.03818084490149251	-0.015504612025592878	-0.005129761575726365	0.012738536626724667	-0.004615077878584204	-0.005791785051874908	-0.003056318936165376	-0.011158117715560498	-0.0127840730490129	-0.03626650776894816	-0.01626577113886981	-0.04081119915357142	-0.015576543308217334	-0.021310279740850816	-0.007198537305854081	-0.0033697536635586235	-0.0034315531842530242	-0.002843931290123924	-0.0025252839831976914	-0.006130760430398967	-0.021759177070754383	-0.021389312652245043	-0.04253339197694706	-0.024627701901540424	-0.0367543927815077	-0.015099005357122684	-0.00892164735139317	-0.00583997521804449	-0.0029664256335509443	-0.002716714015136075	-0.0027054201012699994	-0.010575016447376063	-0.00935087570531978	-0.026173007054078115	-0.01759176102754684	-0.03582703004973261	-0.014789516854538567	-0.02616169980274821	-0.009906714718658899	-0.006681217290356813	-0.007265435437936139	-0.0035686242893953266	-0.002303176946207084	-0.004508424192293085	-0.01408583959666343	0.007212500259616228	-0.027773246316979805	-0.02094275967357994	-0.03085991816209243	-0.012922971713163676	-0.013772817006955495	-0.00697650315230252	-0.003289768661941015	-0.00422788841892074	-0.003208667484540309	-0.009453724282074832	-0.0071948271284917546	-0.022931572714646263	-0.014571922750276255	-0.03154676946700361	-0.014645904571222996	-0.02517430680325232	-0.009070999746933456	-0.0067187268237921954	-0.0038501593847790287	-0.0029156286208302778	-0.003189911788538406	-0.0044712119405201315	-0.010335077790969115	-0.008398476384623746	-0.020740981479637183	-0.015119750512673072	-0.027343365975477416	-0.01343584525183709	-0.017081993330498358	-0.007420669267766361	-0.0035291063330483907	-0.0030889769951806924	-0.002336095247017331	-0.006546923732871713	-0.005281086460461308	-0.017688792496349002	-0.010599698836311656	-0.02503082773694266	-0.01179029840266941	-0.02385887392548983	-0.008300737020523762	-0.010515439218601798	0.0041214957859993726	-0.005495013146304767	-0.0034314222384753466	-0.004459618861557835	-0.008122649797378	-0.0067033246747322936	-0.017196900056399324	-0.01028813400995127	-0.022438513510208872	-0.012164428221107623	-0.017373056109407668	-0.009441812590395482	-0.006245147706676377	-0.004326257786871948	-0.0023442393356551284	-0.0049441961664746185	-0.0032270322137703047	0.0005564482411642702	-0.007874484530756159	-0.018806295444421597	-0.009875296131185181	-0.020033219005267024	-0.008546506650788453	-0.012316443316153121	-0.0058182493502636715	-0.005229821321918376	-0.0032273993856328197	-0.0037117950062265093	-0.006964721631747034	-0.005174178788171313	-0.013155505393565407	-0.00824312073902109	-0.017248344513380205	-0.009069467129528188	-0.0154974383900299	-0.008452798817986065	-0.007015043143394781	-0.004863231368852877	-0.0023986915376154635	-0.004353611631877922	-0.0028997151481634717	-0.00791708113278404	-0.00543282436743134	-0.0132961512362067	-0.00760671110928926	-0.016533997785927203	-0.007252689613065439	-0.012354237300121165	-0.005882861448515463	-0.0047305386393474156	-0.003354843263515179	-0.0024392960516988202	-0.004282767447433175	-0.004668016085484065	-0.008527409803690177	-0.006489612078448533	-0.012243037807534229	-0.007365692835562416	-0.01487805264158951	0.014085181122278273	-0.00820737274636726	-0.005325046945578895	-0.002925067410321468	-0.0040181263856227285	-0.002484413848675704	-0.005882776641174109	-0.004184774585109825	-0.011745627264521524	-0.006066909009673391	-0.013186273411180616	-0.006711242794789707	-0.012146300196855515	-0.005497678490018249	-0.005236239232603548	-0.003447449486873439	-0.0015814771410677273	-0.0036117315271789133	-0.004059695115799376	-0.006497192933253735	-0.00435409877474638	-0.009939172228416317	-0.0058608424976554175	-0.010353011134056903	-0.00565354034166986	-0.008390489475929915	-0.004608522933506921	-0.00365650305078903	-0.0039604168436666795	-0.0018690189054376052	-0.0037159473415492084	-0.003088231689061767	-0.007505488536765425	-0.0040078060236014845	-0.008854764272069379	-0.005651819126359932	-0.00981230711512994	-0.004909770547684159	-0.005784017130976066	-0.0033996420597319416	-0.0027960509133862317	-0.0026771643348184083	0.00013288216809896267	-0.00013368044607689478	-0.00557250059263149	-0.006603366520896687	-0.004651448636729496	-0.008520696956683936	-0.004858468395518	-0.0071496224321473	-0.0047198527665137605	-0.004024921578165438	-0.0034790473014703785	-0.002316864717845781	-0.002803331866442379	-0.0027476321702617637	-0.005478118316763685	-0.003395542179779246	-0.0070653825003523605	-0.004360347726053328	-0.004643662402252419	-0.004038596588389919	-0.005839237021156891	-0.0034662528355491346	-0.003255863537869192	-0.002693469923898769	-0.0023114149830065814	-0.0035946777760352665	-0.004411252407743905	-0.005079163624042662	-0.0035119664292875205	-0.006463458985177267	-0.003422321227534023	-0.006737612261078232	-0.004156053889467342	-0.0035409216409499613	-0.0022197746993703063	-0.002744349911400585	-0.004337350055757264	-0.001779981301937204	-0.003768419865309845	-0.0025470358947704778	-0.0049565440023320965	-0.003086233958201401	-0.00550815896913664	-0.0031290936846533495	-0.006217117810168897	-0.0036269592036414777	-0.003811465025508061	-0.002437833866524678	-0.0016415453375473433	-0.002464748529758944	-0.002142369349743997	-0.0036976408035821083	-0.0029900801166061926	-0.005169006339789994	-0.003410024439505023	-0.005196511300833939	-0.0029837496718412883	-0.00404778057951432	-0.003265094845823091	-0.004007449581785581	0.01075279375087379	-0.0013002021718523517	-0.0015926948020755722	-0.0019248230348719567	-0.0037749097524594176	-0.002092365010227574	-0.004270833569689436	-0.003177580799307243	-0.0066631978167350165	-0.0028589278483924768	-0.003009431390557621	-0.002296671181920285	-0.0020009131480098145	-0.0021663159782408952	-0.001875828466087188	-0.0025720813840534942	-0.0011928003040385425	-0.003395278955714633	-0.001904377268585172	-0.004236361144833361	-0.00308317797996467	-0.00364812818907744	-0.002341387069240035	-0.0019355763597668364	-0.0018536569598300353	-0.0015419154907243908	-0.002120002189751069	-0.001327635521055317	-0.0026351525193708727	-0.0018170731061602388	-0.002642190020126933	-0.0022024200809141192	-0.00397483215959707	-0.0020905893264367404	-0.002606868919128964	-0.002396306992497919	-0.0019912568687900016	-0.0016547097418697831	-0.0013633299229556834	-0.0019613342398644065	-0.0016860774830362315	-0.0025263805373084876	0.00038613849265032793	-0.0028750415464107726	-0.0028280085691993473	-0.002827575932016379	-0.0020356420965150614	-0.0018660516046622058	-0.0016545501667808026	-0.0013856524889631135	-0.0015270187448671322	-0.0012898704674150741	-0.002032492376199475	-0.0019513068625978149	-0.002345344065690277	-0.0015761866442845101	-0.002613791383017489	-0.0020752847536181073	-0.0020583105828180528	-0.0018008333611048439	-0.0014252000065639522	-0.0015452076279500928	-0.0009775750637956012	-0.0016492745441225754	-0.000980554551059126	-0.0017398350759390536	-0.001345790518632898	-0.0024970150681794152	-0.0023072154832495645	-0.0025817983291270335	-0.0018279654805266772	-0.0018220602566864628	-0.0011025256064856486	-0.0013607289112655262	-0.0014409967294228454	-0.0012961228364186928	-0.0014278416107405777	-0.002076399254709001	-0.003268486525326181	-0.0017400356260382993	-0.0022401692260723576	-0.001490400154285639	-0.0019665940457166972	-0.0014935957661292004	-0.0015967557017791424	-0.0014604978375598993	-0.0011161723764800953	-0.0015749588452392946	-0.0010330556049924324	-0.0017893130767056584	-0.0012278903724072339	-0.0018955287701365813	-0.0013819788028155938	-0.0019168677750605546	-0.0011626835263111937	-0.0017281581283104532	-0.0011962195244445608	-0.001170132611746377	-0.0011059385111908534	-0.001051479391699273	-0.0014167884942726	-0.002666322483117	0.007552898984355669	-0.0011534346096964167	-0.0013539180744616035	-0.0012542302227230037	-0.0015569882640776515	-0.0015214360586215947	-0.0014155876781691583	-0.0017152393509557672	-0.0025689317535892717	-0.0009655971837892998	-0.0009441780516205716	-0.0010654165046524275	-0.0007800259829943207	-0.0014235781986810432	-0.0006720526416168927	-0.0015053324273889756	-0.00045695759681788723	-0.0019349520588706325	-0.000863135290875016	-0.0013106535298025453	-0.0010691370907566918	-0.0007440363456266725	-0.0010101548841359382	-0.0008121942797018721	-0.0015341204852405877	-0.0007040679311373387	-0.0010958170038306945	-0.0008490360478450652	-0.0012350819628158234	-0.0009892170062433371	-0.0006713555152526667	-0.0012508486974373138	-0.001028180267094429	-0.0009644608006337871	-0.0005089960971952107	-0.0014663530346014134	-0.0007099212973712013	-0.001143794632105791	-0.0008453577039150119	-0.0013075887843421975	-0.0009266498977196043	-0.0010121683841979713	0.0010408420036485747	-0.0016298277494817288	-0.0012376047710077665	-0.001028568612513479	-0.000769566246235049	-0.0007540547906907953	-0.0009129826050366786	-0.0005735374735760401	-0.0011083960000186639	-0.0010367555591223878	-0.0010541883274769672	-0.0011271665283597166	-0.0010650970131180712	-0.0008740661732481233	-0.0005528892140159963	-0.000777817887366742	-0.00037915556346308126	-0.0015859684405512484	-0.0003530864423092542	-0.000798326901268642	-0.0005198707711962288	-0.001084533188239162	-0.0008894423626954646	-0.0011792733314762499	-0.0006499057945057145	-0.0010975262989237583	-0.0012542718697981501	-0.0006731245298861963	-0.0007035685034989562	-0.0004600129147297831	-0.000528994758495935	-0.00040463307435289727	-0.0006903860183277587	-0.0008080446373912954	-0.0006332167675090804	-0.0017533366946504425	-0.0013054435148254304	-0.0009958829902548172	-0.000725401393047755	-0.0007700749513090244	-0.0006515666895127586	-0.0007015375972509827	-0.0005078313209772094	-0.001049854322623769	-0.00040263354194723807	-0.0010674048950216702	-0.0006199955388111345	-0.0005867272197776015	-0.000587105549222907	-0.0007565413857505968	-0.0005309005853795898	-0.0006559084400406061	-0.00041138006366229737	-0.0006190336835601563	-0.0004270097781633826	-0.00047786393745797044	-0.0004927084521123969	-0.0004799815151200022	-0.0005305588443772146	-0.006323256856106248	0.012322053449945407	-0.0007642750109665849	-0.00016782893727627403	-0.0004591307534680166	-0.0005173167939734469	-0.0006300817292803289	-0.0005253456237293005	-0.001624600711833476	-0.0007731639923130838	-0.0006812866153409	-0.0003865198931719187	-0.0006561576920920209	-0.0002886900564661891	-0.0006812379516623208	-0.0004110524743505421	-0.00039165413293905296	0.00014883739932838175	-0.0006300283588185911	-0.000489537276528696	-0.0005370432904299577	-0.00025322670309920045	-0.0003689756591072522	-0.0006828440617553445	-0.0004604748098306381	-0.0005128952519421324	-0.00031278301876236044	-0.00048680690223079637	-0.0002691456670785384	-0.0003272966839815793	-0.00018053584582243824	-0.0003315311739857472	-0.0007351799923311167	-0.00046553498920149684	-0.0004982420370481798	-0.00025518041554269187	-0.0008218718893212922	-0.0001894530484926125	-0.0004021043289367933	-0.00030816745720957893	-0.0006472630857516335	-0.0003545134897004461	-0.00027264562460836196	-8.552504991647843e-05	-0.0006954730778991908	-0.0006709795501581037	-0.000677034209519577	-0.0005433944021180048	-0.00046564713837676504	-0.0004239671217130676	-0.000165529414438249	-0.0005593464492642908	-0.0003733229459387321	-0.00030939416377261174	-0.0006011843395638776	-0.00019544515805953143	-0.00036232996651155676	-6.289204962613907e-05	-0.00047751844609513654	-0.0001738846903473713	-0.0033423787813368615	0.0022787305053918565	-0.0007313280837461097	-0.00010809034758709857	-0.00035514088877245764	-0.0001886057745704206	-0.0003503682739589938	-0.00045210466827911975	-0.0006728762628554696	-0.00047171685860488604	-0.0003371389949262091	-0.00025840349243292206	-0.0001565173860237747	-0.00018574404396476678	-0.0003634099501042405	-0.00030456251134104966	-0.000406951176415172	-0.00030118869030450527	-0.002078273583443783	-0.00017808650141468044	-0.000986907210040555	-0.0001586977107692544	-0.00033701256307390546	-0.00017406451376021518	-0.00043919864876853186	-0.00011396553886188399	-0.0004142844330940292	-0.0002705983521376045	-0.0006603621875674895	-0.0002745941577079464	-0.00022482985443688654	-0.0003127690269744367	-0.00024486566983058296	-0.00022524833050790376	-0.00038607847969186754	-0.0001785503761177141	-0.00025085145960345085	-0.0003614651835025062	-0.0002801635486330724	-0.00014249635361168874	-0.00035958320316500523	-0.00023004376086803273	0.00011162344544105723	0.004287408403798211	-3.736390511050597e-05	0.00019045240322173337	-0.00027441611497800865	-0.00012664143162126437	-0.00015265715831109584	-9.79037764325819e-05	-0.0014391457702214753	-0.00023634170901413022	-0.0004824092218508985	-0.0002932125741561847	-0.0004425737385909791	-9.642579102505744e-05	-0.0002871005080997889	-8.849991827069236e-05	5.4653759068558e-05	-7.580296652708886e-05	-0.0003968226946947538	-0.0002967573689753978	-0.0004706315359826656	-0.00017622086738494581	-0.00022602163417403801	-0.00029428392617237507	-0.0002343890652240769	-0.00013805110290436687	-0.00020869450120717878	-0.0002632442776463799	-0.00023372893167215348	-9.602504113445556e-05	-0.00010219812553237287	-7.085415746731097e-05	-0.0001574739701933345	-0.00017924695851838439	-0.00018143675362775893	-0.00015725802313879602	-0.00030005859505929044	-0.00028089979745399784	-0.0002807745277970806	-9.308098427080928e-05	-0.0002505601739108027	-0.00014589910338526964	4.0793153230044444e-05	-3.941941652495142e-05	-0.00038876181234603815	-7.684942728741512e-05	-0.00023776908984706824	-0.00012530695789254008	-1.2371704577952359e-05	-0.0001263341988457286	-9.266591666136126e-05	-0.00024024957791487573	-5.092260302655134e-05	-0.00011557879034000131	-0.00031283255812229423	-9.376599379531882e-05	-5.201667289903402e-05	-2.5358965635906207e-05	-0.00036706978336165753	6.866922106830845e-05	-0.0014307865775450047	0.0010076854053805103	-0.00043607639821828005	0.0001626246106206222	-0.0001437922753373448	-0.00014520367115966216	-9.121057312920875e-05	-5.93546502831038e-05	-0.0003310755893457582	-5.790488161743163e-06	-7.953387130809571e-05	-6.539531431478979e-05	4.8004916303017386e-05	-2.7464933742131893e-05	-8.78175870529761e-05	-2.928604907367544e-05	-7.024580284765987e-05	-1.98263955148277e-05	-0.0008197890141053032	-0.0002907556865837438	-0.00023931522916937644	-0.00016320754795059696	-3.726953928765338e-05	-8.823333938263306e-05	-9.452995142984134e-05	-2.692027980682668e-05	-3.3442853447113256e-05	-0.00010940636331315082	-3.70214747884835e-05	-5.579104846600953e-05	-1.2110227618723209e-05	-3.390344499495022e-05	-2.6846056226230242e-05	-2.8083949958368982e-05	-4.479233447366237e-05	-1.684020725194433e-06	-2.825137008578399e-06	-1.8122234097308785e-05	-1.0280478524846809e-05	-7.538462082962345e-06	0.0	0.0	0.0	0.0	0.0	0.0	0.0	0.0	0.0	0.0	0.0	0.0	0.0	0.0	0.0	0.0	0.0	0.0	0.0	0.0	0.0	0.0	0.0	0.0	0.0	0.0	0.0	0.0	0.0	0.0	0.0	0.0	0.0	0.0	0.0	0.0	0.0	0.0	0.0	0.0	0.0	0.0	0.0	0.0	0.0	0.0	0.0	-6.943206613685728e-07	0.0	0.0	0.0	0.0	0.0	0.0	0.0	0.0	0.0	0.0	0.0	-8.492630437181891e-06	0.0	0.0	0.0	0.0	0.0	0.0	0.0	0.0	0.0	0.0	0.0	0.0	0.0	0.0	500.0	P1
P1_SQ2_2000	0.0	0.1852136137567349	0.006398989468838236	0.0006251884912183226	0.0001033310483425811	0.0	-8.700200354891121e-06	0.00016883503664502243	0.0	-5.963244714144532e-07	-3.973953851929723e-05	-0.00014333613166036556	0.04054507302764257	0.02898073231903349	0.05563136122300623	0.060270912240830726	0.003644723449766113	0.0029110803313010802	-0.004562955442457598	-0.020544032292575974	-3.489653761150932e-05	0.0001266072809732086	-1.157120923942145e-05	-0.044077006151428455	0.0034830416411995163	0.02678764515065382	0.16575602946688364	-1.0499734015118305	0.7759457098119182	-0.5544296348891297	0.016815180959854563	-0.07669757220332474	-0.0006261509112871193	-0.0010655047745291475	0.00016524795752866236	-0.00015426176288117326	0.008516597089172033	0.14707937484470657	0.2053003191748189	0.6421095893402613	0.006563173911919434	-1.2591851858051641	-0.13316320820417243	-0.9413400697375647	-0.028939661855630378	1.5095622702258593	0.07897783983049433	0.07739953871206934	0.0029995423301106697	0.04597138607523664	0.5254793250537239	0.8488159692409477	0.171955735952368	0.26724383521703843	-0.004740110052241786	-0.6913125032208564	-0.07178203018221119	-0.39570971116122033	-0.0444198682631481	-0.03650727884424196	0.0025966953840197687	0.016106614194988073	0.5080323172749943	0.95264374924995	0.14475651880146043	0.09378526640138551	0.06977210619578407	-0.08238770795686495	-0.019320917178699486	-0.15959898883781104	-0.021809683231535405	-0.045923145829613155	0.0639176708398952	-0.0007096687835425192	0.5636529205899755	0.49044003628141414	0.16770479284317058	0.19293442689831175	0.0436574955573579	-0.03023211153802427	-0.006244992394740474	-0.07967157418043283	-0.014044425087114036	-0.05899153185675846	-0.0010213850203785353	0.0726405265727529	0.39809001282852696	0.38241097738891106	0.1422393801696583	0.23570157641052455	0.07537627622610217	-0.04501449541800548	-0.006940306381640685	-0.01364797249252779	-0.008848489730092246	-0.03892551454986368	-0.002559047120653782	0.015994990654325275	0.36101388151428004	0.21430215721891493	0.05928694031688067	0.11118259717164729	0.08942455740462193	-0.008904467650704948	-0.024654430603612575	-0.0002664443683030593	0.003551271363781975	-0.009897566828128024	-0.0014783078665893973	0.05216092204377429	0.22227737792679844	0.17765536971971035	0.034579142134921546	0.0802558280779682	0.04966204982218546	0.12055903828651207	0.022083267575725	-0.012851240029263217	-0.006876665727784118	-0.019835778570852242	0.005627298655899806	-0.08015627704093048	0.1962531871888069	0.09096870650905331	0.02091819093794399	0.04968266913127829	0.11483276108630813	0.07559949050678662	0.047573934556620595	-0.015167748451215941	-0.004644878605450195	-0.01868580228623369	0.014381230051609625	0.033123082986441114	0.11888530749533556	0.06459620913187127	0.009264473407199731	0.05637382536583444	0.04093772961725892	0.16887185274176403	0.04023079813228363	0.015003207235305821	-0.0004002739903092925	-0.006211607529088389	0.0013198386705633915	-0.010389052760901248	0.0441660635571996	-0.010067010371787775	0.01284369284216761	0.043670660244475856	0.17204736630280157	0.13365990377745207	0.15759141138674782	0.037730924518969984	0.00531174849793405	-0.013499722574562712	0.0019153343204962123	0.007612614945776679	0.049644876143663946	0.017508350806120822	0.0029144916466260027	0.04255506684284009	0.07133711668311185	0.05359717353205992	0.07548464739053655	0.116646588348101	0.023800140556230975	0.005405196703220715	0.008993605670261013	0.0019426100385617432	0.03604404629565289	-0.0019314189305392124	-0.002285520247939308	0.008912492691745783	0.1073137214798034	0.06459988250385937	0.1361165529029541	0.04589383236365542	0.04094005243670966	0.007985087449237722	0.007568448862717412	-0.01769226311440676	0.025359947542720886	0.0009250491282394475	0.0012201252178868647	0.04114906242939301	0.06712764152106114	0.1758498858097016	0.06585801926982462	0.13460757283278424	0.03930824681976926	0.011016293704495545	0.00784331956838685	0.00262109826297929	0.012570784307863337	0.0007369455505264293	0.0006456231955768305	0.007532227001489207	0.08368153145833275	0.06734648707467494	0.16153934668898728	0.08631243427013377	0.11650128443986896	0.030077680317467635	0.007875038051689185	-0.0837999395580744	-0.0015068131739920214	-0.012702966092656918	0.0044467602510693035	0.029420438418813956	0.038840231953918364	0.1297618092093077	0.05568470238304821	0.13921053241240217	0.045955797429586	0.047808467147013686	0.016509812030388534	0.0028486465005698926	0.007041958074969233	0.0008693835967245617	0.003183145411625901	0.01369965518133594	0.07617185875102904	0.02497090692832067	0.16258600852554644	0.08068089697332895	0.1275841486867924	0.04367506466293094	0.030595377759478164	0.009263417586207584	0.005543616259092962	-0.011897345311551531	-0.0057462787835730516	0.026060873448630038	0.030677050094072834	0.09111910088772843	0.0620763268812577	0.13193123045687505	0.05909262465200739	0.09013572432219794	0.030001519225711697	0.0065985933527934505	0.007017724057175106	0.00120904736996634	0.006498379721157833	0.01017825185306178	0.04401002821555598	-0.023223299939589097	0.08203117783236138	0.03415256605288552	0.11507571820814684	0.046190314954963924	0.049652731028643426	0.019774540084962565	0.009068019778871072	0.0019188169060499489	0.00138914115918028	0.02489582820871164	0.023765964973825812	0.07883625798388846	0.04921343016272309	0.12342123173622183	0.0543269341240719	0.09387026948711749	0.02919688433506598	-0.04436198511445781	0.007464873290727141	-0.0010312203889493634	0.008199035034680537	0.00942365936163511	0.03388508219131727	0.02496451625344931	0.07868289100921046	0.04374193069458492	0.09915254649152555	0.04393088688688074	0.06622139125603804	0.0277134496173477	0.013525925624570116	0.007085740145607665	0.00661530770250232	0.017135765754298565	0.01501553092329034	0.04062125811112542	0.032826160850123146	0.09039043966847203	0.044866670748282995	0.0901789109984977	0.032513103908841684	0.03848029168562998	-0.011536370783481287	-0.01605778599698602	0.008859416500806645	0.004254219564062148	0.027999918786775567	0.022270811141657812	0.06512552751557724	0.03627113354707845	0.09049450109047186	0.03988391535904489	0.0708325129368546	0.032583532457271	0.024797081037306247	0.015312182852307914	0.008427486253682323	0.011478552430856284	0.008143144514340672	-0.0533342934634724	0.015497429504778058	0.050960461363767376	0.035699321779201446	0.07474747635855586	0.03368917579168636	0.04700074173932735	0.024703367548569142	0.007992403388864984	0.01101489345184421	0.005318399863778281	0.02183678901567129	0.013210270842385281	0.0468181221742768	0.02955047689191998	0.06914893348824774	0.030477490294034352	0.06199472356908647	-0.00011424494114170569	0.02559912897893688	0.009572529852995405	0.008509311359282458	0.010204742659640425	0.008938879790077403	0.024862597794297316	0.019246020997841836	0.03966723697862036	0.024314923086502703	0.06298249121658502	0.030000058644236917	0.046689196439505726	0.0278537511024845	0.01795897498861059	0.013184845130681374	0.006355294759525886	0.012551356644719982	0.0009547094518855739	0.02699997136512265	0.021865817585569467	0.045599809440890274	0.023894989472841792	0.04821948159833034	-0.09535602417716763	0.030193270721609367	0.010591203156468398	0.010571981576625662	0.010180633190773607	0.007498351034927006	0.016586413812918685	0.012490971007309148	0.02917044440741153	0.022439853830135876	0.044857778105095024	0.024611176047076216	0.0438770534273848	0.019308215395422348	0.02019447661602095	0.01291358281185508	0.009442040956004616	0.0096075222349697	-0.011773713851936886	0.01704900964023876	0.011493018216986955	0.034199476501427406	0.017062948278441355	0.040071844219906075	0.0213727273537688	0.03708875288326548	0.016860935652734395	0.013810921489278576	0.01211452595281163	0.006749969315203559	0.010365515472014813	0.010855424393405885	0.024291276536333804	0.014187546444670397	0.03685009672031387	0.019532672959896448	0.02852220576495718	0.01867079791011919	0.024393059467104912	0.012433915104861581	0.009231940651949046	0.012296668581036983	0.0005873833355532054	-0.01206717448759824	-0.003250790556211483	0.02313514582611924	0.01272636987986809	0.03129663873768897	0.016178248724452803	0.029432292462904498	0.017048264663544605	0.0150701027685301	0.009523319202909594	0.006124858169606024	0.006701196360659134	0.008360600284472415	0.019253180342321707	0.01225296783206956	0.022490358999955336	0.006204477784245991	-0.049701191190198474	0.01297535354944165	0.018538347520762992	0.013291254746570695	0.009611664961357163	0.009410763267432343	0.0064260490420174135	0.010097078325733717	0.0013496112437840543	0.016390596282352836	0.009734388899269461	0.022929946952544196	0.009105619055517671	0.027218848181044124	0.011766177498136726	0.0146175403483366	0.006987792750570552	0.00405304455875712	-0.0018899924085486308	0.004465474552563069	0.006994720739770354	0.006747636077150721	0.01646297224465877	0.011132744782545627	0.02232768273738727	0.010584427596158012	0.014179929842712134	0.010973584604244644	0.011769014894385255	0.008171689290953275	0.004535720460053048	0.007808280042709037	0.007071884602814582	0.010646845177492342	0.006755585203073904	0.014053869755764014	0.007961193783066207	0.017473979384796348	0.009687411115913258	0.01557551019588027	0.008595322485098447	-0.01156320835746825	-0.10110909380872603	0.0013195546679192899	0.002426790873445445	0.005636797111429885	0.011379057184790303	0.008028040405190607	0.014570656187494294	0.006261541617665054	0.00966890976318375	0.010893990380704674	0.012391091537009352	0.006972239454861599	0.002530514050969903	0.006347589408430677	0.005403734430998152	0.009113928687031383	0.004889034081127363	0.008446091524220949	0.003211629332131812	0.013726118320478962	0.006417207117898941	0.013051025505404799	0.007069194146560384	0.007528187728386192	0.005690298764191089	0.004866973102510646	0.006067004010386122	0.003660244276979691	0.008004388963335106	0.007421696290197937	0.009774348101126267	0.0058933101540792135	0.01289313281163456	0.006770889686425086	0.007754839494016372	0.004719784816246927	0.004071322472853656	0.005865981517830989	0.0028343072814600756	0.005743337910368484	0.0048918245080516246	0.008166420205572091	-0.004343120032090511	-0.0046852999186588525	0.0016376126373634364	0.007641690751633222	0.005678591111138451	0.007445076720433757	0.005475137836773107	0.0040681295175396285	0.004260631624813615	0.0032838081098125935	0.005271598690859114	0.002834943770033566	0.005770793267408121	0.005640698190798108	0.008070795076489494	0.007351552025810046	0.00558651274516719	-0.005080731167130622	-0.040116112791625684	0.002077429437704355	-0.00024164207556338826	0.0048263860883457545	0.0021107848361332313	0.004917091197312099	0.003688411636713787	0.00878294740385383	0.0011298656266315547	0.00733693440128045	0.00538481633336523	0.003962836980535905	0.005442645996483195	0.004202079500756243	0.0037498372163145403	0.002278910818558038	0.004268510608066493	-0.0014216508654756902	-0.00395282415714534	0.0038037470363405388	0.004280132405453522	0.003685436316581492	0.005799385776046328	0.0047763756353724875	0.005261741686369203	0.002568213018334455	0.0005526355502862754	0.0033679680502139036	0.0026413700187357353	0.0038539649820937554	0.0021836241753381827	0.006048930585876168	0.0043524434914339405	0.007232024090969742	0.0034559249783154182	0.004304690712859688	0.0023514773610298825	0.0029484943379699535	0.003965001043919121	0.0020235018363783126	0.0030969613072314816	-0.021343974393284927	-0.07326323713358826	0.0006994083293644041	0.000521406351186064	0.0034325749342167308	0.0039268164905694285	0.004748554031431831	0.005012428215064998	0.001084532051032616	-0.0005488000481204706	0.0022919729205206018	0.0017438748954024903	0.0017861698152409045	0.0015047289497598028	0.002114654603853827	0.0017952877987722133	0.002675977906773122	0.0023714875994079463	0.002034802722255569	0.0009511545090258797	0.0028706874735672226	0.0014908115961970681	0.001140224906251373	0.0019558148049205505	0.0020121393881216377	0.003587239353680166	0.0011815330631778406	0.002723090575771988	0.0017477288539295402	0.0036642475344653308	0.0019386293019354878	0.002151538509937633	0.002630691662679003	0.002379254834337197	0.0022345000865113874	0.001406581448996135	0.0012775434430122414	0.0019371748601779148	0.002093351199476876	0.0020661368081181406	0.003926914577407048	0.0014480626874636686	0.0027467943732107573	-0.006566899138164176	-0.006019059258493041	-0.0012568401169073574	0.0007248993669318874	0.0013435622250258556	0.0014203881266001315	0.001651078500426269	0.00218809021257639	0.0015142497912173404	0.0008461200201075069	0.002464931982787735	0.001236638942663829	0.002798739583292549	0.0017567852035114818	0.00217053698060018	0.0014770073327038413	0.0005146084154079023	-0.008690537894155194	-0.028003389400066695	2.458334958781996e-05	-0.0009413235291219429	0.001283360959437462	0.0016051425770600627	0.002809902666297025	0.001307890835523379	0.0011927141841681676	0.00026744707164523323	0.0008909325749811726	0.0016738753808233466	-0.00043141920652981294	0.0012924578606142278	0.0015259319051596574	0.0019758706417285533	0.0004794634976051273	0.001443118482044175	-0.0036897634225673474	-0.0019747960683314655	0.0002479915334100439	-0.0005607747782007911	0.0015596591373796076	0.0005323723181333622	0.0016581941650476112	0.001227888814510616	0.001044208661510196	7.693326377685274e-05	0.0016247777479184871	0.0006743099740040407	0.0011503748665148924	0.0010900380289370648	0.0014792043354850703	0.0009786779326073295	0.001312780335838824	0.001641782498876579	4.1769840206885714e-05	0.0006343177175244727	0.0006161822604235773	0.0006626262464240374	-0.0005453274197782123	0.0004844674808182363	-0.03348013119946679	-0.03806559591407967	-0.0013951207438585508	-0.000988388559255544	0.0005926858204793402	0.000737491079065602	0.0007882216745520938	0.0005455295707553771	-0.0008425440048471875	-0.0008467939285628629	0.0002846891263170977	0.0006816372452296154	0.0006735754778431618	0.0006854590684140479	0.0006825531237764626	0.0004091456375673447	0.0007882331468592252	0.0005493831866206314	-0.0018699624526920984	-0.0009282418827023875	-0.0006909661430923415	-4.747685959356914e-05	0.0002482457894272248	0.00023134865473106768	0.0005286581107655189	0.0004639699332722115	0.00046790845176446997	0.0011099559528882656	0.00010282576761332205	0.0006018842142846361	-0.0002922246467109953	0.00025568284989701054	-0.0001193370443880056	0.000518144038599297	-0.0002911217446256055	0.0008238702200656313	-0.0016188308393513195	-1.093384284607383e-05	2.572672921361094e-05	0.0004057515583231658	0.0004903780562659841	2.426555064820508e-05	-0.0004074740983430531	-0.0074506979076567744	-0.002784129737973444	-0.0003303755140929769	-0.0007750873612909716	0.0006078471915510716	0.0002850702337403796	0.001172798165700745	0.00039990692966255094	6.739606644112577e-05	-0.0001144281099523508	0.00011569644204437797	-0.0007360176988140464	-0.00018179233241733764	-0.0008500159219673425	0.00014148931386638607	7.701517055170985e-05	-0.00012478940410275748	-0.01537493895483434	-0.010413157655649909	-0.0019806513059973745	-0.0008712233046272533	-0.0003768990424377161	0.00036864205184426757	3.1131420765505876e-05	0.0007127528441076224	-0.00034040390253897886	-4.4392243528697944e-06	-4.28260285832454e-05	0.0005318122885655332	-0.0008840007102698326	3.634224824574034e-05	-0.0004628302926716469	0.0010033574229538589	-0.00013034563295724762	9.529617219623018e-05	-0.004927402895202498	-0.000900647269477381	-0.001571346864503896	-1.9765131753275537e-05	0.0005008956951735402	9.026553973896735e-05	7.717497105069065e-05	1.2776650023907897e-05	-0.0008515566326345043	0.000180372373912283	8.354631070394097e-05	0.0002853723897447056	0.00033651785440636114	0.0009692618686839373	0.0003123853582010002	-7.400104985799249e-05	-0.00030021816873377553	-0.00035563351092855527	-0.0004701583351127284	0.000668517468300035	0.0003642822112940909	0.0006913257018146981	-0.00011568029175885769	0.00028090848739175094	-0.04351762780396616	-0.01008225712191963	-0.0021301286219359526	-0.0008001425600165741	-0.00043922292814968164	0.0003202465007828896	0.00021523077560373137	0.0002795038735887766	-0.0017292968080400407	-0.00034260890995472366	-8.320576301040468e-05	0.0003757418948768704	-0.0011714121543066887	-2.146446541179093e-05	-0.0001058711251759821	-0.00018520077081041306	-0.000557011127386288	-1.8559771356887783e-05	-0.0015603041321941645	-0.00027901875642088157	-0.0005468879223564595	-0.00016664592934552327	-0.00011018383586326275	-3.40489318335609e-05	-0.0005490550131646802	0.0003633334615039093	0.0005229398789138055	-0.00012017848811573346	-0.0002064538051247549	0.00012061642262739015	-0.00048226690464803104	3.270671625884875e-05	-0.000716009310988266	0.00019406552832548372	-4.293553323132262e-06	-0.00018176363491705078	-0.0005180057435963614	0.00025998236527776145	-0.00034749300783911135	-8.07972828760729e-05	-0.0004780449439972846	0.0005162458056453272	-0.00023709059112008959	-0.005735410326343513	-0.0016218510022217834	-0.0004569208054855866	-0.00023909850064890784	0.0006894267209860206	-9.408223353619608e-05	0.00013390123192038482	0.00043051146318448796	-0.0001107915164294431	-6.724765910397229e-05	0.00042530709348294647	-0.0001029964758283941	0.00010788198673210108	0.00015918287866309433	-8.256321795112662e-05	0.00018470953547154853	-6.344310955684943e-05	-0.01195077059274544	-0.00334329103674028	-0.0012657680451184717	-0.00042873213129920624	-0.0002704747727380856	3.055537445209518e-05	0.00013904078065303183	0.0003534578670121737	-0.000504075099112805	-0.00024829535322211784	0.00016161430592498763	9.946551498944586e-05	6.028888784542492e-05	5.0204240518201366e-05	0.00018602474024856372	9.878503062012012e-05	0.00016000415806775197	2.105729063832078e-05	-0.0012543639476959782	-0.0016532855538957984	-8.125867965532856e-05	-0.0002994353738036904	7.990315779361808e-05	-1.874877452432585e-05	0.0006643142509178956	0.00042948337730260277	0.0003425816396942581	-0.00010121682723860856	-6.971562485694e-05	1.369368268715032e-05	9.006865360289313e-05	6.827543622666611e-05	8.623087501820494e-05	0.00018717186250768254	0.00018136152801520797	0.00010049486049642191	-2.825137008578399e-06	-1.8122234097308785e-05	-1.0280478524846809e-05	0.00010553846916147283	0.0	0.0	0.0	0.0	0.0	0.0	0.0	0.0	0.0	0.0	0.0	0.0	0.0	0.0	0.0	0.0	0.0	0.0	0.0	0.0	0.0	0.0	0.0	0.0	0.0	0.0	0.0	0.0	0.0	0.0	0.0	0.0	0.0	0.0	0.0	0.0	0.0	0.0	0.0	0.0	0.0	0.0	0.0	0.0	0.0	0.0	0.0	-6.943206613685728e-07	0.0	0.0	0.0	0.0	0.0	0.0	0.0	0.0	0.0	0.0	0.0	-8.492630437181891e-06	0.0	0.0	0.0	0.0	0.0	0.0	0.0	0.0	0.0	0.0	0.0	0.0	0.0	0.0	2000.0	P1
P1_SQ3_5000	0.0	-0.05598419380574403	-0.002063304426107882	-0.0001763882470206704	-9.745882901854073e-06	0.0	-8.700200354891121e-06	-0.00014956613724722586	0.0	-5.963244714144532e-07	-1.8909918678240046e-05	2.3303687714441293e-05	-0.012308171323564774	-0.010082301654387109	-0.0139783786677916	-0.012460828899672177	-0.0012383939709037376	-0.0008101345399918719	0.0008678295938018173	0.005592060958112353	-1.4066917770452135e-05	4.626218768036368e-05	1.9673220522164324e-05	-0.1182888417455932	-0.004206729345759135	-0.0084378150447705	-0.04208248583742048	0.28083245587451966	-0.17883139755264182	0.2070399560930103	-0.0019314989355675646	0.002409756191194129	0.00025374659824511144	-0.00022625972364425815	-4.603236679041585e-05	6.742263150676163e-05	-0.0025019680750689053	-0.0408275078437836	-0.05379507940073777	-0.19704238905622695	-0.00616440241645233	0.3692934278563229	0.054876066506202914	0.2897302405184232	0.00560102470027965	-0.38821740379031483	-0.023073391356855665	-0.022427407890710443	-0.0007217882562272808	-0.013627310282714062	-0.1437067845563341	-0.2442835857297495	-0.04761230238081879	-0.10392270742399479	0.009839301610558626	0.17893565405454903	0.02269807371579284	0.1122003370023103	0.006227679227096633	0.005525519098724556	-0.0009954348048963422	-0.00913573897345435	-0.13962151937894388	-0.27372320459608435	-0.04150791459616862	-0.058046186455467774	-0.02512591259551329	0.017734569425266022	0.005356609068583713	0.029157295561123453	0.005358756198537415	0.0052752595210743825	-0.01937245191000844	-0.01690080578974637	-0.15881228020395544	-0.146784236960599	-0.04873709923709421	-0.11671635000537639	-0.02729699395984006	-0.0091667434197856	-0.002310973705037994	0.010267808576710405	0.0005919149756875505	0.0026897884144500422	-0.0022526318812396695	-0.02616729770411632	-0.11137104165043044	-0.11043772123783235	-0.041462607130325055	-0.07316045165742363	-0.02315297743167693	-0.038243831580306226	-0.00787754394830225	-0.003963434407282702	-0.0006412960091405351	0.003178662310729781	-0.00018389911835984228	-0.00849431035096243	-0.10278139207996446	-0.06284642510875854	-0.01663633314945149	-0.041302517662116796	-0.029110364463378835	-0.012299356653970694	0.003440580718088157	-0.00828506084725078	-0.002740308337491948	-0.005308663755616755	-0.002493502672407385	-0.01854667041913993	-0.06505895313747469	-0.05140458148118029	-0.009935071158544672	-0.02726122408897546	-0.016354327343255932	-0.06947063707805212	-0.015551772948942846	-0.008149820726477734	-0.0006515768010056551	-0.0003030488360152156	-0.0022637512398974574	0.022491526273280882	-0.05664896060446475	-0.027019798799495637	-0.00708469927769937	-0.015387184370161852	-0.03351306108290324	-0.03194060799285762	-0.03962938211356319	-0.010122368072983237	-0.0027571604576680855	-0.00252772906489402	-0.006672044418785203	-0.015408320170119963	-0.03303374082214381	-0.017618002200098112	-0.0037718744323792866	-0.01675581010398999	-0.012000629108324657	-0.048049961313076685	-0.010728194035766744	-0.0146166689184975	-0.004811544009689535	-0.0017585911674545124	-0.0028576688021337768	-0.0010385639172174124	-0.013131342478317196	-0.004517613440007992	-0.00433324074248027	-0.014416688144633663	-0.04517717245018768	-0.04113401504691489	-0.051582941350231226	-0.01950599237135875	-0.0058451782521081914	-0.0058869044038633335	-0.0025608632290987556	-0.00451443283456238	-0.015161210372429842	-0.008329705027722486	-0.001271735392909189	-0.013972413838034641	-0.01854899431878524	-0.009087628724581853	-0.02242073331733873	-0.04260841182919725	-0.009532661295714909	-0.004272987927821489	-0.004958691095090832	-0.0035162293865781524	-0.011940298085251707	-0.0033672005370453083	-0.0008580477847327603	-0.003821389572784835	-0.028603851194499413	-0.016476659203072293	-0.036249795212786734	-0.01536933282613592	-0.01731133750438956	-0.006909718084430319	-0.0033711053528072688	0.006067614643907683	-0.007161705157803467	-0.003821446496786212	-0.001640318109925998	-0.012794060421956865	-0.018185834180118838	-0.04785198153620894	-0.016536262488442956	-0.03769082062077729	-0.012190536753946973	-0.007602458450778837	-0.004007805346353078	-0.00243621500116796	-0.0049745771086811595	-0.0026884410829813403	-0.001449998566026245	-0.00503440668847349	-0.021690644341163176	-0.015910919951198657	-0.04128998072940045	-0.022850943444047776	-0.031734937968984904	-0.011296455339941208	-0.0028989278168540765	0.024611481765719215	-0.0005291421735749528	0.0012924832821961905	-0.0015934592505754382	-0.009319162975671768	-0.011802483812357075	-0.034108428951124176	-0.01530074285727693	-0.03580135879046724	-0.011524820152615642	-0.015374001839082437	-0.005207055416631495	-0.0013140747321636129	-0.0026875137120463636	-0.002058869060729669	-0.0010458026293352508	-0.005651491324293123	-0.020420596662621558	-0.0029329582227708706	-0.038829879269966	-0.019882654356064365	-0.03277786896390109	-0.012794787478664735	-0.007311571924736876	-0.004107876236588354	-0.0019658991567783396	0.0012594285435121866	0.0011101654533795385	-0.00707446507084504	-0.008679727249342108	-0.02493376335221047	-0.016948994541266808	-0.03525145267418904	-0.01383406219540246	-0.022898048702298304	-0.00819136115492028	0.001047403605169677	-0.003679912737195025	-0.0005326398791939647	-0.0020809879850039207	-0.0035705452094578587	-0.013311409011953752	0.009768478859088617	-0.020179719759120716	-0.009193232942024163	-0.029449972082890748	-0.011404691964000353	-0.012555452445372428	-0.004370375727294532	-0.0023311664506191	-0.001035630552334398	-0.0009091285316546746	-0.0072065241568243675	-0.00691518474691098	-0.021088676732788705	-0.013912496090720603	-0.030865205806043513	-0.013749322529314278	-0.022985301349984562	-0.007680901218511183	0.016546061114689647	-0.0010304307416635992	6.216650866964352e-06	-0.002165819619292759	-0.0030018861412951254	-0.009597724007419333	-0.007143371847954242	-0.019890213427874434	-0.011957553261633036	-0.025621609734258734	-0.011004819907463046	-0.015953398180285114	-0.0061284868779814036	-0.003056629463070968	-0.0018722270961714152	-0.0017214165961414373	-0.00564556828403486	-0.004519446549500516	-0.00788030808910184	-0.00953940896504837	-0.021759121767275284	-0.011099903066075301	-0.02251040787004119	-0.007543015971739265	-0.009412140340196454	0.003921797686735597	0.0035581714918702274	-0.002415705183687826	-0.0019438716127033098	-0.0077110907793225165	-0.005950196191734307	-0.016643384384416014	-0.00937315333945669	-0.02166827353768567	-0.010083132965135654	-0.0172706877360801	-0.007239025864222504	-0.005889766054748401	-0.003222448368818502	-0.002095285027300483	-0.003770361180109808	-0.0025448227559682138	0.01738546005489036	-0.004745420999047909	-0.0129156563578132	-0.009194254547354586	-0.017724483443406762	-0.008400486090702987	-0.011486539088698589	-0.004977476234403108	-0.0023321387814857434	-0.0026254644213587566	-0.0017465822488285402	-0.006520467382190217	-0.004021462107457869	-0.012792471146645465	-0.0074660574916558895	-0.016276522345707062	-0.009063793441988715	-0.014225569809362165	0.004252481231706656	-0.0056209715928912975	-0.001129929042735978	-0.0021220503218588363	-0.003110953942217786	-0.002295234028366131	-0.007096560220854942	-0.004897824347262138	-0.010886907843214225	-0.006193424686147589	-0.014912289820909107	-0.00699310760792539	-0.011216069706315161	-0.00577413835221483	-0.004326051864496897	-0.00271003144099272	-0.0014827709673681916	-0.003895768107891487	0.0006381809580574497	-0.007863318625064699	-0.00523027611103498	-0.012051529185784778	-0.00709278832218079	-0.011693488032049242	0.03244499359596564	-0.006481939903313397	-0.0015682441669242434	-0.00253865724218582	-0.00236420508845507	-0.002214897356779217	-0.004865827164385395	-0.003420194383994001	-0.008235828405751228	-0.005381424834317207	-0.011739230815863765	-0.006094612733150789	-0.01005021800037582	-0.005233250328349389	-0.004773133993609343	-0.0031492749206077516	-0.0022173406961212214	-0.0025161344191973224	0.003667597889583929	-0.0042080999750936186	-0.0028272560811486063	-0.008831216511473651	-0.004863367770659646	-0.00989385881094567	-0.005018985197494308	-0.008351084532654814	-0.003652842845476803	-0.003004887659179721	-0.002747387933752509	-0.0018339566685860336	-0.0027745494102901563	-0.002714832312504459	-0.006775930216321653	-0.0037193932379521273	-0.008532239359792002	-0.003962248884319058	-0.005543854381479526	-0.004092050862199199	-0.004159539246433664	-0.0029964414981287412	-0.002624064795710906	-0.002609887473147779	0.0012206919455101557	0.003694138021083135	0.0003667197383654605	-0.0058972655876873385	-0.0030969840823570215	-0.007899030137736799	-0.003974455576327076	-0.006905553086532448	-0.0038497547790026774	-0.0032776172506608935	-0.002319372645835213	-0.0012596469326779458	-0.0012849838479900245	-0.002218744096390382	-0.004845046961366586	-0.0027088981739491003	-0.005991030356083029	-0.0018007714233084105	0.0175187961037174	-0.0030683043040177996	-0.004294450375883355	-0.003134722557067213	-0.002482548924543016	-0.002113468665215547	-0.0016102656381570184	-0.0031028354432666282	-0.0014525929035897923	-0.004562622421638509	-0.0027527935310496165	-0.005966726844048885	-0.002470262149082609	-0.006187900136952687	-0.003795192536873367	-0.003728252742836099	-0.002249258900431597	-0.0005243749880453428	0.003838465276161277	-0.0007182260565958489	-0.0011387739819125314	-0.0018779096372795476	-0.004353472034513746	-0.0028051854814302455	-0.005129853995672445	-0.002113809108065816	-0.0034946276265962507	-0.0027649572984542923	-0.0025543492350129328	-0.0021189093693225036	-0.001071929799610604	-0.002062789667278413	-0.001595179405452925	-0.0034102451269286778	-0.0023772512189058777	-0.0035109269524351344	-0.0018200278953513782	-0.004588153930728978	-0.0023770137362006814	-0.003486190651411624	-0.0026267516697184414	0.004703634826762067	0.036119204272295286	-0.0004384109361304112	-0.0004961201344915499	-0.001677795898726766	-0.003209263482206235	-0.0016867497125550382	-0.003994258241941179	-0.0022716540723745223	-0.0027905365933321574	-0.0022760209326768625	-0.002532048551151595	-0.001372034075950534	-0.0006634812916630601	-0.0018716757924514991	-0.0015120684657357272	-0.002266014126983425	-0.0013348084436536007	-0.0017630087018391518	-0.0007001127859027761	-0.0024409974876551926	-0.0018656775752444333	-0.002553752764225041	-0.002014619206984619	-0.0014352396755561928	-0.001060288379316369	-0.0011724326694801913	-0.0017461087420640139	-0.0009656055952004317	-0.0023665920990005385	-0.001487939771999447	-0.0026026606496588113	-0.0014942602784177063	-0.0032367328812986764	-0.0017951918054561092	-0.0019139322972585165	-0.0006316198985077499	-0.0004355804185375515	-0.0011807005908979875	-0.000641217936886681	-0.0018183133758186815	-0.0009125035185087557	-0.0019800297971449554	0.002224751961838826	0.0011371738602405333	-0.0010312261390394723	-0.001957002470942853	-0.0014484182300567843	-0.001601639890085453	-0.0013498975729697128	-0.0010338306304949196	-0.0013412935722458418	-0.0007378589220356966	-0.0014388909549707164	-0.0006718994904411036	-0.001046433594750608	-0.001371845418967021	-0.002045764328352983	-0.0014153180684627399	-0.0017592924682805493	0.0011220851576842945	0.013299762776825715	-0.0006390190878319381	-0.00022165869544396675	-0.0009585432587296916	-0.00035155174939030965	-0.0014214593658779216	-0.0009925218187408179	-0.002262183241335569	-0.0009816178921358215	-0.00213382638396494	-0.0014208655585235444	-0.001208966100379196	-0.0008704633783421828	-0.0007436786164238796	-0.0008774606900795047	-0.0008382093437752989	-0.0010015788245922226	0.0015310645632671451	0.003054963301427195	-0.0001641772762365195	-0.00037075633917373757	-0.0009329459988339174	-0.0014304313210038375	-0.0009640130920845131	-0.0012374098474942476	-0.0006633494031684371	-0.0002902512634173262	-0.0009707406549639946	-0.0005128103979950434	-0.0011632897059301395	-0.000787612262563486	-0.0015752235255589234	-0.0009339851889068002	-0.0016137503485546556	-0.0008440355926784551	-0.0006557040789843347	-0.0005094277972730447	-0.0006819344308731064	-0.0006831208735222371	-0.0008510632156252271	-0.0003785897214094781	0.006979433609822373	0.02475360083519254	-0.00012590372562486284	-0.00029671744198878254	-0.0008897240069633771	-0.0008492491218183276	-0.001002270278974422	-0.0011281783601583854	-0.0006724196783240875	3.5047635843351785e-05	-0.0006837768345286492	-0.00041797703733764116	-0.00036366762612023533	-0.0001987110754045193	-0.0008893666028828291	-0.0005927156557862139	-0.0011181095060869661	-0.0006771752443552204	0.00045370443644169884	8.048628724907463e-05	0.00042206258819815117	-0.0002973291229620232	-0.00034756924174473387	-0.0006999988456513611	-0.0002895618233796995	-0.0009373898000884534	-0.0004387427374809077	-0.00046545824416803776	-0.0006759933367645273	-0.0012369047248050077	-0.0007007660183800709	-0.0005592438452393783	-0.000513131913879169	-0.0005309982047324243	-0.00041982944819896084	-0.00022111061657221522	0.0005388229992189901	-3.835466688298199e-05	-0.00047167895306994513	-0.0006208999435666227	-0.0009087942150379181	-0.0005813560918783002	-0.0008732232195183902	0.0027427773517904267	0.0014989579342875453	-0.00015043101265349362	-0.0002837417936637906	-0.000623338696188322	-0.0002772340410523088	-0.0003872499243122833	-0.00046031378080119796	-0.0008246658529134617	-0.00020867646458162976	-0.0005837047759945796	-7.406092863109903e-05	-0.0002184765198080794	-0.000391663182407764	-0.0005447332840187904	-0.00010453091154912831	-0.00026193279563117714	0.0025250772584577575	0.010141944155934415	0.00030619390322418356	0.0004408917053037513	-0.0006612302253779106	-0.0002992571355114335	-0.0007759199288675991	-0.00034511089926178465	-0.0006001624217089154	-0.00038367405504539974	-0.0002665948536617593	-0.00016067177141274817	0.00038274592046611596	-0.00022947003519692508	-0.0002252584411371228	-0.0004984539238957332	-0.00048166027729249503	-0.0002753200901616823	0.0015668371073292182	0.002854862221653655	0.00047605810178391605	0.0004788243169885848	-0.0003596883396572259	-0.00013266431452691905	-0.0002581633501574415	-0.0003016098949665539	-0.00034242094541869295	0.0002155368585935217	-0.00036895006618531466	-0.00015287141883996202	-0.0002809053495310737	-0.00030555639929088336	-0.0002095018286672112	-0.0003246716821799959	-0.0002360667157486529	-0.00038320448132796994	0.00034547606967261224	-0.00023601661143779267	6.206893138996274e-06	-0.00019879432798039747	-0.0004396666656289231	-0.00024750334368380694	0.009153318840262402	0.01725571926876658	0.0006126505210894014	0.0006643340786267608	-0.00023153756022768431	-0.0002965314830486309	-5.834890935756923e-05	-6.894033313537516e-05	3.861947463086341e-05	3.917855282229788e-05	-0.0004428609786657242	-0.0003048018290737895	8.45393595201578e-05	-0.00014321620151255257	-0.0002056640534554622	-0.0004761148411951277	-0.00033505659500322987	-0.00037157388837829133	0.0011619787676423587	0.00048262306800697	0.00012011101475273116	-0.00015302340527430865	-1.0597498969514788e-05	-0.0001971225075704736	2.434542681417325e-05	-0.00016979447667422225	-0.00024922100812873487	-0.00032881021326208813	-0.00010990815879985492	-4.3833048219100545e-05	7.684032052930048e-05	-0.00024568401073094177	-0.00012227092599163608	2.8675013382517675e-05	-0.00020628591110853503	-4.799643199725461e-05	0.0005865421948504351	0.00012751851879821583	2.5811714231428057e-05	1.7469689279369033e-05	4.7055926108511116e-05	-0.00010662999327295218	0.00013415495773758004	0.002728110366531691	0.0009045500254918591	0.0003156954358474978	0.00012220459415522144	-4.6773654178101616e-05	5.449590013079835e-05	-8.889257297982366e-05	-0.00011190235161127177	-1.8870212429153302e-05	-2.658244710879035e-05	-7.779657000577607e-06	0.00036811788107570594	-9.991364716195324e-05	-0.00013280629257770692	9.392832544259937e-05	-8.064391438510413e-05	0.00024727249375242413	0.004788413810905234	0.00415327116961205	0.0003140776889718295	0.00044311100443859765	-0.00010457721766722237	-0.00027112607649531866	-0.0001860882523432453	-0.00022609009451070186	5.249969676436811e-05	0.0002026722999473212	-0.00010381210991068136	-0.00012729725718371742	0.0005415866379467895	-9.603593458519055e-05	7.581640938216839e-05	-0.00011848757630405289	-4.4011673586333896e-05	-7.876254935276609e-05	0.00289809807090634	0.0006473131984305975	0.0007338767780985366	0.00020367232144672038	9.920915074014026e-06	5.469959523349364e-06	7.266596625263863e-06	4.403504193008982e-05	0.0001141475004819341	7.924257162061606e-05	0.00012530645322204512	-6.573582606092044e-05	6.278016101505038e-05	-0.0002790542967704696	5.799789139779017e-05	-5.613425954780805e-05	-4.2804075515032506e-05	-2.9781310119455714e-05	0.00022473626386513928	-0.0001468281666604052	7.863893976558665e-05	-0.00020735180797974804	3.313966554731405e-05	0.00016489395168846842	0.015476058703030551	0.003724203682828265	0.0007673345857253586	0.0001732300611525892	5.775801702419974e-05	-1.122088990459201e-06	-0.00026980910619389296	2.9548412071545298e-05	-2.8384835177617824e-05	0.0001351646357497327	-1.0276415631906856e-05	-3.7876821431821056e-05	0.0004892180130290585	0.00022554262904465243	-5.377948065870815e-05	-5.574938424976982e-05	-0.0001746081670968828	4.24575038472496e-05	0.00033408798509838335	0.00029389076560575717	6.917666948752618e-05	0.00021576061940555523	3.5652813370772593e-05	5.672027907166759e-05	-3.42379959133249e-05	-0.00010385182111841867	-6.475876368291567e-05	0.00010300684596726428	-7.551469258055502e-05	-3.858299565017944e-05	0.0001262962529366905	-3.001278671558032e-06	-0.00014019515620805481	3.635862701109366e-05	-0.00010992865313745582	9.200672865479319e-05	0.000431424713624545	-1.079685825609595e-05	0.00015990626738089338	1.7409220048044424e-05	-7.779785146927779e-05	3.121157709608442e-05	-1.9933667300926295e-06	0.0021997940372104887	0.0006359682276910589	-2.540446224865258e-05	4.957909520175621e-05	-5.5995555212452004e-05	7.852072772478809e-05	-4.6125603837987204e-05	0.0001091388773712812	8.41305617046616e-05	4.286151564557327e-05	-3.295791646638506e-05	0.00022883496597051302	7.219052177566036e-05	1.637415006697999e-05	1.4158238622084395e-05	-5.4829413455600756e-05	8.982701738293277e-05	0.003916777698574977	0.0016022561078393133	0.0002833658951208822	0.00012639437155282274	6.429418129748224e-05	-7.954372075280936e-05	-3.355350843529966e-05	-7.653519109453887e-05	0.00017742224606371703	1.5124735389885095e-05	-1.097825770680986e-05	-5.22958395425451e-05	-4.981402164352608e-05	-3.906632462292954e-05	-6.988725627846285e-05	3.9268921469682477e-05	-9.590815630132478e-05	-1.7627132658934767e-05	0.0006459866563275167	0.0011810175753377975	0.00013302879397983835	0.00030029641658600183	-2.127203212275866e-05	-4.850674964145705e-05	-0.00010639464795209332	-4.216767179276545e-05	-1.599592906974289e-05	0.00011006245165866995	-1.7641575254297047e-05	-3.6894389034113304e-05	-1.2593467721013452e-05	1.768752342642757e-05	-2.6846056226230242e-05	-2.8567190060659227e-05	-4.479233447366237e-05	-1.2582070748013268e-05	-2.825137008578399e-06	-1.8122234097308785e-05	-1.0280478524846809e-05	-7.538462082962345e-06	0.0	0.0	0.0	0.0	0.0	0.0	0.0	0.0	0.0	0.0	0.0	0.0	0.0	0.0	0.0	0.0	0.0	0.0	0.0	0.0	0.0	0.0	0.0	0.0	0.0	0.0	0.0	0.0	0.0	0.0	0.0	0.0	0.0	0.0	0.0	0.0	0.0	0.0	0.0	0.0	0.0	0.0	0.0	0.0	0.0	0.0	0.0	9.72048925916002e-06	0.0	0.0	0.0	0.0	0.0	0.0	0.0	0.0	0.0	0.0	0.0	-8.492630437181891e-06	0.0	0.0	0.0	0.0	0.0	0.0	0.0	0.0	0.0	0.0	0.0	0.0	0.0	0.0	5000.0	P1
P1_SQ4_10000	0.0	-0.05589460990865676	-0.0019710509532969355	-0.0003667926909659818	-9.745882901854073e-06	0.0	-8.700200354891121e-06	-8.413566675638777e-05	0.0	-5.963244714144532e-07	1.2016331405313763e-05	2.0559672172274185e-05	-0.011815112852198465	-0.009736146554836681	-0.01662731546210102	-0.012349026844509475	-0.0011249901700715746	-0.0007149554448650708	0.0015312816483015555	0.005981974176998337	-9.01866846153459e-06	-3.0538535571061036e-05	-1.157120923942145e-05	-0.09408832552174241	-0.003980357295992656	-0.008311043995614616	-0.04556495908554031	0.15923370482239774	-0.23187575981702874	0.15917839046045845	-0.003457761259836281	0.04284853573903119	0.0012869889923444464	0.0003715513162583827	-1.196589729788233e-05	9.401513472077059e-05	-0.0024009151700063796	-0.03857831194292942	-0.044141096774150596	-0.08486230218737023	0.0042798286498194615	0.3992859828875319	0.039509349744478006	0.28252499778431006	0.008688403409977785	-0.40244632680359516	-0.019665958238982126	-0.021068326877095887	-0.0007974074056374923	-0.013308584492588545	-0.12291045427944691	-0.15068861725442428	-0.023487168413400122	-0.00845064865989087	0.00796893191856382	0.24191699552388624	0.019708897595623637	0.08223929109545075	0.014429141521647877	0.005779095584480455	-0.000910155470525165	0.0029137313873234816	-0.12206087902813322	-0.20459076295992268	-0.025710594486937438	0.02192855402070709	-0.0035799134806130672	0.04232391293727908	0.010754237982716304	0.06527720320323344	0.007294454801884807	0.01612118225337704	-0.01845197836955523	-0.014456744228855095	-0.14009625092865308	-0.11991921601954929	-0.034993459917959345	0.010220175741071369	0.007073764980073227	0.035482614105999316	0.0075389433222126725	0.03209688800280158	0.007884225528704082	0.015245390416223636	0.000901121660450345	-0.019274799246454116	-0.09877694837007708	-0.08146336108669602	-0.03372936958020161	-0.0456828910242012	-0.01313238471229404	0.05866469607162711	0.006308375023765529	0.009373709217424961	0.005203211994925291	0.019502255140967997	0.0022584940099894934	-0.0023556846828579545	-0.09365304928134703	-0.051257664297067865	-0.014448388617779152	-0.019525180288509213	-0.010723183448902635	0.016902454487231294	0.011641438381428726	0.0014195167334427328	-0.00035021244195410084	0.007221457442849168	0.0010867980326474333	-0.010995245109060497	-0.058494907227124485	-0.04174558360238508	-0.00739375248972747	-0.015767827508500643	-0.010010828771956321	0.010678342240112992	0.00431890849054381	0.006937799434591434	0.0027563329484078837	0.006711392553275221	-0.0005762671532519546	0.025247759114307156	-0.0527097837275778	-0.022916899850075546	-0.005569185945336258	-0.011011217747149239	-0.022763122417271756	-0.00510373523299866	0.0150445530285441	0.017494553303777985	0.005097619366058244	0.008982433117554096	-0.0016620758896339627	-0.010861960701932162	-0.03152280503518832	-0.01593178106776109	-0.0022333104053278603	-0.012072850309106105	-0.008106217010370632	-0.03063820675317465	-0.006430810609948687	0.007009213893226021	0.0039416467951344375	0.003237849895278519	0.001785442187295679	0.0046944651657946646	-0.01293378663996704	0.006044514734427686	-0.0030770778400096965	-0.00970265795159659	-0.03704948306725864	-0.02971697762316653	-0.02206151513641029	0.0021465753937336754	0.0020751551024345803	0.005675818940526822	0.0014921159150813254	-6.079541435446284e-05	-0.012471085103915446	-0.00496226580454957	0.0001983359083038861	-0.009442321582218707	-0.016321860918542853	-0.0031352884517953095	-0.016805775441594995	-0.013393775100474223	-0.002550683763940454	0.0005816163405758558	-0.001704319871669682	0.0005356659530384063	-0.010014290013295403	0.003228479838618077	0.0011850294010445819	-0.0008313746960875619	-0.025217752842973642	-0.014605038820841305	-0.027832435211481307	-0.009657255262669816	-0.003602124281822057	-0.00013843662280214192	-0.0009327339077436769	0.004258844694631336	-0.005793821594353521	0.0008229919080965827	0.00041301135339330206	-0.010342678317413864	-0.016286503211379852	-0.04281758626250898	-0.016344211142270068	-0.023522073529016932	-0.006571742479169342	-0.0008716039284906787	-0.001701651542667196	0.00016783480167982708	-0.0034034362232697674	0.0008884830907880427	-5.6795451749499896e-05	-0.002155623258903918	-0.020020449985779433	-0.01553140655333492	-0.03832063219736924	-0.019517297118093843	-0.021213783989329583	-0.004807043736547854	-0.0013568220511734966	0.01883820435815628	0.0009828564978752521	0.004828768978101628	-0.000869317970780087	-0.007837282515737334	-0.010093418934779072	-0.03112425328858122	-0.013512310284441133	-0.029582087682280562	-0.0077976780998861	-0.008766054238645588	-0.0030333428947791254	-0.0003200857791253748	-0.0019513927242584437	-5.7972536154212925e-05	-0.0007383839787127424	-0.003911631665209624	-0.019652094167382072	-0.004749746698709867	-0.03832604813882681	-0.018994460846522603	-0.029263143627528795	-0.009112562629448354	-0.0052690427024329346	-0.001704954674725749	-0.0008364799269180894	0.005016051412101454	0.0020283259297555097	-0.004793703235694518	-0.007913062452329325	-0.023354917836666753	-0.015864893723160522	-0.03311043637504856	-0.012884002379882336	-0.019665855980055713	-0.006249494624216678	-0.0005827888182620942	0.0017321984845533513	-3.7808824599975394e-05	-0.0012813690747966841	-0.002515345040538154	-0.012249706752917134	0.0019285251709280499	-0.019700522126550497	-0.005137061353361491	-0.0283497726300758	-0.009154143532424667	-0.01135528761749599	-0.003452223900445821	-0.0017162227586893092	0.0009232438979599796	0.0008308039163715721	-0.0048049245757528156	-0.006047219364617824	-0.02098927610532104	-0.013303929762893386	-0.030308329200974257	-0.01288451969974867	-0.020809104860237772	-0.006880052545212055	0.015961607139929973	-0.0021074732319796043	0.0008853001398824202	-0.001786711142665624	-0.0020379366939483473	-0.008916859593343558	-0.006319655620928026	-0.019601585835526177	-0.009392075547650704	-0.024383216537954583	-0.009204975761248117	-0.01546229703212051	-0.0052653152279679705	-0.0028311358835620684	-0.0013006705115526972	-0.0013474412378399708	-0.005160486099486193	-0.00435872609610041	-0.011277448907473158	-0.009414389086036624	-0.023122205717141964	-0.011182143859022789	-0.021897217203786973	-0.007212591777344698	-0.008140245141047171	0.0011914257629619326	0.007878666840837604	-0.001263087656629626	-0.00036058739264730084	-0.007304726684335084	-0.005793618311690434	-0.016561077247855646	-0.008482667256994099	-0.021312265693328034	-0.008642145723432918	-0.0165514898176929	-0.008042762210777845	-0.00563344117349214	-0.003378086825273275	-0.001440960077788653	-0.0030746562255755646	-0.0019161028184584957	0.013116417358448942	-0.00416591088790353	-0.013160936810374921	-0.008842633581484294	-0.017696959242410135	-0.007996943242424122	-0.010927668957382394	-0.00432868102860473	0.00030966941148737916	-0.002093840579046484	-0.0003949346091191913	-0.0064764784521311874	-0.0040641990928696565	-0.012703098866172075	-0.007441627205464366	-0.01655945738330907	-0.007928532838190377	-0.014085226872124306	0.0002245368707613632	-0.0059961120330099095	-0.0022612136589980486	-0.0016475188980919968	-0.0031959485645575414	-0.002375049298155635	-0.006600463348727254	-0.004713881343536584	-0.009906242372862762	-0.005352758436139175	-0.013532376220889089	-0.00673076740459763	-0.011958891752276267	-0.005709726686365451	-0.003839940252453743	-0.0026499663206981943	-0.001433811280940828	-0.0031369340292197053	-0.0015936032502056417	-0.007955978733271508	-0.00539817917816783	-0.011715656809153017	-0.0065431261009632185	-0.009638570346822943	0.020067408482681265	-0.006444770182122065	-0.0005033396569887327	-0.0022856443487438553	-0.0022795415625105194	-0.0020079196746450373	-0.00439767456385883	-0.0033831226201751644	-0.0062564318703248675	-0.0051767324926680815	-0.011068809945266628	-0.006037667036147418	-0.010683388750350967	-0.005082451310674114	-0.005088690947831833	-0.0028942295464824855	-0.0016676646237254464	-0.0015350331275890495	0.004023023369864192	-0.004899836735817644	-0.0024763184278238023	-0.008676634116368289	-0.004128050271898528	-0.009670790947763276	-0.004306862361211422	-0.008099696024751553	-0.003287395614653845	-0.00267232494420635	-0.002668275845506659	-0.001762588122721858	-0.0026696301877169783	-0.0026071674000789557	-0.00650402620279663	-0.003549029695501346	-0.008394685263936937	-0.0042716446547708	-0.00689547545512012	-0.004209855261836162	-0.0050700371599610074	-0.0032014537190140605	-0.0020816192515358224	-0.002350510305100796	0.00011257964634991263	0.002597160993356648	0.0021388848088595737	-0.0054784890512723505	-0.003197936177134494	-0.007774428887081024	-0.003960095963239043	-0.0067925279482187175	-0.00394682265781212	-0.00241036761219564	-0.002299075809622835	-0.0015279125766697115	-0.0020974010833397106	-0.0020830956960307097	-0.0052342674497731214	-0.002744209710178072	-0.00557601619778412	-0.0009957675028542702	0.012711996807045212	-0.0031466686806038476	-0.0044496376987493425	-0.0028712351257469903	-0.0021666677820015457	-0.0024130492668250365	-0.0014538942154331972	-0.0029142683531863138	0.0013999623749174142	-0.004380562261129387	-0.002563647849404264	-0.0060132974285580605	-0.002849652936733328	-0.0063750252766858724	-0.0037599317832969995	-0.003135238549010398	-0.0017982562842352263	-0.0010137707263254006	-0.00015750012021426528	-0.0010969049529372566	-0.0018740628099258435	-0.0020150582166804983	-0.004395525434323283	-0.002655948346790815	-0.004670613279730314	-0.002028631699534856	-0.002300173690533822	-0.002227253902663075	-0.0019786368177506226	-0.0019422367805162746	-0.0013131182137035321	-0.00211123164253307	-0.0011104174709816728	-0.00322335498423789	-0.002196513786489375	-0.003973174281747413	-0.0021904185406485	-0.004886591290957585	-0.0027219916841688006	-0.003428187075356227	-0.0020182913289460472	0.005894584960093728	0.0226266468765475	-0.00044103048190180776	-0.001187469467337757	-0.0012117688881841662	-0.002737081309004886	-0.0017533944094372386	-0.004094917236426109	-0.0018077773746012576	-0.0010729935015643503	-0.00228018538045417	-0.002595557338228468	-0.001598534479413158	-0.0009910811344139877	-0.0014422848237515924	-0.001362486822905525	-0.002130988472470641	-0.0010171502250497454	-0.00214417060154898	-0.0012710952678843118	-0.002886624438495528	-0.0019084875741437251	-0.002920938609015987	-0.001725866325230762	-0.0011779510258742682	-0.0009519206066479599	-0.0011193609999612755	-0.0014468590311362646	-0.000937370624594195	-0.0019474375867155392	-0.001155759081526324	-0.002753846035720008	-0.0018956888520034203	-0.0030995112583764553	-0.0018001899486423394	-0.002020880081340428	-0.0006211550521219326	-0.0007620996643763313	-0.0013171380792992766	-0.0007759077694402803	-0.0014974837068158168	-0.0010292180216364226	-0.0018000808421968063	0.00023728287816382823	0.0009782815689994007	-6.424680293858238e-06	-0.001802083558037462	-0.0013510799681793217	-0.001597487108554995	-0.0014100282430639349	-0.0009195215402176614	-0.0012511954076213896	-0.0005286551126746021	-0.0014496607717537505	-0.0009048207805984624	-0.001927739183040805	-0.001391167777192528	-0.002686308027138502	-0.0013966610713874615	-0.0017516419507171807	0.0017260573220983736	0.0102340731834357	-0.0010465408068351533	-0.00016224117491133502	-0.001050554502721183	-0.0003064196303897669	-0.0014076233651786696	-0.0008469620821395661	-0.001645376442442472	0.0007518778535854087	-0.0020611709422572195	-0.0013096153271854845	-0.0009123226369006717	-0.0008308094385424325	-0.0008891352428275195	-0.0009503309711911202	-0.0008036576071582828	-0.0011129771001529647	0.0006378724081816346	-2.9347407131046638e-05	-0.000835753294190581	-0.0012252418328196988	-0.0009361540642396852	-0.0014059735619083218	-0.0010356117194520252	-0.0010406930673352581	-0.00042583956736109334	-0.00010900952216418491	-0.0005280434419116914	-0.0005214222515111662	-0.001005335547290864	-0.0007435578786036895	-0.0015456024859166514	-0.0008613234920418647	-0.001503859706394402	-0.0009730648829255832	-0.0010813067963259095	-0.0008208439812144798	-0.0006822021464389723	-0.0008990530995933508	-0.00042459861680343406	-0.0006945285055655892	0.006839351212300244	0.014165677966510803	-4.484664673111861e-05	-0.000499398109840796	-0.000656925817509263	-0.0009591569896115607	-0.0009340429200880814	-0.0010275500605092707	0.0005243521439984408	0.001116234026608865	-0.0005548468106804166	-0.00025189773928857096	-0.0004930562770576958	-0.0004909510542337972	-0.0009497002830302958	-0.0007372281915562218	-0.0011636040387950554	-0.0006198820261997268	-0.0004358208804743219	-0.0001585575577824111	-0.0005103434192908858	-0.0006311529794534158	-0.0003015543524880148	-0.0005267403808176048	-0.00013400764950324113	-0.0007668772937664521	-0.00035913898162499847	-0.0005847017911953119	-0.0004282783307075174	-0.000999603382824666	-0.0005993974502574327	-0.0006289266547452185	-0.00041143254463965953	-0.00037445388950467506	-0.0006027420396655554	-0.00029124101711200325	-0.0003312649086034936	-0.0005212326825157192	-0.0006872200684590179	-0.0005803599426043857	-0.0006697966474911092	-0.00037329748447040073	-0.000823506346843175	0.001359603626996218	0.0016646222157614722	0.0008638507887045619	7.882096753061146e-06	-8.087549864986055e-05	-5.4969370302919386e-05	-0.0003782519946518199	-0.0003702866398419462	-0.0005332815943341479	-0.0001269804769028068	-0.0007010453856258602	-0.00033452578474183685	-0.0005203728678165602	-0.0006635814917160103	-0.0005726975123446546	-0.00016319353714311022	-4.251426841876812e-05	0.003329155870619039	0.006966980119555866	-1.8510057629521175e-05	-0.00010942772801693151	-0.00020243526626119966	-0.00046636537240151484	-0.0006004744366715083	-0.00039576069775890913	-0.00016955473343071127	0.0007058669321411064	-4.214332794694577e-05	-0.00035270653244855567	-5.321710009093591e-06	-0.0001559962560100099	-0.0002763448123946704	-0.0004512537226616059	-0.00011621474771165031	-0.0003945727707663179	0.0012143380551037286	0.00021643867421427144	7.646763780012238e-05	-0.00022412262616275987	-5.189544319284911e-05	-0.00036153606905491194	-0.0003002958274650367	-0.00026776607200104446	-0.00011964453824199169	3.6306996673107165e-05	0.00011983681392972734	-5.843611601867842e-05	-0.00011515453999163747	-0.0005427355160502829	-0.0004179775730925046	-0.00034258169272589423	-0.0002183305560700588	-0.00041743719365785515	2.7853641449379282e-05	-0.0002786903793603999	-0.00023645213991973688	-0.00013731849360032553	0.00019776587956242607	-0.0002750998245767285	0.01720589728330299	-0.00016598355154697625	0.0007445511612521444	9.145333181129547e-05	-9.881096600857908e-05	-0.00018599388352060257	-0.0003682351806513103	1.4861835258197153e-05	0.0009269669115904542	0.0005128237032676042	-0.00029866154614363203	-4.929396220477956e-05	-0.00015100967685549734	-0.00018443065332502686	-0.00037898265777001915	-0.0004493292983142734	-8.649514129227369e-06	-0.0004163156242472867	0.0003519716778937528	2.0132180013077757e-05	0.0002201267689169173	-0.0002148332349469239	-0.0001539358067804233	-0.00045364986922386366	9.783529131998083e-05	-0.00011935082605340239	-0.00025346802480886337	-0.00031485805183906765	-0.00015761237811724792	-0.0002565958841090908	-2.5477453057749615e-05	-0.0002050138362906938	2.4781176466907688e-05	-0.00022817204888471465	0.00016727093444690653	-0.00025213121646042245	0.0002831938687674206	-0.00015734276677392396	-0.00020297519714110096	-0.00018342667274384022	6.047349723208506e-05	-0.00014034099426278774	-1.7185289850272763e-05	0.0018605062608498708	0.0007026232819248544	0.00017451017620608586	-5.78586069556184e-05	7.263037682117383e-06	-0.00012387914005021938	-0.00020886919264688844	-1.7681593598130796e-05	0.0001683578707184941	-1.1582482767770637e-05	-9.881037909242115e-05	-5.241186953507462e-05	-2.3470476597656784e-05	-5.331974674178323e-05	-0.00020427970474504035	-6.449663164486688e-05	-0.00015322085236787954	0.007343915306207455	-0.0006030244887902433	0.0004786475948307953	-0.00011913207964086149	-1.3398478949597399e-05	-0.00013333749776267253	-0.0001488805547460284	-0.00022243277276455943	0.0006665289049258105	0.00019088664205780073	-5.029820969746745e-05	-0.00011774933410598539	0.00013703093151926082	-0.0001359539133331233	-0.00016557758351511977	-0.00013303714672276384	-9.332700138370374e-06	-9.426704146802225e-05	0.001737562572538185	-0.00018423332846343528	0.000758544096142399	-0.00014106874885008703	-2.0207303310083922e-05	-7.06260710333622e-05	-0.00011239497030940133	-0.00015767014787847883	0.0002739168999775913	4.260441050792053e-05	0.00020858388521077624	-7.67214317043825e-05	-0.00015777500265013312	-0.0001230632889411442	1.744642926295142e-05	-1.8290125288671706e-05	8.330753122874515e-05	2.204918607232845e-05	0.0002757093997346708	-0.00015358621513667046	-7.731170833379943e-05	-0.00024293207187185977	0.00017787467361892254	0.00017388666354788336	0.012209074763862404	-0.001841264174249695	0.0006838504527880763	-0.0002765912568862156	-0.00013333860191388081	-0.00010992569833576733	7.482704806041933e-06	-0.00010660315409562865	0.001316915003050968	0.00010059763163799106	-6.386859226112666e-05	-2.9484853529969336e-05	0.0003873138819267927	-8.881362247102728e-06	-0.00025906560132228694	-0.00015350675262019357	-5.272244745994177e-05	-4.141327853046531e-05	0.0004702960529032567	0.00013717625500136868	-4.53546809221681e-05	6.159668911745063e-05	1.2682991756396704e-05	6.479176016380888e-05	0.0002762922688247369	-8.40911908825802e-05	-1.355471374574408e-05	2.365623942266788e-05	3.134196475186081e-05	-3.933724085240477e-05	5.8394344151034084e-05	3.082028342497303e-06	0.00010163625719583462	-0.00010484373943981355	-8.754678957422477e-05	4.927030067640643e-05	0.0002596186182557572	-0.00010024151352405595	-8.474716577844613e-05	-0.00010948694807498484	0.00016613831235872734	6.695757176027419e-05	8.697369374158757e-05	0.001372227928694931	0.0005566243364900198	-6.288094431804875e-05	-2.8110883826527725e-05	-1.8668341793114432e-05	6.60749268641481e-05	-4.3305646602272694e-05	3.3651393039095187e-07	0.00010019766627195677	-1.9229774331695824e-05	-1.2563175906028616e-05	0.00014157808302929834	-3.3877764188422856e-05	-0.0001856545257711322	1.907900268871771e-05	-6.337887117241362e-05	-7.674602292336073e-05	0.0040203401697758556	-0.0005693323518707757	0.0003861449315474461	-5.9550293322213426e-05	2.187864465515659e-05	-3.2636259070382176e-05	-7.080186628828788e-05	3.723422340037825e-06	0.000364461224807671	-2.5819832282885627e-05	-5.0948592491494005e-06	-6.724233387380639e-05	5.720578040318972e-06	-6.474393502661348e-05	-9.282435880146738e-05	-1.523113563620335e-05	-1.533135836771142e-05	-6.707811063308688e-05	0.0005288523928974789	-7.395182180619975e-05	8.75378650814474e-05	-9.60715606283637e-05	-6.86159126073069e-05	-2.4353070175782573e-06	-3.233835270259189e-05	-6.689362785297367e-05	-4.9347578263952944e-05	8.669140750567803e-05	-7.078421656791991e-07	-4.762737863267386e-05	-2.3008277641542044e-05	-2.754958225111924e-05	-2.6846056226230242e-05	-1.310413083121309e-05	-4.479233447366237e-05	4.66984201863655e-06	5.80081937474651e-06	-1.8122234097308785e-05	-1.0280478524846809e-05	-7.538462082962345e-06	0.0	0.0	0.0	0.0	0.0	0.0	0.0	0.0	0.0	0.0	0.0	0.0	0.0	0.0	0.0	0.0	0.0	0.0	0.0	0.0	0.0	0.0	0.0	0.0	0.0	0.0	0.0	0.0	0.0	0.0	0.0	0.0	0.0	0.0	0.0	0.0	0.0	0.0	0.0	0.0	0.0	0.0	0.0	0.0	0.0	0.0	0.0	-6.943206613685728e-07	0.0	0.0	0.0	0.0	0.0	0.0	0.0	0.0	0.0	0.0	0.0	-8.492630437181891e-06	0.0	0.0	0.0	0.0	0.0	0.0	0.0	0.0	0.0	0.0	0.0	0.0	0.0	0.0	10000.0	P1
